{"learner":{"attributes":{"scikit_learn":"{\"_estimator_type\": \"regressor\"}"},"feature_names":["Cause of death, by communicable diseases and maternal, prenatal and nutrition conditions, male (% of male population)","Cause of death, by communicable diseases and maternal, prenatal and nutrition conditions (% of total)","Cause of death, by non-communicable diseases, female (% of female population)","Cause of death, by communicable diseases and maternal, prenatal and nutrition conditions, female (% of female population)","1.F.01 Maternal disorders prevalence (age standardized) (per 100 000 population) female","1.G.03 Vitamin A deficiency prevalence (age standardized) (per 100 000 population) male","Literacy rate, youth total (% of people ages 15-24) female"],"feature_types":["float","float","float","float","float","float","float"],"gradient_booster":{"model":{"gbtree_model_param":{"num_parallel_tree":"1","num_trees":"100"},"iteration_indptr":[0,1,2,3,4,5,6,7,8,9,10,11,12,13,14,15,16,17,18,19,20,21,22,23,24,25,26,27,28,29,30,31,32,33,34,35,36,37,38,39,40,41,42,43,44,45,46,47,48,49,50,51,52,53,54,55,56,57,58,59,60,61,62,63,64,65,66,67,68,69,70,71,72,73,74,75,76,77,78,79,80,81,82,83,84,85,86,87,88,89,90,91,92,93,94,95,96,97,98,99,100],"tree_info":[0,0,0,0,0,0,0,0,0,0,0,0,0,0,0,0,0,0,0,0,0,0,0,0,0,0,0,0,0,0,0,0,0,0,0,0,0,0,0,0,0,0,0,0,0,0,0,0,0,0,0,0,0,0,0,0,0,0,0,0,0,0,0,0,0,0,0,0,0,0,0,0,0,0,0,0,0,0,0,0,0,0,0,0,0,0,0,0,0,0,0,0,0,0,0,0,0,0,0,0],"trees":[{"base_weights":[-5.662233E-1,2.9422153E1,-1.3711219E1,-1.5951683E1,3.9383426E2,1.6889943E2,-1.8700735E1,6.765637E-1,4.3919623E2,-1.1828883E0,1.9817955E2,1.2855083E2,-1.914809E1,4.8533516E0,2.056611E1,3.8350826E1,2.3353038E2,1.9546776E-1,6.930139E0,-4.9804943E1,-1.7399809E1,3.5850077E0,3.0413562E-1,1.3536331E1,5.756183E0,-2.212114E0,-9.3140626E-1,-7.0854205E-1,-1.7757331E0],"categories":[],"categories_nodes":[],"categories_segments":[],"categories_sizes":[],"default_left":[0,0,1,0,0,0,0,0,0,0,0,0,0,0,0,0,0,0,0,1,1,0,0,0,0,0,0,0,0],"id":0,"left_children":[1,-1,3,5,7,9,11,-1,13,-1,15,17,19,-1,-1,21,23,-1,-1,25,27,-1,-1,-1,-1,-1,-1,-1,-1],"loss_changes":[1.4789337E7,0E0,1.5028388E6,8.3197606E5,1.4767638E5,1.4305538E5,1.0838644E5,0E0,2.9315625E4,0E0,1.0969556E5,1.7843922E4,8.510256E4,0E0,0E0,6.27742E3,9.0893375E4,0E0,0E0,8.201875E2,4.161178E4,0E0,0E0,0E0,0E0,0E0,0E0,0E0,0E0],"parents":[2147483647,0,0,2,2,3,3,4,4,5,5,6,6,8,8,10,10,11,11,12,12,15,15,16,16,19,19,20,20],"right_children":[2,-1,4,6,8,10,12,-1,14,-1,16,18,20,-1,-1,22,24,-1,-1,26,28,-1,-1,-1,-1,-1,-1,-1,-1],"split_conditions":[7.403429E1,2.9422153E1,1.0999631E3,9.269E1,3.2881E1,5.212523E2,5.3839E1,6.765637E-1,1.1740607E3,-1.1828883E0,7.856844E1,1.0605072E4,2.207766E3,4.8533516E0,2.056611E1,3.421E1,8.83E1,1.9546776E-1,6.930139E0,9.981336E1,9.926991E1,3.5850077E0,3.0413562E-1,1.3536331E1,5.756183E0,-2.212114E0,-9.3140626E-1,-7.0854205E-1,-1.7757331E0],"split_indices":[6,0,4,6,0,4,2,0,4,0,6,5,5,0,0,0,6,0,0,6,6,0,0,0,0,0,0,0,0],"split_type":[0,0,0,0,0,0,0,0,0,0,0,0,0,0,0,0,0,0,0,0,0,0,0,0,0,0,0,0,0],"sum_hessian":[1.669E3,3.1E1,1.638E3,1.63E3,8E0,2.3E1,1.607E3,1E0,7E0,3E0,2E1,4E0,1.603E3,1E0,6E0,4E0,1.6E1,1E0,3E0,8.5E1,1.518E3,1E0,3E0,8E0,8E0,8.2E1,3E0,1.445E3,7.3E1],"tree_param":{"num_deleted":"0","num_feature":"7","num_nodes":"29","size_leaf_vector":"1"}},{"base_weights":[2.7553955E-1,5.9349036E2,-1.2812846E1,3.7212597E1,2.730064E1,-1.5970682E1,3.6343375E2,-7.4085677E-1,3.1821518E0,1.4359657E2,-1.8789434E1,1.6506866E2,4.9157397E2,-1.187823E0,1.643437E2,-4.1237617E1,-1.6562138E1,-4.3636537E0,1.0221728E1,4.747218E0,2.3214483E1,4.040558E1,1.7875278E2,-1.6509748E1,-4.5928345E1,2.2194582E1,-1.7591719E1,6.617686E-1,-9.4804174E-1,3.5066104E0,1.8497283E-2,1.1353949E1,5.561301E0,5.673401E-1,-1.3622246E0,-2.1899984E0,-1.7604018E0,-7.733549E-1,1.1921188E0,-8.0047065E-1,6.810661E-1],"categories":[],"categories_nodes":[],"categories_segments":[],"categories_sizes":[],"default_left":[0,0,1,0,0,0,0,0,0,0,0,1,0,0,0,0,0,0,0,0,0,0,0,0,0,0,1,0,0,0,0,0,0,0,0,0,0,0,0,0,0],"id":1,"left_children":[1,3,5,7,-1,9,11,-1,-1,13,15,17,19,-1,21,23,25,27,-1,-1,-1,29,31,33,35,37,39,-1,-1,-1,-1,-1,-1,-1,-1,-1,-1,-1,-1,-1,-1],"loss_changes":[1.330772E7,6.09142E5,1.99829E6,7.0070547E3,0E0,7.5113306E5,2.7471638E5,0E0,0E0,1.0720131E5,8.1115E4,8.243541E4,6.25445E4,0E0,3.9209125E4,1.6292469E4,5.9846094E4,1.3405072E3,0E0,0E0,0E0,6.3267188E3,6.2935438E4,1.1191951E4,8.790781E2,8.355285E3,3.4503844E4,0E0,0E0,0E0,0E0,0E0,0E0,0E0,0E0,0E0,0E0,0E0,0E0,0E0,0E0],"parents":[2147483647,0,0,1,1,2,2,3,3,5,5,6,6,9,9,10,10,11,11,12,12,14,14,15,15,16,16,17,17,21,21,22,22,23,23,24,24,25,25,26,26],"right_children":[2,4,6,8,-1,10,12,-1,-1,14,16,18,20,-1,22,24,26,28,-1,-1,-1,30,32,34,36,38,40,-1,-1,-1,-1,-1,-1,-1,-1,-1,-1,-1,-1,-1,-1],"split_conditions":[7.801632E1,4.5792E1,9.747144E2,2.0445E1,2.730064E1,9.411213E1,2.4826469E4,-7.4085677E-1,3.1821518E0,4.8559387E2,4.3108862E2,3.8641E1,8.40937E1,-1.187823E0,7.856844E1,8.5323E1,9.746597E1,3.2881E1,1.0221728E1,4.747218E0,2.3214483E1,3.421E1,8.553457E1,9.945978E1,1.8738329E3,6.2319062E3,5.9523203E3,6.617686E-1,-9.4804174E-1,3.5066104E0,1.8497283E-2,1.1353949E1,5.561301E0,5.673401E-1,-1.3622246E0,-2.1899984E0,-1.7604018E0,-7.733549E-1,1.1921188E0,-8.0047065E-1,6.810661E-1],"split_indices":[6,0,4,0,0,6,5,0,0,4,4,0,6,0,6,2,6,0,0,0,0,0,6,6,5,5,5,0,0,0,0,0,0,0,0,0,0,0,0,0,0],"split_type":[0,0,0,0,0,0,0,0,0,0,0,0,0,0,0,0,0,0,0,0,0,0,0,0,0,0,0,0,0,0,0,0,0,0,0,0,0,0,0,0,0],"sum_hessian":[1.712E3,3.6E1,1.676E3,2E0,3.4E1,1.663E3,1.3E1,1E0,1E0,2.8E1,1.635E3,6E0,7E0,3E0,2.5E1,1.46E2,1.489E3,2E0,4E0,1E0,6E0,3E0,2.2E1,2.4E1,1.22E2,3.8E1,1.451E3,1E0,1E0,1E0,2E0,7E0,1.5E1,8E0,1.6E1,6.6E1,5.6E1,4E0,3.4E1,1.421E3,3E1],"tree_param":{"num_deleted":"0","num_feature":"7","num_nodes":"41","size_leaf_vector":"1"}},{"base_weights":[-1.2648313E0,5.0912103E2,-1.26264515E1,-7.2465575E-1,5.241838E2,-1.5168893E1,3.3822327E2,4.4613815E2,2.7463854E1,1.557081E2,-1.7678646E1,-9.2731E-1,3.7282584E2,4.9149115E2,9.650031E1,-1.1488601E0,1.8295555E2,-4.554896E1,-1.6018127E1,6.0173044E0,4.0981522E2,4.3345814E0,5.0615494E2,-3.6437433E-2,1.292225E2,1.4807228E2,1.925742E1,-4.6317356E1,-2.3069105E1,-1.6960333E1,3.0332352E1,4.643406E0,1.9003284E1,2.6879887E1,1.5813176E1,8.032853E0,4.4465852E-1,9.557253E0,1.6483039E0,-1.0511844E0,-2.0600371E0,-1.1087672E0,-3.0484128E-1,1.595701E0,-7.694986E-1,5.697442E-1,3.4314027E0],"categories":[],"categories_nodes":[],"categories_segments":[],"categories_sizes":[],"default_left":[0,0,1,0,1,0,0,0,0,0,0,0,0,0,0,0,0,1,1,0,0,0,0,0,0,0,0,0,1,0,0,0,0,0,0,0,0,0,0,0,0,0,0,0,0,0,0],"id":2,"left_children":[1,3,5,-1,7,9,11,13,-1,15,17,-1,19,21,23,-1,25,27,29,-1,31,-1,33,-1,35,37,-1,39,41,43,45,-1,-1,-1,-1,-1,-1,-1,-1,-1,-1,-1,-1,-1,-1,-1,-1],"loss_changes":[9.852809E6,3.01663E5,1.4876591E6,0E0,1.1385E4,7.107991E5,1.5714938E5,3.331415E5,0E0,1.2380719E5,7.461284E4,0E0,3.9333125E4,7.06665E4,1.2847508E4,0E0,1.2332731E5,5.0339062E2,6.768153E4,0E0,2.1328375E4,0E0,9.1383E4,0E0,1.757841E4,1.4729462E5,0E0,3.8832812E2,7.0114746E0,5.1726312E4,2.479543E4,0E0,0E0,0E0,0E0,0E0,0E0,0E0,0E0,0E0,0E0,0E0,0E0,0E0,0E0,0E0,0E0],"parents":[2147483647,0,0,1,1,2,2,4,4,5,5,6,6,7,7,9,9,10,10,12,12,13,13,14,14,16,16,17,17,18,18,20,20,22,22,24,24,25,25,27,27,28,28,29,29,30,30],"right_children":[2,4,6,-1,8,10,12,14,-1,16,18,-1,20,22,24,-1,26,28,30,-1,32,-1,34,-1,36,38,-1,40,42,44,46,-1,-1,-1,-1,-1,-1,-1,-1,-1,-1,-1,-1,-1,-1,-1,-1],"split_conditions":[7.801632E1,2.0445E1,9.747144E2,-7.2465575E-1,1.1740607E3,9.269E1,1.3875912E4,7.403429E1,2.7463854E1,4.8559387E2,2.7092803E3,-9.2731E-1,9.919204E2,2.7020002E1,7.686258E1,-1.1488601E0,9.209389E1,9.981336E1,5.282688E2,6.0173044E0,8.40937E1,4.3345814E0,5.847755E1,-3.6437433E-2,7.733728E1,8.605159E1,1.925742E1,9.891217E1,6.144E0,9.607E1,1.2748762E4,4.643406E0,1.9003284E1,2.6879887E1,1.5813176E1,8.032853E0,4.4465852E-1,9.557253E0,1.6483039E0,-1.0511844E0,-2.0600371E0,-1.1087672E0,-3.0484128E-1,1.595701E0,-7.694986E-1,5.697442E-1,3.4314027E0],"split_indices":[6,0,4,0,4,6,5,6,0,4,5,0,4,6,6,0,6,6,4,0,6,0,6,0,6,6,0,6,0,6,5,0,0,0,0,0,0,0,0,0,0,0,0,0,0,0,0],"split_type":[0,0,0,0,0,0,0,0,0,0,0,0,0,0,0,0,0,0,0,0,0,0,0,0,0,0,0,0,0,0,0,0,0,0,0,0,0,0,0,0,0,0,0,0,0,0,0],"sum_hessian":[1.697E3,3.6E1,1.661E3,1E0,3.5E1,1.65E3,1.1E1,2.3E1,1.2E1,2.3E1,1.627E3,1E0,1E1,2E1,3E0,3E0,2E1,9E1,1.537E3,2E0,8E0,1E0,1.9E1,1E0,2E0,1.9E1,1E0,8.6E1,4E0,1.507E3,3E1,1E0,7E0,9E0,1E1,1E0,1E0,1.1E1,8E0,4E0,8.2E1,3E0,1E0,1.7E1,1.49E3,2.3E1,7E0],"tree_param":{"num_deleted":"0","num_feature":"7","num_nodes":"47","size_leaf_vector":"1"}},{"base_weights":[-6.59693E-1,5.610855E2,-1.1647798E1,6.616621E2,4.1286896E2,2.8196674E2,-1.445054E1,9.579462E0,3.0759611E1,2.7667618E0,4.3195883E2,1.15247505E2,3.9883197E2,1.5389902E2,-1.6375685E1,1.4142572E1,2.365942E1,2.6994833E1,6.130296E0,1.927282E1,7.3600273E0,5.931926E1,2.0412729E2,-4.333166E1,-1.4851435E1,1.6384056E-1,1.6071284E0,-7.0880896E-1,7.242388E1,-7.7723014E-1,2.2591539E2,-4.5034157E1,-2.554877E1,8.116331E0,-1.6557148E1,5.2143674E0,1.3059224E0,1.2463125E1,4.28902E0,-1.9889773E0,-8.1608015E-1,-1.3855671E0,6.480469E-1,1.9456775E-1,1.5245609E0,-6.727733E-1,-1.5676655E0],"categories":[],"categories_nodes":[],"categories_segments":[],"categories_sizes":[],"default_left":[0,0,0,0,0,0,0,0,0,0,1,0,1,0,0,0,0,0,0,0,0,0,0,1,0,0,0,0,0,0,0,1,0,1,1,0,0,0,0,0,0,0,0,0,0,0,0],"id":3,"left_children":[1,3,5,7,9,11,13,-1,-1,-1,15,17,19,21,23,-1,-1,25,-1,-1,-1,27,29,31,33,-1,-1,-1,35,-1,37,39,41,43,45,-1,-1,-1,-1,-1,-1,-1,-1,-1,-1,-1,-1],"loss_changes":[1.0617089E7,2.18754E5,1.3923505E6,1.77717E5,7.945775E4,2.657745E5,5.444111E5,0E0,0E0,0E0,2.631E3,1.380918E4,1.264025E4,7.815231E4,6.73155E4,0E0,0E0,5.42459E2,0E0,0E0,0E0,9.091633E3,6.2031688E4,1.5136719E3,6.1523812E4,0E0,0E0,0E0,1.0384207E4,0E0,5.5095375E4,7.3921875E1,2.9444453E3,1.0535636E4,3.2499469E4,0E0,0E0,0E0,0E0,0E0,0E0,0E0,0E0,0E0,0E0,0E0,0E0],"parents":[2147483647,0,0,1,1,2,2,3,3,4,4,5,5,6,6,10,10,11,11,12,12,13,13,14,14,17,17,21,21,22,22,23,23,24,24,28,28,30,30,31,31,32,32,33,33,34,34],"right_children":[2,4,6,8,10,12,14,-1,-1,-1,16,18,20,22,24,-1,-1,26,-1,-1,-1,28,30,32,34,-1,-1,-1,36,-1,38,40,42,44,46,-1,-1,-1,-1,-1,-1,-1,-1,-1,-1,-1,-1],"split_conditions":[7.403429E1,5.847755E1,5.3839E1,6.4107E1,4.5792E1,9.919204E2,9.037226E1,9.579462E0,3.0759611E1,2.7667618E0,1.3680479E3,1.0605072E4,8.323453E1,7.856844E1,2.207766E3,1.4142572E1,2.365942E1,4.512E1,6.130296E0,1.927282E1,7.3600273E0,2.0445E1,1.282E1,9.890874E1,9.8689995E1,1.6384056E-1,1.6071284E0,-7.0880896E-1,7.733728E1,-7.7723014E-1,8.605159E1,1.6231E1,1.3155302E3,4.9570682E2,9.92E1,5.2143674E0,1.3059224E0,1.2463125E1,4.28902E0,-1.9889773E0,-8.1608015E-1,-1.3855671E0,6.480469E-1,1.9456775E-1,1.5245609E0,-6.727733E-1,-1.5676655E0],"split_indices":[6,6,2,0,0,4,6,0,0,0,4,5,6,6,5,0,0,0,0,0,0,0,0,6,6,0,0,0,6,0,6,0,5,4,6,0,0,0,0,0,0,0,0,0,0,0,0],"split_type":[0,0,0,0,0,0,0,0,0,0,0,0,0,0,0,0,0,0,0,0,0,0,0,0,0,0,0,0,0,0,0,0,0,0,0,0,0,0,0,0,0,0,0,0,0,0,0],"sum_hessian":[1.718E3,3.2E1,1.686E3,1.7E1,1.5E1,1.5E1,1.671E3,2E0,1.5E1,1E0,1.4E1,7E0,8E0,1.8E1,1.653E3,9E0,5E0,2E0,5E0,6E0,2E0,7E0,1.1E1,8.7E1,1.566E3,1E0,1E0,1E0,6E0,1E0,1E1,7.8E1,9E0,1.08E2,1.458E3,2E0,4E0,6E0,4E0,7.6E1,2E0,8E0,1E0,9.6E1,1.2E1,1.376E3,8.2E1],"tree_param":{"num_deleted":"0","num_feature":"7","num_nodes":"47","size_leaf_vector":"1"}},{"base_weights":[-3.7142566E-1,5.174241E2,-1.1308343E1,-6.933087E-1,2.3336432E1,-1.4072732E1,3.3936307E2,1.203882E2,-1.5383961E1,5.2570473E1,3.8672803E2,-1.1046209E0,1.4299863E2,-3.636005E1,-1.3186464E1,1.9839412E-1,3.250439E0,7.9811864E0,4.405083E2,1.9659724E2,7.8225006E1,-1.3849465E1,-4.0615208E1,-1.4238288E1,2.495627E1,5.6968446E0,2.0390696E1,3.0407143E0,1.2006445E1,-2.6962404E0,5.9097853E0,-5.742964E-3,-1.2052556E0,-1.8245103E0,-1.0938156E0,7.853698E-1,-6.6877717E-1,1.7694769E0,-8.5680115E-1],"categories":[],"categories_nodes":[],"categories_segments":[],"categories_sizes":[],"default_left":[0,0,1,0,0,0,0,0,0,0,0,0,0,0,1,0,0,0,0,0,0,0,1,0,1,0,0,0,0,0,0,0,0,0,0,0,0,0,0],"id":4,"left_children":[1,3,5,-1,-1,7,9,11,13,15,17,-1,19,21,23,-1,-1,-1,25,27,29,31,33,35,37,-1,-1,-1,-1,-1,-1,-1,-1,-1,-1,-1,-1,-1,-1],"loss_changes":[9.582131E6,3.09909E5,1.6110586E6,0E0,0E0,2.9188034E5,1.5626062E5,5.630114E4,7.465516E4,2.7969756E3,4.0439875E4,0E0,3.322603E4,1.41885625E4,5.9611766E4,0E0,0E0,0E0,3.09475E3,5.0228062E4,7.1999305E4,4.885661E3,1.1736406E3,4.902253E4,2.8414785E4,0E0,0E0,0E0,0E0,0E0,0E0,0E0,0E0,0E0,0E0,0E0,0E0,0E0,0E0],"parents":[2147483647,0,0,1,1,2,2,5,5,6,6,7,7,8,8,9,9,10,10,12,12,13,13,14,14,18,18,19,19,20,20,21,21,22,22,23,23,24,24],"right_children":[2,4,6,-1,-1,8,10,12,14,16,18,-1,20,22,24,-1,-1,-1,26,28,30,32,34,36,38,-1,-1,-1,-1,-1,-1,-1,-1,-1,-1,-1,-1,-1,-1],"split_conditions":[7.801632E1,2.0445E1,9.747144E2,-6.933087E-1,2.3336432E1,9.065E1,3.9601E1,4.8559387E2,4.4776956E2,3.2881E1,9.17059E1,-1.1046209E0,8.40937E1,8.424E1,5.9523203E3,1.9839412E-1,3.250439E0,7.9811864E0,4.4799E1,7.873984E1,8.553457E1,9.945978E1,9.977E1,9.746597E1,7.5842E1,5.6968446E0,2.0390696E1,3.0407143E0,1.2006445E1,-2.6962404E0,5.9097853E0,-5.742964E-3,-1.2052556E0,-1.8245103E0,-1.0938156E0,7.853698E-1,-6.6877717E-1,1.7694769E0,-8.5680115E-1],"split_indices":[6,0,4,0,0,6,0,4,4,0,6,0,6,2,5,0,0,0,1,6,6,6,6,6,2,0,0,0,0,0,0,0,0,0,0,0,0,0,0],"split_type":[0,0,0,0,0,0,0,0,0,0,0,0,0,0,0,0,0,0,0,0,0,0,0,0,0,0,0,0,0,0,0,0,0,0,0,0,0,0,0],"sum_hessian":[1.69E3,3.4E1,1.656E3,1E0,3.3E1,1.644E3,1.2E1,1.5E1,1.629E3,2E0,1E1,2E0,1.3E1,1.53E2,1.476E3,1E0,1E0,3E0,7E0,6E0,7E0,2.5E1,1.28E2,1.437E3,3.9E1,1E0,6E0,3E0,3E0,2E0,5E0,1.3E1,1.2E1,1.18E2,1E1,4.5E1,1.392E3,2.9E1,1E1],"tree_param":{"num_deleted":"0","num_feature":"7","num_nodes":"39","size_leaf_vector":"1"}},{"base_weights":[4.2462575E-1,4.8499066E2,-1.0925824E1,2.3135632E1,5.093305E2,-1.2503409E1,1.388156E1,-6.7814744E-1,2.1959372E0,6.228516E2,4.2188773E2,9.643722E1,-1.4230264E1,8.200379E0,2.9731115E1,3.261546E2,2.504256E1,-1.2362678E0,1.1393191E2,-3.478207E1,-1.1989748E1,1.5290276E1,1.0018983E2,8.1518E1,2.4751848E2,-1.8620996E1,-3.9323826E1,-1.2669727E1,5.0765152E1,-6.5998954E-1,7.2328424E0,5.678166E0,8.8455945E-1,1.8814869E1,1.8907111E0,2.3617635E-2,-1.3255372E0,-1.7634664E0,-9.668187E-1,-5.0324214E-1,-1.5875374E0,1.237279E0,3.6523604E0],"categories":[],"categories_nodes":[],"categories_segments":[],"categories_sizes":[],"default_left":[0,0,1,0,0,0,0,0,0,0,1,0,0,0,0,0,0,0,0,0,1,0,0,0,0,0,1,1,0,0,0,0,0,0,0,0,0,0,0,0,0,0,0],"id":5,"left_children":[1,3,5,7,9,11,-1,-1,-1,13,15,17,19,-1,-1,21,-1,-1,23,25,27,-1,29,31,33,35,37,39,41,-1,-1,-1,-1,-1,-1,-1,-1,-1,-1,-1,-1,-1,-1],"loss_changes":[9.371871E6,4.26634E5,8.663604E5,3.916939E3,1.04511E5,3.1328278E5,0E0,0E0,0E0,2.19554E5,1.594895E5,5.99435E4,7.477716E4,0E0,0E0,5.50515E4,0E0,0E0,7.941425E4,1.1011703E4,6.3541688E4,0E0,2.503924E4,5.6595797E4,1.3067497E5,8.301732E3,1.2370781E3,3.968811E4,9.412547E3,0E0,0E0,0E0,0E0,0E0,0E0,0E0,0E0,0E0,0E0,0E0,0E0,0E0,0E0],"parents":[2147483647,0,0,1,1,2,2,3,3,4,4,5,5,9,9,10,10,11,11,12,12,15,15,18,18,19,19,20,20,22,22,23,23,24,24,25,25,26,26,27,27,28,28],"right_children":[2,4,6,8,10,12,-1,-1,-1,14,16,18,20,-1,-1,22,-1,-1,24,26,28,-1,30,32,34,36,38,40,42,-1,-1,-1,-1,-1,-1,-1,-1,-1,-1,-1,-1,-1,-1],"split_conditions":[7.801632E1,4.5792E1,9.919204E2,2.0445E1,5.325022E1,9.296355E1,1.388156E1,-6.7814744E-1,2.1959372E0,1.5536434E3,1.1740607E3,4.8559387E2,4.4776956E2,8.200379E0,2.9731115E1,7.403429E1,2.504256E1,-1.2362678E0,9.194237E1,8.6784E1,1.9386E1,1.5290276E1,7.686258E1,8.605159E1,9.269E1,1.188E1,9.977E1,9.912E1,3.5009E1,-6.5998954E-1,7.2328424E0,5.678166E0,8.8455945E-1,1.8814869E1,1.8907111E0,2.3617635E-2,-1.3255372E0,-1.7634664E0,-9.668187E-1,-5.0324214E-1,-1.5875374E0,1.237279E0,3.6523604E0],"split_indices":[6,0,4,0,6,6,0,0,0,4,4,4,4,0,0,6,0,0,6,2,1,0,6,6,6,3,6,6,1,0,0,0,0,0,0,0,0,0,0,0,0,0,0],"split_type":[0,0,0,0,0,0,0,0,0,0,0,0,0,0,0,0,0,0,0,0,0,0,0,0,0,0,0,0,0,0,0,0,0,0,0,0,0,0,0,0,0,0,0],"sum_hessian":[1.702E3,3.8E1,1.664E3,2E0,3.6E1,1.657E3,7E0,1E0,1E0,1.3E1,2.3E1,2.5E1,1.632E3,2E0,1.1E1,1.6E1,7E0,3E0,2.2E1,1.59E2,1.473E3,1.4E1,2E0,1.9E1,3E0,3.6E1,1.23E2,1.458E3,1.5E1,1E0,1E0,1E1,9E0,1E0,2E0,1.4E1,2.2E1,1.15E2,8E0,1.391E3,6.7E1,1E1,5E0],"tree_param":{"num_deleted":"0","num_feature":"7","num_nodes":"43","size_leaf_vector":"1"}},{"base_weights":[9.363604E-1,4.794507E2,-1.0408926E1,5.9517346E2,3.6297528E2,-1.3036389E1,3.810739E2,9.285378E0,2.8760504E1,2.4873177E2,2.3259237E1,1.0997789E2,-1.5639042E1,3.9028203E0,1.7552748E1,1.257033E1,7.050264E1,-1.1957158E0,1.24148575E2,-4.016985E1,-1.41523075E1,-6.455569E-1,1.0384373E2,2.4833134E1,1.3390262E2,-4.082383E1,-6.883959E-1,-1.4831808E1,2.685766E1,7.074675E0,-2.62112E-1,3.0017078E0,-5.530027E-1,9.19988E0,4.058964E0,-1.832557E0,-1.2349434E0,-6.093187E-1,-1.4033747E0,2.0156631E0,-2.884448E-1],"categories":[],"categories_nodes":[],"categories_segments":[],"categories_sizes":[],"default_left":[0,0,1,0,1,0,0,0,0,0,0,0,0,0,0,0,0,0,0,1,1,0,0,0,0,1,0,1,1,0,0,0,0,0,0,0,0,0,0,0,0],"id":6,"left_children":[1,3,5,7,9,11,13,-1,-1,15,-1,17,19,-1,-1,-1,21,-1,23,25,27,-1,29,31,33,35,-1,37,39,-1,-1,-1,-1,-1,-1,-1,-1,-1,-1,-1,-1],"loss_changes":[9.1418E6,3.09642E5,1.6970261E6,2.905645E5,2.9206375E5,5.251871E5,2.922625E4,0E0,0E0,8.3150625E4,0E0,6.955406E4,5.785772E4,0E0,0E0,0E0,1.2903801E4,0E0,2.6705344E4,8.113281E2,4.2532188E4,0E0,2.005299E4,7.433703E3,6.8446875E4,9.4375E0,0E0,2.2663312E4,1.6385871E4,0E0,0E0,0E0,0E0,0E0,0E0,0E0,0E0,0E0,0E0,0E0,0E0],"parents":[2147483647,0,0,1,1,2,2,3,3,4,4,5,5,6,6,9,9,11,11,12,12,16,16,18,18,19,19,20,20,22,22,23,23,24,24,25,25,27,27,28,28],"right_children":[2,4,6,8,10,12,14,-1,-1,16,-1,18,20,-1,-1,-1,22,-1,24,26,28,-1,30,32,34,36,-1,38,40,-1,-1,-1,-1,-1,-1,-1,-1,-1,-1,-1,-1],"split_conditions":[7.801632E1,5.847755E1,9.919204E2,1.5536434E3,1.1740607E3,9.411213E1,8.40937E1,9.285378E0,2.8760504E1,7.2771E1,2.3259237E1,4.8559387E2,2.207766E3,3.9028203E0,1.7552748E1,1.257033E1,7.686258E1,-1.1957158E0,7.856844E1,9.981336E1,5.915542E2,-6.455569E-1,7.733728E1,3.421E1,8.553457E1,9.439E0,-6.883959E-1,9.93E1,5.7147E1,7.074675E0,-2.62112E-1,3.0017078E0,-5.530027E-1,9.19988E0,4.058964E0,-1.832557E0,-1.2349434E0,-6.093187E-1,-1.4033747E0,2.0156631E0,-2.884448E-1],"split_indices":[6,6,4,4,4,6,6,0,0,6,0,4,5,0,0,0,6,0,6,6,4,0,6,0,6,0,0,6,2,0,0,0,0,0,0,0,0,0,0,0,0],"split_type":[0,0,0,0,0,0,0,0,0,0,0,0,0,0,0,0,0,0,0,0,0,0,0,0,0,0,0,0,0,0,0,0,0,0,0,0,0,0,0,0,0],"sum_hessian":[1.682E3,3.8E1,1.644E3,1.7E1,2.1E1,1.634E3,1E1,3E0,1.4E1,1.4E1,7E0,3.3E1,1.601E3,1E0,9E0,1.1E1,3E0,3E0,3E1,9E1,1.511E3,1E0,2E0,3E0,2.7E1,8.7E1,3E0,1.487E3,2.4E1,1E0,1E0,1E0,2E0,8E0,1.9E1,7.8E1,9E0,1.415E3,7.2E1,1.5E1,9E0],"tree_param":{"num_deleted":"0","num_feature":"7","num_nodes":"41","size_leaf_vector":"1"}},{"base_weights":[-1.7605125E0,4.722187E2,-1.0594905E1,4.9078164E0,4.931771E2,-1.2876631E1,3.6786206E2,6.0322327E2,3.660631E2,1.1194007E2,-1.5173016E1,1.9279985E1,5.0669533E1,8.251735E0,2.8716734E1,2.6049963E2,2.1806139E1,-1.2524056E0,1.3466846E2,-1.5754125E1,9.091889E1,-4.9334982E-1,3.8174736E0,2.894371E2,-6.314399E-1,1.1701702E2,1.259497E1,-3.794658E1,-1.4513347E1,-2.3854724E-3,1.02297386E2,1.8730286E0,1.3649126E1,6.5616655E0,-1.9697151E0,-1.6955768E0,-7.45389E-1,1.1523909E-1,-7.0550126E-1,7.994953E-3,5.1109476E0],"categories":[],"categories_nodes":[],"categories_segments":[],"categories_sizes":[],"default_left":[0,0,1,0,0,0,1,0,1,0,1,0,0,0,0,0,0,0,0,0,0,0,0,0,0,0,0,1,0,0,0,0,0,0,0,0,0,0,0,0,0],"id":7,"left_children":[1,3,5,-1,7,9,11,13,15,17,19,-1,21,-1,-1,23,-1,-1,25,27,29,-1,-1,31,-1,33,-1,35,37,-1,39,-1,-1,-1,-1,-1,-1,-1,-1,-1,-1],"loss_changes":[7.0941325E6,1.785575E5,1.4407956E6,0E0,1.84846E5,4.757797E5,2.0910138E5,1.85861E5,9.395125E4,9.970806E4,1.0161525E5,0E0,7.78944E3,0E0,0E0,9.1694625E4,0E0,0E0,3.6660844E4,4.3974812E4,9.321852E3,0E0,0E0,4.247475E4,0E0,1.4049919E5,0E0,7.9958594E2,4.256528E4,0E0,1.1874328E4,0E0,0E0,0E0,0E0,0E0,0E0,0E0,0E0,0E0,0E0],"parents":[2147483647,0,0,1,1,2,2,4,4,5,5,6,6,7,7,8,8,9,9,10,10,12,12,15,15,18,18,19,19,20,20,23,23,25,25,27,27,28,28,30,30],"right_children":[2,4,6,-1,8,10,12,14,16,18,20,-1,22,-1,-1,24,-1,-1,26,28,30,-1,-1,32,-1,34,-1,36,38,-1,40,-1,-1,-1,-1,-1,-1,-1,-1,-1,-1],"split_conditions":[7.694608E1,2.957762E1,1.045466E3,4.9078164E0,5.847755E1,9.411213E1,8.323453E1,1.5536434E3,1.3680479E3,5.212523E2,3.1309E1,1.9279985E1,3.2881E1,8.251735E0,2.8716734E1,7.403429E1,2.1806139E1,-1.2524056E0,9.367022E1,1.8753135E3,1.0605072E4,-4.9334982E-1,3.8174736E0,4.5792E1,-6.314399E-1,9.27E1,1.259497E1,9.978331E1,9.918334E1,-2.3854724E-3,9.577E1,1.8730286E0,1.3649126E1,6.5616655E0,-1.9697151E0,-1.6955768E0,-7.45389E-1,1.1523909E-1,-7.0550126E-1,7.994953E-3,5.1109476E0],"split_indices":[6,6,4,0,6,6,6,4,4,4,0,0,0,0,0,6,0,0,6,5,5,0,0,0,0,6,0,6,6,0,6,0,0,0,0,0,0,0,0,0,0],"split_type":[0,0,0,0,0,0,0,0,0,0,0,0,0,0,0,0,0,0,0,0,0,0,0,0,0,0,0,0,0,0,0,0,0,0,0,0,0,0,0,0,0],"sum_hessian":[1.692E3,3E1,1.662E3,2E0,2.8E1,1.653E3,9E0,1.3E1,1.5E1,2.9E1,1.624E3,7E0,2E0,2E0,1.1E1,1E1,5E0,4E0,2.5E1,1.616E3,8E0,1E0,1E0,9E0,1E0,2.4E1,1E0,8.4E1,1.532E3,1E0,7E0,1E0,8E0,2E1,4E0,8E1,4E0,1.32E2,1.4E3,1E0,6E0],"tree_param":{"num_deleted":"0","num_feature":"7","num_nodes":"41","size_leaf_vector":"1"}},{"base_weights":[-9.7678345E-1,4.240161E2,-9.334226E0,1.8320692E0,1.9009787E1,-1.1080488E1,2.1517401E2,9.601846E1,-1.3370551E1,9.70549E1,3.02554E2,-1.2085855E0,1.1286498E2,-3.66604E1,-1.2240828E1,-3.799711E1,6.9398146E0,3.733993E0,1.4193252E1,5.203757E0,1.3336893E2,-1.6345552E0,-1.4664464E1,7.6071305E0,-1.3249731E1,-4.8256132E-1,-2.0102007E0,2.7925756E0,-8.4392047E-1,9.57675E0,3.2877111E0,-7.275136E-1,-1.9145952E-1,-2.5639477E-1,6.095285E-1,2.8234005E0,-5.906024E-1],"categories":[],"categories_nodes":[],"categories_segments":[],"categories_sizes":[],"default_left":[0,0,1,0,0,0,0,0,0,1,0,0,0,1,0,0,0,0,0,0,0,0,1,0,0,0,0,0,0,0,0,0,0,0,0,0,0],"id":8,"left_children":[1,3,5,-1,-1,7,9,11,13,15,17,-1,19,21,23,25,-1,-1,-1,27,29,-1,31,33,35,-1,-1,-1,-1,-1,-1,-1,-1,-1,-1,-1,-1],"loss_changes":[6.077628E6,1.158695E5,6.602446E5,0E0,0E0,4.098925E5,1.04811875E5,7.602766E4,4.249097E4,6.428275E4,5.6891875E3,0E0,6.773781E4,6.278906E2,3.1299266E4,1.3717578E2,0E0,0E0,0E0,9.852996E3,1.1306094E5,0E0,8.231445E0,6.560985E3,3.0188203E4,0E0,0E0,0E0,0E0,0E0,0E0,0E0,0E0,0E0,0E0,0E0,0E0],"parents":[2147483647,0,0,1,1,2,2,5,5,6,6,7,7,8,8,9,9,10,10,12,12,13,13,14,14,15,15,19,19,20,20,22,22,23,23,24,24],"right_children":[2,4,6,-1,-1,8,10,12,14,16,18,-1,20,22,24,26,-1,-1,-1,28,30,-1,32,34,36,-1,-1,-1,-1,-1,-1,-1,-1,-1,-1,-1,-1],"split_conditions":[7.403429E1,4.5792E1,9.5474805E2,1.8320692E0,1.9009787E1,9.411213E1,2.092117E4,5.212523E2,1.8753135E3,3.5231E1,8.40937E1,-1.2085855E0,7.856844E1,9.981336E1,9.848539E1,3.2881E1,6.9398146E0,3.733993E0,1.4193252E1,3.421E1,8.605159E1,-1.6345552E0,6.144E0,9.663E1,5.3839E1,-4.8256132E-1,-2.0102007E0,2.7925756E0,-8.4392047E-1,9.57675E0,3.2877111E0,-7.275136E-1,-1.9145952E-1,-2.5639477E-1,6.095285E-1,2.8234005E0,-5.906024E-1],"split_indices":[6,0,4,0,0,6,5,4,5,0,6,0,6,6,6,0,0,0,0,0,6,0,0,6,2,0,0,0,0,0,0,0,0,0,0,0,0],"split_type":[0,0,0,0,0,0,0,0,0,0,0,0,0,0,0,0,0,0,0,0,0,0,0,0,0,0,0,0,0,0,0,0,0,0,0,0,0],"sum_hessian":[1.709E3,3.2E1,1.677E3,1E0,3.1E1,1.665E3,1.2E1,3.4E1,1.631E3,6E0,6E0,4E0,3E1,7.4E1,1.557E3,2E0,4E0,1E0,5E0,5E0,2.5E1,7.1E1,3E0,7.5E1,1.482E3,1E0,1E0,1E0,4E0,9E0,1.6E1,2E0,1E0,2.4E1,5.1E1,4E0,1.478E3],"tree_param":{"num_deleted":"0","num_feature":"7","num_nodes":"37","size_leaf_vector":"1"}},{"base_weights":[2.537019E-1,4.176272E2,-9.452814E0,1.5666667E1,4.3952316E2,-1.10599575E1,3.1858157E2,-7.642097E-1,1.7920057E0,5.336739E2,3.3751892E2,1.2059177E2,-1.3189723E1,-1.0202922E0,1.6215492E1,7.4568605E0,2.4961487E1,2.581418E2,1.959618E1,-7.3392005E0,1.4418555E2,1.1788236E2,-1.3838869E1,1.2139145E1,9.444171E1,-1.0757685E0,1.3490688E0,1.14785515E2,2.9212387E2,1.9565504E1,6.446411E0,9.857341E0,-1.531264E1,-5.991768E-1,6.7949305E0,6.1514444E0,-1.0423445E0,1.809928E1,1.0652137E0,-6.407541E-2,1.3476505E0,-2.0158303E0,5.6227213E-1,-1.4012164E0,-6.0113025E-1],"categories":[],"categories_nodes":[],"categories_segments":[],"categories_sizes":[],"default_left":[0,0,1,0,0,0,0,0,0,0,1,0,0,0,0,0,0,0,0,0,0,0,0,0,0,0,0,0,0,0,0,0,0,0,0,0,0,0,0,0,0,0,0,0,0],"id":9,"left_children":[1,3,5,7,9,11,13,-1,-1,15,17,19,21,-1,-1,-1,-1,23,-1,25,27,29,31,-1,33,-1,-1,35,37,39,-1,41,43,-1,-1,-1,-1,-1,-1,-1,-1,-1,-1,-1,-1],"loss_changes":[6.773574E6,3.27564E5,8.6496556E5,3.2319084E3,1.656105E5,4.5778078E5,1.5136769E5,0E0,0E0,1.314835E5,5.982025E4,7.953597E4,1.3793725E5,0E0,0E0,0E0,0E0,1.8278438E4,0E0,4.053622E3,6.2155E4,2.0327883E4,5.5852812E4,0E0,2.1892629E4,0E0,0E0,7.505628E4,8.768828E4,7.547855E2,0E0,1.6363149E4,3.8953312E4,0E0,0E0,0E0,0E0,0E0,0E0,0E0,0E0,0E0,0E0,0E0,0E0],"parents":[2147483647,0,0,1,1,2,2,3,3,4,4,5,5,6,6,9,9,10,10,11,11,12,12,17,17,19,19,20,20,21,21,22,22,24,24,27,27,28,28,29,29,31,31,32,32],"right_children":[2,4,6,8,10,12,14,-1,-1,16,18,20,22,-1,-1,-1,-1,24,-1,26,28,30,32,-1,34,-1,-1,36,38,40,-1,42,44,-1,-1,-1,-1,-1,-1,-1,-1,-1,-1,-1,-1],"split_conditions":[7.801632E1,4.5792E1,2.6485652E4,2.0445E1,5.847755E1,9.296355E1,3.14E0,-7.642097E-1,1.7920057E0,1.5536434E3,1.1740607E3,4.9705325E2,5.3839E1,-1.0202922E0,1.6215492E1,7.4568605E0,2.4961487E1,7.403429E1,1.959618E1,4.8559387E2,9.209389E1,1.0605072E4,9.846447E1,1.2139145E1,7.686258E1,-1.0757685E0,1.3490688E0,9.17059E1,9.269E1,4.512E1,6.446411E0,9.367022E1,4.061432E2,-5.991768E-1,6.7949305E0,6.1514444E0,-1.0423445E0,1.809928E1,1.0652137E0,-6.407541E-2,1.3476505E0,-2.0158303E0,5.6227213E-1,-1.4012164E0,-6.0113025E-1],"split_indices":[6,0,5,0,6,6,0,0,0,4,4,4,2,0,0,0,0,6,0,4,6,5,6,0,6,0,0,6,6,0,0,6,4,0,0,0,0,0,0,0,0,0,0,0,0],"split_type":[0,0,0,0,0,0,0,0,0,0,0,0,0,0,0,0,0,0,0,0,0,0,0,0,0,0,0,0,0,0,0,0,0,0,0,0,0,0,0,0,0,0,0,0,0],"sum_hessian":[1.67E3,3.7E1,1.633E3,2E0,3.5E1,1.626E3,7E0,1E0,1E0,1.6E1,1.9E1,2.5E1,1.601E3,1E0,6E0,2E0,1.4E1,1.3E1,6E0,4E0,2.1E1,7E0,1.594E3,1.1E1,2E0,3E0,1E0,1.9E1,2E0,2E0,5E0,9.3E1,1.501E3,1E0,1E0,1.6E1,3E0,1E0,1E0,1E0,1E0,4E0,8.9E1,1.27E2,1.374E3],"tree_param":{"num_deleted":"0","num_feature":"7","num_nodes":"45","size_leaf_vector":"1"}},{"base_weights":[5.933814E-1,4.1220883E2,-7.256611E0,5.11158E2,3.0685068E2,-9.186538E0,2.227852E2,6.726996E0,2.4243006E1,1.752818E0,3.2018576E2,1.0308374E2,-1.1449694E1,1.0402237E2,3.2668768E2,2.8100598E0,1.4527613E1,-8.261748E0,1.1872663E2,-3.4229687E1,-1.026961E1,-3.7153236E1,6.8784957E0,5.3497124E0,1.6793388E1,1.3195673E0,-1.1114534E0,1.6266216E2,7.286263E1,-3.486397E1,-2.767781E-1,-1.0996739E1,2.9751654E1,-4.8430446E-1,-1.9530963E0,2.459186E0,9.427062E0,2.7155645E-2,5.6411414E0,-9.331651E-1,-1.5611537E0,-4.424896E-1,-1.2997192E0,6.3745844E-1,2.8809352E0],"categories":[],"categories_nodes":[],"categories_segments":[],"categories_sizes":[],"default_left":[0,0,1,0,0,0,0,0,0,0,0,0,0,1,0,0,0,0,0,1,1,0,0,0,0,0,0,0,0,0,0,1,0,0,0,0,0,0,0,0,0,0,0,0,0],"id":10,"left_children":[1,3,5,7,9,11,13,-1,-1,-1,15,17,19,21,23,-1,-1,25,27,29,31,33,-1,-1,-1,-1,-1,35,37,39,-1,41,43,-1,-1,-1,-1,-1,-1,-1,-1,-1,-1,-1,-1],"loss_changes":[5.525075E6,1.76754E5,7.470181E5,1.4601175E5,5.120175E4,4.2423194E5,1.3877369E5,0E0,0E0,0E0,3.078325E4,5.8459156E4,4.3547266E4,6.598486E4,3.4983062E4,0E0,0E0,4.0625579E3,4.658472E4,1.1951562E3,4.554953E4,9.255469E1,0E0,0E0,0E0,0E0,0E0,6.667947E4,6.4786086E4,1.1521094E2,0E0,2.4839719E4,1.4388572E4,0E0,0E0,0E0,0E0,0E0,0E0,0E0,0E0,0E0,0E0,0E0,0E0],"parents":[2147483647,0,0,1,1,2,2,3,3,4,4,5,5,6,6,10,10,11,11,12,12,13,13,14,14,17,17,18,18,19,19,20,20,21,21,27,27,28,28,29,29,31,31,32,32],"right_children":[2,4,6,8,10,12,14,-1,-1,-1,16,18,20,22,24,-1,-1,26,28,30,32,34,-1,-1,-1,-1,-1,36,38,40,-1,42,44,-1,-1,-1,-1,-1,-1,-1,-1,-1,-1,-1,-1],"split_conditions":[7.403429E1,5.325022E1,9.5474805E2,1.5536434E3,4.5792E1,9.411213E1,2.4826469E4,6.726996E0,2.4243006E1,1.752818E0,5.467E1,5.212523E2,1.8738329E3,3.5231E1,8.83E1,2.8100598E0,1.4527613E1,3.2312756E3,8.605159E1,9.981336E1,5.554157E2,3.2881E1,6.8784957E0,5.3497124E0,1.6793388E1,1.3195673E0,-1.1114534E0,7.839068E1,9.209389E1,3.3326697E2,-2.767781E-1,9.93E1,1.3536663E4,-4.8430446E-1,-1.9530963E0,2.459186E0,9.427062E0,2.7155645E-2,5.6411414E0,-9.331651E-1,-1.5611537E0,-4.424896E-1,-1.2997192E0,6.3745844E-1,2.8809352E0],"split_indices":[6,6,4,4,0,6,5,0,0,0,6,4,5,0,6,0,0,5,6,6,4,0,0,0,0,0,0,6,6,5,0,6,5,0,0,0,0,0,0,0,0,0,0,0,0],"split_type":[0,0,0,0,0,0,0,0,0,0,0,0,0,0,0,0,0,0,0,0,0,0,0,0,0,0,0,0,0,0,0,0,0,0,0,0,0,0,0,0,0,0,0,0,0],"sum_hessian":[1.708E3,3.1E1,1.677E3,1.4E1,1.7E1,1.664E3,1.3E1,2E0,1.2E1,1E0,1.6E1,3.2E1,1.632E3,7E0,6E0,1E0,1.5E1,4E0,2.8E1,7.9E1,1.553E3,2E0,5E0,2E0,4E0,1E0,3E0,1.3E1,1.5E1,7.7E1,2E0,1.526E3,2.7E1,1E0,1E0,5E0,8E0,7E0,8E0,6E0,7.1E1,1.459E3,6.7E1,2E1,7E0],"tree_param":{"num_deleted":"0","num_feature":"7","num_nodes":"45","size_leaf_vector":"1"}},{"base_weights":[-4.6286136E-1,3.5398218E2,-8.456006E0,1.7869186E-1,3.633284E2,-9.830767E0,2.809571E2,1.7144873E0,3.7124304E2,7.380636E1,-1.0986457E1,-9.883041E-1,3.2755014E2,4.352925E2,3.1069824E2,4.3422337E1,1.7450436E2,1.0964658E2,-1.1491575E1,6.417027E0,1.6205809E1,7.572579E0,2.1273247E1,2.1445607E2,1.978245E1,6.934852E1,-1.0631844E0,8.865693E0,2.819749E2,1.8712671E1,6.2226534E0,-2.6815256E1,-9.759401E0,1.0132809E1,-5.837847E-1,-1.4473237E-1,4.318603E0,-7.090862E-1,1.290711E0,1.7580122E1,9.18559E-1,-7.661424E-2,1.3042402E0,-4.090891E-1,-1.357815E0,-3.8662866E-1,-1.3276244E0],"categories":[],"categories_nodes":[],"categories_segments":[],"categories_sizes":[],"default_left":[0,0,1,0,0,0,0,0,0,0,0,0,0,0,1,0,0,0,0,0,0,0,0,0,0,0,0,0,0,0,0,0,1,0,0,0,0,0,0,0,0,0,0,0,0,0,0],"id":11,"left_children":[1,3,5,-1,7,9,11,-1,13,15,17,-1,19,21,23,25,27,29,31,-1,-1,-1,-1,33,-1,35,-1,37,39,41,-1,43,45,-1,-1,-1,-1,-1,-1,-1,-1,-1,-1,-1,-1,-1,-1],"loss_changes":[4.8816435E6,1.22784E5,6.7317944E5,0E0,8.0365E4,1.6300405E5,1.2054969E5,0E0,4.3585E3,6.2793656E4,1.0216659E5,0E0,4.69375E1,1.167555E5,2.0284725E5,3.5050152E4,8.6506484E4,1.8108477E4,4.3534703E4,0E0,0E0,0E0,0E0,6.195175E4,0E0,3.022661E4,0E0,2.03176E3,8.549634E4,7.3419934E2,0E0,1.2046031E4,2.7830969E4,0E0,0E0,0E0,0E0,0E0,0E0,0E0,0E0,0E0,0E0,0E0,0E0,0E0,0E0],"parents":[2147483647,0,0,1,1,2,2,4,4,5,5,6,6,8,8,9,9,10,10,12,12,13,13,14,14,15,15,16,16,17,17,18,18,23,23,25,25,27,27,28,28,29,29,31,31,32,32],"right_children":[2,4,6,-1,8,10,12,-1,14,16,18,-1,20,22,24,26,28,30,32,-1,-1,-1,-1,34,-1,36,-1,38,40,42,-1,44,46,-1,-1,-1,-1,-1,-1,-1,-1,-1,-1,-1,-1,-1,-1],"split_conditions":[7.801632E1,2.7020002E1,2.6485652E4,1.7869186E-1,4.5792E1,9.296355E1,3.14E0,1.7144873E0,5.847755E1,9.209389E1,5.3839E1,-9.883041E-1,8.83E1,1.5536434E3,1.1740607E3,9.065E1,4.9705325E2,1.0605072E4,4.5293668E2,6.417027E0,1.6205809E1,7.572579E0,2.1273247E1,7.733728E1,1.978245E1,7.954449E1,-1.0631844E0,2.0997E1,9.269E1,4.512E1,6.2226534E0,8.5323E1,9.93E1,1.0132809E1,-5.837847E-1,-1.4473237E-1,4.318603E0,-7.090862E-1,1.290711E0,1.7580122E1,9.18559E-1,-7.661424E-2,1.3042402E0,-4.090891E-1,-1.357815E0,-3.8662866E-1,-1.3276244E0],"split_indices":[6,6,5,0,0,6,0,0,6,6,2,0,6,4,4,6,4,5,4,0,0,0,0,6,0,6,0,0,6,0,0,2,6,0,0,0,0,0,0,0,0,0,0,0,0,0,0],"split_type":[0,0,0,0,0,0,0,0,0,0,0,0,0,0,0,0,0,0,0,0,0,0,0,0,0,0,0,0,0,0,0,0,0,0,0,0,0,0,0,0,0,0,0,0,0,0,0],"sum_hessian":[1.721E3,3.7E1,1.684E3,1E0,3.6E1,1.677E3,7E0,1E0,3.5E1,2.2E1,1.655E3,1E0,6E0,1.4E1,2.1E1,1.8E1,4E0,6E0,1.649E3,2E0,4E0,3E0,1.1E1,1.4E1,7E0,1.3E1,5E0,2E0,2E0,2E0,4E0,1.66E2,1.483E3,1.3E1,1E0,4E0,9E0,1E0,1E0,1E0,1E0,1E0,1E0,3.3E1,1.33E2,1.421E3,6.2E1],"tree_param":{"num_deleted":"0","num_feature":"7","num_nodes":"47","size_leaf_vector":"1"}},{"base_weights":[-1.6264633E0,3.836099E2,-1.0135191E1,-7.6068515E-1,3.9523196E2,-1.155363E1,2.537175E2,4.8424216E2,3.1657812E2,8.8060616E1,-1.3432976E1,3.040423E0,1.1723555E1,4.8798904E0,2.199446E1,2.2706956E2,1.9455276E1,-9.268229E-1,9.6325966E1,-1.392367E1,2.9086374E1,2.4610257E2,-8.6143583E-1,1.4319334E2,6.807599E1,-1.2956071E1,-3.3132538E1,1.922606E1,3.2918344E0,2.283406E0,1.1240212E1,1.1647006E0,9.467255E0,9.548764E-1,5.3432117E0,-4.8115358E-2,-6.1311936E-1,-1.4639201E0,-5.951689E-1,2.5670633E-1,2.675229E0],"categories":[],"categories_nodes":[],"categories_segments":[],"categories_sizes":[],"default_left":[0,0,1,0,0,0,0,0,1,0,1,0,0,0,0,0,0,0,0,1,0,0,0,0,0,0,0,0,0,0,0,0,0,0,0,0,0,0,0,0,0],"id":12,"left_children":[1,3,5,-1,7,9,11,13,15,17,19,-1,-1,-1,-1,21,-1,-1,23,25,27,29,-1,31,33,35,37,39,-1,-1,-1,-1,-1,-1,-1,-1,-1,-1,-1,-1,-1],"loss_changes":[5.612325E6,1.79312E5,6.298154E5,0E0,9.87355E4,3.1326128E5,5.1305625E3,4.8139E4,1.515525E5,3.0034453E4,3.4559375E4,0E0,0E0,0E0,0E0,7.529769E4,0E0,0E0,2.8648031E4,2.966225E4,7.204501E3,1.616725E4,0E0,7.96417E4,4.736203E4,1.9422984E4,5.4460938E1,9.164342E3,0E0,0E0,0E0,0E0,0E0,0E0,0E0,0E0,0E0,0E0,0E0,0E0,0E0],"parents":[2147483647,0,0,1,1,2,2,4,4,5,5,6,6,7,7,8,8,9,9,10,10,15,15,18,18,19,19,20,20,21,21,23,23,24,24,25,25,26,26,27,27],"right_children":[2,4,6,-1,8,10,12,14,16,18,20,-1,-1,-1,-1,22,-1,-1,24,26,28,30,-1,32,34,36,38,40,-1,-1,-1,-1,-1,-1,-1,-1,-1,-1,-1,-1,-1],"split_conditions":[7.801632E1,2.0445E1,9.919204E2,-7.6068515E-1,5.325022E1,9.411213E1,8.40937E1,1.5536434E3,2.4826469E4,4.8559387E2,1.9425E1,3.040423E0,1.1723555E1,4.8798904E0,2.199446E1,7.403429E1,1.9455276E1,-9.268229E-1,8.553457E1,8.6784E1,9.5474805E2,5.467E1,-8.6143583E-1,7.873984E1,9.209389E1,9.918334E1,1.0294E1,7.2062E1,3.2918344E0,2.283406E0,1.1240212E1,1.1647006E0,9.467255E0,9.548764E-1,5.3432117E0,-4.8115358E-2,-6.1311936E-1,-1.4639201E0,-5.951689E-1,2.5670633E-1,2.675229E0],"split_indices":[6,0,4,0,6,6,6,4,5,4,3,0,0,0,0,6,0,0,6,2,4,6,0,6,6,6,0,2,0,0,0,0,0,0,0,0,0,0,0,0,0],"split_type":[0,0,0,0,0,0,0,0,0,0,0,0,0,0,0,0,0,0,0,0,0,0,0,0,0,0,0,0,0,0,0,0,0,0,0,0,0,0,0,0,0],"sum_hessian":[1.71E3,3.6E1,1.674E3,1E0,3.5E1,1.666E3,8E0,1.4E1,2.1E1,3E1,1.636E3,1E0,7E0,1E0,1.3E1,1.4E1,7E0,2E0,2.8E1,1.618E3,1.8E1,1.3E1,1E0,9E0,1.9E1,1.542E3,7.6E1,1.6E1,2E0,1E0,1.2E1,4E0,5E0,1.1E1,8E0,1.27E2,1.415E3,7.4E1,2E0,1.3E1,3E0],"tree_param":{"num_deleted":"0","num_feature":"7","num_nodes":"41","size_leaf_vector":"1"}},{"base_weights":[1.2832111E0,3.456513E2,-5.156291E0,1.3797595E2,3.713078E2,-7.045882E0,3.0695297E2,1.4311937E0,6.8275476E0,2.0603249E1,2.8490628E2,9.6434944E1,-9.218718E0,-7.2162956E-1,3.4472543E2,2.233472E0,1.2960267E1,-1.2357638E1,1.1561841E2,1.10582E2,-9.808641E0,1.5908237E1,4.2131453E0,1.1456405E0,-1.1068245E0,4.4613758E1,1.3618289E2,1.8132326E1,6.052034E0,-2.5409828E1,-8.175452E0,3.6981444E0,7.5256395E-1,1.1019154E1,3.3687508E0,-8.055249E-2,1.2701055E0,-3.5116175E-1,-1.2653961E0,-3.1385556E-1,-1.2746055E0],"categories":[],"categories_nodes":[],"categories_segments":[],"categories_sizes":[],"default_left":[0,0,1,0,0,0,0,0,0,0,0,0,0,0,1,0,0,0,0,0,0,0,0,0,0,0,0,0,0,0,1,0,0,0,0,0,0,0,0,0,0],"id":13,"left_children":[1,3,5,7,9,11,13,-1,-1,-1,15,17,19,-1,21,-1,-1,23,25,27,29,-1,-1,-1,-1,31,33,35,-1,37,39,-1,-1,-1,-1,-1,-1,-1,-1,-1,-1],"loss_changes":[3.7450218E6,1.139435E5,9.7998306E5,4.433914E3,9.854325E4,3.7166144E5,1.2786394E5,0E0,0E0,0E0,3.027775E4,7.238741E4,1.1529267E5,0E0,7.454125E3,0E0,0E0,3.6582395E3,3.6269438E4,1.8047656E4,4.0789062E4,0E0,0E0,0E0,0E0,7.3025723E3,1.3125866E5,7.071163E2,0E0,9.074383E3,3.0340828E4,0E0,0E0,0E0,0E0,0E0,0E0,0E0,0E0,0E0,0E0],"parents":[2147483647,0,0,1,1,2,2,3,3,4,4,5,5,6,6,10,10,11,11,12,12,14,14,17,17,18,18,19,19,20,20,25,25,26,26,27,27,29,29,30,30],"right_children":[2,4,6,8,10,12,14,-1,-1,-1,16,18,20,-1,22,-1,-1,24,26,28,30,-1,-1,-1,-1,32,34,36,-1,38,40,-1,-1,-1,-1,-1,-1,-1,-1,-1,-1],"split_conditions":[7.403429E1,1.5536434E3,1.045466E3,4.5792E1,4.975632E1,9.411213E1,3.2881E1,1.4311937E0,6.8275476E0,2.0603249E1,5.467E1,5.212523E2,5.3839E1,-7.2162956E-1,8.613652E1,2.233472E0,1.2960267E1,3.2312756E3,7.873984E1,1.0605072E4,4.4776956E2,1.5908237E1,4.2131453E0,1.1456405E0,-1.1068245E0,7.733728E1,8.605159E1,4.512E1,6.052034E0,8.4171E1,9.925812E1,3.6981444E0,7.5256395E-1,1.1019154E1,3.3687508E0,-8.055249E-2,1.2701055E0,-3.5116175E-1,-1.2653961E0,-3.1385556E-1,-1.2746055E0],"split_indices":[6,4,4,0,6,6,0,0,0,0,6,4,2,0,6,0,0,5,6,5,4,0,0,0,0,6,6,0,0,2,6,0,0,0,0,0,0,0,0,0,0],"split_type":[0,0,0,0,0,0,0,0,0,0,0,0,0,0,0,0,0,0,0,0,0,0,0,0,0,0,0,0,0,0,0,0,0,0,0,0,0,0,0,0,0],"sum_hessian":[1.687E3,3E1,1.657E3,4E0,2.6E1,1.648E3,9E0,1E0,3E0,1E1,1.6E1,3.3E1,1.615E3,1E0,8E0,1E0,1.5E1,5E0,2.8E1,7E0,1.608E3,7E0,1E0,1E0,4E0,7E0,2.1E1,2E0,5E0,1.51E2,1.457E3,2E0,5E0,6E0,1.5E1,1E0,1E0,2.6E1,1.25E2,1.392E3,6.5E1],"tree_param":{"num_deleted":"0","num_feature":"7","num_nodes":"41","size_leaf_vector":"1"}},{"base_weights":[1.106834E0,3.2695374E2,-6.656706E0,1.0365981E1,3.4334348E2,-8.446269E0,2.9286606E2,-7.198465E-1,1.3998963E0,-7.5674164E-1,3.535583E2,9.570039E1,-1.0345083E1,5.587219E0,1.5105572E1,4.2040207E2,2.681062E2,8.018858E1,1.1929933E1,7.117882E1,-1.0737889E1,8.036346E0,2.0611042E1,1.927998E2,1.7456644E1,9.759275E1,-2.3173814E0,2.3707504E1,4.1514254E0,-2.790022E1,-9.648499E0,8.940094E0,3.590316E0,-1.7219186E-1,5.083508E0,-7.879099E-2,1.4350225E0,-1.0539407E0,-1.3889958E0,1.6601026E-1,-4.7457424E-1],"categories":[],"categories_nodes":[],"categories_segments":[],"categories_sizes":[],"default_left":[0,0,1,0,0,0,0,0,0,0,0,0,0,0,0,0,1,0,0,0,0,0,0,0,0,0,0,0,0,0,0,0,0,0,0,0,0,0,0,0,0],"id":14,"left_children":[1,3,5,7,9,11,13,-1,-1,-1,15,17,19,-1,-1,21,23,25,-1,27,29,-1,-1,31,-1,33,-1,35,-1,37,39,-1,-1,-1,-1,-1,-1,-1,-1,-1,-1],"loss_changes":[4.348245E6,2.039925E5,9.024427E5,2.2684385E3,1.46107E5,3.3124106E5,4.2589E4,0E0,0E0,0E0,9.863E4,6.0527656E4,5.331428E4,0E0,0E0,1.4208925E5,1.10528E5,7.2386875E4,0E0,6.765922E3,3.0280875E4,0E0,0E0,1.2154375E3,0E0,4.966017E4,0E0,9.879961E2,0E0,6.578125E2,2.4903203E4,0E0,0E0,0E0,0E0,0E0,0E0,0E0,0E0,0E0,0E0],"parents":[2147483647,0,0,1,1,2,2,3,3,4,4,5,5,6,6,10,10,11,11,12,12,15,15,16,16,17,17,19,19,20,20,23,23,25,25,27,27,29,29,30,30],"right_children":[2,4,6,8,10,12,14,-1,-1,-1,16,18,20,-1,-1,22,24,26,-1,28,30,-1,-1,32,-1,34,-1,36,-1,38,40,-1,-1,-1,-1,-1,-1,-1,-1,-1,-1],"split_conditions":[7.801632E1,4.5792E1,2.6485652E4,2.0445E1,2.7020002E1,9.411213E1,8.83E1,-7.198465E-1,1.3998963E0,-7.5674164E-1,5.847755E1,9.361E1,5.7147E1,5.587219E0,1.5105572E1,1.6981547E3,1.1740607E3,9.296355E1,1.1929933E1,1.4111364E4,3.0251711E3,8.036346E0,2.0611042E1,7.403429E1,1.7456644E1,7.954449E1,-2.3173814E0,4.1155E1,4.1514254E0,1.0438E1,9.918334E1,8.940094E0,3.590316E0,-1.7219186E-1,5.083508E0,-7.879099E-2,1.4350225E0,-1.0539407E0,-1.3889958E0,1.6601026E-1,-4.7457424E-1],"split_indices":[6,0,5,0,6,6,6,0,0,0,6,6,2,0,0,4,4,6,0,5,5,0,0,6,0,6,0,2,0,3,6,0,0,0,0,0,0,0,0,0,0],"split_type":[0,0,0,0,0,0,0,0,0,0,0,0,0,0,0,0,0,0,0,0,0,0,0,0,0,0,0,0,0,0,0,0,0,0,0,0,0,0,0,0,0],"sum_hessian":[1.717E3,3.9E1,1.678E3,2E0,3.7E1,1.669E3,9E0,1E0,1E0,1E0,3.6E1,2.9E1,1.64E3,3E0,6E0,1.8E1,1.8E1,2.8E1,1E0,7E0,1.633E3,4E0,1.4E1,1.3E1,5E0,2.5E1,3E0,3E0,4E0,9.6E1,1.537E3,1.1E1,2E0,4E0,2.1E1,1E0,2E0,5.2E1,4.4E1,1.26E2,1.411E3],"tree_param":{"num_deleted":"0","num_feature":"7","num_nodes":"41","size_leaf_vector":"1"}},{"base_weights":[-1.0606817E0,3.1790982E2,-7.5892406E0,5.4003624E1,3.4170706E2,-9.309759E0,2.5133485E2,-7.041049E-1,3.6186063E0,4.022763E2,2.681632E2,4.790014E1,-1.0470116E1,-1.2373358E0,2.8212656E2,6.0403776E0,1.8906784E1,3.915043E2,1.6529495E2,1.9867966E1,8.4524666E1,8.202882E1,-1.080749E1,5.4039474E0,1.4539295E1,1.9467726E1,7.5070624E0,1.847838E2,-6.4715075E-1,2.0727853E-1,4.3061976E0,2.45926E2,3.713061E1,1.222111E1,4.980541E0,-2.4392426E1,-9.39893E0,4.60967E0,1.2137336E1,2.011525E0,-9.9291956E-1,-7.6027423E-1,1.6894001E1,-9.6064246E-1,3.6073124E0,8.788217E-1,-7.7068046E-2,-1.9308972E-1,-1.1836255E0,-4.3244573E-1,8.365243E-1],"categories":[],"categories_nodes":[],"categories_segments":[],"categories_sizes":[],"default_left":[0,0,1,0,0,0,0,0,0,0,0,0,0,0,0,0,0,1,0,1,0,0,0,0,0,0,0,0,0,0,0,0,0,0,0,0,1,0,0,0,0,0,0,0,0,0,0,0,0,0,0],"id":15,"left_children":[1,3,5,7,9,11,13,-1,-1,15,17,19,21,-1,23,-1,-1,25,27,29,31,33,35,-1,-1,-1,-1,37,-1,39,-1,41,43,45,-1,47,49,-1,-1,-1,-1,-1,-1,-1,-1,-1,-1,-1,-1,-1,-1],"loss_changes":[3.5300282E6,1.9507475E5,7.4228825E5,9.389262E3,3.02135E4,1.1010128E5,1.0269331E5,0E0,0E0,5.923875E4,1.5098038E5,3.2200617E4,5.1410406E4,0E0,3.8695375E4,0E0,0E0,6.1115E3,4.134175E4,3.0882623E4,9.7961086E4,1.1947949E4,3.0654953E4,0E0,0E0,0E0,0E0,4.4365406E4,0E0,1.8875973E4,0E0,1.1757808E5,3.3970258E4,3.6566385E2,0E0,7.9364688E3,2.0598336E4,0E0,0E0,0E0,0E0,0E0,0E0,0E0,0E0,0E0,0E0,0E0,0E0,0E0,0E0],"parents":[2147483647,0,0,1,1,2,2,3,3,4,4,5,5,6,6,9,9,10,10,11,11,12,12,14,14,17,17,18,18,19,19,20,20,21,21,22,22,27,27,29,29,31,31,32,32,33,33,35,35,36,36],"right_children":[2,4,6,8,10,12,14,-1,-1,16,18,20,22,-1,24,-1,-1,26,28,30,32,34,36,-1,-1,-1,-1,38,-1,40,-1,42,44,46,-1,48,50,-1,-1,-1,-1,-1,-1,-1,-1,-1,-1,-1,-1,-1,-1],"split_conditions":[7.801632E1,1.929705E4,2.6485652E4,2.0445E1,5.847755E1,9.53619E1,3.14E0,-7.041049E-1,3.6186063E0,1.5536434E3,4.1479595E3,9.194237E1,5.7147E1,-1.2373358E0,8.83E1,6.0403776E0,1.8906784E1,6.1046E1,7.733728E1,3.2881E1,9.269E1,1.4111364E4,4.3263895E2,5.4039474E0,1.4539295E1,1.9467726E1,7.5070624E0,7.054331E1,-6.4715075E-1,8.323453E1,4.3061976E0,2.0997E1,9.367022E1,3.2228E1,4.980541E0,9.891217E1,1.3505E1,4.60967E0,1.2137336E1,2.011525E0,-9.9291956E-1,-7.6027423E-1,1.6894001E1,-9.6064246E-1,3.6073124E0,8.788217E-1,-7.7068046E-2,-1.9308972E-1,-1.1836255E0,-4.3244573E-1,8.365243E-1],"split_indices":[6,5,5,0,6,6,0,0,0,4,4,6,2,0,6,0,0,0,6,0,6,5,4,0,0,0,0,6,0,6,0,0,6,0,0,6,1,0,0,0,0,0,0,0,0,0,0,0,0,0,0],"split_type":[0,0,0,0,0,0,0,0,0,0,0,0,0,0,0,0,0,0,0,0,0,0,0,0,0,0,0,0,0,0,0,0,0,0,0,0,0,0,0,0,0,0,0,0,0,0,0,0,0,0,0],"sum_hessian":[1.693E3,3.3E1,1.66E3,3E0,3E1,1.65E3,1E1,1E0,2E0,1.4E1,1.6E1,3.2E1,1.618E3,1E0,9E0,2E0,1.2E1,6E0,1E1,1.9E1,1.3E1,5E0,1.613E3,3E0,6E0,4E0,2E0,9E0,1E0,1.6E1,3E0,2E0,1.1E1,2E0,3E0,1.5E2,1.463E3,6E0,3E0,5E0,1.1E1,1E0,1E0,5E0,6E0,1E0,1E0,1.8E1,1.32E2,1.439E3,2.4E1],"tree_param":{"num_deleted":"0","num_feature":"7","num_nodes":"51","size_leaf_vector":"1"}},{"base_weights":[-1.4757391E0,3.0422778E2,-8.296208E0,9.167794E0,3.2036536E2,-9.847591E0,2.5533777E2,-6.8870753E-1,1.2901515E0,-1.1536463E0,3.3102594E2,9.362905E1,-1.1579744E1,-1.2102777E0,2.8985803E2,3.8978574E2,2.61029E2,-1.0873075E0,1.08842255E2,-1.2183011E1,3.870844E1,5.37845E0,1.3994246E1,7.431274E0,1.943492E1,1.9658875E2,1.5019546E1,8.340371E1,2.675903E2,-2.7282486E1,-1.1334204E1,5.205532E1,6.484895E0,9.420005E0,-6.329987E-1,4.8078437E0,-1.4901814E0,1.0304288E0,1.6524565E1,-1.2145032E0,-1.926519E-1,-2.42671E0,-4.867071E-1,1.104792E0,3.6550915E0,1.4255117E0,-9.29171E-1],"categories":[],"categories_nodes":[],"categories_segments":[],"categories_sizes":[],"default_left":[0,0,1,0,0,0,0,0,0,0,0,0,1,0,0,0,1,0,0,0,1,0,0,0,0,0,0,0,0,1,0,0,0,0,0,0,0,0,0,0,0,0,0,0,0,0,0],"id":16,"left_children":[1,3,5,7,9,11,13,-1,-1,-1,15,17,19,-1,21,23,25,-1,27,29,31,-1,-1,-1,-1,33,-1,35,37,39,41,43,45,-1,-1,-1,-1,-1,-1,-1,-1,-1,-1,-1,-1,-1,-1],"loss_changes":[3.630496E6,1.78002E5,6.99037E5,1.9841232E3,1.4180475E5,3.047123E5,1.0571694E5,0E0,0E0,0E0,4.221E4,5.317892E4,5.1043703E4,0E0,5.87925E3,1.285205E5,3.3357875E4,0E0,7.863991E4,2.0812469E4,8.264105E3,0E0,0E0,0E0,0E0,5.468597E4,0E0,7.541475E4,7.18003E4,8.459453E2,1.3582797E4,9.711613E3,5.760383E3,0E0,0E0,0E0,0E0,0E0,0E0,0E0,0E0,0E0,0E0,0E0,0E0,0E0,0E0],"parents":[2147483647,0,0,1,1,2,2,3,3,4,4,5,5,6,6,10,10,11,11,12,12,14,14,15,15,16,16,18,18,19,19,20,20,25,25,27,27,28,28,29,29,30,30,31,31,32,32],"right_children":[2,4,6,8,10,12,14,-1,-1,-1,16,18,20,-1,22,24,26,-1,28,30,32,-1,-1,-1,-1,34,-1,36,38,40,42,44,46,-1,-1,-1,-1,-1,-1,-1,-1,-1,-1,-1,-1,-1,-1],"split_conditions":[7.801632E1,4.5792E1,2.6485652E4,2.0445E1,2.7020002E1,9.296355E1,3.14E0,-6.8870753E-1,1.2901515E0,-1.1536463E0,5.847755E1,4.8559387E2,1.9425E1,-1.2102777E0,8.83E1,1.6981547E3,1.1740607E3,-1.0873075E0,9.209389E1,2.207766E3,9.663E1,5.37845E0,1.3994246E1,7.431274E0,1.943492E1,7.733728E1,1.5019546E1,9.17059E1,4.9705325E2,9.978331E1,9.428854E1,1.0605072E4,9.130719E3,9.420005E0,-6.329987E-1,4.8078437E0,-1.4901814E0,1.0304288E0,1.6524565E1,-1.2145032E0,-1.926519E-1,-2.42671E0,-4.867071E-1,1.104792E0,3.6550915E0,1.4255117E0,-9.29171E-1],"split_indices":[6,0,5,0,6,6,0,0,0,0,6,4,3,0,6,4,4,0,6,5,6,0,0,0,0,6,0,6,4,6,6,5,5,0,0,0,0,0,0,0,0,0,0,0,0,0,0],"split_type":[0,0,0,0,0,0,0,0,0,0,0,0,0,0,0,0,0,0,0,0,0,0,0,0,0,0,0,0,0,0,0,0,0,0,0,0,0,0,0,0,0,0,0,0,0,0,0],"sum_hessian":[1.739E3,3.7E1,1.702E3,2E0,3.5E1,1.693E3,9E0,1E0,1E0,1E0,3.4E1,2.7E1,1.666E3,1E0,8E0,1.6E1,1.8E1,3E0,2.4E1,1.647E3,1.9E1,2E0,6E0,4E0,1.2E1,1.2E1,6E0,2.2E1,2E0,8.6E1,1.561E3,1.3E1,6E0,1.1E1,1E0,1.8E1,4E0,1E0,1E0,8.4E1,2E0,6E0,1.555E3,8E0,5E0,3E0,3E0],"tree_param":{"num_deleted":"0","num_feature":"7","num_nodes":"47","size_leaf_vector":"1"}},{"base_weights":[1.1884159E0,3.23731E2,-4.9159904E0,4.0189618E2,2.2044731E2,1.840241E2,-6.716781E0,5.3415856E0,1.8852657E1,1.3766147E2,1.4672558E1,9.22986E1,2.4511073E2,1.05492096E2,-8.341885E0,1.5816531E2,-1.4733977E0,1.181462E0,4.2758923E0,1.2059887E1,4.0207496E0,-1.2981621E0,1.3401097E2,-2.1208246E1,-6.996428E0,1.2619386E0,7.4056993E0,-1.0516416E0,1.6331766E2,-5.689026E0,-2.5816603E1,-6.0461435E0,-2.2920904E1,5.5688887E0,1.6163204E1,-1.1540334E0,8.336325E-2,-1.1575558E0,-7.420583E-1,-2.7518988E-1,7.472117E0,-1.0923194E0,1.4193551E-1],"categories":[],"categories_nodes":[],"categories_segments":[],"categories_sizes":[],"default_left":[0,0,0,0,1,0,0,0,0,0,0,0,1,0,0,0,0,0,0,0,0,0,0,0,1,0,0,0,0,0,1,1,0,0,0,0,0,0,0,0,0,0,0],"id":17,"left_children":[1,3,5,7,9,11,13,-1,-1,15,-1,17,19,21,23,25,-1,-1,-1,-1,-1,-1,27,29,31,-1,-1,-1,33,35,37,39,41,-1,-1,-1,-1,-1,-1,-1,-1,-1,-1],"loss_changes":[3.3920905E6,1.6974525E5,5.7658456E5,8.603675E4,1.0618669E5,6.7027875E4,3.0650038E5,0E0,0E0,4.3975E4,0E0,2.1450781E2,1.6879938E4,9.649781E4,2.8466938E4,9.548078E3,0E0,0E0,0E0,0E0,0E0,0E0,9.656909E4,1.1009953E4,2.2530328E4,0E0,0E0,0E0,7.912375E4,5.866616E3,2.4153125E2,6.263058E4,4.5965156E3,0E0,0E0,0E0,0E0,0E0,0E0,0E0,0E0,0E0,0E0],"parents":[2147483647,0,0,1,1,2,2,3,3,4,4,5,5,6,6,9,9,11,11,12,12,13,13,14,14,15,15,22,22,23,23,24,24,28,28,29,29,30,30,31,31,32,32],"right_children":[2,4,6,8,10,12,14,-1,-1,16,-1,18,20,22,24,26,-1,-1,-1,-1,-1,-1,28,30,32,-1,-1,-1,34,36,38,40,42,-1,-1,-1,-1,-1,-1,-1,-1,-1,-1],"split_conditions":[7.694608E1,5.847755E1,5.3839E1,1.5536434E3,1.3680479E3,9.992239E2,9.269E1,5.3415856E0,1.8852657E1,7.2771E1,1.4672558E1,6.1756775E2,8.323453E1,7.856844E1,4.5804404E2,4.5792E1,-1.4733977E0,1.181462E0,4.2758923E0,1.2059887E1,4.0207496E0,-1.2981621E0,4.8559387E2,8.6784E1,9.899116E1,1.2619386E0,7.4056993E0,-1.0516416E0,9.192E1,1.9205409E3,9.975802E1,9.898E1,9.998897E1,5.5688887E0,1.6163204E1,-1.1540334E0,8.336325E-2,-1.1575558E0,-7.420583E-1,-2.7518988E-1,7.472117E0,-1.0923194E0,1.4193551E-1],"split_indices":[6,6,2,4,4,4,6,0,0,6,0,4,6,6,4,0,0,0,0,0,0,0,4,2,6,0,0,0,6,5,6,6,6,0,0,0,0,0,0,0,0,0,0],"split_type":[0,0,0,0,0,0,0,0,0,0,0,0,0,0,0,0,0,0,0,0,0,0,0,0,0,0,0,0,0,0,0,0,0,0,0,0,0,0,0,0,0,0,0],"sum_hessian":[1.721E3,3.1E1,1.69E3,1.6E1,1.5E1,1.5E1,1.675E3,2E0,1.4E1,1E1,5E0,7E0,8E0,2.3E1,1.652E3,9E0,1E0,1E0,6E0,6E0,2E0,4E0,1.9E1,1.55E2,1.497E3,1E0,8E0,3E0,1.6E1,3.6E1,1.19E2,1.414E3,8.3E1,1.5E1,1E0,9E0,2.7E1,1.09E2,1E1,1.413E3,1E0,7.7E1,6E0],"tree_param":{"num_deleted":"0","num_feature":"7","num_nodes":"43","size_leaf_vector":"1"}},{"base_weights":[2.8413942E0,2.3473888E2,-4.786685E0,7.58107E1,2.6913596E2,-6.3493743E0,2.0800777E2,-9.9133795E-1,1.15572914E2,-1.5406882E0,2.770334E2,3.513775E1,-7.1223235E0,7.4633644E1,1.2797724E1,6.076742E0,2.5134656E0,3.8454758E2,2.2805827E2,-2.8188047E1,5.5636387E1,-6.2521853E0,-2.6659668E1,-1.9304758E-1,9.132594E1,6.482216E0,1.9543777E1,3.3094305E2,1.8601282E2,2.4163687E-1,-1.7645949E0,2.3036514E2,2.8025785E1,-5.2956114E0,-2.2712824E1,-2.7792963E1,-1.2813389E1,1.1556257E0,4.4149756E0,1.7421635E1,7.171203E0,6.591975E0,1.2990983E1,-6.96874E-1,1.5809747E1,-1.1071267E0,2.0239506E0,-2.5556362E-1,9.1236705E-1,-1.0793996E0,5.8181095E-1,-1.2324024E0,-9.386437E-2,-9.37349E-2,-6.225624E-1],"categories":[],"categories_nodes":[],"categories_segments":[],"categories_sizes":[],"default_left":[0,0,1,0,0,0,0,0,1,0,0,0,1,0,0,0,0,0,0,0,0,1,1,0,0,0,0,1,0,0,0,0,0,1,0,0,0,0,0,0,0,0,0,0,0,0,0,0,0,0,0,0,0,0,0],"id":18,"left_children":[1,3,5,7,9,11,13,-1,15,-1,17,19,21,23,-1,-1,-1,25,27,29,31,33,35,-1,37,-1,-1,39,41,-1,-1,43,45,47,49,51,53,-1,-1,-1,-1,-1,-1,-1,-1,-1,-1,-1,-1,-1,-1,-1,-1,-1,-1],"loss_changes":[2.999464E6,2.747965E5,5.4733775E5,4.5691965E4,1.155215E5,5.2552258E4,1.1357109E5,0E0,2.877586E3,0E0,1.38718E5,4.051105E4,2.7067602E4,8.320023E3,0E0,0E0,0E0,1.1048375E5,7.6867125E4,3.5020908E3,1.0450426E5,2.4049562E4,7.109336E2,0E0,4.5460156E2,0E0,0E0,2.4711688E4,5.3179688E4,0E0,0E0,1.02641E5,2.16147E4,2.0923547E4,6.279297E3,5.521172E2,7.564136E1,0E0,0E0,0E0,0E0,0E0,0E0,0E0,0E0,0E0,0E0,0E0,0E0,0E0,0E0,0E0,0E0,0E0,0E0],"parents":[2147483647,0,0,1,1,2,2,3,3,4,4,5,5,6,6,8,8,10,10,11,11,12,12,13,13,17,17,18,18,19,19,20,20,21,21,22,22,24,24,27,27,28,28,31,31,32,32,33,33,34,34,35,35,36,36],"right_children":[2,4,6,8,10,12,14,-1,16,-1,18,20,22,24,-1,-1,-1,26,28,30,32,34,36,-1,38,-1,-1,40,42,-1,-1,44,46,48,50,52,54,-1,-1,-1,-1,-1,-1,-1,-1,-1,-1,-1,-1,-1,-1,-1,-1,-1,-1],"split_conditions":[9.037226E1,1.1740607E3,4.2939E1,5.212523E2,2.7020002E1,9.607E1,9.992239E2,-9.9133795E-1,4.5273E1,-1.5406882E0,5.325022E1,9.209389E1,8.6784E1,4.512E1,1.2797724E1,6.076742E0,2.5134656E0,1.6981547E3,1.71702E3,9.065E1,9.269E1,9.918334E1,9.918E1,-1.9304758E-1,6.1756775E2,6.482216E0,1.9543777E1,6.1046E1,8.430693E1,2.4163687E-1,-1.7645949E0,2.0997E1,9.367022E1,5.554157E2,1E2,1.0294E1,4.131E0,1.1556257E0,4.4149756E0,1.7421635E1,7.171203E0,6.591975E0,1.2990983E1,-6.96874E-1,1.5809747E1,-1.1071267E0,2.0239506E0,-2.5556362E-1,9.1236705E-1,-1.0793996E0,5.8181095E-1,-1.2324024E0,-9.386437E-2,-9.37349E-2,-6.225624E-1],"split_indices":[6,4,0,4,6,6,4,0,0,0,6,6,2,0,0,0,0,4,4,6,6,6,6,0,4,0,0,0,6,0,0,0,6,4,6,0,0,0,0,0,0,0,0,0,0,0,0,0,0,0,0,0,0,0,0],"split_type":[0,0,0,0,0,0,0,0,0,0,0,0,0,0,0,0,0,0,0,0,0,0,0,0,0,0,0,0,0,0,0,0,0,0,0,0,0,0,0,0,0,0,0,0,0,0,0,0,0,0,0,0,0,0,0],"sum_hessian":[1.694E3,5.3E1,1.641E3,1E1,4.3E1,1.63E3,1.1E1,3E0,7E0,1E0,4.2E1,2.9E1,1.601E3,5E0,6E0,4E0,3E0,1.1E1,3.1E1,7E0,2.2E1,1.534E3,6.7E1,1E0,4E0,3E0,8E0,7E0,2.4E1,2E0,5E0,2E0,2E1,1.451E3,8.3E1,6.1E1,6E0,1E0,3E0,4E0,3E0,2E1,4E0,1E0,1E0,5E0,1.5E1,1.422E3,2.9E1,7.9E1,4E0,6E1,1E0,1E0,5E0],"tree_param":{"num_deleted":"0","num_feature":"7","num_nodes":"55","size_leaf_vector":"1"}},{"base_weights":[-1.2042957E-1,2.4995688E2,-8.049637E0,1.4055829E1,2.747537E2,-9.591546E0,1.8566408E2,-9.588201E-1,2.5079181E0,3.5961267E2,2.1467984E2,3.4411724E0,-1.0916546E1,7.412097E1,1.3271435E1,5.8206573E0,1.7321447E1,1.6916747E2,3.1869293E2,-2.2370546E0,4.146101E0,2.960017E1,-1.1268388E1,-1.9041876E0,5.274433E0,2.5639942E0,1.7690373E2,1.7160975E1,6.4254875E0,4.935649E0,2.6591492E0,4.3850693E1,-1.9708039E0,-1.0463469E1,-2.5652409E1,2.1251929E0,7.911395E0,-1.1278254E0,2.3350736E-1,1.294862E-1,2.410318E0,1.11478955E-1,-4.384456E-1,-4.660743E-1,1.9745989E0,-9.770649E-1,-1.4195793E0],"categories":[],"categories_nodes":[],"categories_segments":[],"categories_sizes":[],"default_left":[0,0,1,1,0,0,0,0,0,0,1,0,0,1,0,0,0,0,1,0,0,0,1,0,0,0,0,0,0,0,0,0,0,1,0,0,0,0,0,0,0,0,0,0,0,0,0],"id":19,"left_children":[1,3,5,7,9,11,13,-1,-1,15,17,19,21,23,-1,-1,-1,25,27,-1,29,31,33,-1,-1,-1,35,-1,-1,-1,37,39,41,43,45,-1,-1,-1,-1,-1,-1,-1,-1,-1,-1,-1,-1],"loss_changes":[3.355121E6,3.00317E5,4.916308E5,1.0601441E4,1.623955E5,2.8150422E4,1.4829672E5,0E0,0E0,9.584575E4,8.8104125E4,6.0228813E3,2.1403156E4,4.899731E4,0E0,0E0,0E0,9.2985E3,4.3611312E4,0E0,2.394574E4,5.935157E3,1.6704906E4,0E0,0E0,0E0,1.951E3,0E0,0E0,0E0,1.1496298E4,3.9806113E3,2.0756148E2,1.5405422E4,1.0106406E3,0E0,0E0,0E0,0E0,0E0,0E0,0E0,0E0,0E0,0E0,0E0,0E0],"parents":[2147483647,0,0,1,1,2,2,3,3,4,4,5,5,6,6,9,9,10,10,11,11,12,12,13,13,17,17,18,18,20,20,21,21,22,22,26,26,30,30,31,31,32,32,33,33,34,34],"right_children":[2,4,6,8,10,12,14,-1,-1,16,18,20,22,24,-1,-1,-1,26,28,-1,30,32,34,-1,-1,-1,36,-1,-1,-1,38,40,42,44,46,-1,-1,-1,-1,-1,-1,-1,-1,-1,-1,-1,-1],"split_conditions":[8.83E1,1.280893E4,9.5474805E2,3.2881E1,5.847755E1,9.918334E1,2.4826469E4,-9.588201E-1,2.5079181E0,1.5536434E3,1.1740607E3,8.942925E1,7.3602E1,3.5231E1,1.3271435E1,5.8206573E0,1.7321447E1,6.271716E1,6.1046E1,-2.2370546E0,9.037226E1,6.853612E2,8.5521E1,-1.9041876E0,5.274433E0,2.5639942E0,5.3294E1,1.7160975E1,6.4254875E0,4.935649E0,9.367022E1,1.9352E1,8.028645E2,1.4526657E4,3.9768684E3,2.1251929E0,7.911395E0,-1.1278254E0,2.3350736E-1,1.294862E-1,2.410318E0,1.11478955E-1,-4.384456E-1,-4.660743E-1,1.9745989E0,-9.770649E-1,-1.4195793E0],"split_indices":[6,5,4,0,6,6,5,0,0,4,4,6,2,0,0,0,0,6,0,0,6,4,2,0,0,0,0,0,0,0,6,0,4,5,5,0,0,0,0,0,0,0,0,0,0,0,0],"split_type":[0,0,0,0,0,0,0,0,0,0,0,0,0,0,0,0,0,0,0,0,0,0,0,0,0,0,0,0,0,0,0,0,0,0,0,0,0,0,0,0,0,0,0,0,0,0,0],"sum_hessian":[1.69E3,5.1E1,1.639E3,5E0,4.6E1,1.627E3,1.2E1,3E0,2E0,1.7E1,2.9E1,1.5E2,1.477E3,7E0,5E0,3E0,1.4E1,2.2E1,7E0,1E0,1.49E2,1.2E1,1.465E3,2E0,5E0,2E0,2E1,4E0,3E0,1E0,1.48E2,8E0,4E0,1.389E3,7.6E1,1E0,1.9E1,1.2E1,1.36E2,2E0,6E0,3E0,1E0,1.385E3,4E0,5.4E1,2.2E1],"tree_param":{"num_deleted":"0","num_feature":"7","num_nodes":"47","size_leaf_vector":"1"}},{"base_weights":[2.6162121E0,2.9258218E2,-4.161073E0,3.5419098E2,2.2887581E2,-5.386567E0,1.9968701E2,3.7676868E0,1.5958868E1,1.6567798E2,3.406314E2,8.55206E1,-6.772443E0,5.460898E1,2.5406203E2,1.1329045E0,1.7326942E2,1.609744E1,3.8501692E0,6.346856E1,2.2607939E2,-7.3446755E0,3.1968557E1,-6.797463E-1,3.6376686E0,3.061513E0,1.1943094E1,1.8686922E2,5.658049E1,9.492497E1,-2.1992529E1,-6.569715E-1,1.5488682E1,-2.0273739E1,-5.995454E0,5.5587807E0,7.536721E1,2.1621442E0,8.493629E0,-1.758337E0,5.470243E0,2.108212E0,6.7696457E0,2.6747566E-1,-1.5070966E0,-3.825138E-1,-9.51563E-1,7.5787205E-1,-2.929225E-1,-1.0132574E0,6.1099464E-1,-9.106388E-1,3.9359524E0],"categories":[],"categories_nodes":[],"categories_segments":[],"categories_sizes":[],"default_left":[0,0,1,0,1,0,0,0,0,0,1,0,1,0,0,0,0,0,0,0,0,0,0,0,0,0,0,0,0,0,0,0,0,0,0,0,0,0,0,0,0,0,0,0,0,0,0,0,0,0,0,0,0],"id":20,"left_children":[1,3,5,7,9,11,13,-1,-1,15,17,19,21,23,25,-1,27,-1,-1,29,31,33,35,-1,-1,-1,-1,37,39,41,43,-1,-1,45,47,49,51,-1,-1,-1,-1,-1,-1,-1,-1,-1,-1,-1,-1,-1,-1,-1,-1],"loss_changes":[3.3557835E6,7.200425E4,4.1801612E5,2.0191E4,9.8944625E4,2.0971602E5,6.5012125E4,0E0,0E0,1.2489219E4,1.60969375E4,6.3141266E4,3.650307E4,9.307955E3,5.3786562E3,0E0,1.3231031E4,0E0,0E0,6.391853E4,9.794642E4,2.8015898E4,2.7088623E4,0E0,0E0,0E0,0E0,3.5008125E3,2.4915672E4,4.0083453E4,2.6636025E3,0E0,0E0,2.4086719E3,2.405593E4,4.189661E3,1.4535637E4,0E0,0E0,0E0,0E0,0E0,0E0,0E0,0E0,0E0,0E0,0E0,0E0,0E0,0E0,0E0,0E0],"parents":[2147483647,0,0,1,1,2,2,3,3,4,4,5,5,6,6,9,9,10,10,11,11,12,12,13,13,14,14,16,16,19,19,20,20,21,21,22,22,27,27,28,28,29,29,30,30,33,33,34,34,35,35,36,36],"right_children":[2,4,6,8,10,12,14,-1,-1,16,18,20,22,24,26,-1,28,-1,-1,30,32,34,36,-1,-1,-1,-1,38,40,42,44,-1,-1,46,48,50,52,-1,-1,-1,-1,-1,-1,-1,-1,-1,-1,-1,-1,-1,-1,-1,-1],"split_conditions":[7.801632E1,5.847755E1,9.919204E2,1.5536434E3,2.4826469E4,9.269E1,9.666E1,3.7676868E0,1.5958868E1,4.5792E1,6.1046E1,9.209389E1,5.9830066E2,3.2881E1,4.4799E1,1.1329045E0,7.403429E1,1.609744E1,3.8501692E0,9.037226E1,2.0997E1,4.4776956E2,1.0091753E4,-6.797463E-1,3.6376686E0,3.061513E0,1.1943094E1,6.271716E1,7.686258E1,8.484802E1,9.065E1,-6.569715E-1,1.5488682E1,9.891217E1,9.742E1,3.9168833E3,8.015E0,2.1621442E0,8.493629E0,-1.758337E0,5.470243E0,2.108212E0,6.7696457E0,2.6747566E-1,-1.5070966E0,-3.825138E-1,-9.51563E-1,7.5787205E-1,-2.929225E-1,-1.0132574E0,6.1099464E-1,-9.106388E-1,3.9359524E0],"split_indices":[6,6,4,4,5,6,6,0,0,0,0,6,4,0,1,0,6,0,0,6,0,4,5,0,0,0,0,6,6,6,6,0,0,6,6,5,0,0,0,0,0,0,0,0,0,0,0,0,0,0,0,0,0],"split_type":[0,0,0,0,0,0,0,0,0,0,0,0,0,0,0,0,0,0,0,0,0,0,0,0,0,0,0,0,0,0,0,0,0,0,0,0,0,0,0,0,0,0,0,0,0,0,0,0,0,0,0,0,0],"sum_hessian":[1.706E3,3.8E1,1.668E3,1.7E1,2.1E1,1.659E3,9E0,1E0,1.6E1,1.5E1,6E0,2.4E1,1.635E3,3E0,6E0,1E0,1.4E1,5E0,1E0,2.2E1,2E0,1.612E3,2.3E1,1E0,2E0,1E0,5E0,1.2E1,2E0,1.6E1,6E0,1E0,1E0,1.51E2,1.461E3,1.5E1,8E0,1E0,1.1E1,1E0,1E0,1E1,6E0,2E0,4E0,1.8E1,1.33E2,4.2E1,1.419E3,3E0,1.2E1,1E0,7E0],"tree_param":{"num_deleted":"0","num_feature":"7","num_nodes":"53","size_leaf_vector":"1"}},{"base_weights":[-6.4416224E-1,1.8937262E2,-5.748005E0,2.8642197E2,1.3453554E2,-6.6283984E0,1.0270251E1,-2.2347703E0,3.141802E2,1.00511856E2,2.5387827E2,-6.9053254E0,1.0787643E2,5.334294E0,1.4697575E1,7.965464E1,8.314151E0,1.2005049E1,3.298235E0,2.0399776E1,-7.9799023E0,-1.0796956E0,7.010575E0,9.319795E1,-4.477577E0,-2.2389557E1,2.9059063E1,2.7035877E1,-8.33529E0,5.554132E0,2.5047407E0,-1.1331354E0,-1.9110206E-1,-1.3811721E0,1.6468785E0,4.0726657E0,4.7864705E-1,-9.189693E-1,-3.2497263E-1],"categories":[],"categories_nodes":[],"categories_segments":[],"categories_sizes":[],"default_left":[0,0,1,0,1,1,0,0,0,0,0,0,0,0,0,0,0,0,0,0,0,0,0,0,0,0,0,0,0,0,0,0,0,0,0,0,0,0,0],"id":21,"left_children":[1,3,5,7,9,11,-1,-1,13,15,17,19,21,-1,-1,23,-1,-1,-1,25,27,-1,-1,29,-1,31,33,35,37,-1,-1,-1,-1,-1,-1,-1,-1,-1,-1],"loss_changes":[1.6313488E6,1.9563E5,3.4848138E5,1.565875E5,9.629656E4,5.2526492E4,0E0,0E0,1.78705E4,3.1571E4,1.37E3,4.7989305E4,3.1751113E4,0E0,0E0,6.3778312E4,0E0,0E0,0E0,2.3623174E4,1.9750273E4,0E0,0E0,1.8224875E4,0E0,5.843296E2,2.8293977E4,1.5995397E4,1.767096E4,0E0,0E0,0E0,0E0,0E0,0E0,0E0,0E0,0E0,0E0],"parents":[2147483647,0,0,1,1,2,2,3,3,4,4,5,5,8,8,9,9,10,10,11,11,12,12,15,15,19,19,20,20,23,23,25,25,26,26,27,27,28,28],"right_children":[2,4,6,8,10,12,-1,-1,14,16,18,20,22,-1,-1,24,-1,-1,-1,26,28,-1,-1,30,-1,32,34,36,38,-1,-1,-1,-1,-1,-1,-1,-1,-1,-1],"split_conditions":[8.83E1,5.847755E1,4.6127E1,2.7020002E1,1.1740607E3,2.6485652E4,1.0270251E1,-2.2347703E0,1.6981547E3,8.430693E1,7.801632E1,9.746597E1,3.14E0,5.334294E0,1.4697575E1,8.323453E1,8.314151E0,1.2005049E1,3.298235E0,4.827064E2,7.7771E1,-1.0796956E0,7.010575E0,6.821E1,-4.477577E0,9.703701E1,9.194237E1,2.0111E1,3.4655472E2,5.554132E0,2.5047407E0,-1.1331354E0,-1.9110206E-1,-1.3811721E0,1.6468785E0,4.0726657E0,4.7864705E-1,-9.189693E-1,-3.2497263E-1],"split_indices":[6,6,0,6,4,5,0,0,4,6,6,6,0,0,0,6,0,0,0,4,2,0,0,6,0,6,6,3,4,0,0,0,0,0,0,0,0,0,0],"split_type":[0,0,0,0,0,0,0,0,0,0,0,0,0,0,0,0,0,0,0,0,0,0,0,0,0,0,0,0,0,0,0,0,0,0,0,0,0,0,0],"sum_hessian":[1.68E3,4.3E1,1.637E3,1.4E1,2.9E1,1.632E3,5E0,1E0,1.3E1,2.4E1,5E0,1.629E3,3E0,2E0,1.1E1,2.1E1,3E0,4E0,1E0,6.1E1,1.568E3,1E0,2E0,2E1,1E0,1E1,5.1E1,1.5E1,1.553E3,9E0,1.1E1,8E0,2E0,6E0,4.5E1,2E0,1.3E1,1.02E2,1.451E3],"tree_param":{"num_deleted":"0","num_feature":"7","num_nodes":"39","size_leaf_vector":"1"}},{"base_weights":[-3.5181913E-1,2.378267E2,-5.9419565E0,1.9558014E2,3.130626E2,-6.938051E0,1.7301918E2,-2.1859002E0,2.0694702E2,1.5472746E1,6.2626367E0,5.697417E1,-7.8996096E0,-1.0560848E0,8.777083E0,3.0415424E2,1.3759296E2,2.1276964E1,1.2570897E2,-8.153312E0,9.460452E1,3.819733E0,1.3931712E1,1.4928587E2,-1.0823251E0,6.1413284E1,-1.960858E0,1.5113962E1,4.493236E1,-7.2990856E0,-2.2601908E1,4.7231593E0,1.1905062E0,9.866723E-1,6.8328876E0,-1.8212646E0,3.8899417E0,-1.2995217E0,6.7512465E0,-2.848759E-1,-1.0375485E0,-4.0448663E-1,-1.0418639E0],"categories":[],"categories_nodes":[],"categories_segments":[],"categories_sizes":[],"default_left":[0,1,1,0,1,0,0,0,0,0,0,0,1,0,0,0,0,0,0,1,0,0,0,0,0,0,0,0,0,1,0,0,0,0,0,0,0,0,0,0,0,0,0],"id":22,"left_children":[1,3,5,7,9,11,13,-1,15,-1,-1,17,19,-1,-1,21,23,25,27,29,31,-1,-1,33,-1,35,-1,-1,37,39,41,-1,-1,-1,-1,-1,-1,-1,-1,-1,-1,-1,-1],"loss_changes":[2.2062955E6,5.95525E4,2.8980697E5,8.570681E4,3.2334375E4,9.945466E4,5.3935625E4,0E0,1.3343512E5,0E0,0E0,5.6212664E4,4.2067992E4,0E0,0E0,3.3731875E3,3.5964156E4,4.786204E4,1.2655131E5,1.939768E4,6.6897266E2,0E0,0E0,1.0556125E4,0E0,3.4909918E4,0E0,0E0,6.176623E4,1.9172414E4,1.2130273E3,0E0,0E0,0E0,0E0,0E0,0E0,0E0,0E0,0E0,0E0,0E0,0E0],"parents":[2147483647,0,0,1,1,2,2,3,3,4,4,5,5,6,6,8,8,11,11,12,12,15,15,16,16,17,17,18,18,19,19,20,20,23,23,25,25,28,28,29,29,30,30],"right_children":[2,4,6,8,10,12,14,-1,16,-1,-1,18,20,-1,-1,22,24,26,28,30,32,-1,-1,34,-1,36,-1,-1,38,40,42,-1,-1,-1,-1,-1,-1,-1,-1,-1,-1,-1,-1],"split_conditions":[7.801632E1,2.4826469E4,2.6485652E4,2.7020002E1,6.1046E1,9.411213E1,3.14E0,-2.1859002E0,5.847755E1,1.5472746E1,6.2626367E0,9.209389E1,4.5792E1,-1.0560848E0,8.777083E0,5.6262E1,7.733728E1,8.83E1,9.269E1,9.918334E1,5.2406E1,3.819733E0,1.3931712E1,4.5792E1,-1.0823251E0,7.856844E1,-1.960858E0,1.5113962E1,9.367022E1,8.726E1,1.327E1,4.7231593E0,1.1905062E0,9.866723E-1,6.8328876E0,-1.8212646E0,3.8899417E0,-1.2995217E0,6.7512465E0,-2.848759E-1,-1.0375485E0,-4.0448663E-1,-1.0418639E0],"split_indices":[6,5,5,6,0,6,0,0,6,0,0,6,0,0,0,0,6,6,6,6,1,0,0,0,0,6,0,0,6,2,0,0,0,0,0,0,0,0,0,0,0,0,0],"split_type":[0,0,0,0,0,0,0,0,0,0,0,0,0,0,0,0,0,0,0,0,0,0,0,0,0,0,0,0,0,0,0,0,0,0,0,0,0,0,0,0,0,0,0],"sum_hessian":[1.655E3,3.7E1,1.618E3,2.6E1,1.1E1,1.61E3,8E0,1E0,2.5E1,8E0,3E0,2.3E1,1.587E3,1E0,7E0,9E0,1.6E1,1.6E1,7E0,1.584E3,3E0,1E0,8E0,1.5E1,1E0,1E1,6E0,1E0,6E0,1.497E3,8.7E1,2E0,1E0,1E0,1.4E1,2E0,8E0,4E0,2E0,1.43E3,6.7E1,8E0,7.9E1],"tree_param":{"num_deleted":"0","num_feature":"7","num_nodes":"43","size_leaf_vector":"1"}},{"base_weights":[2.2768335E0,1.9920401E2,-4.3207736E0,3.206725E2,1.4990569E2,-5.363869E0,1.5082942E2,3.2302866E0,3.3302643E2,1.1067972E2,2.7707803E2,5.930873E1,-6.081357E0,-3.1121418E0,1.8538446E2,1.5414106E1,6.314707E0,-1.2273926E0,1.2548951E2,1.4509269E1,5.5022345E0,4.909435E0,8.609926E1,-1.6898483E1,-4.921389E0,2.1369197E0,-2.3410888E0,1.5613515E0,8.731133E0,-1.0148091E0,1.3141695E2,-2.26309E0,2.2975784E1,2.1088826E2,4.005263E1,-1.9693987E1,-5.4504657E0,-4.080966E0,-2.1305431E1,8.676758E0,4.775889E0,4.752761E0,-6.952618E-1,-9.4833755E-1,1.478345E1,-1.5546348E0,4.215099E0,-7.605993E-1,-1.0719547E0,1.9276906E0,-5.2893E-1,-1.9475864E-1,1.231177E0,-1.0435153E0,4.5220083E-1],"categories":[],"categories_nodes":[],"categories_segments":[],"categories_sizes":[],"default_left":[0,0,1,0,1,0,0,0,1,0,1,0,0,0,0,0,0,0,0,0,0,0,0,1,1,0,0,0,0,0,0,0,0,0,0,0,0,1,0,0,0,0,0,0,0,0,0,0,0,0,0,0,0,0,0],"id":23,"left_children":[1,3,5,7,9,11,13,-1,15,17,19,21,23,25,27,-1,-1,-1,29,-1,-1,31,33,35,37,-1,-1,-1,-1,-1,39,-1,41,43,45,47,49,51,53,-1,-1,-1,-1,-1,-1,-1,-1,-1,-1,-1,-1,-1,-1,-1,-1],"loss_changes":[2.2043858E6,2.8128E5,2.665445E5,2.1139875E4,1.7385994E5,7.608842E4,5.909097E4,0E0,3.735E2,7.132881E4,3.2693062E4,2.5810254E4,2.0181082E4,1.0475885E4,1.2067875E4,0E0,0E0,0E0,2.9490219E4,0E0,0E0,8.353554E3,6.0506727E4,4.885121E3,2.001657E4,0E0,0E0,0E0,0E0,0E0,2.1489656E4,0E0,2.171426E4,9.6027875E4,4.6005367E4,9.6025E2,1.1061463E4,1.6795281E4,5.9849277E3,0E0,0E0,0E0,0E0,0E0,0E0,0E0,0E0,0E0,0E0,0E0,0E0,0E0,0E0,0E0,0E0],"parents":[2147483647,0,0,1,1,2,2,3,3,4,4,5,5,6,6,8,8,9,9,10,10,11,11,12,12,13,13,14,14,18,18,21,21,22,22,23,23,24,24,30,30,32,32,33,33,34,34,35,35,36,36,37,37,38,38],"right_children":[2,4,6,8,10,12,14,-1,16,18,20,22,24,26,28,-1,-1,-1,30,-1,-1,32,34,36,38,-1,-1,-1,-1,-1,40,-1,42,44,46,48,50,52,54,-1,-1,-1,-1,-1,-1,-1,-1,-1,-1,-1,-1,-1,-1,-1,-1],"split_conditions":[8.83E1,5.325022E1,9.5474805E2,1.5536434E3,1.1740607E3,9.53619E1,1.3875912E4,3.2302866E0,1.669103E3,5.212523E2,6.1046E1,9.209389E1,4.5293668E2,3.8641E1,3.9601E1,1.5414106E1,6.314707E0,-1.2273926E0,5.467E1,1.4509269E1,5.5022345E0,8.942925E1,9.269E1,9.81E1,9.925E1,2.1369197E0,-2.3410888E0,1.5613515E0,8.731133E0,-1.0148091E0,6.396708E1,-2.26309E0,9.037226E1,2.0997E1,9.367022E1,4.771942E3,9.846447E1,1.9386E1,9.998897E1,8.676758E0,4.775889E0,4.752761E0,-6.952618E-1,-9.4833755E-1,1.478345E1,-1.5546348E0,4.215099E0,-7.605993E-1,-1.0719547E0,1.9276906E0,-5.2893E-1,-1.9475864E-1,1.231177E0,-1.0435153E0,4.5220083E-1],"split_indices":[6,6,4,4,4,6,5,0,4,4,0,6,4,0,0,0,0,0,6,0,0,6,6,6,6,0,0,0,0,0,6,0,6,0,6,5,6,1,6,0,0,0,0,0,0,0,0,0,0,0,0,0,0,0,0],"split_type":[0,0,0,0,0,0,0,0,0,0,0,0,0,0,0,0,0,0,0,0,0,0,0,0,0,0,0,0,0,0,0,0,0,0,0,0,0,0,0,0,0,0,0,0,0,0,0,0,0,0,0,0,0,0,0],"sum_hessian":[1.695E3,5.4E1,1.641E3,1.4E1,4E1,1.631E3,1E1,1E0,1.3E1,3.2E1,8E0,1.7E1,1.614E3,2E0,8E0,1.1E1,2E0,3E0,2.9E1,5E0,3E0,6E0,1.1E1,1.55E2,1.459E3,1E0,1E0,1E0,7E0,1E0,2.8E1,1E0,5E0,2E0,9E0,1.24E2,3.1E1,1.389E3,7E1,5E0,2.3E1,1E0,4E0,1E0,1E0,4E0,5E0,8.7E1,3.7E1,3E0,2.8E1,1.374E3,1.5E1,6.5E1,5E0],"tree_param":{"num_deleted":"0","num_feature":"7","num_nodes":"55","size_leaf_vector":"1"}},{"base_weights":[2.6935985E0,2.002318E2,-3.3806283E0,5.4122097E1,2.3454826E2,-4.4098206E0,2.0957016E2,-1.1871315E0,8.798945E1,2.8958795E2,1.8773933E2,5.9107643E1,-4.949683E0,-1.0095488E0,1.0763597E1,4.6078463E0,1.9368045E0,3.1596467E0,1.3062051E1,1.8120292E0,1.9866045E2,1.449415E1,1.365131E2,-4.0485487E0,-1.9391363E1,2.6466913E2,1.6562085E2,4.8441196E1,-1.2745166E0,2.2104657E0,2.2531137E2,-2.0335596E1,-3.1798112E0,-2.125158E1,3.727458E0,1.27251425E1,2.9138494E0,5.5535183E0,9.106065E0,-2.2136006E0,3.427789E0,-9.275993E-1,1.0726147E0,1.4460166E1,3.2116002E-1,-4.9258357E-1,-9.471941E-1,-1.4758438E-1,2.3794034E0,-6.320312E-1,-1.0176886E0,4.8480486E-3,6.351282E-1],"categories":[],"categories_nodes":[],"categories_segments":[],"categories_sizes":[],"default_left":[0,0,1,0,0,0,0,0,0,0,0,0,1,0,0,0,0,0,0,0,0,0,0,0,0,1,0,0,0,0,0,0,1,0,1,0,0,0,0,0,0,0,0,0,0,0,0,0,0,0,0,0,0],"id":24,"left_children":[1,3,5,7,9,11,13,-1,15,17,19,21,23,-1,-1,-1,-1,-1,-1,-1,25,27,29,31,33,35,37,39,-1,41,43,45,47,49,51,-1,-1,-1,-1,-1,-1,-1,-1,-1,-1,-1,-1,-1,-1,-1,-1,-1,-1],"loss_changes":[2.051292E6,2.4301825E5,3.6452272E5,3.266292E4,5.126325E4,5.6940797E4,7.3678125E4,0E0,1.4065E3,1.193175E4,3.17155E4,4.636795E4,2.1251258E4,0E0,0E0,0E0,0E0,0E0,0E0,0E0,6.3259375E3,1.62245205E4,5.9131164E4,2.1781656E4,4.207789E3,1.1848719E4,3.1828438E3,2.175686E4,0E0,2.0879175E3,6.643653E4,6.9128516E2,1.6624656E4,8.8471875E2,3.1070352E2,0E0,0E0,0E0,0E0,0E0,0E0,0E0,0E0,0E0,0E0,0E0,0E0,0E0,0E0,0E0,0E0,0E0,0E0],"parents":[2147483647,0,0,1,1,2,2,3,3,4,4,5,5,6,6,8,8,9,9,10,10,11,11,12,12,20,20,21,21,22,22,23,23,24,24,25,25,26,26,27,27,29,29,30,30,31,31,32,32,33,33,34,34],"right_children":[2,4,6,8,10,12,14,-1,16,18,20,22,24,-1,-1,-1,-1,-1,-1,-1,26,28,30,32,34,36,38,40,-1,42,44,46,48,50,52,-1,-1,-1,-1,-1,-1,-1,-1,-1,-1,-1,-1,-1,-1,-1,-1,-1,-1],"split_conditions":[8.83E1,1.1740607E3,2.6485652E4,5.212523E2,5.847755E1,9.296355E1,3.14E0,-1.1871315E0,8.6339374E2,1.5536434E3,6.271716E1,9.194237E1,9.918334E1,-1.0095488E0,1.0763597E1,4.6078463E0,1.9368045E0,3.1596467E0,1.3062051E1,1.8120292E0,1.71702E3,9.17059E1,4.9705325E2,2.3802676E3,9.998897E1,6.1822E1,7.839068E1,8.942925E1,-1.2745166E0,2.0997E1,9.269E1,3.189E0,3.5231E1,9.946973E1,1.3097E1,1.27251425E1,2.9138494E0,5.5535183E0,9.106065E0,-2.2136006E0,3.427789E0,-9.275993E-1,1.0726147E0,1.4460166E1,3.2116002E-1,-4.9258357E-1,-9.471941E-1,-1.4758438E-1,2.3794034E0,-6.320312E-1,-1.0176886E0,4.8480486E-3,6.351282E-1],"split_indices":[6,4,5,4,6,6,0,0,4,4,6,6,6,0,0,0,0,0,0,0,4,6,4,5,6,0,6,6,0,0,6,3,0,6,0,0,0,0,0,0,0,0,0,0,0,0,0,0,0,0,0,0,0],"split_type":[0,0,0,0,0,0,0,0,0,0,0,0,0,0,0,0,0,0,0,0,0,0,0,0,0,0,0,0,0,0,0,0,0,0,0,0,0,0,0,0,0,0,0,0,0,0,0,0,0,0,0,0,0],"sum_hessian":[1.708E3,5E1,1.658E3,1E1,4E1,1.651E3,7E0,3E0,7E0,1.6E1,2.4E1,1.3E1,1.638E3,1E0,6E0,4E0,3E0,1E0,1.5E1,2E0,2.2E1,9E0,4E0,1.543E3,9.5E1,5E0,1.7E1,5E0,4E0,2E0,2E0,7.7E1,1.466E3,8.8E1,7E0,4E0,1E0,1.1E1,6E0,1E0,4E0,1E0,1E0,1E0,1E0,1.1E1,6.6E1,1.462E3,4E0,2.2E1,6.6E1,6E0,1E0],"tree_param":{"num_deleted":"0","num_feature":"7","num_nodes":"53","size_leaf_vector":"1"}},{"base_weights":[1.6089253E0,2.5811783E2,-3.3397748E0,1.02757515E2,2.7664224E2,1.5794228E2,-5.0065155E0,8.1830245E-1,5.2086015E0,1.2965554E1,6.7617545E0,7.177034E1,2.110856E2,7.1013275E1,-6.5124874E0,9.1917783E-1,3.324746E0,1.0387928E1,3.0723233E0,-1.6420786E1,8.781295E1,-6.6493106E0,4.677773E0,1.0491587E0,-1.2814789E0,1.7816137E1,1.0291149E2,-5.9900475E0,-1.9885878E1,4.9205413E0,-1.0331687E0,7.122854E0,2.802518E0,-2.305406E-1,-7.063964E-1,-7.267056E-1,-1.1677077E0],"categories":[],"categories_nodes":[],"categories_segments":[],"categories_sizes":[],"default_left":[0,0,0,0,1,0,0,0,0,0,0,0,1,0,1,0,0,0,0,0,0,1,0,0,0,0,0,1,0,0,0,0,0,0,0,0,0],"id":25,"left_children":[1,3,5,7,9,11,13,-1,-1,-1,-1,15,17,19,21,-1,-1,-1,-1,23,25,27,-1,-1,-1,29,31,33,35,-1,-1,-1,-1,-1,-1,-1,-1],"loss_changes":[2.146124E6,6.36675E4,4.4675547E5,4.63609E3,2.18535E4,6.2701188E4,1.8855916E5,0E0,0E0,0E0,0E0,1.2725E2,2.0537219E4,4.8445594E4,2.5737375E4,0E0,0E0,0E0,0E0,3.825583E3,2.6701453E4,1.3939086E4,0E0,0E0,0E0,2.6200691E4,4.078058E4,1.1134691E4,1.2496523E3,0E0,0E0,0E0,0E0,0E0,0E0,0E0,0E0],"parents":[2147483647,0,0,1,1,2,2,3,3,4,4,5,5,6,6,11,11,12,12,13,13,14,14,19,19,20,20,21,21,25,25,26,26,27,27,28,28],"right_children":[2,4,6,8,10,12,14,-1,-1,-1,-1,16,18,20,22,-1,-1,-1,-1,24,26,28,-1,-1,-1,30,32,34,36,-1,-1,-1,-1,-1,-1,-1,-1],"split_conditions":[7.694608E1,1.045466E3,5.3839E1,4.5792E1,6.1046E1,9.992239E2,9.411213E1,8.1830245E-1,5.2086015E0,1.2965554E1,6.7617545E0,6.1756775E2,8.323453E1,5.212523E2,1.2661393E3,9.1917783E-1,3.324746E0,1.0387928E1,3.0723233E0,3.2312756E3,7.856844E1,8.6784E1,4.677773E0,1.0491587E0,-1.2814789E0,7.733728E1,8.83E1,9.870086E1,4.0832974E3,4.9205413E0,-1.0331687E0,7.122854E0,2.802518E0,-2.305406E-1,-7.063964E-1,-7.267056E-1,-1.1677077E0],"split_indices":[6,4,2,0,0,4,6,0,0,0,0,4,6,4,4,0,0,0,0,5,6,2,0,0,0,6,6,6,5,0,0,0,0,0,0,0,0],"split_type":[0,0,0,0,0,0,0,0,0,0,0,0,0,0,0,0,0,0,0,0,0,0,0,0,0,0,0,0,0,0,0,0,0,0,0,0,0],"sum_hessian":[1.689E3,3.1E1,1.658E3,4E0,2.7E1,1.6E1,1.642E3,1E0,3E0,2.2E1,5E0,7E0,9E0,3.1E1,1.611E3,1E0,6E0,7E0,2E0,5E0,2.6E1,1.61E3,1E0,1E0,4E0,5E0,2.1E1,1.535E3,7.5E1,1E0,4E0,7E0,1.4E1,1.435E3,1E2,5.3E1,2.2E1],"tree_param":{"num_deleted":"0","num_feature":"7","num_nodes":"37","size_leaf_vector":"1"}},{"base_weights":[5.46738E-1,2.090764E2,-3.542414E0,2.618182E2,1.4713844E2,7.426591E1,-4.799087E0,4.120796E0,1.2203692E1,1.3811542E0,1.6044102E2,-1.2366414E0,9.419497E1,-5.3219666E0,7.1637774E0,8.004079E-1,7.403922E0,6.801449E1,1.4082665E1,5.505673E1,-5.5832872E0,1.0977464E2,1.1100847E1,1.1908905E1,3.6930835E0,-1.9946049E1,-4.7927313E0,2.9355595E0,1.2661043E1,3.9932222E0,-8.905752E-1,-4.8350528E-1,1.0168006E0,-8.9758885E-1,9.959873E-2,-2.1157508E0,-1.9936372E-1],"categories":[],"categories_nodes":[],"categories_segments":[],"categories_sizes":[],"default_left":[0,0,0,0,0,0,1,0,0,0,0,0,0,0,0,0,0,0,0,0,0,0,0,0,0,1,0,0,0,0,0,0,0,0,0,0,0],"id":26,"left_children":[1,3,5,7,9,11,13,-1,-1,-1,15,-1,17,19,-1,-1,-1,21,-1,23,25,27,29,31,-1,33,35,-1,-1,-1,-1,-1,-1,-1,-1,-1,-1],"loss_changes":[1.4187965E6,6.60115E4,1.599328E5,1.986675E4,2.1066375E4,5.5795594E4,1.425366E5,0E0,0E0,0E0,1.576175E4,0E0,1.0930455E5,2.5599844E4,0E0,0E0,0E0,4.869257E4,0E0,7.869289E3,1.8037652E4,7.255689E4,2.7093418E4,1.2986339E3,0E0,1.1107344E3,1.5255539E4,0E0,0E0,0E0,0E0,0E0,0E0,0E0,0E0,0E0,0E0],"parents":[2147483647,0,0,1,1,2,2,3,3,4,4,5,5,6,6,10,10,12,12,13,13,17,17,19,19,20,20,21,21,22,22,23,23,25,25,26,26],"right_children":[2,4,6,8,10,12,14,-1,-1,-1,16,-1,18,20,-1,-1,-1,22,-1,24,26,28,30,32,-1,34,36,-1,-1,-1,-1,-1,-1,-1,-1,-1,-1],"split_conditions":[7.694608E1,5.795389E1,9.269E1,6.4107E1,6.271716E1,5.212523E2,1.2661393E3,4.120796E0,1.2203692E1,1.3811542E0,4.5792E1,-1.2366414E0,9.209389E1,5.7147E1,7.1637774E0,8.004079E-1,7.403922E0,8.553457E1,1.4082665E1,1.4111364E4,2.4009912E3,8.430693E1,6.364E1,4.1155E1,3.6930835E0,9.981336E1,9.428854E1,2.9355595E0,1.2661043E1,3.9932222E0,-8.905752E-1,-4.8350528E-1,1.0168006E0,-8.9758885E-1,9.959873E-2,-2.1157508E0,-1.9936372E-1],"split_indices":[6,6,6,0,6,4,4,0,0,0,0,0,6,2,0,0,0,6,0,5,5,6,0,2,0,6,6,0,0,0,0,0,0,0,0,0,0],"split_type":[0,0,0,0,0,0,0,0,0,0,0,0,0,0,0,0,0,0,0,0,0,0,0,0,0,0,0,0,0,0,0,0,0,0,0,0,0],"sum_hessian":[1.662E3,3.1E1,1.631E3,1.5E1,1.6E1,2.5E1,1.606E3,2E0,1.3E1,2E0,1.4E1,4E0,2.1E1,1.602E3,4E0,1E0,1.3E1,2E1,1E0,6E0,1.596E3,1.1E1,9E0,3E0,3E0,8.2E1,1.514E3,1E1,1E0,2E0,7E0,1E0,2E0,8E1,2E0,7E0,1.507E3],"tree_param":{"num_deleted":"0","num_feature":"7","num_nodes":"37","size_leaf_vector":"1"}},{"base_weights":[1.9132155E0,2.1197975E2,-2.8128486E0,2.8509586E0,2.2384853E2,-3.6770349E0,1.9993204E2,-5.9587014E-1,7.8290445E-1,1.955636E2,2.8383124E2,6.5816154E1,-5.1459584E0,5.3217998E0,1.1533529E1,-3.3112159E0,2.0890906E2,1.5223841E1,5.0949335E0,-1.1937809E0,7.570741E1,-5.5689974E0,6.292797E1,2.940784E2,1.547183E2,-1.6270187E1,8.6143234E1,-4.8447576E0,-1.709759E1,-3.275163E-1,7.1584076E1,1.8159621E0,1.4015548E1,-1.8286593E0,7.379941E0,1.8417132E0,-2.1765993E0,2.9379857E0,5.474248E0,-9.1511214E-1,-1.8305077E-1,-7.882677E-1,3.602567E-1,3.6022494E0,9.871535E-1],"categories":[],"categories_nodes":[],"categories_segments":[],"categories_sizes":[],"default_left":[0,0,1,0,1,0,0,0,0,0,1,0,1,0,0,0,0,0,0,0,0,1,0,0,0,0,0,0,1,0,1,0,0,0,0,0,0,0,0,0,0,0,0,0,0],"id":27,"left_children":[1,3,5,7,9,11,13,-1,-1,15,17,19,21,-1,-1,-1,23,-1,-1,-1,25,27,29,31,33,35,37,39,41,-1,43,-1,-1,-1,-1,-1,-1,-1,-1,-1,-1,-1,-1,-1,-1],"loss_changes":[1.6694728E6,9.11995E4,2.8895456E5,9.877257E2,3.874125E3,1.6764812E5,2.846125E3,0E0,0E0,1.1356325E5,5.62195E4,3.3380047E4,4.6599926E4,0E0,0E0,0E0,7.4500875E4,0E0,0E0,0E0,3.1157281E4,1.3251262E4,6.631379E3,4.6655438E4,5.6651562E4,9.917785E3,1.2316703E4,1.5858379E4,2.353039E3,0E0,2.8960117E3,0E0,0E0,0E0,0E0,0E0,0E0,0E0,0E0,0E0,0E0,0E0,0E0,0E0,0E0],"parents":[2147483647,0,0,1,1,2,2,3,3,4,4,5,5,6,6,9,9,10,10,11,11,12,12,16,16,20,20,21,21,22,22,23,23,24,24,25,25,26,26,27,27,28,28,30,30],"right_children":[2,4,6,8,10,12,14,-1,-1,16,18,20,22,-1,-1,-1,24,-1,-1,-1,26,28,30,32,34,36,38,40,42,-1,44,-1,-1,-1,-1,-1,-1,-1,-1,-1,-1,-1,-1,-1,-1],"split_conditions":[7.801632E1,4.5792E1,1.2661393E3,2.0445E1,3.0976229E4,9.411213E1,2.9250387E4,-5.9587014E-1,7.8290445E-1,2.7020002E1,6.1046E1,4.8559387E2,3.1309E1,5.3217998E0,1.1533529E1,-3.3112159E0,5.325022E1,1.5223841E1,5.0949335E0,-1.1937809E0,7.856844E1,9.918334E1,9.577E1,3.329975E1,5.467E1,3.421E1,9.209389E1,8.091E0,1.3097E1,-3.275163E-1,9.651E1,1.8159621E0,1.4015548E1,-1.8286593E0,7.379941E0,1.8417132E0,-2.1765993E0,2.9379857E0,5.474248E0,-9.1511214E-1,-1.8305077E-1,-7.882677E-1,3.602567E-1,3.6022494E0,9.871535E-1],"split_indices":[6,0,4,0,5,6,5,0,0,6,0,4,0,0,0,0,6,0,0,0,6,6,6,6,6,0,6,0,0,0,6,0,0,0,0,0,0,0,0,0,0,0,0,0,0],"split_type":[0,0,0,0,0,0,0,0,0,0,0,0,0,0,0,0,0,0,0,0,0,0,0,0,0,0,0,0,0,0,0,0,0,0,0,0,0,0,0,0,0,0,0,0,0],"sum_hessian":[1.68E3,3.6E1,1.644E3,2E0,3.4E1,1.638E3,6E0,1E0,1E0,2.6E1,8E0,3.3E1,1.605E3,4E0,2E0,1E0,2.5E1,5E0,3E0,3E0,3E1,1.596E3,9E0,8E0,1.7E1,3E0,2.7E1,1.503E3,9.3E1,1E0,8E0,1E0,7E0,1E0,1.6E1,1E0,2E0,2E1,7E0,5.8E1,1.445E3,9E1,3E0,6E0,2E0],"tree_param":{"num_deleted":"0","num_feature":"7","num_nodes":"45","size_leaf_vector":"1"}},{"base_weights":[3.0066544E-1,2.0512788E2,-4.5379553E0,2.648268E2,1.6110342E2,-5.7152963E0,1.715125E2,3.2367377E0,2.8849103E2,1.2019593E2,2.4912328E2,4.4500854E1,-6.773526E0,-9.375652E-1,1.9295114E2,1.3599681E1,4.8100867E0,-1.7886698E0,1.3141759E2,1.2557332E1,4.4943085E0,3.3871807E1,6.256162E0,1.677183E1,-7.186238E0,2.2990591E2,3.5007384E0,1.4261292E2,2.7903336E1,4.4866734E1,-2.375275E0,-4.79951E0,2.724244E1,-1.8331825E1,-6.5721545E0,1.0829988E1,2.7031095E0,7.65784E-1,6.5510345E0,-2.756789E0,4.587359E0,1.1593753E0,5.584413E0,-8.9626825E-1,2.9836504E0,1.3396424E0,-7.377682E-1,-8.4424424E-1,-3.6336598E-1,-2.628902E-1,-7.7783984E-1],"categories":[],"categories_nodes":[],"categories_segments":[],"categories_sizes":[],"default_left":[0,0,1,0,1,0,0,0,1,0,1,0,0,0,1,0,0,0,0,0,0,0,0,0,0,1,0,0,0,0,0,0,0,0,1,0,0,0,0,0,0,0,0,0,0,0,0,0,0,0,0],"id":28,"left_children":[1,3,5,7,9,11,13,-1,15,17,19,21,23,-1,25,-1,-1,-1,27,-1,-1,29,-1,31,33,35,-1,37,39,41,-1,43,45,47,49,-1,-1,-1,-1,-1,-1,-1,-1,-1,-1,-1,-1,-1,-1,-1,-1],"loss_changes":[1.6748671E6,5.983575E4,3.4318544E5,4.6384125E4,6.0073125E4,8.750456E4,4.9638594E4,0E0,1.7919625E4,3.9721438E4,9.42175E3,3.0767055E4,1.5746164E4,0E0,2.3322875E4,0E0,0E0,0E0,1.6880406E4,0E0,0E0,3.3462152E4,0E0,6.4549717E3,1.0700375E4,5.542125E3,0E0,1.17351875E4,2.7613176E4,4.0706598E4,0E0,1.2857018E4,3.3560146E3,6.3803125E2,9.333863E3,0E0,0E0,0E0,0E0,0E0,0E0,0E0,0E0,0E0,0E0,0E0,0E0,0E0,0E0,0E0,0E0],"parents":[2147483647,0,0,1,1,2,2,3,3,4,4,5,5,6,6,8,8,9,9,10,10,11,11,12,12,14,14,18,18,21,21,23,23,24,24,25,25,27,27,28,28,29,29,31,31,32,32,33,33,34,34],"right_children":[2,4,6,8,10,12,14,-1,16,18,20,22,24,-1,26,-1,-1,-1,28,-1,-1,30,-1,32,34,36,-1,38,40,42,-1,44,46,48,50,-1,-1,-1,-1,-1,-1,-1,-1,-1,-1,-1,-1,-1,-1,-1,-1],"split_conditions":[7.733728E1,5.325022E1,2.4826469E4,1.5536434E3,2.8538123E4,9.411213E1,3.14E0,3.2367377E0,1.669103E3,5.467E1,6.1046E1,9.367022E1,7.7916E1,-9.375652E-1,7.873984E1,1.3599681E1,4.8100867E0,-1.7886698E0,7.403429E1,1.2557332E1,4.4943085E0,9.296355E1,6.256162E0,4.5293668E2,3.1405704E2,7.1767E1,3.5007384E0,4.5792E1,7.686258E1,9.209389E1,-2.375275E0,7.7549E1,9.919204E2,6.073015E3,9.931E1,1.0829988E1,2.7031095E0,7.65784E-1,6.5510345E0,-2.756789E0,4.587359E0,1.1593753E0,5.584413E0,-8.9626825E-1,2.9836504E0,1.3396424E0,-7.377682E-1,-8.4424424E-1,-3.6336598E-1,-2.628902E-1,-7.7783984E-1],"split_indices":[6,6,5,4,5,6,0,0,4,6,0,6,2,0,6,0,0,0,6,0,0,6,0,4,4,0,0,0,6,6,0,2,4,5,6,0,0,0,0,0,0,0,0,0,0,0,0,0,0,0,0],"split_type":[0,0,0,0,0,0,0,0,0,0,0,0,0,0,0,0,0,0,0,0,0,0,0,0,0,0,0,0,0,0,0,0,0,0,0,0,0,0,0,0,0,0,0,0,0,0,0,0,0,0,0],"sum_hessian":[1.688E3,3.8E1,1.65E3,1.4E1,2.4E1,1.64E3,1E1,2E0,1.2E1,1.8E1,6E0,3.3E1,1.607E3,1E0,9E0,1E1,2E0,1E0,1.7E1,4E0,2E0,3.1E1,2E0,2.7E1,1.58E3,6E0,3E0,1.5E1,2E0,2.8E1,3E0,9E0,1.8E1,8.1E1,1.499E3,5E0,1E0,1E0,1.4E1,1E0,1E0,2.4E1,4E0,8E0,1E0,1.7E1,1E0,7.3E1,8E0,1.429E3,7E1],"tree_param":{"num_deleted":"0","num_feature":"7","num_nodes":"51","size_leaf_vector":"1"}},{"base_weights":[2.5108426E0,1.9839816E2,-1.7311625E0,2.5468745E2,1.51001E2,-2.8151808E0,1.7773859E2,3.1423635E0,2.7728973E2,1.0290242E2,1.1463796E1,5.7119034E1,-3.9951437E0,4.9008217E0,1.0857497E1,1.3058957E1,4.6698384E0,-1.7495546E0,1.1433415E2,3.400026E1,1.04580315E2,5.2104065E1,-4.305297E0,7.047973E0,7.840524E1,5.1275303E1,-1.6814287E0,1.3532874E1,4.7439938E1,1.4833957E1,3.4531035E0,-3.5860445E0,-1.6597357E1,3.7932632E0,1.1936929E0,5.386313E-1,3.432843E0,-1.4783188E0,4.097795E0,-1.8663676E-2,1.0999601E0,-7.453323E-1,-1.2932254E-1,-7.9576826E-1,-9.4381236E-2],"categories":[],"categories_nodes":[],"categories_segments":[],"categories_sizes":[],"default_left":[0,0,1,0,1,0,0,0,1,0,0,0,0,0,0,0,0,0,0,0,0,0,1,0,0,0,0,0,0,0,0,0,0,0,0,0,0,0,0,0,0,0,0,0,0],"id":29,"left_children":[1,3,5,7,9,11,13,-1,15,17,-1,19,21,-1,-1,-1,-1,-1,23,25,27,29,31,-1,33,35,-1,-1,37,39,-1,41,43,-1,-1,-1,-1,-1,-1,-1,-1,-1,-1,-1,-1],"loss_changes":[1.4113051E6,5.7588125E4,3.2403453E5,4.2065875E4,9.060366E4,1.1719933E5,1.8497562E4,0E0,1.532675E4,3.2345766E4,0E0,3.1556133E4,2.8463486E4,0E0,0E0,0E0,0E0,0E0,1.4276719E4,3.075565E4,1.023683E5,7.8348926E3,1.4218846E4,0E0,2.3138125E3,1.9178723E4,0E0,0E0,3.698635E4,7.9788184E2,0E0,1.2876635E4,2.0136348E3,0E0,0E0,0E0,0E0,0E0,0E0,0E0,0E0,0E0,0E0,0E0,0E0],"parents":[2147483647,0,0,1,1,2,2,3,3,4,4,5,5,6,6,8,8,9,9,11,11,12,12,18,18,19,19,20,20,21,21,22,22,24,24,25,25,28,28,29,29,31,31,32,32],"right_children":[2,4,6,8,10,12,14,-1,16,18,-1,20,22,-1,-1,-1,-1,-1,24,26,28,30,32,-1,34,36,-1,-1,38,40,-1,42,44,-1,-1,-1,-1,-1,-1,-1,-1,-1,-1,-1,-1],"split_conditions":[7.733728E1,5.325022E1,2.6485652E4,1.5536434E3,2.8538123E4,9.53619E1,3.292332E4,3.1423635E0,1.669103E3,5.467E1,1.1463796E1,9.209389E1,5.7147E1,4.9008217E0,1.0857497E1,1.3058957E1,4.6698384E0,-1.7495546E0,6.396708E1,9.17059E1,9.269E1,1.4459949E4,9.925812E1,7.047973E0,7.403429E1,8.484802E1,-1.6814287E0,1.3532874E1,9.367022E1,4.512E1,3.4531035E0,1.7234303E3,9.996E1,3.7932632E0,1.1936929E0,5.386313E-1,3.432843E0,-1.4783188E0,4.097795E0,-1.8663676E-2,1.0999601E0,-7.453323E-1,-1.2932254E-1,-7.9576826E-1,-9.4381236E-2],"split_indices":[6,6,5,4,5,6,5,0,4,6,0,6,2,0,0,0,0,0,6,6,6,5,6,0,6,6,0,0,6,0,0,5,6,0,0,0,0,0,0,0,0,0,0,0,0],"split_type":[0,0,0,0,0,0,0,0,0,0,0,0,0,0,0,0,0,0,0,0,0,0,0,0,0,0,0,0,0,0,0,0,0,0,0,0,0,0,0,0,0,0,0,0,0],"sum_hessian":[1.697E3,3.5E1,1.662E3,1.4E1,2.1E1,1.653E3,9E0,2E0,1.2E1,1.6E1,5E0,3.1E1,1.622E3,6E0,3E0,1E1,2E0,1E0,1.5E1,2.2E1,9E0,8E0,1.614E3,5E0,1E1,1.8E1,4E0,1E0,8E0,4E0,4E0,1.526E3,8.8E1,8E0,2E0,8E0,1E1,3E0,5E0,2E0,2E0,6.7E1,1.459E3,7.9E1,9E0],"tree_param":{"num_deleted":"0","num_feature":"7","num_nodes":"45","size_leaf_vector":"1"}},{"base_weights":[1.1878495E0,1.9295479E2,-2.2536552E0,1.5592328E2,1.2040565E1,-3.072457E0,1.9294313E2,-4.006612E1,1.7649684E2,5.441933E1,-4.339552E0,1.3790022E0,9.385319E0,-3.821777E0,1.1932794E0,1.2185364E1,9.222521E1,-2.0180521E1,6.710255E1,-4.764762E0,3.0149334E1,1.10285805E2,-2.7226071E0,8.6298007E-1,-1.4043304E0,1.0721924E2,3.9677406E1,-4.1619925E0,-1.6892282E1,1.7595924E1,3.3223608E0,2.6303184E0,8.552162E0,1.874831E0,1.2507923E1,-6.260119E-2,4.440054E0,-1.5474626E-1,-7.117949E-1,-4.9762833E-1,-1.0548621E0,-1.0977577E0,1.0917368E0],"categories":[],"categories_nodes":[],"categories_segments":[],"categories_sizes":[],"default_left":[0,1,1,0,0,0,0,0,0,0,1,0,0,0,0,0,0,0,0,1,0,0,0,0,0,0,0,1,0,0,0,0,0,0,0,0,0,0,0,0,0,0,0],"id":30,"left_children":[1,3,5,7,-1,9,11,13,15,17,19,-1,-1,-1,-1,-1,21,23,25,27,29,31,-1,-1,-1,33,35,37,39,41,-1,-1,-1,-1,-1,-1,-1,-1,-1,-1,-1,-1,-1],"loss_changes":[1.1230384E6,4.8556375E4,2.6782438E5,9.981219E4,0E0,1.2160017E5,1.7692844E4,1.1944449E4,1.5501819E5,3.541615E4,2.406229E4,0E0,0E0,0E0,0E0,0E0,4.3134492E4,3.490171E3,2.9852203E4,1.171357E4,1.0165945E4,3.954122E4,0E0,0E0,0E0,1.257898E5,5.0990293E4,1.1555992E4,2.754127E3,5.972997E3,0E0,0E0,0E0,0E0,0E0,0E0,0E0,0E0,0E0,0E0,0E0,0E0,0E0],"parents":[2147483647,0,0,1,1,2,2,3,3,5,5,6,6,7,7,8,8,9,9,10,10,16,16,17,17,18,18,19,19,20,20,21,21,25,25,26,26,27,27,28,28,29,29],"right_children":[2,4,6,8,-1,10,12,14,16,18,20,-1,-1,-1,-1,-1,22,24,26,28,30,32,-1,-1,-1,34,36,38,40,42,-1,-1,-1,-1,-1,-1,-1,-1,-1,-1,-1,-1,-1],"split_conditions":[7.694608E1,3.0976229E4,1.045466E3,3.329975E1,1.2040565E1,9.411213E1,8.40937E1,2.7020002E1,5.847755E1,5.212523E2,1.9425E1,1.3790022E0,9.385319E0,-3.821777E0,1.1932794E0,1.2185364E1,7.403429E1,3.2312756E3,8.605159E1,8.726E1,9.5474805E2,6.821E1,-2.7226071E0,8.6298007E-1,-1.4043304E0,8.430693E1,9.209389E1,9.931E1,1.944766E3,4.1393063E2,3.3223608E0,2.6303184E0,8.552162E0,1.874831E0,1.2507923E1,-6.260119E-2,4.440054E0,-1.5474626E-1,-7.117949E-1,-4.9762833E-1,-1.0548621E0,-1.0977577E0,1.0917368E0],"split_indices":[6,5,4,6,0,6,6,6,6,4,3,0,0,0,0,0,6,5,6,2,4,6,0,0,0,6,6,6,5,4,0,0,0,0,0,0,0,0,0,0,0,0,0],"split_type":[0,0,0,0,0,0,0,0,0,0,0,0,0,0,0,0,0,0,0,0,0,0,0,0,0,0,0,0,0,0,0,0,0,0,0,0,0,0,0,0,0,0,0],"sum_hessian":[1.7E3,2.9E1,1.671E3,2.2E1,7E0,1.665E3,6E0,2E0,2E1,3.5E1,1.63E3,1E0,5E0,1E0,1E0,8E0,1.2E1,5E0,3E1,1.611E3,1.9E1,1.1E1,1E0,1E0,4E0,1.1E1,1.9E1,1.536E3,7.5E1,1.6E1,3E0,8E0,3E0,9E0,2E0,1.2E1,7E0,1.462E3,7.4E1,4.4E1,3.1E1,2E0,1.4E1],"tree_param":{"num_deleted":"0","num_feature":"7","num_nodes":"43","size_leaf_vector":"1"}},{"base_weights":[1.5172769E0,2.0751787E2,-2.476385E0,1.8139368E2,1.3659176E1,-3.4705973E0,1.4606711E2,-3.7382023E0,1.9444322E2,6.893623E1,-4.316105E0,8.430791E1,1.0193493E1,2.0660562E2,-2.663069E0,1.084201E0,1.1818461E2,-4.5936646E0,5.2290474E1,-1.001166E0,1.0289222E2,1.1674864E1,1.5896184E2,5.702992E1,-2.3047422E1,1.350231E2,2.8274267E1,-3.7724045E1,-4.1548605E0,1.0856239E1,3.2793148E0,4.8004937E0,1.3488463E0,-1.9777645E0,7.6340976E0,-6.7854977E-1,4.4199405E0,-2.445811E0,6.818077E-1,2.9166749E0,6.9136043E0,2.9562647E0,-1.1013598E0,8.4410834E-1,-1.8168045E0,-6.876546E-1,-1.4995392E-1,-6.0446733E-1,1.0360562E0],"categories":[],"categories_nodes":[],"categories_segments":[],"categories_sizes":[],"default_left":[0,1,1,0,0,0,0,0,0,0,1,0,0,0,0,0,0,0,0,0,0,0,0,0,0,0,0,0,0,0,0,0,0,0,0,0,0,0,0,0,0,0,0,0,0,0,0,0,0],"id":31,"left_children":[1,3,5,7,-1,9,11,-1,13,15,17,19,-1,21,-1,23,25,27,29,-1,31,-1,33,35,37,39,41,43,45,47,-1,-1,-1,-1,-1,-1,-1,-1,-1,-1,-1,-1,-1,-1,-1,-1,-1,-1,-1],"loss_changes":[1.3842899E6,3.0952125E4,2.443328E5,1.1412881E5,0E0,1.0076045E5,3.945511E4,0E0,9.6427625E4,6.3362297E4,2.5740303E4,1.8293082E4,0E0,3.230475E4,0E0,1.3464941E4,1.28358125E4,2.3336273E4,6.706908E3,0E0,7.910156E1,0E0,6.1999594E4,1.1150241E4,9.762952E3,3.6359688E3,8.007699E3,5.371668E3,1.33544E4,1.5940856E3,0E0,0E0,0E0,0E0,0E0,0E0,0E0,0E0,0E0,0E0,0E0,0E0,0E0,0E0,0E0,0E0,0E0,0E0,0E0],"parents":[2147483647,0,0,1,1,2,2,3,3,5,5,6,6,8,8,9,9,10,10,11,11,13,13,15,15,16,16,17,17,18,18,20,20,22,22,23,23,24,24,25,25,26,26,27,27,28,28,29,29],"right_children":[2,4,6,8,-1,10,12,-1,14,16,18,20,-1,22,-1,24,26,28,30,-1,32,-1,34,36,38,40,42,44,46,48,-1,-1,-1,-1,-1,-1,-1,-1,-1,-1,-1,-1,-1,-1,-1,-1,-1,-1,-1],"split_conditions":[7.694608E1,3.8552207E4,2.6485652E4,2.7020002E1,1.3659176E1,9.17059E1,3.292332E4,-3.7382023E0,7.403429E1,8.020683E1,3.5231E1,3.14E0,1.0193493E1,5.325022E1,-2.663069E0,7.733728E1,9.037226E1,9.583325E1,4.253E1,-1.001166E0,3.0601197E4,1.1674864E1,5.467E1,2.0445E1,7.856844E1,8.430693E1,5.9397E1,3.2312756E3,2.9788606E3,4.512E1,3.2793148E0,4.8004937E0,1.3488463E0,-1.9777645E0,7.6340976E0,-6.7854977E-1,4.4199405E0,-2.445811E0,6.818077E-1,2.9166749E0,6.9136043E0,2.9562647E0,-1.1013598E0,8.4410834E-1,-1.8168045E0,-6.876546E-1,-1.4995392E-1,-6.0446733E-1,1.0360562E0],"split_indices":[6,5,5,6,0,6,5,0,6,6,0,0,0,6,0,6,6,6,2,0,5,0,6,0,6,6,0,5,5,0,0,0,0,0,0,0,0,0,0,0,0,0,0,0,0,0,0,0,0],"split_type":[0,0,0,0,0,0,0,0,0,0,0,0,0,0,0,0,0,0,0,0,0,0,0,0,0,0,0,0,0,0,0,0,0,0,0,0,0,0,0,0,0,0,0,0,0,0,0,0,0],"sum_hessian":[1.681E3,3.1E1,1.65E3,2.7E1,4E0,1.64E3,1E1,1E0,2.6E1,1.8E1,1.622E3,7E0,3E0,2.5E1,1E0,8E0,1E1,1.615E3,7E0,1E0,6E0,9E0,1.6E1,2E0,6E0,8E0,2E0,2E1,1.595E3,3E0,4E0,5E0,1E0,1E0,1.5E1,1E0,1E0,3E0,3E0,3E0,5E0,1E0,1E0,1E0,1.9E1,9.3E1,1.502E3,1E0,2E0],"tree_param":{"num_deleted":"0","num_feature":"7","num_nodes":"49","size_leaf_vector":"1"}},{"base_weights":[9.6938413E-1,1.2880875E2,-2.8541431E0,-1.3261885E1,1.4145102E2,-3.6351702E0,1.6005391E2,-1.1628771E0,8.7569994E-1,1.292643E2,1.1941645E1,3.9846924E1,-4.2685046E0,-9.792724E-1,1.8931604E2,1.3779451E2,-5.1944156E0,-4.1649528E0,4.9860214E1,2.0847767E1,-4.7171435E0,8.917709E0,2.2266116E0,1.1490511E2,1.8735004E2,-1.4297513E0,5.9278877E1,4.087537E0,3.0863047E1,-1.2328539E1,-3.7110753E0,6.688669E0,3.5354888E0,9.95285E0,4.7762218E0,7.1262026E-1,4.2369285E0,-1.3187572E-1,1.7979515E0,2.424765E0,7.498676E-1,-4.9955922E-1,-1.8901749E0,-1.3815254E-1,-7.5120765E-1],"categories":[],"categories_nodes":[],"categories_segments":[],"categories_sizes":[],"default_left":[0,0,1,1,0,0,0,0,0,0,0,0,0,0,1,1,0,0,0,0,0,0,0,0,1,0,0,0,0,0,1,0,0,0,0,0,0,0,0,0,0,0,0,0,0],"id":32,"left_children":[1,3,5,7,9,11,13,-1,-1,15,-1,17,19,-1,21,23,-1,-1,25,27,29,-1,-1,31,33,-1,35,37,39,41,43,-1,-1,-1,-1,-1,-1,-1,-1,-1,-1,-1,-1,-1,-1],"loss_changes":[8.415877E5,9.168069E4,2.1331977E5,2.7502117E3,3.8472688E4,4.602203E4,4.694861E4,0E0,0E0,1.0945919E5,0E0,3.7209566E4,1.8600629E4,0E0,3.7476562E3,2.724725E4,0E0,0E0,1.9820754E4,4.7417393E3,1.2313582E4,0E0,0E0,2.9094344E4,1.2860719E4,0E0,3.2359234E4,3.2794463E3,5.118201E3,4.769914E3,1.0557699E4,0E0,0E0,0E0,0E0,0E0,0E0,0E0,0E0,0E0,0E0,0E0,0E0,0E0,0E0],"parents":[2147483647,0,0,1,1,2,2,3,3,4,4,5,5,6,6,9,9,11,11,12,12,14,14,15,15,18,18,19,19,20,20,23,23,24,24,26,26,27,27,28,28,29,29,30,30],"right_children":[2,4,6,8,10,12,14,-1,-1,16,-1,18,20,-1,22,24,-1,-1,26,28,30,-1,-1,32,34,-1,36,38,40,42,44,-1,-1,-1,-1,-1,-1,-1,-1,-1,-1,-1,-1,-1,-1],"split_conditions":[8.605159E1,1.2233802E4,2.6485652E4,4.6271E1,8.430693E1,9.53619E1,3.14E0,-1.1628771E0,8.7569994E-1,8.40937E1,1.1941645E1,8.613652E1,7.7916E1,-9.792724E-1,7.1767E1,1.1740607E3,-5.1944156E0,-4.1649528E0,4.827064E2,9.831874E1,1.045466E3,8.917709E0,2.2266116E0,6.396708E1,6.1046E1,-1.4297513E0,9.209389E1,3.5231E1,2.1423E1,7.164717E2,9.93E1,6.688669E0,3.5354888E0,9.95285E0,4.7762218E0,7.1262026E-1,4.2369285E0,-1.3187572E-1,1.7979515E0,2.424765E0,7.498676E-1,-4.9955922E-1,-1.8901749E0,-1.3815254E-1,-7.5120765E-1],"split_indices":[6,5,5,0,6,6,0,0,0,6,0,6,2,0,0,4,0,0,4,6,4,0,0,6,0,0,6,0,3,4,6,0,0,0,0,0,0,0,0,0,0,0,0,0,0],"split_type":[0,0,0,0,0,0,0,0,0,0,0,0,0,0,0,0,0,0,0,0,0,0,0,0,0,0,0,0,0,0,0,0,0,0,0,0,0,0,0,0,0,0,0,0,0],"sum_hessian":[1.72E3,4.9E1,1.671E3,4E0,4.5E1,1.664E3,7E0,3E0,1E0,4.3E1,2E0,2.3E1,1.641E3,1E0,6E0,4.2E1,1E0,1E0,2.2E1,2.8E1,1.613E3,5E0,1E0,3.1E1,1.1E1,2E0,2E1,1.1E1,1.7E1,1.87E2,1.426E3,1.3E1,1.8E1,6E0,5E0,1E1,1E1,1E1,1E0,5E0,1.2E1,1.83E2,4E0,1.371E3,5.5E1],"tree_param":{"num_deleted":"0","num_feature":"7","num_nodes":"45","size_leaf_vector":"1"}},{"base_weights":[2.153417E0,1.7215535E2,-1.8491349E0,2.3190186E2,1.3336278E2,-2.740427E0,1.317697E2,2.1156034E0,2.5845914E2,-2.080782E0,1.4250337E2,5.3190765E1,-3.74059E0,7.1815674E1,9.566607E0,1.2493878E1,3.5696106E0,1.1340932E2,2.1573299E2,-1.8559632E0,7.078999E1,-3.9084625E0,6.5015E1,9.839834E-1,3.695915E0,1.2583359E2,-2.6821473E0,1.0657138E1,1.6630449E0,5.4991913E1,-2.9970575E1,9.054514E1,2.4900345E1,6.858357E0,-4.5704274E0,-9.578577E-1,4.4298997E0,8.322407E0,4.19691E0,-6.3828146E-1,4.2459707E0,1.6994784E0,-2.2527428E0,2.7317216E0,7.9629498E0,-1.4250668E0,5.754244E0,-1.3172632E0,3.6774743E-1,-5.558373E-1,-1.6232009E-1],"categories":[],"categories_nodes":[],"categories_segments":[],"categories_sizes":[],"default_left":[0,0,1,0,0,0,0,0,1,0,1,0,1,0,0,0,0,0,1,0,0,0,0,0,0,0,0,0,0,0,0,0,0,0,0,0,0,0,0,0,0,0,0,0,0,0,0,0,0,0,0],"id":33,"left_children":[1,3,5,7,9,11,13,-1,15,-1,17,19,21,23,-1,-1,-1,25,27,29,31,33,35,-1,-1,37,-1,-1,-1,39,41,43,45,47,49,-1,-1,-1,-1,-1,-1,-1,-1,-1,-1,-1,-1,-1,-1,-1,-1],"loss_changes":[1.1536668E6,5.9464E4,1.9769889E5,5.5734438E4,4.978078E4,9.233267E4,4.164472E4,0E0,3.4420125E4,0E0,2.8797469E4,2.8225992E4,1.8940873E4,3.1052656E3,0E0,0E0,0E0,5.1136E4,2.0522125E4,1.44341875E4,1.7689656E4,1.1548992E4,1.482883E4,0E0,0E0,1.832375E4,0E0,0E0,0E0,1.0203398E4,1.0895667E4,2.7185734E4,5.3340016E4,5.640743E3,1.0600891E4,0E0,0E0,0E0,0E0,0E0,0E0,0E0,0E0,0E0,0E0,0E0,0E0,0E0,0E0,0E0,0E0],"parents":[2147483647,0,0,1,1,2,2,3,3,4,4,5,5,6,6,8,8,10,10,11,11,12,12,13,13,17,17,18,18,19,19,20,20,21,21,22,22,25,25,29,29,30,30,31,31,32,32,33,33,34,34],"right_children":[2,4,6,8,10,12,14,-1,16,-1,18,20,22,24,-1,-1,-1,26,28,30,32,34,36,-1,-1,38,-1,-1,-1,40,42,44,46,48,50,-1,-1,-1,-1,-1,-1,-1,-1,-1,-1,-1,-1,-1,-1,-1,-1],"split_conditions":[7.694608E1,5.325022E1,4.512E1,1.5536434E3,5.467E1,9.411213E1,3.292332E4,2.1156034E0,1.669103E3,-2.080782E0,2.8846547E4,7.954449E1,2.6485652E4,4.9618E1,9.566607E0,1.2493878E1,3.5696106E0,7.403429E1,6.1046E1,7.733728E1,9.269E1,9.8689995E1,3.14E0,9.839834E-1,3.695915E0,5.847755E1,-2.6821473E0,1.0657138E1,1.6630449E0,2.0445E1,3.421E1,9.209389E1,9.367022E1,9.534632E1,4.5293668E2,-9.578577E-1,4.4298997E0,8.322407E0,4.19691E0,-6.3828146E-1,4.2459707E0,1.6994784E0,-2.2527428E0,2.7317216E0,7.9629498E0,-1.4250668E0,5.754244E0,-1.3172632E0,3.6774743E-1,-5.558373E-1,-1.6232009E-1],"split_indices":[6,6,0,4,6,6,5,0,4,0,5,6,5,0,0,0,0,6,0,6,6,6,0,0,0,6,0,0,0,0,0,6,6,6,4,0,0,0,0,0,0,0,0,0,0,0,0,0,0,0,0],"split_type":[0,0,0,0,0,0,0,0,0,0,0,0,0,0,0,0,0,0,0,0,0,0,0,0,0,0,0,0,0,0,0,0,0,0,0,0,0,0,0,0,0,0,0,0,0,0,0,0,0,0,0],"sum_hessian":[1.694E3,3.8E1,1.656E3,1.3E1,2.5E1,1.646E3,1E1,2E0,1.1E1,1E0,2.4E1,2.8E1,1.618E3,7E0,3E0,9E0,2E0,1.9E1,5E0,7E0,2.1E1,1.615E3,3E0,2E0,5E0,1.8E1,1E0,4E0,1E0,2E0,5E0,1.4E1,7E0,9.3E1,1.522E3,1E0,2E0,4E0,1.4E1,1E0,1E0,1E0,4E0,1.2E1,2E0,5E0,2E0,3E0,9E1,1.44E2,1.378E3],"tree_param":{"num_deleted":"0","num_feature":"7","num_nodes":"51","size_leaf_vector":"1"}},{"base_weights":[1.3161684E0,1.4397342E2,-1.2519382E0,1.20979095E2,1.1510954E1,1.1514978E2,-2.378558E0,-4.075939E0,1.3280092E2,6.4395996E1,1.7120523E2,2.814138E1,-3.0180264E0,1.8029134E2,9.7053566E1,1.0349944E0,3.1324058E0,1.859486E2,1.8094674E0,1.4203323E1,1.0673711E1,-2.4271646E0,-1.5149539E1,2.0539181E0,9.086307E0,-2.0352788E0,1.08936356E2,8.920338E0,2.0970974E0,-4.1814682E1,2.820046E1,-1.862389E0,-1.5467323E1,-1.1803525E1,-2.1369425E1,3.6745667E0,8.262369E0,-2.6877127E0,1.6623142E0,1.7920725E0,-2.427152E0,-9.861366E-2,6.522703E-1,-7.677028E-1,3.3330396E-1,-5.3475726E-1,2.048383E-1,-9.808428E-1,8.7449804E-2],"categories":[],"categories_nodes":[],"categories_segments":[],"categories_sizes":[],"default_left":[0,1,0,0,0,0,0,0,0,0,1,0,1,0,0,0,0,0,0,0,0,1,0,0,0,0,0,0,0,1,0,1,0,1,0,0,0,0,0,0,0,0,0,0,0,0,0,0,0],"id":34,"left_children":[1,3,5,7,-1,9,11,-1,13,15,17,19,21,23,25,-1,-1,27,-1,29,-1,31,33,-1,-1,-1,35,-1,-1,37,39,41,43,45,47,-1,-1,-1,-1,-1,-1,-1,-1,-1,-1,-1,-1,-1,-1],"loss_changes":[6.215251E5,5.039975E4,2.1888505E5,8.073806E4,0E0,3.4495484E4,3.2326252E4,0E0,2.6641188E4,1.2478789E3,5.706047E3,9.885085E4,1.15683E4,2.685875E4,3.4075484E4,0E0,0E0,5.132703E3,0E0,2.7054219E4,0E0,1.1349753E4,1.3086523E3,0E0,0E0,0E0,1.6016094E4,0E0,0E0,1.3308831E4,3.11412E4,9.788586E3,3.2158164E3,4.1328613E2,6.62375E2,0E0,0E0,0E0,0E0,0E0,0E0,0E0,0E0,0E0,0E0,0E0,0E0,0E0,0E0],"parents":[2147483647,0,0,1,1,2,2,3,3,5,5,6,6,8,8,9,9,10,10,11,11,12,12,13,13,14,14,17,17,19,19,21,21,22,22,26,26,29,29,30,30,31,31,32,32,33,33,34,34],"right_children":[2,4,6,8,-1,10,12,-1,14,16,18,20,22,24,26,-1,-1,28,-1,30,-1,32,34,-1,-1,-1,36,-1,-1,38,40,42,44,46,48,-1,-1,-1,-1,-1,-1,-1,-1,-1,-1,-1,-1,-1,-1],"split_conditions":[7.403429E1,4.5345734E4,5.3839E1,2.7020002E1,1.1510954E1,1.1740607E3,9.411213E1,-4.075939E0,5.325022E1,1.2233802E4,8.613652E1,9.367022E1,8.6784E1,1.5536434E3,5.467E1,1.0349944E0,3.1324058E0,7.1767E1,1.8094674E0,7.856844E1,1.0673711E1,9.946973E1,4.0832974E3,2.0539181E0,9.086307E0,-2.0352788E0,7.054331E1,8.920338E0,2.0970974E0,3.2881E1,9.27E1,5.0202618E2,1E2,1E2,1.0294E1,3.6745667E0,8.262369E0,-2.6877127E0,1.6623142E0,1.7920725E0,-2.427152E0,-9.861366E-2,6.522703E-1,-7.677028E-1,3.3330396E-1,-5.3475726E-1,2.048383E-1,-9.808428E-1,8.7449804E-2],"split_indices":[6,5,2,6,0,4,6,0,6,5,6,6,2,4,6,0,0,0,0,6,0,6,5,0,0,0,6,0,0,0,6,4,6,6,0,0,0,0,0,0,0,0,0,0,0,0,0,0,0],"split_type":[0,0,0,0,0,0,0,0,0,0,0,0,0,0,0,0,0,0,0,0,0,0,0,0,0,0,0,0,0,0,0,0,0,0,0,0,0,0,0,0,0,0,0,0,0,0,0,0,0],"sum_hessian":[1.695E3,2.9E1,1.666E3,2.6E1,3E0,1.5E1,1.651E3,1E0,2.5E1,9E0,6E0,3.3E1,1.618E3,9E0,1.6E1,2E0,7E0,5E0,1E0,3.2E1,1E0,1.544E3,7.4E1,2E0,7E0,1E0,1.5E1,4E0,1E0,6E0,2.6E1,1.481E3,6.3E1,5E1,2.4E1,1.3E1,2E0,5E0,1E0,2.3E1,3E0,1.448E3,3.3E1,5.8E1,5E0,4.9E1,1E0,2.3E1,1E0],"tree_param":{"num_deleted":"0","num_feature":"7","num_nodes":"49","size_leaf_vector":"1"}},{"base_weights":[4.1157192E-1,1.3016536E2,-2.5697193E0,-3.9868066E0,1.386107E2,-3.545589E0,1.2088781E2,1.8974066E2,9.061928E1,2.0438408E1,-3.898937E0,7.462731E1,9.023484E0,3.1910012E0,2.2006067E2,4.109037E1,9.079292E0,-3.5208004E0,1.1218756E2,-2.8889992E0,-3.704088E0,-9.4018745E-1,3.835486E0,1.4295496E2,1.1621929E1,8.2032E1,2.060716E1,2.8014355E1,-3.785739E1,-8.209569E0,1.9518884E2,-3.17369E0,-1.4552606E1,7.103061E0,5.7378805E-1,5.376239E-3,5.9742093E0,1.252563E0,-1.4814484E0,-1.082065E0,5.5335283E0,-4.1727996E0,-9.12412E-1,-1.3558171E0,8.172365E-1,1.2873596E1,-6.8428256E-2,-1.6122332E-1,5.0625E-1,-4.6052742E-1,-9.9116766E-1],"categories":[],"categories_nodes":[],"categories_segments":[],"categories_sizes":[],"default_left":[0,0,1,0,0,0,0,0,1,0,0,0,0,0,0,0,0,0,0,0,1,0,0,0,0,0,0,0,0,0,0,1,0,0,0,0,0,0,0,0,0,0,0,0,0,0,0,0,0,0,0],"id":35,"left_children":[1,3,5,-1,7,9,11,13,15,17,19,21,-1,-1,23,25,-1,27,29,-1,31,-1,-1,33,-1,35,37,39,41,43,45,47,49,-1,-1,-1,-1,-1,-1,-1,-1,-1,-1,-1,-1,-1,-1,-1,-1,-1,-1],"loss_changes":[6.544705E5,8.3662375E4,1.997E5,0E0,7.359644E4,1.3995143E4,3.597914E4,4.4137438E4,1.13135266E5,5.3152688E4,1.9363252E4,1.4447676E4,0E0,0E0,7.789625E3,1.1727408E4,0E0,2.2716744E4,5.1567992E4,0E0,9.24657E3,0E0,0E0,1.5548891E4,0E0,2.2330086E4,6.221063E3,6.029442E4,7.790801E3,2.4181208E3,5.8990133E4,1.1692877E4,2.2082676E3,0E0,0E0,0E0,0E0,0E0,0E0,0E0,0E0,0E0,0E0,0E0,0E0,0E0,0E0,0E0,0E0,0E0,0E0],"parents":[2147483647,0,0,1,1,2,2,4,4,5,5,6,6,7,7,8,8,9,9,10,10,11,11,14,14,15,15,17,17,18,18,20,20,23,23,25,25,26,26,27,27,28,28,29,29,30,30,31,31,32,32],"right_children":[2,4,6,-1,8,10,12,14,16,18,20,22,-1,-1,24,26,-1,28,30,-1,32,-1,-1,34,-1,36,38,40,42,44,46,48,50,-1,-1,-1,-1,-1,-1,-1,-1,-1,-1,-1,-1,-1,-1,-1,-1,-1,-1],"split_conditions":[7.801632E1,2.7020002E1,9.5474805E2,-3.9868066E0,5.847755E1,9.296355E1,2.9250387E4,1.7064191E3,1.1740607E3,9.209389E1,9.411213E1,3.2881E1,9.023484E0,3.1910012E0,4.13E1,6.4810005E1,9.079292E0,8.605159E1,4.9705325E2,-2.8889992E0,8.7369E1,-9.4018745E-1,3.835486E0,3.875008E1,1.1621929E1,6.271716E1,7.733728E1,8.484802E1,8.613652E1,2.0997E1,9.269E1,4.5293668E2,4.0832974E3,7.103061E0,5.7378805E-1,5.376239E-3,5.9742093E0,1.252563E0,-1.4814484E0,-1.082065E0,5.5335283E0,-4.1727996E0,-9.12412E-1,-1.3558171E0,8.172365E-1,1.2873596E1,-6.8428256E-2,-1.6122332E-1,5.0625E-1,-4.6052742E-1,-9.9116766E-1],"split_indices":[6,6,4,0,6,6,5,4,4,6,6,0,0,0,6,6,0,6,4,0,2,0,0,6,0,6,6,6,6,0,6,4,5,0,0,0,0,0,0,0,0,0,0,0,0,0,0,0,0,0,0],"split_type":[0,0,0,0,0,0,0,0,0,0,0,0,0,0,0,0,0,0,0,0,0,0,0,0,0,0,0,0,0,0,0,0,0,0,0,0,0,0,0,0,0,0,0,0,0,0,0,0,0,0,0],"sum_hessian":[1.69E3,3.7E1,1.653E3,1E0,3.6E1,1.641E3,1.2E1,1.6E1,2E1,2.3E1,1.618E3,9E0,3E0,4E0,1.2E1,1.5E1,5E0,1.9E1,4E0,4E0,1.614E3,1E0,8E0,6E0,6E0,4E0,1.1E1,1E1,9E0,2E0,2E0,1.54E3,7.4E1,5E0,1E0,2E0,2E0,1E1,1E0,7E0,3E0,1E0,8E0,1E0,1E0,1E0,1E0,1.489E3,5.1E1,5.1E1,2.3E1],"tree_param":{"num_deleted":"0","num_feature":"7","num_nodes":"51","size_leaf_vector":"1"}},{"base_weights":[-2.2294576E-1,1.4007886E2,-4.0261736E0,2.0936473E2,9.463269E1,-4.714453E0,1.5917964E2,3.079352E0,2.4670476E2,7.1185684E1,1.7264859E2,4.4662025E1,-5.407434E0,3.4557953E0,8.727495E0,1.5734525E2,1.4202535E1,5.6472755E1,1.3063214E2,9.284924E0,2.7220185E0,-9.410688E1,6.235939E1,3.9173897E1,-5.623584E0,1.2994854E1,9.4931625E1,8.38226E1,1.8005663E1,8.9538866E-1,7.0208426E0,-1.0176992E0,-5.156088E0,5.6918125E0,3.8755653E1,1.5340001E1,3.2270045E0,4.683891E0,-6.4337797E0,-3.899623E0,6.1437917E0,2.003796E0,7.98494E0,-2.5921102E0,1.4510195E0,8.491226E-1,5.3594837E0,-1.2605287E-3,1.0073107E0,-4.952206E-1,3.9631313E-1,-2.7221996E-1,-1.118699E0],"categories":[],"categories_nodes":[],"categories_segments":[],"categories_sizes":[],"default_left":[0,0,1,0,1,0,0,0,0,0,1,0,0,0,0,0,0,0,0,0,0,0,0,0,0,0,0,0,0,0,0,0,0,0,0,0,0,0,1,0,0,0,0,0,0,0,0,0,0,0,0,0,0],"id":36,"left_children":[1,3,5,7,9,11,13,-1,15,17,19,21,23,-1,-1,25,-1,27,29,-1,-1,31,33,35,37,-1,39,41,43,-1,-1,-1,-1,-1,45,47,-1,49,51,-1,-1,-1,-1,-1,-1,-1,-1,-1,-1,-1,-1,-1,-1],"loss_changes":[9.0981794E5,1.2188219E5,1.8722033E5,7.083725E4,4.075783E4,5.683634E4,6.8862812E3,0E0,3.95485E4,1.3613992E4,1.3051594E4,6.235285E4,1.5946645E4,0E0,0E0,4.1584844E4,0E0,2.0584172E4,9.88675E3,0E0,0E0,2.31125E3,2.8553844E4,5.467254E3,1.3600637E4,0E0,7.121441E4,3.667296E4,1.3689453E4,0E0,0E0,0E0,0E0,0E0,2.5169375E4,7.099303E2,0E0,8.441111E3,5.888461E3,0E0,0E0,0E0,0E0,0E0,0E0,0E0,0E0,0E0,0E0,0E0,0E0,0E0,0E0],"parents":[2147483647,0,0,1,1,2,2,3,3,4,4,5,5,6,6,8,8,9,9,10,10,11,11,12,12,15,15,17,17,18,18,21,21,22,22,23,23,24,24,26,26,27,27,28,28,34,34,35,35,37,37,38,38],"right_children":[2,4,6,8,10,12,14,-1,16,18,20,22,24,-1,-1,26,-1,28,30,-1,-1,32,34,36,38,-1,40,42,44,-1,-1,-1,-1,-1,46,48,-1,50,52,-1,-1,-1,-1,-1,-1,-1,-1,-1,-1,-1,-1,-1,-1],"split_conditions":[8.40937E1,5.847755E1,1.045466E3,4.3037117E4,1.1740607E3,9.411213E1,2.9250387E4,3.079352E0,4.13E1,8.020683E1,6.1046E1,8.484802E1,5.7147E1,3.4557953E0,8.727495E0,1.669103E3,1.4202535E1,7.403429E1,5.3294E1,9.284924E0,2.7220185E0,1.282E1,8.83E1,9.919204E2,9.918334E1,1.2994854E1,2.7020002E1,7.054331E1,7.686258E1,8.9538866E-1,7.0208426E0,-1.0176992E0,-5.156088E0,5.6918125E0,9.367022E1,4.1155E1,3.2270045E0,9.663E1,1.2375987E4,-3.899623E0,6.1437917E0,2.003796E0,7.98494E0,-2.5921102E0,1.4510195E0,8.491226E-1,5.3594837E0,-1.2605287E-3,1.0073107E0,-4.952206E-1,3.9631313E-1,-2.7221996E-1,-1.118699E0],"split_indices":[6,6,4,5,4,6,5,0,6,6,0,6,2,0,0,4,0,6,0,0,0,0,6,4,6,0,6,6,6,0,0,0,0,0,6,2,0,6,5,0,0,0,0,0,0,0,0,0,0,0,0,0,0],"split_type":[0,0,0,0,0,0,0,0,0,0,0,0,0,0,0,0,0,0,0,0,0,0,0,0,0,0,0,0,0,0,0,0,0,0,0,0,0,0,0,0,0,0,0,0,0,0,0,0,0,0,0,0,0],"sum_hessian":[1.703E3,4.4E1,1.659E3,1.6E1,2.8E1,1.653E3,6E0,4E0,1.2E1,2.3E1,5E0,2.2E1,1.631E3,3E0,3E0,7E0,5E0,2E1,3E0,3E0,2E0,2E0,2E1,7E0,1.624E3,1E0,6E0,1.1E1,9E0,1E0,2E0,1E0,1E0,4E0,1.6E1,5E0,2E0,1.18E2,1.506E3,1E0,5E0,9E0,2E0,1E0,8E0,1.4E1,2E0,2E0,3E0,2.5E1,9.3E1,1.491E3,1.5E1],"tree_param":{"num_deleted":"0","num_feature":"7","num_nodes":"53","size_leaf_vector":"1"}},{"base_weights":[1.1698602E0,1.3153703E2,-1.6649152E0,1.0939444E2,2.0764287E2,-2.20664E0,1.1020623E2,-3.814346E0,1.1918135E2,2.4696996E2,3.1876302E0,2.1815174E1,-2.863398E0,5.5978856E0,1.6575067E0,1.5515865E2,8.465864E1,1.3646991E1,9.958551E1,-1.4532158E1,3.5899555E1,