{"learner":{"attributes":{"scikit_learn":"{\"_estimator_type\": \"regressor\"}"},"feature_names":["1.F.01 Maternal disorders prevalence (age standardized) (per 100 000 population) female","1.G.03 Vitamin A deficiency prevalence (age standardized) (per 100 000 population) male","Literacy rate, youth total (% of people ages 15-24) female"],"feature_types":["float","float","float"],"gradient_booster":{"model":{"gbtree_model_param":{"num_parallel_tree":"1","num_trees":"100"},"iteration_indptr":[0,1,2,3,4,5,6,7,8,9,10,11,12,13,14,15,16,17,18,19,20,21,22,23,24,25,26,27,28,29,30,31,32,33,34,35,36,37,38,39,40,41,42,43,44,45,46,47,48,49,50,51,52,53,54,55,56,57,58,59,60,61,62,63,64,65,66,67,68,69,70,71,72,73,74,75,76,77,78,79,80,81,82,83,84,85,86,87,88,89,90,91,92,93,94,95,96,97,98,99,100],"tree_info":[0,0,0,0,0,0,0,0,0,0,0,0,0,0,0,0,0,0,0,0,0,0,0,0,0,0,0,0,0,0,0,0,0,0,0,0,0,0,0,0,0,0,0,0,0,0,0,0,0,0,0,0,0,0,0,0,0,0,0,0,0,0,0,0,0,0,0,0,0,0,0,0,0,0,0,0,0,0,0,0,0,0,0,0,0,0,0,0,0,0,0,0,0,0,0,0,0,0,0,0],"trees":[{"base_weights":[-3.4000952E0,4.9244305E2,-2.0052805E1,3.8144393E0,1.59424925E1,-2.2416225E1,8.172454E0,9.3731476E1,-2.5323423E1,6.0518494E0,1.3605832E2,-1.5650567E0,-2.3520756E1,2.4328879E-1,3.1440865E-2,6.305185E1,5.3730345E0,-2.395928E1,1.0906805E0,3.7993073E0,-9.370068E-1,-7.376604E-1,9.998885E-1],"categories":[],"categories_nodes":[],"categories_segments":[],"categories_sizes":[],"default_left":[0,0,1,0,0,0,0,0,0,0,0,0,1,0,0,0,0,1,0,0,0,0,0],"id":0,"left_children":[1,3,5,-1,-1,7,-1,9,11,13,15,-1,17,-1,-1,19,-1,21,-1,-1,-1,-1,-1],"loss_changes":[2.0328722E6,3.42575E4,1.692281E5,0E0,0E0,8.2400055E4,0E0,2.1443816E4,9.820484E3,2.1531334E1,9.192344E2,0E0,6.5833984E3,0E0,0E0,2.1510598E4,0E0,5.9608984E3,0E0,0E0,0E0,0E0,0E0],"parents":[2147483647,0,0,1,1,2,2,5,5,7,7,8,8,9,9,10,10,12,12,15,15,17,17],"right_children":[2,4,6,-1,-1,8,-1,10,12,14,16,-1,18,-1,-1,20,-1,22,-1,-1,-1,-1,-1],"split_conditions":[6.959522E1,3.077491E1,1.2661393E3,3.8144393E0,1.59424925E1,9.359E1,8.172454E0,7.856844E1,4.533947E2,7.3409996E1,9.021858E1,-1.5650567E0,6.1644293E2,2.4328879E-1,3.1440865E-2,8.020683E1,5.3730345E0,1E2,1.0906805E0,3.7993073E0,-9.370068E-1,-7.376604E-1,9.998885E-1],"split_indices":[2,2,0,0,0,2,0,2,0,2,2,0,0,0,0,2,0,2,0,0,0,0,0],"split_type":[0,0,0,0,0,0,0,0,0,0,0,0,0,0,0,0,0,0,0,0,0,0,0],"sum_hessian":[2.44E2,7E0,2.37E2,1E0,6E0,2.36E2,1E0,5E0,2.31E2,2E0,3E0,1.3E1,2.18E2,1E0,1E0,2E0,1E0,2.17E2,1E0,1E0,1E0,2.16E2,1E0],"tree_param":{"num_deleted":"0","num_feature":"3","num_nodes":"23","size_leaf_vector":"1"}},{"base_weights":[-1.8089405E0,-8.179768E0,1.5516573E1,1.8360713E2,-1.1355366E1,-5.8593404E-1,7.7995343E0,-1.3459506E1,7.2598694E1,-3.8354527E1,-1.1332457E1,4.2795615E0,3.0555342E1,-4.0364525E1,-6.332078E-2,-9.47755E0,-1.2780677E0,1.1800351E0,3.6117578E-1,-2.323846E-1,-1.2688929E0,-3.0919817E-1,-6.333028E-2],"categories":[],"categories_nodes":[],"categories_segments":[],"categories_sizes":[],"default_left":[1,0,0,0,1,0,0,0,0,1,1,0,0,0,0,1,0,0,0,0,0,0,0],"id":1,"left_children":[1,3,-1,5,7,-1,-1,9,11,13,15,-1,17,19,-1,21,-1,-1,-1,-1,-1,-1,-1],"loss_changes":[8.040002E5,1.4947212E5,0E0,6.515703E4,4.3196766E4,0E0,0E0,1.195634E4,1.303701E4,1.2275137E3,1.2036732E4,0E0,3.2011523E2,5.4653125E2,0E0,1.1030938E3,0E0,0E0,0E0,0E0,0E0,0E0,0E0],"parents":[2147483647,0,0,1,1,3,3,4,4,7,7,8,8,9,9,10,10,12,12,13,13,15,15],"right_children":[2,4,-1,6,8,-1,-1,10,12,14,16,-1,18,20,-1,22,-1,-1,-1,-1,-1,-1,-1],"split_conditions":[1.045466E3,8.650945E1,1.5516573E1,4.7512335E2,5.9830066E2,-5.8593404E-1,7.7995343E0,6.034277E3,5.99014E2,9.834E1,9.925812E1,4.2795615E0,8.274404E3,9.657E1,-6.332078E-2,9.616E1,-1.2780677E0,1.1800351E0,3.6117578E-1,-2.323846E-1,-1.2688929E0,-3.0919817E-1,-6.333028E-2],"split_indices":[0,2,0,0,0,0,0,1,0,2,2,0,1,2,0,2,0,0,0,0,0,0,0],"split_type":[0,0,0,0,0,0,0,0,0,0,0,0,0,0,0,0,0,0,0,0,0,0,0],"sum_hessian":[2.43E2,2.41E2,2E0,3E0,2.38E2,1E0,2E0,2.33E2,5E0,1.7E1,2.16E2,1E0,4E0,1.6E1,1E0,2.05E2,1.1E1,2E0,2E0,1E0,1.5E1,1.86E2,1.9E1],"tree_param":{"num_deleted":"0","num_feature":"3","num_nodes":"23","size_leaf_vector":"1"}},{"base_weights":[-1.011145E1,1.2763086E1,-1.7954779E1,-1.9269888E1,4.399843E1,-4.2707325E1,-1.6693481E1,2.047038E0,-2.1890106E0,-2.0574448E1,-1.3527906E0,-1.5117957E1,-3.6842068E1,-3.2343253E-1,2.2406024E-1,3.889853E-1,-1.0895435E0,-1.5641773E1,6.8702064E0,-1.3101869E0,1.0040979E0,-4.61885E-1,-1.1625655E0,1.7534769E0,-4.5188692E-1],"categories":[],"categories_nodes":[],"categories_segments":[],"categories_sizes":[],"default_left":[0,0,1,0,0,0,1,0,0,0,0,1,0,0,0,0,0,1,0,0,0,0,0,0,0],"id":2,"left_children":[1,-1,3,5,7,9,11,-1,13,15,-1,17,19,-1,-1,-1,-1,21,23,-1,-1,-1,-1,-1,-1],"loss_changes":[9.4916806E5,0E0,2.3172062E4,1.5530461E4,6.6995576E3,2.2683594E2,7.188703E3,0E0,3.2367487E2,2.5254553E3,0E0,2.7335117E3,9.113891E3,0E0,0E0,0E0,0E0,1.3429766E3,7.5454956E3,0E0,0E0,0E0,0E0,0E0,0E0],"parents":[2147483647,0,0,2,2,3,3,4,4,5,5,6,6,8,8,9,9,11,11,12,12,17,17,18,18],"right_children":[2,-1,4,6,8,10,12,-1,14,16,-1,18,20,-1,-1,-1,-1,22,24,-1,-1,-1,-1,-1,-1],"split_conditions":[6.3200005E1,1.2763086E1,5.554157E2,9.053373E3,7.063756E2,9.891217E1,9.839818E1,2.047038E0,9.0281586E2,3.3163654E2,-1.3527906E0,9.734E1,9.998897E1,-3.2343253E-1,2.2406024E-1,3.889853E-1,-1.0895435E0,9.66E1,9.743798E1,-1.3101869E0,1.0040979E0,-4.61885E-1,-1.1625655E0,1.7534769E0,-4.5188692E-1],"split_indices":[2,0,0,1,0,2,2,0,0,0,0,2,2,0,0,0,0,2,2,0,0,0,0,0,0],"split_type":[0,0,0,0,0,0,0,0,0,0,0,0,0,0,0,0,0,0,0,0,0,0,0,0,0],"sum_hessian":[2.77E2,4E0,2.73E2,2.68E2,5E0,2.5E1,2.43E2,3E0,2E0,3E0,2.2E1,2.27E2,1.6E1,1E0,1E0,1E0,2E0,2.22E2,5E0,1.5E1,1E0,2.2E2,2E0,1E0,4E0],"tree_param":{"num_deleted":"0","num_feature":"3","num_nodes":"25","size_leaf_vector":"1"}},{"base_weights":[-1.2684124E1,3.6488745E2,-2.4070778E1,2.287954E0,1.212079E1,-2.534748E1,8.140783E1,-2.6824013E1,-7.561703E-1,6.045133E-1,3.0910752E0,-4.5581944E1,-2.4677376E1,4.7176807E1,-2.4647041E1,-6.672856E-1,-1.461121E0,3.4869435E-1,-2.5109955E1,7.502041E0,2.1525555E0,-3.3521767E1,2.1894704E-1,-7.658972E-1,-3.8108885E-1,3.830992E-1,-4.2536683E-2,-1.2552607E0,-4.5992878E-1],"categories":[],"categories_nodes":[],"categories_segments":[],"categories_sizes":[],"default_left":[0,0,1,0,0,1,0,0,0,0,0,0,0,0,0,0,0,0,1,0,0,0,0,0,0,0,0,0,0],"id":3,"left_children":[1,3,5,-1,-1,7,9,11,13,-1,-1,15,17,19,21,-1,-1,-1,23,25,-1,27,-1,-1,-1,-1,-1,-1,-1],"loss_changes":[1.0277116E6,4.1842062E4,3.3171062E4,0E0,0E0,8.294672E3,1.7802324E3,7.5727188E3,1.7195018E4,0E0,0E0,2.6847266E2,3.3584531E3,4.217297E3,3.0719219E3,0E0,0E0,0E0,1.6036719E2,1.5558858E2,0E0,5.358789E2,0E0,0E0,0E0,0E0,0E0,0E0,0E0],"parents":[2147483647,0,0,1,1,2,2,5,5,6,6,7,7,8,8,11,11,12,12,13,13,14,14,18,18,19,19,21,21],"right_children":[2,4,6,-1,-1,8,10,12,14,-1,-1,16,18,20,22,-1,-1,-1,24,26,-1,28,-1,-1,-1,-1,-1,-1,-1],"split_conditions":[8.175145E1,6.0791473E2,7.974566E2,2.287954E0,1.212079E1,9.890874E1,8.028645E2,8.880096E3,9.918334E1,6.045133E-1,3.0910752E0,9.686E1,6.144954E2,9.903209E1,9.983831E1,-6.672856E-1,-1.461121E0,3.4869435E-1,9.825E1,3.3163654E2,2.1525555E0,9.967125E1,2.1894704E-1,-7.658972E-1,-3.8108885E-1,3.830992E-1,-4.2536683E-2,-1.2552607E0,-4.5992878E-1],"split_indices":[2,0,0,0,0,2,0,1,2,0,0,2,0,2,2,0,0,0,2,0,0,2,0,0,0,0,0,0,0],"split_type":[0,0,0,0,0,0,0,0,0,0,0,0,0,0,0,0,0,0,0,0,0,0,0,0,0,0,0,0,0],"sum_hessian":[2.36E2,6E0,2.3E2,1E0,5E0,2.28E2,2E0,2.15E2,1.3E1,1E0,1E0,2E1,1.95E2,4E0,9E0,3E0,1.7E1,2E0,1.93E2,2E0,2E0,7E0,2E0,1.89E2,4E0,1E0,1E0,4E0,3E0],"tree_param":{"num_deleted":"0","num_feature":"3","num_nodes":"29","size_leaf_vector":"1"}},{"base_weights":[1.6746466E1,2.3142855E1,-1.5565069E1,-1.8295462E1,9.308528E0,4.3386636E0,-2.1051289E1,2.5198536E1,-2.3067028E1,-8.4712535E-1,5.1992878E1,-1.3082325E0,-2.1584932E1,-6.10803E-1,2.0393648E0,-6.0280055E-1,-1.1786242E0],"categories":[],"categories_nodes":[],"categories_segments":[],"categories_sizes":[],"default_left":[0,0,1,0,0,0,0,0,0,0,0,0,1,0,0,0,0],"id":4,"left_children":[1,-1,3,5,-1,-1,7,9,11,-1,13,-1,15,-1,-1,-1,-1],"loss_changes":[5.836272E6,0E0,2.1032234E5,1.0592756E5,0E0,0E0,2.1837156E4,1.5707184E4,5.6105625E3,0E0,9.136975E3,0E0,5.1851797E3,0E0,0E0,0E0,0E0],"parents":[2147483647,0,0,2,2,3,3,6,6,7,7,8,8,10,10,12,12],"right_children":[2,-1,4,6,-1,-1,8,10,12,-1,14,-1,16,-1,-1,-1,-1],"split_conditions":[7.2771E1,2.3142855E1,1.045466E3,8.650945E1,9.308528E0,4.3386636E0,9.733687E1,9.186E1,4.1348135E3,-8.4712535E-1,4.7214932E2,-1.3082325E0,9.933E1,-6.10803E-1,2.0393648E0,-6.0280055E-1,-1.1786242E0],"split_indices":[2,0,0,2,0,0,2,2,1,0,0,0,2,0,0,0,0],"split_type":[0,0,0,0,0,0,0,0,0,0,0,0,0,0,0,0,0],"sum_hessian":[2.4E2,9E0,2.31E2,2.3E2,1E0,3E0,2.27E2,9E0,2.18E2,3E0,6E0,1.3E1,2.05E2,1E0,5E0,1.89E2,1.6E1],"tree_param":{"num_deleted":"0","num_feature":"3","num_nodes":"17","size_leaf_vector":"1"}},{"base_weights":[-8.942104E0,1.5446405E1,-2.019951E1,-2.2104837E1,7.62297E0,9.580469E1,-2.5542044E1,-1.7194193E1,1.3633667E2,-2.6218798E1,1.5299059E1,-4.3816656E-2,-7.3673064E-1,8.841822E0,4.67414E1,-2.4794477E1,-1.2565469E0,-7.0319325E-1,3.074148E1,-1.3664836E-1,3.8097498E0,-9.434737E-2,-7.609205E-1,1.1565673E0,1.2586863E-1],"categories":[],"categories_nodes":[],"categories_segments":[],"categories_sizes":[],"default_left":[0,0,1,0,0,0,1,0,0,1,0,0,0,0,0,0,0,0,0,0,0,0,0,0,0],"id":5,"left_children":[1,-1,3,5,-1,7,9,11,13,15,17,-1,-1,-1,19,21,-1,-1,23,-1,-1,-1,-1,-1,-1],"loss_changes":[1.6531256E6,0E0,1.486476E5,1.1389889E5,0E0,3.898475E4,7.8084844E3,3.0248108E2,7.010854E4,4.723953E3,3.6896082E3,0E0,0E0,0E0,2.0851285E4,1.7638125E3,0E0,0E0,6.3581885E2,0E0,0E0,0E0,0E0,0E0,0E0],"parents":[2147483647,0,0,2,2,3,3,5,5,6,6,7,7,8,8,9,9,10,10,14,14,15,15,18,18],"right_children":[2,-1,4,6,-1,8,10,12,14,16,18,-1,-1,-1,20,22,-1,-1,24,-1,-1,-1,-1,-1,-1],"split_conditions":[7.551E1,1.5446405E1,1.2661393E3,9.671E1,7.62297E0,9.396988E1,6.1644293E2,8.484802E1,9.411213E1,9.911466E1,1.3614557E3,-4.3816656E-2,-7.3673064E-1,8.841822E0,9.612111E1,9.837E1,-1.2565469E0,-7.0319325E-1,6.863577E2,-1.3664836E-1,3.8097498E0,-9.434737E-2,-7.609205E-1,1.1565673E0,1.2586863E-1],"split_indices":[2,0,0,2,0,2,0,2,2,2,1,0,0,0,2,2,0,0,0,0,0,0,0,0,0],"split_type":[0,0,0,0,0,0,0,0,0,0,0,0,0,0,0,0,0,0,0,0,0,0,0,0,0],"sum_hessian":[2.8E2,5E0,2.75E2,2.74E2,1E0,7E0,2.67E2,2E0,5E0,2.63E2,4E0,1E0,1E0,1E0,4E0,2.43E2,2E1,1E0,3E0,3E0,1E0,4E0,2.39E2,2E0,1E0],"tree_param":{"num_deleted":"0","num_feature":"3","num_nodes":"25","size_leaf_vector":"1"}},{"base_weights":[-2.7029037E-1,3.2711484E2,-1.1601812E1,1.4738811E0,1.0768804E1,-1.4152947E1,9.822814E0,-4.505336E1,-1.165809E1,-1.4090328E0,-2.7190107E-1,-1.2115983E1,8.687814E-1,-1.2450789E1,1.0224398E0,-3.493589E-1,-8.250616E-1],"categories":[],"categories_nodes":[],"categories_segments":[],"categories_sizes":[],"default_left":[0,0,1,0,0,0,0,0,1,0,0,1,0,1,0,0,0],"id":6,"left_children":[1,3,5,-1,-1,7,-1,9,11,-1,-1,13,-1,15,-1,-1,-1],"loss_changes":[9.98014E5,5.4620688E4,2.275754E5,0E0,0E0,1.9441633E4,0E0,6.1290234E2,4.802162E3,0E0,0E0,4.0935078E3,0E0,2.8828203E3,0E0,0E0,0E0],"parents":[2147483647,0,0,1,1,2,2,5,5,7,7,8,8,11,11,13,13],"right_children":[2,4,6,-1,-1,8,-1,10,12,-1,-1,14,-1,16,-1,-1,-1],"split_conditions":[8.020683E1,1.0437379E3,1.71702E3,1.4738811E0,1.0768804E1,4.8979327E2,9.822814E0,8.880096E3,6.0791473E2,-1.4090328E0,-2.7190107E-1,1E2,8.687814E-1,9.925812E1,1.0224398E0,-3.493589E-1,-8.250616E-1],"split_indices":[2,0,0,0,0,0,0,1,0,0,0,2,0,2,0,0,0],"split_type":[0,0,0,0,0,0,0,0,0,0,0,0,0,0,0,0,0],"sum_hessian":[2.67E2,8E0,2.59E2,1E0,7E0,2.58E2,1E0,1.8E1,2.4E2,1.7E1,1E0,2.38E2,2E0,2.37E2,1E0,2.25E2,1.2E1],"tree_param":{"num_deleted":"0","num_feature":"3","num_nodes":"17","size_leaf_vector":"1"}},{"base_weights":[-3.9953525E0,1.10927E1,-1.4071973E1,-1.6624283E1,9.674176E0,-1.3116935E0,-1.4899548E1,-1.3611185E1,-9.759219E-1,-1.3940545E1,9.203923E-1,1.0972485E-1,-4.3442065E-1],"categories":[],"categories_nodes":[],"categories_segments":[],"categories_sizes":[],"default_left":[0,0,1,0,0,0,1,1,0,0,0,0,0],"id":7,"left_children":[1,-1,3,5,-1,-1,7,9,-1,11,-1,-1,-1],"loss_changes":[9.8710956E5,0E0,2.2422325E5,1.1150836E4,0E0,0E0,4.9697266E3,3.7153594E3,0E0,1.6949258E3,0E0,0E0,0E0],"parents":[2147483647,0,0,2,2,3,3,6,6,7,7,9,9],"right_children":[2,-1,4,6,-1,-1,8,10,-1,12,-1,-1,-1],"split_conditions":[8.83E1,1.10927E1,1.71702E3,3.8205786E2,9.674176E0,-1.3116935E0,9.897938E1,8.6339374E2,-9.759219E-1,7.379755E3,9.203923E-1,1.0972485E-1,-4.3442065E-1],"split_indices":[2,0,0,0,0,0,2,0,0,1,0,0,0],"split_type":[0,0,0,0,0,0,0,0,0,0,0,0,0],"sum_hessian":[2.62E2,6E0,2.56E2,2.55E2,1E0,1.4E1,2.41E2,2.26E2,1.5E1,2.25E2,1E0,5E0,2.2E2],"tree_param":{"num_deleted":"0","num_feature":"3","num_nodes":"13","size_leaf_vector":"1"}},{"base_weights":[-5.2189074E0,6.1049115E2,-2.2576777E1,4.999347E0,1.9888763E1,9.894941E1,-2.4974539E1,-1.0619648E0,6.052971E0,-2.744579E1,6.2615753E1,2.941433E-1,-2.8537289E1,3.6112387E0,1.6067287E1,-6.7852554E0,1.9074492E1,-8.7894547E-1,-9.002991E-2,3.3334473E1,-8.0201787E-1,5.3916025E-1,-5.4337865E-1,9.9335486E-1,-1.2744951E-1,-1.801601E-1,8.667423E-2,1.3186742E-1,1.2572006E0],"categories":[],"categories_nodes":[],"categories_segments":[],"categories_sizes":[],"default_left":[0,0,0,0,0,0,1,0,0,0,0,0,1,0,0,0,0,0,0,0,0,0,0,0,0,0,0,0,0],"id":8,"left_children":[1,3,5,-1,-1,7,9,-1,-1,11,13,15,17,-1,19,21,23,-1,25,27,-1,-1,-1,-1,-1,-1,-1,-1,-1],"loss_changes":[2.7283862E6,3.696125E4,7.473619E4,0E0,0E0,7.474588E4,5.453417E4,0E0,0E0,7.214578E3,1.656075E4,1.458961E3,3.2893125E3,0E0,4.5585376E3,2.518043E3,1.0986592E3,0E0,1.0364337E2,7.702217E2,0E0,0E0,0E0,0E0,0E0,0E0,0E0,0E0,0E0],"parents":[2147483647,0,0,1,1,2,2,5,5,6,6,9,9,10,10,11,11,12,12,14,14,15,15,16,16,18,18,19,19],"right_children":[2,4,6,-1,-1,8,10,-1,-1,12,14,16,18,-1,20,22,24,-1,26,28,-1,-1,-1,-1,-1,-1,-1,-1,-1],"split_conditions":[7.072151E1,8.2056964E2,9.018481E1,4.999347E0,1.9888763E1,7.954449E1,5.9388916E2,-1.0619648E0,6.052971E0,9.754001E1,5.99014E2,9.66E1,3.8205786E2,3.6112387E0,8.751681E2,9.27E1,9.733687E1,-8.7894547E-1,3.8371835E2,6.6124194E2,-8.0201787E-1,5.3916025E-1,-5.4337865E-1,9.9335486E-1,-1.2744951E-1,-1.801601E-1,8.667423E-2,1.3186742E-1,1.2572006E0],"split_indices":[2,0,2,0,0,2,0,0,0,2,0,2,0,0,0,2,2,0,0,0,0,0,0,0,0,0,0,0,0],"split_type":[0,0,0,0,0,0,0,0,0,0,0,0,0,0,0,0,0,0,0,0,0,0,0,0,0,0,0,0,0],"sum_hessian":[2.53E2,6E0,2.47E2,1E0,5E0,4E0,2.43E2,2E0,2E0,2.37E2,6E0,9E0,2.28E2,2E0,4E0,7E0,2E0,2.24E2,4E0,3E0,1E0,2E0,5E0,1E0,1E0,1E0,3E0,1E0,2E0],"tree_param":{"num_deleted":"0","num_feature":"3","num_nodes":"29","size_leaf_vector":"1"}},{"base_weights":[8.455386E0,2.5236462E2,-4.574431E0,9.39025E0,1.5839914E2,-4.1025673E1,-7.7734554E-1,-6.689636E-1,5.815743E0,-1.3177723E0,-1.8184696E1,4.3284283E0,-2.0751834E0,-8.4860945E-1,1.7223132E-1,-1.0148777E0,-2.4346146E1,-1.681598E0,3.4074974E1,-8.518874E-1,-1.1605398E1,-1.5009467E-2,-7.6345056E-1,1.5449761E0,3.4500882E-1,5.141658E-1,-8.11078E-1],"categories":[],"categories_nodes":[],"categories_segments":[],"categories_sizes":[],"default_left":[0,0,0,0,0,1,0,0,0,0,0,0,1,0,0,1,0,1,0,0,0,0,0,0,0,0,0],"id":9,"left_children":[1,3,5,-1,7,9,11,-1,-1,-1,13,-1,15,-1,-1,17,19,21,23,-1,25,-1,-1,-1,-1,-1,-1],"loss_changes":[8.147461E5,2.1596375E4,3.373978E4,0E0,4.691433E4,5.304336E2,4.1728375E4,0E0,0E0,0E0,1.1008065E3,0E0,5.193991E3,0E0,0E0,5.0170654E3,1.5777979E2,5.8218857E3,9.5766406E2,0E0,2.1932725E3,0E0,0E0,0E0,0E0,0E0,0E0],"parents":[2147483647,0,0,1,1,2,2,4,4,5,5,6,6,10,10,12,12,15,15,16,16,17,17,18,18,20,20],"right_children":[2,4,6,-1,8,10,12,-1,-1,-1,14,-1,16,-1,-1,18,20,22,24,-1,26,-1,-1,-1,-1,-1,-1],"split_conditions":[8.430693E1,6.705378E1,6.1644293E2,9.39025E0,7.3409996E1,9.977E1,8.650945E1,-6.689636E-1,5.815743E0,-1.3177723E0,2.8507208E2,4.3284283E0,9.92E1,-8.4860945E-1,1.7223132E-1,9.913954E1,9.955811E1,9.839818E1,9.914947E1,-8.518874E-1,9.972914E1,-1.5009467E-2,-7.6345056E-1,1.5449761E0,3.4500882E-1,5.141658E-1,-8.11078E-1],"split_indices":[2,2,0,0,2,2,2,0,0,0,0,0,2,0,0,2,2,2,2,0,2,0,0,0,0,0,0],"split_type":[0,0,0,0,0,0,0,0,0,0,0,0,0,0,0,0,0,0,0,0,0,0,0,0,0,0,0],"sum_hessian":[2.55E2,1.2E1,2.43E2,6E0,6E0,2.2E1,2.21E2,1E0,5E0,1.9E1,3E0,1E0,2.2E2,2E0,1E0,2.11E2,9E0,2.08E2,3E0,6E0,3E0,1.99E2,9E0,1E0,2E0,1E0,2E0],"tree_param":{"num_deleted":"0","num_feature":"3","num_nodes":"27","size_leaf_vector":"1"}},{"base_weights":[-1.6023344E1,4.074814E2,-2.090463E1,1.48402815E1,3.6577375E0,-2.4722315E1,2.2674443E2,1.6383917E1,-2.7926958E1,3.0488837E0,9.151056E0,3.3974155E1,5.024574E-1,-2.9064768E1,-2.0113554E0,-1.0030036E0,4.650638E1,-1.2908714E1,1.0010086E1,-1.2615744E0,-2.8410397E1,-6.4115715E0,6.3540465E-1,1.9147711E0,7.201328E-1,1.867647E-1,-8.3787996E-1,1.347285E-1,6.561224E-1,-1.9591294E-1,-8.650521E-1,2.3929207E-1,-6.752299E-1],"categories":[],"categories_nodes":[],"categories_segments":[],"categories_sizes":[],"default_left":[0,0,1,0,0,0,0,0,1,0,0,0,0,0,0,0,0,0,0,0,0,0,0,0,0,0,0,0,0,0,0,0,0],"id":10,"left_children":[1,3,5,-1,-1,7,9,11,13,-1,-1,15,17,19,21,-1,23,25,27,-1,29,31,-1,-1,-1,-1,-1,-1,-1,-1,-1,-1,-1],"loss_changes":[5.4393556E5,1.19994375E4,2.485852E5,0E0,0E0,3.3917203E4,7.655875E3,5.2907446E3,6.900453E3,0E0,0E0,9.111316E3,1.53181E3,6.821875E2,1.2481952E3,0E0,1.5401172E3,1.5805715E3,3.5753955E2,0E0,6.43E2,2.453003E3,0E0,0E0,0E0,0E0,0E0,0E0,0E0,0E0,0E0,0E0,0E0],"parents":[2147483647,0,0,1,1,2,2,5,5,6,6,7,7,8,8,11,11,12,12,13,13,14,14,16,16,17,17,18,18,20,20,21,21],"right_children":[2,4,6,-1,-1,8,10,12,14,-1,-1,16,18,20,22,-1,24,26,28,-1,30,32,-1,-1,-1,-1,-1,-1,-1,-1,-1,-1,-1],"split_conditions":[5.612098E1,5.085709E1,1.4411879E4,1.48402815E1,3.6577375E0,9.869E1,6.853612E2,9.639E1,2.207766E3,3.0488837E0,9.151056E0,8.613652E1,9.8E1,9.967125E1,5.0202618E2,-1.0030036E0,9.538E1,9.733687E1,9.860191E1,-1.2615744E0,9.980054E1,3.4798691E3,6.3540465E-1,1.9147711E0,7.201328E-1,1.867647E-1,-8.3787996E-1,1.347285E-1,6.561224E-1,-1.9591294E-1,-8.650521E-1,2.3929207E-1,-6.752299E-1],"split_indices":[2,2,1,0,0,2,0,2,1,0,0,2,2,2,0,0,2,2,2,0,2,1,0,0,0,0,0,0,0,0,0,0,0],"split_type":[0,0,0,0,0,0,0,0,0,0,0,0,0,0,0,0,0,0,0,0,0,0,0,0,0,0,0,0,0,0,0,0,0],"sum_hessian":[2.58E2,2E0,2.56E2,1E0,1E0,2.53E2,3E0,1.8E1,2.35E2,2E0,1E0,8E0,1E1,2.25E2,1E1,1E0,7E0,4E0,6E0,8E0,2.17E2,9E0,1E0,3E0,4E0,2E0,2E0,5E0,1E0,2E0,2.15E2,5E0,4E0],"tree_param":{"num_deleted":"0","num_feature":"3","num_nodes":"33","size_leaf_vector":"1"}},{"base_weights":[1.6270682E0,1.9078646E1,-1.2508924E1,-1.5937342E1,8.912877E0,7.229261E1,-2.0775763E1,-8.5088253E-1,9.137022E1,-2.143592E1,1.6123188E1,5.8071294E0,5.2079514E1,-1.3405383E0,-2.0289349E1,-9.573494E0,1.1029854E0,-5.9013635E-1,3.11867E0,8.6959934E-1,-6.2396586E-1,2.4571227E-1,-6.803104E-1],"categories":[],"categories_nodes":[],"categories_segments":[],"categories_sizes":[],"default_left":[0,0,1,0,0,0,1,0,0,0,0,0,0,0,0,0,0,0,0,0,0,0,0],"id":11,"left_children":[1,-1,3,5,-1,7,9,-1,11,13,15,-1,17,-1,19,21,-1,-1,-1,-1,-1,-1,-1],"loss_changes":[2.42554E6,0E0,2.857298E5,1.1462874E5,0E0,2.9386516E4,6.484117E3,0E0,3.7397227E4,5.601203E3,2.959987E3,0E0,3.8492844E4,0E0,4.4203984E3,8.675093E2,0E0,0E0,0E0,0E0,0E0,0E0,0E0],"parents":[2147483647,0,0,2,2,3,3,5,5,6,6,8,8,9,9,10,10,12,12,14,14,15,15],"right_children":[2,-1,4,6,-1,8,10,-1,12,14,16,-1,18,-1,20,22,-1,-1,-1,-1,-1,-1,-1],"split_conditions":[6.959522E1,1.9078646E1,7.710808E2,9.743798E1,8.912877E0,7.551E1,8.232526E3,-8.5088253E-1,9.018481E1,4.5545914E2,3.8521725E2,5.8071294E0,9.492E1,-1.3405383E0,4.8114523E2,3.7053036E2,1.1029854E0,-5.9013635E-1,3.11867E0,8.6959934E-1,-6.2396586E-1,2.4571227E-1,-6.803104E-1],"split_indices":[2,0,0,2,0,2,1,0,2,0,0,0,2,0,0,0,0,0,0,0,0,0,0],"split_type":[0,0,0,0,0,0,0,0,0,0,0,0,0,0,0,0,0,0,0,0,0,0,0],"sum_hessian":[2.71E2,5E0,2.66E2,2.64E2,2E0,1.3E1,2.51E2,2E0,1.1E1,2.47E2,4E0,2E0,9E0,1E1,2.37E2,2E0,2E0,4E0,5E0,1E0,2.36E2,1E0,1E0],"tree_param":{"num_deleted":"0","num_feature":"3","num_nodes":"23","size_leaf_vector":"1"}},{"base_weights":[1.2120987E1,1.6585135E1,-8.605191E0,-3.7551163E1,-5.799618E0,-2.5374824E-1,-1.1626543E0,-6.341011E0,2.042253E0,-5.3620334E0,-6.6500604E-1,-5.860003E0,1.7650034E0,1.011998E0,-1.8636896E-1],"categories":[],"categories_nodes":[],"categories_segments":[],"categories_sizes":[],"default_left":[0,0,0,0,1,0,0,1,0,1,0,0,0,0,0],"id":12,"left_children":[1,-1,3,5,7,-1,-1,9,-1,11,-1,13,-1,-1,-1],"loss_changes":[3.281294E6,0E0,2.2927076E4,3.0929297E2,1.0782758E4,0E0,0E0,3.8611816E3,0E0,8.1428696E3,0E0,3.07617E3,0E0,0E0,0E0],"parents":[2147483647,0,0,2,2,3,3,4,4,7,7,9,9,11,11],"right_children":[2,-1,4,6,8,-1,-1,10,-1,12,-1,14,-1,-1,-1],"split_conditions":[9.411213E1,1.6585135E1,8.411083E3,9.657E1,1.4411879E4,-2.5374824E-1,-1.1626543E0,9.92E1,2.042253E0,9.918E1,-6.6500604E-1,5.389174E2,1.7650034E0,1.011998E0,-1.8636896E-1],"split_indices":[2,0,1,2,1,0,0,2,0,2,0,0,0,0,0],"split_type":[0,0,0,0,0,0,0,0,0,0,0,0,0,0,0],"sum_hessian":[2.94E2,1E1,2.84E2,2.4E1,2.6E2,1E0,2.3E1,2.59E2,1E0,2.45E2,1.4E1,2.44E2,1E0,1E0,2.43E2],"tree_param":{"num_deleted":"0","num_feature":"3","num_nodes":"15","size_leaf_vector":"1"}},{"base_weights":[-1.0640794E1,1.8481037E1,-2.0824194E1,-2.2859995E1,1.0652995E2,-8.266618E0,-2.4006006E1,7.5279236E-1,3.7968333E0,-2.4002718E1,2.913E0,-1.246406E0,-2.2740435E1,-5.5952072E-2,-1.1609142E0,9.4795614E-1,-5.901273E0,2.0388247E-1,-2.2914541E1,-9.251676E-2,1.3538846E-1,-7.3087907E-1,1.6250798E-1,-1.0481288E0,-6.6248983E-1],"categories":[],"categories_nodes":[],"categories_segments":[],"categories_sizes":[],"default_left":[0,0,1,0,0,0,0,0,0,0,0,0,0,0,0,0,0,0,0,0,0,0,0,0,0],"id":13,"left_children":[1,-1,3,5,7,9,11,-1,-1,13,15,-1,17,19,-1,-1,21,-1,23,-1,-1,-1,-1,-1,-1],"loss_changes":[1.5691499E6,0E0,6.5437336E4,3.8153516E3,3.0614062E3,3.412468E3,3.8898594E3,0E0,0E0,2.7482588E3,3.1897974E3,0E0,1.2269922E3,6.8048965E1,0E0,0E0,2.1864983E3,0E0,1.7382031E3,0E0,0E0,0E0,0E0,0E0,0E0],"parents":[2147483647,0,0,2,2,3,3,4,4,5,5,6,6,9,9,10,10,12,12,13,13,16,16,18,18],"right_children":[2,-1,4,6,8,10,12,-1,-1,14,16,-1,18,20,-1,-1,22,-1,24,-1,-1,-1,-1,-1,-1],"split_conditions":[7.2771E1,1.8481037E1,5.9830066E2,9.891217E1,1.1743011E4,9.699E1,4.062908E2,7.5279236E-1,3.7968333E0,9.629E1,9.743798E1,-1.246406E0,4.348973E2,9.428854E1,-1.1609142E0,9.4795614E-1,9.83E1,2.0388247E-1,1E2,-9.251676E-2,1.3538846E-1,-7.3087907E-1,1.6250798E-1,-1.0481288E0,-6.6248983E-1],"split_indices":[2,0,0,2,1,2,0,0,0,2,2,0,0,2,0,0,2,0,2,0,0,0,0,0,0],"split_type":[0,0,0,0,0,0,0,0,0,0,0,0,0,0,0,0,0,0,0,0,0,0,0,0,0],"sum_hessian":[2.45E2,3E0,2.42E2,2.39E2,3E0,1.8E1,2.21E2,1E0,2E0,7E0,1.1E1,1.3E1,2.08E2,3E0,4E0,2E0,9E0,1E0,2.07E2,2E0,1E0,3E0,6E0,1.4E1,1.93E2],"tree_param":{"num_deleted":"0","num_feature":"3","num_nodes":"25","size_leaf_vector":"1"}},{"base_weights":[-6.731846E-1,8.766647E0,-5.2429085E0,-1.1462045E0,-2.4435227E0,2.7006796E1,-4.8639917E0,-5.0328526E1,5.2697495E1,-2.6731272E1,-2.39727E0,-1.7554935E0,-2.9686782E-1,3.3098E0,1.9094341E1,3.0864563E0,-9.563959E-1,-1.8615583E0,-1.1021973E0,3.1366632E-3,8.2373756E-1,1.6039507E-1,1.7614586E-2,9.386089E-1,-6.630497E-2],"categories":[],"categories_nodes":[],"categories_segments":[],"categories_sizes":[],"default_left":[0,0,0,0,0,0,0,0,0,0,1,0,0,0,0,0,0,0,0,0,0,0,0,0,0],"id":14,"left_children":[1,-1,3,-1,5,7,9,11,13,15,17,-1,-1,-1,19,21,-1,23,-1,-1,-1,-1,-1,-1,-1],"loss_changes":[3.425063E5,0E0,2.310927E4,0E0,1.6883002E4,3.8414566E4,1.1694946E4,9.864336E2,2.4570328E4,3.292542E3,3.522738E3,0E0,0E0,0E0,1.5399954E3,1.9088585E1,0E0,2.1791865E3,0E0,0E0,0E0,0E0,0E0,0E0,0E0],"parents":[2147483647,0,0,2,2,4,4,5,5,6,6,7,7,8,8,9,9,10,10,14,14,15,15,17,17],"right_children":[2,-1,4,-1,6,8,10,12,14,16,18,-1,-1,-1,20,22,-1,24,-1,-1,-1,-1,-1,-1,-1],"split_conditions":[6.405435E1,8.766647E0,6.2438193E3,-1.1462045E0,9.831874E1,9.192E1,1E2,8.484802E1,9.612111E1,9.848539E1,4.061432E2,-1.7554935E0,-2.9686782E-1,3.3098E0,9.699E1,9.837E1,-9.563959E-1,2.0000002E2,-1.1021973E0,3.1366632E-3,8.2373756E-1,1.6039507E-1,1.7614586E-2,9.386089E-1,-6.630497E-2],"split_indices":[2,0,1,0,2,2,2,2,2,2,0,0,0,0,2,2,0,2,0,0,0,0,0,0,0],"split_type":[0,0,0,0,0,0,0,0,0,0,0,0,0,0,0,0,0,0,0,0,0,0,0,0,0],"sum_hessian":[2.56E2,3E0,2.53E2,1.9E1,2.34E2,1.7E1,2.17E2,4E0,1.3E1,2.1E1,1.96E2,3E0,1E0,4E0,9E0,3E0,1.8E1,1.94E2,2E0,3E0,6E0,1E0,2E0,1E0,1.93E2],"tree_param":{"num_deleted":"0","num_feature":"3","num_nodes":"25","size_leaf_vector":"1"}},{"base_weights":[-7.9761696E-1,1.6167143E1,-1.2772287E1,-1.5096009E1,9.195128E0,1.2826086E2,-1.7210901E1,-1.1479658E0,5.940891E0,-3.248081E1,-1.55485735E1,-1.1451337E0,-2.3523825E1,1.9441422E1,-1.6224003E1,-1.6266248E-1,-9.6622306E-1,-7.915152E-1,1.1312262E0,-4.255029E-2,-5.2562016E-1],"categories":[],"categories_nodes":[],"categories_segments":[],"categories_sizes":[],"default_left":[0,0,1,0,0,0,0,0,0,0,0,0,0,0,0,0,0,0,0,0,0],"id":15,"left_children":[1,-1,3,5,-1,7,9,-1,-1,11,13,-1,15,17,19,-1,-1,-1,-1,-1,-1],"loss_changes":[1.7557888E6,0E0,2.0175347E5,8.315769E4,0E0,5.267803E4,6.1962266E3,0E0,0E0,3.0954492E2,5.9874062E3,0E0,1.6584067E3,5.0668335E3,3.9756484E3,0E0,0E0,0E0,0E0,0E0,0E0],"parents":[2147483647,0,0,2,2,3,3,5,5,6,6,9,9,10,10,12,12,13,13,14,14],"right_children":[2,-1,4,6,-1,8,10,-1,-1,12,14,-1,16,18,20,-1,-1,-1,-1,-1,-1],"split_conditions":[7.072151E1,1.6167143E1,1.71702E3,8.650945E1,9.195128E0,7.8020004E1,5.0202618E2,-1.1479658E0,5.940891E0,3.1992682E2,5.9275244E2,-1.1451337E0,3.864471E2,5.6786577E3,9.931772E1,-1.6266248E-1,-9.6622306E-1,-7.915152E-1,1.1312262E0,-4.255029E-2,-5.2562016E-1],"split_indices":[2,0,0,2,0,2,0,0,0,0,0,0,0,1,2,0,0,0,0,0,0],"split_type":[0,0,0,0,0,0,0,0,0,0,0,0,0,0,0,0,0,0,0,0,0],"sum_hessian":[2.72E2,5E0,2.67E2,2.66E2,1E0,3E0,2.63E2,1E0,2E0,2.4E1,2.39E2,1.3E1,1.1E1,4E0,2.35E2,4E0,7E0,1E0,3E0,1.7E1,2.18E2],"tree_param":{"num_deleted":"0","num_feature":"3","num_nodes":"21","size_leaf_vector":"1"}},{"base_weights":[-1.647723E0,3.1705014E2,-2.2625164E1,3.4200937E2,2.8717608E0,-8.18813E-1,-2.3854137E1,1.6299524E1,2.643664E2,-9.425983E0,1.0254288E0,-1.1489539E0,-2.2179184E1,-1.454435E1,1.086334E1,-2.4389086E1,4.7461023E0,-6.731275E-1,-1.3928871E-1,-1.8250146E0,2.0809652E1,-8.8574356E-1,-9.755179E0,1.994167E-2,5.317478E0,2.1197133E0,-1.1750387E0,-5.9036624E-1,1.4752032E-1,2.734252E-1,8.374364E-2],"categories":[],"categories_nodes":[],"categories_segments":[],"categories_sizes":[],"default_left":[0,1,0,0,0,1,0,0,0,0,0,0,1,0,0,0,0,0,0,0,0,0,0,0,0,0,0,0,0,0,0],"id":16,"left_children":[1,3,5,7,-1,9,11,-1,13,15,-1,-1,17,19,-1,21,23,-1,-1,-1,25,-1,27,-1,29,-1,-1,-1,-1,-1,-1],"loss_changes":[1.7320235E6,5.62655E4,6.4927188E3,7.1288625E4,0E0,4.500937E3,4.5938125E3,0E0,3.217943E5,2.6604536E3,0E0,0E0,1.2678125E2,7.725919E3,0E0,1.4281177E2,1.2843384E1,0E0,0E0,0E0,1.152726E4,0E0,5.2309314E2,0E0,3.18815E1,0E0,0E0,0E0,0E0,0E0,0E0],"parents":[2147483647,0,0,1,1,2,2,3,3,5,5,6,6,8,8,9,9,12,12,13,13,15,15,16,16,20,20,22,22,24,24],"right_children":[2,4,6,8,-1,10,12,-1,14,16,-1,-1,18,20,-1,22,24,-1,-1,-1,26,-1,28,-1,30,-1,-1,-1,-1,-1,-1],"split_conditions":[8.494789E1,3.287683E4,9.911073E1,3.078655E1,2.8717608E0,4.9570682E2,1.045466E3,1.6299524E1,7.075E1,9.721E1,1.0254288E0,-1.1489539E0,9.995369E1,6.631098E1,1.086334E1,9.667E1,9.746E1,-6.731275E-1,-1.3928871E-1,-1.8250146E0,6.998174E1,-8.8574356E-1,4.7214932E2,1.994167E-2,9.766179E1,2.1197133E0,-1.1750387E0,-5.9036624E-1,1.4752032E-1,2.734252E-1,8.374364E-2],"split_indices":[2,1,2,2,0,0,0,0,2,2,0,0,2,2,0,2,2,0,0,0,2,0,0,0,2,0,0,0,0,0,0],"split_type":[0,0,0,0,0,0,0,0,0,0,0,0,0,0,0,0,0,0,0,0,0,0,0,0,0,0,0,0,0,0,0],"sum_hessian":[2.57E2,1.5E1,2.42E2,1.3E1,2E0,1.3E1,2.29E2,2E0,1.1E1,1.1E1,2E0,2.2E1,2.07E2,3E0,8E0,5E0,6E0,2.06E2,1E0,1E0,2E0,3E0,2E0,1E0,5E0,1E0,1E0,1E0,1E0,1E0,4E0],"tree_param":{"num_deleted":"0","num_feature":"3","num_nodes":"31","size_leaf_vector":"1"}},{"base_weights":[6.8282423E0,4.377255E2,-1.0949653E1,6.171954E2,8.875668E0,-1.1974424E1,5.942267E1,2.365773E0,2.3327875E1,-1.0048735E1,-2.9982063E1,-1.0363098E1,4.067177E0,-9.163497E-1,-9.311022E0,-1.564415E-1,-3.0800547E1,7.121095E-2,-5.41654E-1,-8.930924E0,-1.0736091E0,-1.2721055E0,-2.6452248E1,-2.8653008E-1,1.622534E-1,2.2380616E-1,-9.944845E-1],"categories":[],"categories_nodes":[],"categories_segments":[],"categories_sizes":[],"default_left":[0,0,1,0,0,1,0,0,0,0,0,0,0,0,1,0,0,0,0,1,0,0,0,0,0,0,0],"id":17,"left_children":[1,3,5,7,-1,9,11,-1,-1,13,15,17,-1,-1,19,-1,21,-1,-1,23,-1,-1,25,-1,-1,-1,-1],"loss_changes":[2.1267368E6,1.0416175E5,1.9966404E4,2.7095912E5,0E0,8.853477E3,2.23193E4,0E0,0E0,3.299791E3,3.4850977E2,3.2954282E2,0E0,0E0,2.0003066E3,0E0,6.0390625E1,0E0,0E0,1.8228926E3,0E0,0E0,4.5809355E3,0E0,0E0,0E0,0E0],"parents":[2147483647,0,0,1,1,2,2,3,3,5,5,6,6,9,9,10,10,11,11,14,14,16,16,19,19,22,22],"right_children":[2,4,6,8,-1,10,12,-1,-1,14,16,18,-1,-1,20,-1,22,-1,-1,24,-1,-1,26,-1,-1,-1,-1],"split_conditions":[8.494789E1,5.325022E1,1.4526657E4,1.3946567E3,8.875668E0,9.848539E1,5.482512E2,2.365773E0,2.3327875E1,6.075003E3,1.5777626E2,3.5358783E2,4.067177E0,-9.163497E-1,8.880096E3,-1.564415E-1,9.885419E1,7.121095E-2,-5.41654E-1,9.686E1,-1.0736091E0,-1.2721055E0,9.924448E1,-2.8653008E-1,1.622534E-1,2.2380616E-1,-9.944845E-1],"split_indices":[2,2,1,0,0,2,0,0,0,1,0,0,0,0,1,0,2,0,0,2,0,0,2,0,0,0,0],"split_type":[0,0,0,0,0,0,0,0,0,0,0,0,0,0,0,0,0,0,0,0,0,0,0,0,0,0,0],"sum_hessian":[2.76E2,1E1,2.66E2,3E0,7E0,2.63E2,3E0,1E0,2E0,2.39E2,2.4E1,2E0,1E0,7E0,2.32E2,1E0,2.3E1,1E0,1E0,2.3E2,2E0,4E0,1.9E1,2.22E2,8E0,3E0,1.6E1],"tree_param":{"num_deleted":"0","num_feature":"3","num_nodes":"27","size_leaf_vector":"1"}},{"base_weights":[1.4278042E1,3.102088E2,1.6244853E0,2.329974E0,9.913512E0,-1.9281939E0,8.383359E0,-2.2846233E1,1.6375138E0,-1.7360669E0,-1.8896238E1,-8.507583E-1,2.5444627E0,-1.8509176E0,-2.9030884E1,3.26192E0,-9.844755E-1,-8.576864E-1,8.2263574E-2,-5.66369E-1,-1.0031426E0,6.902373E-2,1.1955062E0],"categories":[],"categories_nodes":[],"categories_segments":[],"categories_sizes":[],"default_left":[0,0,1,0,0,0,0,0,0,0,0,0,1,0,0,1,0,0,0,0,0,0,0],"id":18,"left_children":[1,3,5,-1,-1,7,-1,9,11,-1,13,-1,15,17,19,21,-1,-1,-1,-1,-1,-1,-1],"loss_changes":[9.131728E5,1.5266E4,2.30446E5,0E0,0E0,1.7416326E4,0E0,3.5517812E3,5.4676484E3,0E0,5.474212E3,0E0,5.013117E3,1.6504565E3,2.2885352E2,6.73729E3,0E0,0E0,0E0,0E0,0E0,0E0,0E0],"parents":[2147483647,0,0,1,1,2,2,5,5,7,7,8,8,10,10,12,12,13,13,14,14,15,15],"right_children":[2,4,6,-1,-1,8,-1,10,12,-1,14,-1,16,18,20,22,-1,-1,-1,-1,-1,-1,-1],"split_conditions":[7.8020004E1,3.077491E1,1.045466E3,2.329974E0,9.913512E0,9.993638E1,8.383359E0,9.361E1,3.1669974E2,-1.7360669E0,9.837E1,-8.507583E-1,1.4318963E4,4.1393063E2,9.931772E1,3.3925444E3,-9.844755E-1,-8.576864E-1,8.2263574E-2,-5.66369E-1,-1.0031426E0,6.902373E-2,1.1955062E0],"split_indices":[2,2,0,0,0,2,0,2,0,0,2,0,1,0,2,1,0,0,0,0,0,0,0],"split_type":[0,0,0,0,0,0,0,0,0,0,0,0,0,0,0,0,0,0,0,0,0,0,0],"sum_hessian":[2.43E2,9E0,2.34E2,1E0,8E0,2.32E2,2E0,3.3E1,1.99E2,2E0,3.1E1,5E0,1.94E2,1.2E1,1.9E1,1.91E2,3E0,1E0,1.1E1,7E0,1.2E1,1.87E2,4E0],"tree_param":{"num_deleted":"0","num_feature":"3","num_nodes":"23","size_leaf_vector":"1"}},{"base_weights":[1.2531243E1,3.4794412E0,3.6246823E2,6.975585E0,-2.4955307E1,2.2947166E0,1.2033118E1,-9.927936E-1,9.184092E0,-1.4008035E1,-3.0555937E1,-1.1555729E0,1.06169195E1,-9.174669E-1,-2.064886E0,-3.1967924E1,-7.7780925E-2,9.630366E0,6.271636E1,1.1998425E1,-8.752394E0,-1.3889468E-1,-1.0080467E0,-1.02330066E-1,2.9369816E-1,3.720981E0,5.007559E-2,4.9002945E-1,5.465081E-2,-3.6268803E-1,-4.6180643E-2],"categories":[],"categories_nodes":[],"categories_segments":[],"categories_sizes":[],"default_left":[1,1,0,0,0,0,0,0,0,0,0,0,1,0,0,0,0,0,0,0,0,0,0,0,0,0,0,0,0,0,0],"id":19,"left_children":[1,3,5,7,9,-1,-1,-1,11,13,15,-1,17,-1,19,21,-1,23,25,27,29,-1,-1,-1,-1,-1,-1,-1,-1,-1,-1],"loss_changes":[8.7932056E5,2.7214135E4,4.0354938E4,2.1649914E4,1.4113203E3,0E0,0E0,0E0,1.6083135E4,2.2745466E3,6.686387E2,0E0,1.0960758E4,0E0,8.574029E2,5.0776172E2,0E0,2.4707422E2,1.4508634E4,9.898624E1,1.2183792E2,0E0,0E0,0E0,0E0,0E0,0E0,0E0,0E0,0E0,0E0],"parents":[2147483647,0,0,1,1,2,2,3,3,4,4,8,8,9,9,10,10,12,12,14,14,15,15,17,17,18,18,19,19,20,20],"right_children":[2,4,6,8,10,-1,-1,-1,12,14,16,-1,18,-1,20,22,-1,24,26,28,30,-1,-1,-1,-1,-1,-1,-1,-1,-1,-1],"split_conditions":[1.045466E3,9.756E1,3.077491E1,6.1644293E2,9.895092E1,2.2947166E0,1.2033118E1,-9.927936E-1,9.616E1,9.811611E1,9.993638E1,-1.1555729E0,9.667E1,-9.174669E-1,9.839818E1,1.5777626E2,-7.7780925E-2,9.632E1,9.671E1,9.826115E1,9.858897E1,-1.3889468E-1,-1.0080467E0,-1.02330066E-1,2.9369816E-1,3.720981E0,5.007559E-2,4.9002945E-1,5.465081E-2,-3.6268803E-1,-4.6180643E-2],"split_indices":[0,2,2,0,2,0,0,0,2,2,2,0,2,0,2,0,0,2,2,2,2,0,0,0,0,0,0,0,0,0,0],"split_type":[0,0,0,0,0,0,0,0,0,0,0,0,0,0,0,0,0,0,0,0,0,0,0,0,0,0,0,0,0,0,0],"sum_hessian":[2.77E2,2.71E2,6E0,2.42E2,2.9E1,1E0,5E0,1.2E1,2.3E2,1.1E1,1.8E1,6E0,2.24E2,4E0,7E0,1.7E1,1E0,2.21E2,3E0,2E0,5E0,1E0,1.6E1,1E0,2.2E2,1E0,2E0,1E0,1E0,3E0,2E0],"tree_param":{"num_deleted":"0","num_feature":"3","num_nodes":"31","size_leaf_vector":"1"}},{"base_weights":[2.5105553E0,1.3959312E1,-8.734166E0,-2.7231838E1,-5.827324E0,-1.853792E1,-1.0686367E0,-2.913636E1,-4.4137807E0,-2.7183403E1,-1.0688188E0,-1.0133904E0,-4.9286857E0,1.994427E1,-4.88121E0,-1.0712657E0,-1.6259514E1,8.29992E0,-1.632711E1,-4.5015356E-1,2.2641104E-1,-2.95718E-1,1.0019362E0,-6.278348E-1,-4.5325494E0,-1.0090313E-1,-7.6023287E-1,4.302878E-1,9.884195E-2,-6.268687E-1,-1.1431651E-1,-1.4137106E-1,3.4072173E-1],"categories":[],"categories_nodes":[],"categories_segments":[],"categories_sizes":[],"default_left":[0,0,0,0,0,0,0,0,0,0,0,0,0,0,0,0,0,0,0,0,0,0,0,0,1,0,0,0,0,0,0,0,0],"id":20,"left_children":[1,-1,3,5,7,9,-1,11,13,15,17,-1,19,21,23,-1,25,27,29,-1,-1,-1,-1,-1,31,-1,-1,-1,-1,-1,-1,-1,-1],"loss_changes":[1.2936324E6,0E0,1.3014912E4,1.6631836E3,6.8893936E3,2.6894648E3,0E0,1.0982168E3,2.397256E3,5.0119824E2,1.1361704E3,0E0,4.8154648E2,1.8879912E3,1.0066743E3,0E0,7.1793005E2,1.0251599E2,8.689862E1,0E0,0E0,0E0,0E0,0E0,4.8191138E2,0E0,0E0,0E0,0E0,0E0,0E0,0E0,0E0],"parents":[2147483647,0,0,2,2,3,3,4,4,5,5,7,7,8,8,9,9,10,10,12,12,13,13,14,14,16,16,17,17,18,18,24,24],"right_children":[2,-1,4,6,8,10,-1,12,14,16,18,-1,20,22,24,-1,26,28,30,-1,-1,-1,-1,-1,32,-1,-1,-1,-1,-1,-1,-1,-1],"split_conditions":[7.2771E1,1.3959312E1,9.993333E1,9.895092E1,3.375499E2,9.83E1,-1.0686367E0,6.073015E3,4.8114523E2,9.655204E1,9.883531E1,-1.0133904E0,2.5736374E2,6.882151E2,9.481533E3,-1.0712657E0,9.754001E1,9.831874E1,9.888E1,-4.5015356E-1,2.2641104E-1,-2.95718E-1,1.0019362E0,-6.278348E-1,6.0791473E2,-1.0090313E-1,-7.6023287E-1,4.302878E-1,9.884195E-2,-6.268687E-1,-1.1431651E-1,-1.4137106E-1,3.4072173E-1],"split_indices":[2,0,2,2,0,2,0,1,0,2,2,0,0,1,1,0,2,2,2,0,0,0,0,0,0,0,0,0,0,0,0,0,0],"split_type":[0,0,0,0,0,0,0,0,0,0,0,0,0,0,0,0,0,0,0,0,0,0,0,0,0,0,0,0,0,0,0,0,0],"sum_hessian":[2.49E2,5E0,2.44E2,3.2E1,2.12E2,1.7E1,1.5E1,1.1E1,2.01E2,1.1E1,6E0,9E0,2E0,3E0,1.98E2,5E0,6E0,4E0,2E0,1E0,1E0,1E0,2E0,3E0,1.95E2,3E0,3E0,1E0,3E0,1E0,1E0,1.94E2,1E0],"tree_param":{"num_deleted":"0","num_feature":"3","num_nodes":"33","size_leaf_vector":"1"}},{"base_weights":[-3.9827478E0,3.5168484E2,-2.001293E1,-8.821794E-2,3.841862E2,-2.2195328E1,8.448531E0,3.4014616E0,1.2109414E1,-7.3407207E0,-2.312036E1,-3.2242825E1,9.173412E0,-2.3671804E1,3.1584473E0,-2.3140007E-1,-1.061296E0,1.8836075E1,4.933256E0,-9.2964447E-1,-2.3207321E1,3.2476955E1,-5.937808E-1,-2.9797116E-2,8.8487923E-1,1.1909941E-2,4.2011017E-1,6.86065E-2,-7.059649E-1,2.2298501E-1,1.2513382E0],"categories":[],"categories_nodes":[],"categories_segments":[],"categories_sizes":[],"default_left":[0,0,1,0,0,0,0,0,0,0,1,0,0,0,0,0,0,0,0,0,0,0,0,0,0,0,0,0,0,0,0],"id":21,"left_children":[1,3,5,-1,7,9,-1,-1,-1,11,13,15,17,19,21,-1,-1,23,25,-1,27,29,-1,-1,-1,-1,-1,-1,-1,-1,-1],"loss_changes":[1.5863306E6,1.3941938E5,1.7987194E5,0E0,2.684875E3,3.4716406E3,0E0,0E0,0E0,7.2868003E3,3.6831094E3,2.1829053E2,3.5776E2,8.5671875E1,4.6441875E3,0E0,0E0,6.4734705E2,3.601408E2,0E0,7.626172E2,3.635376E2,0E0,0E0,0E0,0E0,0E0,0E0,0E0,0E0,0E0],"parents":[2147483647,0,0,1,1,2,2,4,4,5,5,9,9,10,10,11,11,12,12,13,13,14,14,17,17,18,18,20,20,21,21],"right_children":[2,4,6,-1,8,10,-1,-1,-1,12,14,16,18,20,22,-1,-1,24,26,-1,28,30,-1,-1,-1,-1,-1,-1,-1,-1,-1],"split_conditions":[9.359E1,2.669029E1,1.045466E3,-8.821794E-2,8.2056964E2,9.911073E1,8.448531E0,3.4014616E0,1.2109414E1,9.703701E1,6.4822E3,3.1212875E2,9.743798E1,3.1992682E2,8.232526E3,-2.3140007E-1,-1.061296E0,4.6743262E2,9.883531E1,-9.2964447E-1,3.274808E2,2.6658215E2,-5.937808E-1,-2.9797116E-2,8.8487923E-1,1.1909941E-2,4.2011017E-1,6.86065E-2,-7.059649E-1,2.2298501E-1,1.2513382E0],"split_indices":[2,2,0,0,0,2,0,0,0,2,1,0,2,0,1,0,0,0,2,0,0,0,0,0,0,0,0,0,0,0,0],"split_type":[0,0,0,0,0,0,0,0,0,0,0,0,0,0,0,0,0,0,0,0,0,0,0,0,0,0,0,0,0,0,0],"sum_hessian":[2.76E2,1.1E1,2.65E2,1E0,1E1,2.64E2,1E0,1E0,9E0,1.6E1,2.48E2,6E0,1E1,2.43E2,5E0,1E0,5E0,2E0,8E0,1.1E1,2.32E2,2E0,3E0,1E0,1E0,6E0,2E0,1E0,2.31E2,1E0,1E0],"tree_param":{"num_deleted":"0","num_feature":"3","num_nodes":"31","size_leaf_vector":"1"}},{"base_weights":[-1.1731203E1,1.9814014E2,-1.586517E1,-5.287013E-1,7.7599893E0,-1.6741E1,2.268806E1,-1.004599E0,-1.4645606E1,3.9771465E1,-9.492142E-1,-1.6441092E0,-1.3659285E1,-1.08347845E1,2.3339758E0,2.737685E0,-1.4564305E1,2.5726134E-1,-7.49117E-1,-4.5324293E-1,1.1137902E0],"categories":[],"categories_nodes":[],"categories_segments":[],"categories_sizes":[],"default_left":[0,0,1,0,0,0,0,0,0,0,0,0,0,0,0,0,1,0,0,0,0],"id":22,"left_children":[1,3,5,-1,-1,7,9,-1,11,13,-1,-1,15,17,-1,-1,19,-1,-1,-1,-1],"loss_changes":[2.2438181E5,6.729717E4,8.855109E3,0E0,0E0,7.9950938E3,6.7878184E3,0E0,7.8681445E3,1.0286073E4,0E0,0E0,2.1671238E4,1.0177394E3,0E0,0E0,5.1013047E3,0E0,0E0,0E0,0E0],"parents":[2147483647,0,0,1,1,2,2,5,5,6,6,8,8,9,9,12,12,13,13,16,16],"right_children":[2,4,6,-1,-1,8,10,-1,12,14,-1,-1,16,18,-1,-1,20,-1,-1,-1,-1],"split_conditions":[7.2771E1,3.077491E1,1.2748762E4,-5.287013E-1,7.7599893E0,6.481397E2,6.788695E2,-1.004599E0,9.194237E1,4.168264E2,-9.492142E-1,-1.6441092E0,9.538E1,3.7053036E2,2.3339758E0,2.737685E0,1E2,2.5726134E-1,-7.49117E-1,-4.5324293E-1,1.1137902E0],"split_indices":[2,2,1,0,0,0,0,0,2,0,0,0,2,0,0,0,2,0,0,0,0],"split_type":[0,0,0,0,0,0,0,0,0,0,0,0,0,0,0,0,0,0,0,0,0],"sum_hessian":[2.54E2,4E0,2.5E2,1E0,3E0,2.45E2,5E0,2.6E1,2.19E2,4E0,1E0,4E0,2.15E2,2E0,2E0,1E0,2.14E2,1E0,1E0,2.13E2,1E0],"tree_param":{"num_deleted":"0","num_feature":"3","num_nodes":"21","size_leaf_vector":"1"}},{"base_weights":[4.8064713E0,8.3432665E0,-2.182286E0,-1.8061039E1,1.6529696E0,-1.7872049E0,-1.4420395E1,-8.525654E-1,3.357439E0,2.0439729E-1,-2.5918602E1,3.047755E0,1.0255212E0,1.4266025E0,-4.0716405E0,-9.135333E-2,-2.6654955E1,4.6387014E-1,2.8541293E0,-6.675135E-1,3.8597652E-1,-3.36353E-1,-8.5146207E-1,8.9075185E-2,-2.3334104E-1],"categories":[],"categories_nodes":[],"categories_segments":[],"categories_sizes":[],"default_left":[0,0,0,0,0,0,0,0,1,0,0,0,0,0,0,0,0,0,1,0,0,0,0,0,0],"id":23,"left_children":[1,-1,3,5,7,-1,9,-1,11,13,15,17,-1,-1,19,-1,21,-1,23,-1,-1,-1,-1,-1,-1],"loss_changes":[5.2688075E5,0E0,1.6594404E4,7.0581543E3,1.1278055E4,0E0,8.413243E3,0E0,1.8726445E3,4.807859E3,3.9168945E2,4.5080786E2,0E0,0E0,6.9384624E3,0E0,3.0814062E2,0E0,2.1669287E2,0E0,0E0,0E0,0E0,0E0,0E0],"parents":[2147483647,0,0,2,2,3,3,4,4,6,6,8,8,9,9,10,10,11,11,14,14,16,16,18,18],"right_children":[2,-1,4,6,8,-1,10,-1,12,14,16,18,-1,-1,20,-1,22,-1,24,-1,-1,-1,-1,-1,-1],"split_conditions":[7.694608E1,8.3432665E0,1E2,9.037226E1,3.1992682E2,-1.7872049E0,9.870086E1,-8.525654E-1,5.554157E2,9.055661E1,1.5777626E2,2.0000002E2,1.0255212E0,1.4266025E0,9.787893E1,-9.135333E-2,9.890874E1,4.6387014E-1,5.008348E2,-6.675135E-1,3.8597652E-1,-3.36353E-1,-8.5146207E-1,8.9075185E-2,-2.3334104E-1],"split_indices":[2,0,2,2,0,0,2,0,0,2,0,2,0,0,2,0,2,0,0,0,0,0,0,0,0],"split_type":[0,0,0,0,0,0,0,0,0,0,0,0,0,0,0,0,0,0,0,0,0,0,0,0,0],"sum_hessian":[2.77E2,6E0,2.71E2,5.2E1,2.19E2,3E0,4.9E1,1.1E1,2.08E2,2.2E1,2.7E1,2.07E2,1E0,1E0,2.1E1,1E0,2.6E1,2E0,2.05E2,1E1,1.1E1,3E0,2.3E1,2.04E2,1E0],"tree_param":{"num_deleted":"0","num_feature":"3","num_nodes":"25","size_leaf_vector":"1"}},{"base_weights":[-6.1012683E0,2.2451913E2,-1.2124644E1,7.344895E0,1.7472711E0,-1.5631175E0,-1.1327122E1,-2.5283401E1,-1.0011562E1,-1.9584942E1,-9.484251E-1,5.155438E-1,-1.0194473E1,-2.548204E1,1.0531761E1,-1.042227E1,3.4354308E-1,-8.8389575E-1,-3.2479903E-1,-8.9970954E-2,5.680706E-1,-3.0223867E-1,-8.7183315E-1],"categories":[],"categories_nodes":[],"categories_segments":[],"categories_sizes":[],"default_left":[0,1,0,0,0,0,0,0,0,0,0,0,1,0,0,1,0,0,0,0,0,0,0],"id":24,"left_children":[1,3,5,-1,-1,-1,7,9,11,13,-1,-1,15,17,19,21,-1,-1,-1,-1,-1,-1,-1],"loss_changes":[3.8195016E5,7.2075312E3,7.8313164E3,0E0,0E0,0E0,4.5756367E3,1.4533203E2,1.3708516E3,2.7547861E3,0E0,0E0,1.301168E3,3.457212E2,3.8958633E2,1.6260566E3,0E0,0E0,0E0,0E0,0E0,0E0,0E0],"parents":[2147483647,0,0,1,1,2,2,6,6,7,7,8,8,9,9,12,12,13,13,14,14,15,15],"right_children":[2,4,6,-1,-1,-1,8,10,12,14,-1,-1,16,18,20,22,-1,-1,-1,-1,-1,-1,-1],"split_conditions":[8.83E1,4.2073887E4,9.194237E1,7.344895E0,1.7472711E0,-1.5631175E0,5.9610223E2,4.0832974E3,9.27E1,2.446757E3,-9.484251E-1,5.155438E-1,1E2,2.5803644E2,1.5777626E2,9.981293E1,3.4354308E-1,-8.8389575E-1,-3.2479903E-1,-8.9970954E-2,5.680706E-1,-3.0223867E-1,-8.7183315E-1],"split_indices":[2,1,2,0,0,0,0,1,2,1,0,0,2,0,0,2,0,0,0,0,0,0,0],"split_type":[0,0,0,0,0,0,0,0,0,0,0,0,0,0,0,0,0,0,0,0,0,0,0],"sum_hessian":[2.72E2,6E0,2.66E2,5E0,1E0,4E0,2.62E2,2.1E1,2.41E2,1.3E1,8E0,1E0,2.4E2,1.1E1,2E0,2.38E2,2E0,8E0,3E0,1E0,1E0,2.34E2,4E0],"tree_param":{"num_deleted":"0","num_feature":"3","num_nodes":"23","size_leaf_vector":"1"}},{"base_weights":[-8.818398E0,1.6914322E2,-1.790695E1,-7.1624714E-1,6.357612E0,-1.891033E1,3.266703E0,-2.380051E0,-1.7523544E1,2.0535395E0,-1.8426853E1,-2.5847025E0,1.5283752E1,-1.8950617E1,1.4463105E1,1.02386996E-1,-7.615533E-1,6.8111324E-1,1.2707703E-2,-9.4889235E-1,-5.4875064E-1,-4.109971E-1,8.57613E-1],"categories":[],"categories_nodes":[],"categories_segments":[],"categories_sizes":[],"default_left":[0,0,1,0,0,0,0,0,0,0,1,0,0,0,0,0,0,0,0,0,0,0,0],"id":25,"left_children":[1,3,5,-1,-1,7,-1,-1,9,11,13,15,17,19,21,-1,-1,-1,-1,-1,-1,-1,-1],"loss_changes":[3.992951E5,9.966903E4,3.1588969E4,0E0,0E0,1.7922766E4,0E0,0E0,4.0875078E3,7.145182E2,4.0467031E3,1.2978599E3,3.1258936E2,1.6242812E3,1.9412117E3,0E0,0E0,0E0,0E0,0E0,0E0,0E0,0E0],"parents":[2147483647,0,0,1,1,2,2,5,5,8,8,9,9,10,10,11,11,12,12,13,13,14,14],"right_children":[2,4,6,-1,-1,8,-1,-1,10,12,14,16,18,20,22,-1,-1,-1,-1,-1,-1,-1,-1],"split_conditions":[6.765E1,3.077491E1,1.6248696E3,-7.1624714E-1,6.357612E0,9.037226E1,3.266703E0,-2.380051E0,9.848539E1,9.756E1,6.4822E3,9.746E1,9.826115E1,6.481397E2,2.5736374E2,1.02386996E-1,-7.615533E-1,6.8111324E-1,1.2707703E-2,-9.4889235E-1,-5.4875064E-1,-4.109971E-1,8.57613E-1],"split_indices":[2,2,0,0,0,2,0,0,2,2,1,2,2,0,0,0,0,0,0,0,0,0,0],"split_type":[0,0,0,0,0,0,0,0,0,0,0,0,0,0,0,0,0,0,0,0,0,0,0],"sum_hessian":[2.44E2,1.1E1,2.33E2,2E0,9E0,2.32E2,1E0,4E0,2.28E2,1E1,2.18E2,8E0,2E0,2.15E2,3E0,7E0,1E0,1E0,1E0,1.1E1,2.04E2,1E0,2E0],"tree_param":{"num_deleted":"0","num_feature":"3","num_nodes":"23","size_leaf_vector":"1"}},{"base_weights":[2.2156222E0,1.0376615E1,-6.4636374E0,-1.1246646E1,2.09849E2,2.8801708E1,-1.3058744E1,2.3581352E2,1.210959E0,-1.9328745E1,8.447234E0,-4.3990257E-1,-1.4170323E1,2.0168834E0,7.9123807E0,1.8211471E0,-4.3682484E1,-6.6108594E0,4.0846443E1,-2.5466593E1,-1.3510739E1,-2.4678576E0,8.82467E-2,-2.4554178E-2,-7.217105E-1,1.6740223E0,1.8024214E-1,-2.760064E-1,-8.420629E-1,-8.1108767E-1,-3.9240488E-1],"categories":[],"categories_nodes":[],"categories_segments":[],"categories_sizes":[],"default_left":[0,0,1,0,0,0,0,0,0,0,0,0,0,0,0,0,0,0,0,0,0,0,0,0,0,0,0,0,0,0,0],"id":26,"left_children":[1,-1,3,5,7,9,11,13,-1,15,-1,17,19,-1,-1,-1,21,23,25,27,29,-1,-1,-1,-1,-1,-1,-1,-1,-1,-1],"loss_changes":[8.330287E5,0E0,2.86882E5,1.9970441E4,1.7022594E4,1.4996925E5,3.6267188E3,4.2573125E3,0E0,2.392706E4,0E0,5.8751084E3,1.4292227E3,0E0,0E0,0E0,1.6116496E4,1.979901E3,1.1849214E3,2.0865967E2,1.2956523E3,0E0,0E0,0E0,0E0,0E0,0E0,0E0,0E0,0E0,0E0],"parents":[2147483647,0,0,2,2,3,3,4,4,5,5,6,6,7,7,9,9,11,11,12,12,16,16,17,17,18,18,19,19,20,20],"right_children":[2,-1,4,6,8,10,12,14,-1,16,-1,18,20,-1,-1,-1,22,24,26,28,30,-1,-1,-1,-1,-1,-1,-1,-1,-1,-1],"split_conditions":[5.837056E1,1.0376615E1,1.4411879E4,9.411213E1,1.0999631E3,9.396988E1,9.924448E1,1.4459949E4,1.210959E0,6.796426E1,8.447234E0,9.911466E1,9.98747E1,2.0168834E0,7.9123807E0,1.8211471E0,8.613652E1,9.856687E1,9.914947E1,9.931772E1,2.118434E3,-2.4678576E0,8.82467E-2,-2.4554178E-2,-7.217105E-1,1.6740223E0,1.8024214E-1,-2.760064E-1,-8.420629E-1,-8.1108767E-1,-3.9240488E-1],"split_indices":[2,0,1,2,0,2,2,1,0,2,0,2,2,0,0,0,2,2,2,2,1,0,0,0,0,0,0,0,0,0,0],"split_type":[0,0,0,0,0,0,0,0,0,0,0,0,0,0,0,0,0,0,0,0,0,0,0,0,0,0,0,0,0,0,0],"sum_hessian":[2.8E2,6E0,2.74E2,2.69E2,5E0,1.1E1,2.58E2,4E0,1E0,1E1,1E0,2.1E1,2.37E2,1E0,3E0,2E0,8E0,1.9E1,2E0,1.1E1,2.26E2,4E0,4E0,1.5E1,4E0,1E0,1E0,2E0,9E0,7E0,2.19E2],"tree_param":{"num_deleted":"0","num_feature":"3","num_nodes":"31","size_leaf_vector":"1"}},{"base_weights":[-9.855306E0,3.707515E2,-1.547825E1,2.9177378E1,2.1116302E1,-1.6827272E1,1.7692242E1,-9.042752E-1,2.228811E0,-1.3813645E0,-1.6425417E1,3.298082E1,-1.7307976E1,-1.5346705E1,-7.692834E-1,1.1781397E1,1.5505723E0,-6.902593E-1,-1.2227786E-2,-1.56682825E1,8.918441E-1,2.3102833E1,-5.069875E-1,2.2865558E-1,-4.844355E-1,1.0289176E0,2.463001E-1],"categories":[],"categories_nodes":[],"categories_segments":[],"categories_sizes":[],"default_left":[0,0,1,0,0,0,1,0,0,0,1,0,0,1,0,0,0,0,0,0,0,0,0,0,0,0,0],"id":27,"left_children":[1,3,5,7,-1,9,11,-1,-1,-1,13,15,17,19,-1,21,-1,-1,-1,23,-1,25,-1,-1,-1,-1,-1],"loss_changes":[5.878541E5,4.2640094E5,1.2334859E4,1.0078982E4,0E0,2.2495312E3,6.4569697E3,0E0,0E0,0E0,2.103211E3,2.4921885E3,3.626692E2,3.8052305E3,0E0,2.0022273E3,0E0,0E0,0E0,1.9380156E3,0E0,3.7547583E2,0E0,0E0,0E0,0E0,0E0],"parents":[2147483647,0,0,1,1,2,2,3,3,5,5,6,6,10,10,11,11,12,12,13,13,15,15,19,19,21,21],"right_children":[2,4,6,8,-1,10,12,-1,-1,-1,14,16,18,20,-1,22,-1,-1,-1,24,-1,26,-1,-1,-1,-1,-1],"split_conditions":[5.325022E1,3.079846E1,2.446757E3,3.077491E1,2.1116302E1,9.194237E1,9.538E1,-9.042752E-1,2.228811E0,-1.3813645E0,9.754001E1,3.9572983E2,8.6339374E2,9.734E1,-7.692834E-1,3.1787656E2,1.5505723E0,-6.902593E-1,-1.2227786E-2,9.5130005E1,8.918441E-1,2.5380103E3,-5.069875E-1,2.2865558E-1,-4.844355E-1,1.0289176E0,2.463001E-1],"split_indices":[2,2,1,2,0,2,2,0,0,0,2,0,0,2,0,0,0,0,0,2,0,1,0,0,0,0,0],"split_type":[0,0,0,0,0,0,0,0,0,0,0,0,0,0,0,0,0,0,0,0,0,0,0,0,0,0,0],"sum_hessian":[2.71E2,3E0,2.68E2,2E0,1E0,2.58E2,1E1,1E0,1E0,2E0,2.56E2,7E0,3E0,2.31E2,2.5E1,4E0,3E0,2E0,1E0,2.3E2,1E0,3E0,1E0,3E0,2.27E2,1E0,2E0],"tree_param":{"num_deleted":"0","num_feature":"3","num_nodes":"27","size_leaf_vector":"1"}},{"base_weights":[2.209204E1,1.0971614E1,1.0402506E1,-1.9743955E0,1.1521908E1,1.0766127E2,8.837604E0,-1.4820972E1,2.032282E2,1.1076167E1,-2.3153822E1,-4.9956985E-2,-5.64751E-1,8.778399E1,8.31595E0,-1.6150557E1,1.2586614E1,-2.869356E1,3.7112162E-1,4.857904E0,-8.728634E-1,3.3966583E-1,-7.7128065E-1,4.1123956E-1,-1.0972631E-1,-5.1063843E-2,-9.23114E-1],"categories":[],"categories_nodes":[],"categories_segments":[],"categories_sizes":[],"default_left":[0,0,0,0,0,0,1,0,0,0,0,0,0,0,0,0,1,0,0,0,0,0,0,0,0,0,0],"id":28,"left_children":[1,-1,3,-1,5,7,9,11,13,15,17,-1,-1,19,-1,21,23,25,-1,-1,-1,-1,-1,-1,-1,-1,-1],"loss_changes":[1.0786705E6,0E0,2.310545E4,0E0,6.640408E4,8.49488E4,1.8518238E4,1.7148401E2,8.919828E3,1.0032031E4,3.687245E3,0E0,0E0,3.007742E4,0E0,3.6078372E3,3.7360742E3,6.811455E2,0E0,0E0,0E0,0E0,0E0,0E0,0E0,0E0,0E0],"parents":[2147483647,0,0,2,2,4,4,5,5,6,6,7,7,8,8,9,9,10,10,13,13,15,15,16,16,17,17],"right_children":[2,-1,4,-1,6,8,10,12,14,16,18,-1,-1,20,-1,22,24,26,-1,-1,-1,-1,-1,-1,-1,-1,-1],"split_conditions":[7.285E1,1.0971614E1,9.037226E1,-1.9743955E0,9.411213E1,9.194237E1,9.926991E1,9.17059E1,9.361E1,5.0202618E2,9.993176E1,-4.9956985E-2,-5.64751E-1,9.359E1,8.31595E0,9.891217E1,9.765E1,1.5777626E2,3.7112162E-1,4.857904E0,-8.728634E-1,3.3966583E-1,-7.7128065E-1,4.1123956E-1,-1.0972631E-1,-5.1063843E-2,-9.23114E-1],"split_indices":[2,0,2,0,2,2,2,2,2,0,2,0,0,2,0,2,2,0,0,0,0,0,0,0,0,0,0],"split_type":[0,0,0,0,0,0,0,0,0,0,0,0,0,0,0,0,0,0,0,0,0,0,0,0,0,0,0],"sum_hessian":[2.71E2,8E0,2.63E2,3E0,2.6E2,6E0,2.54E2,3E0,3E0,2.38E2,1.6E1,1E0,2E0,2E0,1E0,1.2E1,2.26E2,1.4E1,2E0,1E0,1E0,3E0,9E0,2.13E2,1.3E1,1E0,1.3E1],"tree_param":{"num_deleted":"0","num_feature":"3","num_nodes":"27","size_leaf_vector":"1"}},{"base_weights":[-4.712749E0,1.9108453E2,-1.6584192E1,3.7013718E1,2.2651776E2,-1.832865E1,3.1583527E1,2.6463232E0,-1.7291194E0,8.172578E0,1.11573845E2,3.8484276E1,-1.9459442E1,-9.067548E0,5.342032E1,-1.6639223E0,5.0527983E0,-1.4793562E0,3.4205024E0,-7.5215116E0,-2.0415024E1,-5.450099E-1,-8.437729E-2,2.0393775E0,-2.4830806E-1,-2.1200962E1,4.2292464E-1,-1.9852638E1,-1.116241E0,1.4435208E-2,-1.8265598E-2,-1.0657866E-1,-7.130371E-1,-9.909045E-2,6.777387E-1,-6.233638E-1,-2.3068324E-2],"categories":[],"categories_nodes":[],"categories_segments":[],"categories_sizes":[],"default_left":[0,0,1,0,0,0,0,0,0,0,0,0,0,0,1,0,0,0,0,0,1,0,0,0,0,0,0,1,0,0,0,0,0,0,0,0,0],"id":29,"left_children":[1,3,5,7,9,11,13,-1,-1,-1,15,17,19,21,23,-1,-1,-1,-1,25,27,-1,29,-1,-1,31,33,35,-1,-1,-1,-1,-1,-1,-1,-1,-1],"loss_changes":[6.0983644E5,7.3504125E4,2.1333438E4,2.3986607E4,2.9905812E4,1.6103086E4,8.473594E3,0E0,0E0,0E0,5.5301195E4,3.8085125E4,2.5272578E3,3.1975394E2,5.7168027E3,0E0,0E0,0E0,0E0,2.0738013E3,1.2775312E3,0E0,1.162181E0,0E0,0E0,2.0904321E2,1.1293228E3,2.9990625E3,0E0,0E0,0E0,0E0,0E0,0E0,0E0,0E0,0E0],"parents":[2147483647,0,0,1,1,2,2,3,3,4,4,5,5,6,6,10,10,11,11,12,12,13,13,14,14,19,19,20,20,22,22,25,25,26,26,27,27],"right_children":[2,4,6,8,10,12,14,-1,-1,-1,16,18,20,22,24,-1,-1,-1,-1,26,28,-1,30,-1,-1,32,34,36,-1,-1,-1,-1,-1,-1,-1,-1,-1],"split_conditions":[8.175145E1,1.971877E4,4.5977844E2,8.9492957E2,7.551E1,9.612111E1,5.2577075E3,2.6463232E0,-1.7291194E0,8.172578E0,7.8020004E1,9.186E1,9.927466E1,2.8688901E3,9.918E1,-1.6639223E0,5.0527983E0,-1.4793562E0,3.4205024E0,9.725966E1,7.2952144E3,-5.450099E-1,4.6743262E2,2.0393775E0,-2.4830806E-1,1.5598944E2,9.926991E1,2.446757E3,-1.116241E0,1.4435208E-2,-1.8265598E-2,-1.0657866E-1,-7.130371E-1,-9.909045E-2,6.777387E-1,-6.233638E-1,-2.3068324E-2],"split_indices":[2,1,0,0,2,2,1,0,0,0,2,2,2,1,2,0,0,0,0,2,1,0,0,0,0,0,2,1,0,0,0,0,0,0,0,0,0],"split_type":[0,0,0,0,0,0,0,0,0,0,0,0,0,0,0,0,0,0,0,0,0,0,0,0,0,0,0,0,0,0,0,0,0,0,0,0,0],"sum_hessian":[2.6E2,1.4E1,2.46E2,3E0,1.1E1,2.38E2,8E0,2E0,1E0,7E0,4E0,4E0,2.34E2,3E0,5E0,1E0,3E0,2E0,2E0,1.8E1,2.16E2,1E0,2E0,4E0,1E0,6E0,1.2E1,2.11E2,5E0,1E0,1E0,1E0,5E0,1.1E1,1E0,2.03E2,8E0],"tree_param":{"num_deleted":"0","num_feature":"3","num_nodes":"37","size_leaf_vector":"1"}},{"base_weights":[1.4467108E1,1.4748224E2,1.0426198E1,8.952578E-1,1.6220207E2,-2.2179327E1,1.391441E1,1.1094555E0,5.446876E0,-1.5699361E1,-1.4839745E0,-1.821576E1,1.7171865E1,7.2248545E0,-2.1881968E1,-1.21477E0,-1.1985806E1,1.124266E0,5.297877E-1,6.236072E-1,-1.2717257E0,-7.0562756E-1,-5.6781922E-3,5.6826653E0,-1.7859388E1,1.0319199E-2,3.7371367E-2,7.6128036E-2,-1.9116703E-1,-1.446504E-1,2.8730035E-1,-3.5541484E-1,-7.655437E-1],"categories":[],"categories_nodes":[],"categories_segments":[],"categories_sizes":[],"default_left":[0,0,0,0,0,0,0,0,0,0,0,0,0,0,0,0,0,0,0,0,0,0,0,0,0,0,0,0,0,0,0,0,0],"id":30,"left_children":[1,3,5,-1,7,9,11,-1,-1,13,-1,15,17,19,21,-1,23,25,-1,-1,27,-1,-1,29,31,-1,-1,-1,-1,-1,-1,-1,-1],"loss_changes":[1.2746286E5,7.3501406E3,2.6922594E4,0E0,6.7925312E3,3.2326416E3,2.2501273E4,0E0,0E0,2.9927222E3,0E0,2.2505312E3,1.0137969E3,5.946569E2,4.933047E2,0E0,1.8657009E3,1.20334625E-2,0E0,0E0,9.2313705E1,0E0,0E0,2.4470512E2,2.94125E2,0E0,0E0,0E0,0E0,0E0,0E0,0E0,0E0],"parents":[2147483647,0,0,1,1,2,2,4,4,5,5,6,6,9,9,11,11,12,12,13,13,14,14,16,16,17,17,20,20,23,23,24,24],"right_children":[2,4,6,-1,8,10,12,-1,-1,14,-1,16,18,20,22,-1,24,26,-1,-1,28,-1,-1,30,32,-1,-1,-1,-1,-1,-1,-1,-1],"split_conditions":[8.175145E1,5.612098E1,1.235397E4,8.952578E-1,6.0791473E2,4.3984995E2,9.986167E1,1.1094555E0,5.446876E0,9.96044E1,-1.4839745E0,9.756E1,2.0000002E2,1.9333866E3,3.6696127E2,-1.21477E0,9.834E1,9.987619E1,5.297877E-1,6.236072E-1,3.9605447E2,-7.0562756E-1,-5.6781922E-3,9.764E1,9.923E1,1.0319199E-2,3.7371367E-2,7.6128036E-2,-1.9116703E-1,-1.446504E-1,2.8730035E-1,-3.5541484E-1,-7.655437E-1],"split_indices":[2,2,1,0,0,0,2,0,0,2,0,2,2,1,0,0,2,2,0,0,0,0,0,2,2,0,0,0,0,0,0,0,0],"split_type":[0,0,0,0,0,0,0,0,0,0,0,0,0,0,0,0,0,0,0,0,0,0,0,0,0,0,0,0,0,0,0,0,0],"sum_hessian":[2.39E2,6E0,2.33E2,1E0,5E0,2.2E1,2.11E2,1E0,4E0,1.9E1,3E0,1.9E1,1.92E2,4E0,1.5E1,3E0,1.6E1,4E0,1.88E2,1E0,3E0,1.4E1,1E0,4E0,1.2E1,1E0,3E0,2E0,1E0,1E0,3E0,8E0,4E0],"tree_param":{"num_deleted":"0","num_feature":"3","num_nodes":"33","size_leaf_vector":"1"}},{"base_weights":[-4.8836026E0,-7.0285163E0,8.429788E0,7.605506E1,-1.1671655E1,-1.6557142E0,9.032223E1,-1.2399423E1,9.113182E0,5.5227513E0,6.743477E1,-1.1701849E1,-1.0303864E0,2.5845718E1,-9.977168E-1,-1.72913E0,8.395336E1,-1.2340467E1,2.8263527E1,-6.6031337E-1,3.7426155E1,1.2943947E0,3.363672E0,-3.443122E-1,-6.822444E-1,1.1619816E0,-3.223815E-2,1.5238492E0,2.3353031E-1],"categories":[],"categories_nodes":[],"categories_segments":[],"categories_sizes":[],"default_left":[1,0,0,0,1,0,0,1,0,0,0,1,0,0,0,0,0,1,0,0,0,0,0,0,0,0,0,0,0],"id":31,"left_children":[1,3,-1,5,7,-1,9,11,13,-1,15,17,-1,19,-1,-1,21,23,25,-1,27,-1,-1,-1,-1,-1,-1,-1,-1],"loss_changes":[1.6184152E5,1.01959055E5,0E0,3.106032E4,3.8795E3,0E0,1.5116211E4,3.2408164E3,7.1890513E3,0E0,2.948927E4,6.3466094E3,0E0,4.680384E3,0E0,0E0,7.564289E3,2.0241641E3,1.229457E3,0E0,1.915585E3,0E0,0E0,0E0,0E0,0E0,0E0,0E0,0E0],"parents":[2147483647,0,0,1,1,3,3,4,4,6,6,7,7,8,8,10,10,11,11,13,13,16,16,17,17,18,18,20,20],"right_children":[2,4,-1,6,8,-1,10,12,14,-1,16,18,-1,20,-1,-1,22,24,26,-1,28,-1,-1,-1,-1,-1,-1,-1,-1],"split_conditions":[1.71702E3,9.612111E1,8.429788E0,4.7512335E2,4.348973E2,-1.6557142E0,7.2771E1,3.6624286E2,7.063756E2,5.5227513E0,7.3409996E1,3.4655472E2,-1.0303864E0,5.7742194E2,-9.977168E-1,-1.72913E0,8.484802E1,9.839818E1,3.4798691E3,-6.6031337E-1,6.4822E3,1.2943947E0,3.363672E0,-3.443122E-1,-6.822444E-1,1.1619816E0,-3.223815E-2,1.5238492E0,2.3353031E-1],"split_indices":[0,2,0,0,0,0,2,0,0,0,2,0,0,1,0,0,2,2,1,0,1,0,0,0,0,0,0,0,0],"split_type":[0,0,0,0,0,0,0,0,0,0,0,0,0,0,0,0,0,0,0,0,0,0,0,0,0,0,0,0,0],"sum_hessian":[2.62E2,2.61E2,1E0,1.3E1,2.48E2,1E0,1.2E1,2.4E2,8E0,1E0,1.1E1,2.34E2,6E0,6E0,2E0,1E0,1E1,2.31E2,3E0,1E0,5E0,5E0,5E0,2.13E2,1.8E1,2E0,1E0,3E0,2E0],"tree_param":{"num_deleted":"0","num_feature":"3","num_nodes":"29","size_leaf_vector":"1"}},{"base_weights":[-6.381643E-1,-6.9577284E0,3.4580157E2,9.157578E0,-1.0346277E1,3.141983E0,1.1510677E1,1.770042E1,-1.2168338E1,2.6526047E1,-1.8689468E0,-1.3116282E1,7.2147095E1,3.1146436E0,1.457234E1,-1.172995E1,-2.3887041E1,3.7956104E0,-5.2042216E-1,-1.5756372E0,8.7247455E-1,-3.296818E-1,-7.8105086E-1,-7.4733996E-1,-3.1750266E-2],"categories":[],"categories_nodes":[],"categories_segments":[],"categories_sizes":[],"default_left":[1,0,0,0,0,0,0,1,1,0,0,1,0,0,0,1,1,0,0,0,0,0,0,0,0],"id":32,"left_children":[1,3,5,-1,7,-1,-1,9,11,13,-1,15,17,-1,19,21,23,-1,-1,-1,-1,-1,-1,-1,-1],"loss_changes":[6.110448E5,2.90534E5,2.3045E3,0E0,1.4115346E4,0E0,0E0,1.3559229E4,2.1407453E4,1.3110535E4,0E0,3.512496E3,1.6434512E4,0E0,1.5750701E4,2.391793E3,4.901338E2,0E0,0E0,0E0,0E0,0E0,0E0,0E0,0E0],"parents":[2147483647,0,0,1,1,2,2,4,4,7,7,8,8,9,9,11,11,12,12,14,14,15,15,16,16],"right_children":[2,4,6,-1,8,-1,-1,10,12,14,-1,16,18,-1,20,22,24,-1,-1,-1,-1,-1,-1,-1,-1],"split_conditions":[1.045466E3,6.408E1,8.83E1,9.157578E0,9.733687E1,3.141983E0,1.1510677E1,1.0201436E3,5.9830066E2,7.694608E1,-1.8689468E0,9.810977E1,5.99014E2,3.1146436E0,8.942925E1,3.0580255E2,1.471477E4,3.7956104E0,-5.2042216E-1,-1.5756372E0,8.7247455E-1,-3.296818E-1,-7.8105086E-1,-7.4733996E-1,-3.1750266E-2],"split_indices":[0,2,2,0,2,0,0,0,0,2,0,2,0,0,2,0,1,0,0,0,0,0,0,0,0],"split_type":[0,0,0,0,0,0,0,0,0,0,0,0,0,0,0,0,0,0,0,0,0,0,0,0,0],"sum_hessian":[2.77E2,2.73E2,4E0,2E0,2.71E2,1E0,3E0,1.6E1,2.55E2,1.5E1,1E0,2.53E2,2E0,1E0,1.4E1,2.26E2,2.7E1,1E0,1E0,2E0,1.2E1,2.15E2,1.1E1,2.6E1,1E0],"tree_param":{"num_deleted":"0","num_feature":"3","num_nodes":"25","size_leaf_vector":"1"}},{"base_weights":[-5.2130027E0,9.895528E0,-8.898308E0,-1.0511393E1,6.407014E0,7.823124E1,-1.1472733E1,-1.8406657E0,5.39205E0,-7.0960976E1,-8.628295E0,-2.5565426E0,-3.514675E1,1.4055648E1,-9.708537E0,-3.0685696E-1,-1.1761725E0,-5.989563E-1,5.7295203E-1,-2.6929367E-1,-7.089011E-1],"categories":[],"categories_nodes":[],"categories_segments":[],"categories_sizes":[],"default_left":[0,0,1,0,0,0,0,0,0,0,0,0,0,0,1,0,0,0,0,0,0],"id":33,"left_children":[1,-1,3,5,-1,7,9,-1,-1,11,13,-1,15,17,19,-1,-1,-1,-1,-1,-1],"loss_changes":[3.3467025E5,0E0,9.794911E4,2.3761105E4,0E0,5.2524938E4,4.4397758E4,0E0,0E0,2.8388047E3,6.3850156E3,0E0,7.0711914E1,2.3551836E3,2.5035547E3,0E0,0E0,0E0,0E0,0E0,0E0],"parents":[2147483647,0,0,2,2,3,3,5,5,6,6,9,9,10,10,12,12,13,13,14,14],"right_children":[2,-1,4,6,-1,8,10,-1,-1,12,14,-1,16,18,20,-1,-1,-1,-1,-1,-1],"split_conditions":[5.085709E1,9.895528E0,1.2661393E3,7.2771E1,6.407014E0,1.0437379E3,9.583325E1,-1.8406657E0,5.39205E0,9.037226E1,9.890874E1,-2.5565426E0,9.186E1,1.02168787E3,9.93E1,-3.0685696E-1,-1.1761725E0,-5.989563E-1,5.7295203E-1,-2.6929367E-1,-7.089011E-1],"split_indices":[2,0,0,2,0,0,2,0,0,2,2,0,2,1,2,0,0,0,0,0,0],"split_type":[0,0,0,0,0,0,0,0,0,0,0,0,0,0,0,0,0,0,0,0,0],"sum_hessian":[2.7E2,2E0,2.68E2,2.67E2,1E0,2E0,2.65E2,1E0,1E0,1.1E1,2.54E2,7E0,4E0,1.1E1,2.43E2,1E0,3E0,1E0,1E1,2.31E2,1.2E1],"tree_param":{"num_deleted":"0","num_feature":"3","num_nodes":"21","size_leaf_vector":"1"}},{"base_weights":[2.2591436E0,-3.0437112E0,8.998347E0,-2.885922E1,-9.088931E-1,-2.1231134E1,-1.4630433E0,2.0133953E0,-1.5592058E0,-2.2995926E1,2.5893418E-2,5.442675E-2,-1.5777132E1,-1.8916284E-1,-7.22417E-1,4.0991974E-1,-9.943502E-1,-2.041131E1,5.6992286E-1,7.624501E-1,4.185728E-3,-1.015643E0,-4.7964087E-1],"categories":[],"categories_nodes":[],"categories_segments":[],"categories_sizes":[],"default_left":[1,0,0,0,0,0,0,0,1,0,0,1,0,0,0,0,0,0,0,0,0,0,0],"id":34,"left_children":[1,3,-1,5,7,9,-1,-1,11,13,-1,15,17,-1,-1,19,-1,21,-1,-1,-1,-1,-1],"loss_changes":[3.5452944E5,1.2263615E4,0E0,1.5001992E3,9.181696E3,5.6537354E2,0E0,0E0,4.7270156E3,4.118994E1,0E0,2.1895542E3,3.752436E3,0E0,0E0,1.2418394E3,0E0,6.079712E2,0E0,0E0,0E0,0E0,0E0],"parents":[2147483647,0,0,1,1,3,3,4,4,5,5,8,8,9,9,11,11,12,12,15,15,17,17],"right_children":[2,4,-1,6,8,10,-1,-1,12,14,-1,16,18,-1,-1,20,-1,22,-1,-1,-1,-1,-1],"split_conditions":[1.2661393E3,5.247708E2,8.998347E0,3.918141E2,8.020683E1,3.6696127E2,-1.4630433E0,2.0133953E0,9.839818E1,5.254308E2,2.5893418E-2,1.0437379E3,9.995369E1,-1.8916284E-1,-7.22417E-1,5.9275244E2,-9.943502E-1,9.857E1,5.6992286E-1,7.624501E-1,4.185728E-3,-1.015643E0,-4.7964087E-1],"split_indices":[0,0,0,0,2,0,0,0,2,1,0,0,2,0,0,0,0,2,0,0,0,0,0],"split_type":[0,0,0,0,0,0,0,0,0,0,0,0,0,0,0,0,0,0,0,0,0,0,0],"sum_hessian":[2.25E2,2.22E2,3E0,1.6E1,2.06E2,1.3E1,3E0,1E0,2.05E2,1.2E1,1E0,1.85E2,2E1,1E0,1.1E1,1.84E2,1E0,1.8E1,2E0,1E0,1.83E2,3E0,1.5E1],"tree_param":{"num_deleted":"0","num_feature":"3","num_nodes":"23","size_leaf_vector":"1"}},{"base_weights":[-5.2509494E0,2.087512E2,-1.0188254E1,1.1257373E2,1.0435607E1,-2.4992643E1,-9.045001E0,5.1469755E0,-1.7766253E0,-2.6857653E-1,-8.005661E-1,-9.947264E0,6.3594975E0,-9.355653E0,-1.0465368E0,1.6342555E0,-6.080587E0,-1.0040372E1,2.2780064E1,-1.6070045E1,3.3504617E0,-1.1521931E0,-2.9085323E-1,3.725609E-2,8.4314144E-1,-9.710589E-2,-6.5668607E-1,5.007792E-1,-5.9803593E-1],"categories":[],"categories_nodes":[],"categories_segments":[],"categories_sizes":[],"default_left":[0,0,0,0,0,0,1,0,0,0,0,1,0,1,0,0,0,0,0,0,0,0,0,0,0,0,0,0,0],"id":35,"left_children":[1,3,5,7,-1,9,11,-1,-1,-1,-1,13,15,17,-1,-1,19,21,23,25,27,-1,-1,-1,-1,-1,-1,-1,-1],"loss_changes":[2.8106762E5,3.9702516E4,4.1575566E3,5.922242E4,0E0,1.8886719E2,3.426793E3,0E0,0E0,0E0,0E0,3.0137266E3,8.625479E3,5.1796055E3,0E0,0E0,1.184375E3,2.296875E3,5.129951E2,3.6472412E2,2.4618916E3,0E0,0E0,0E0,0E0,0E0,0E0,0E0,0E0],"parents":[2147483647,0,0,1,1,2,2,3,3,5,5,6,6,11,11,12,12,13,13,16,16,17,17,18,18,19,19,20,20],"right_children":[2,4,6,8,-1,10,12,-1,-1,-1,-1,14,16,18,-1,-1,20,22,24,26,28,-1,-1,-1,-1,-1,-1,-1,-1],"split_conditions":[8.494789E1,7.551E1,6.1644293E2,6.765E1,1.0435607E1,5.254308E2,9.907E1,5.1469755E0,-1.7766253E0,-2.6857653E-1,-8.005661E-1,9.839818E1,9.918334E1,9.725966E1,-1.0465368E0,1.6342555E0,9.967125E1,9.194237E1,6.6124194E2,9.93E1,9.982821E1,-1.1521931E0,-2.9085323E-1,3.725609E-2,8.4314144E-1,-9.710589E-2,-6.5668607E-1,5.007792E-1,-5.9803593E-1],"split_indices":[2,2,0,2,0,1,2,0,0,0,0,2,2,2,0,0,2,2,0,2,2,0,0,0,0,0,0,0,0],"split_type":[0,0,0,0,0,0,0,0,0,0,0,0,0,0,0,0,0,0,0,0,0,0,0,0,0,0,0,0,0],"sum_hessian":[2.63E2,5E0,2.58E2,4E0,1E0,1.7E1,2.41E2,3E0,1E0,2E0,1.5E1,2.28E2,1.3E1,2.24E2,4E0,2E0,1.1E1,2.2E2,4E0,5E0,6E0,2E0,2.18E2,1E0,3E0,2E0,3E0,4E0,2E0],"tree_param":{"num_deleted":"0","num_feature":"3","num_nodes":"29","size_leaf_vector":"1"}},{"base_weights":[-8.528906E-1,8.00002E0,-6.3060503E0,3.772093E1,-8.75646E0,-4.6124706E1,6.748709E1,-9.781818E0,3.9546078E1,-1.6019418E0,-3.8892233E-1,4.709051E0,4.0408066E1,-1.0116143E1,9.9531734E-1,1.7480947E0,-5.041343E-1,8.246696E0,1.019819E2,-2.1216158E1,-9.283048E0,-1.19235E0,6.8862426E-1,3.7205713E0,9.0899736E-1,-3.91857E-1,-7.280141E-1,-1.0408816E0,-2.6874796E-1],"categories":[],"categories_nodes":[],"categories_segments":[],"categories_sizes":[],"default_left":[0,0,0,0,1,0,0,1,0,0,0,0,0,0,0,0,0,0,0,0,0,0,0,0,0,0,0,0,0],"id":36,"left_children":[1,-1,3,5,7,9,11,13,15,-1,-1,-1,17,19,-1,-1,-1,21,23,25,27,-1,-1,-1,-1,-1,-1,-1,-1],"loss_changes":[3.5886503E5,0E0,2.6546148E4,3.5557734E4,1.1827658E4,2.2582031E2,1.7572434E4,3.5709785E3,6.0810938E3,0E0,0E0,0E0,1.6981676E4,1.8929551E3,0E0,0E0,0E0,5.7348423E3,8.304824E2,4.0668945E1,1.8395078E3,0E0,0E0,0E0,0E0,0E0,0E0,0E0,0E0],"parents":[2147483647,0,0,2,2,3,3,4,4,5,5,6,6,7,7,8,8,12,12,13,13,17,17,18,18,19,19,20,20],"right_children":[2,-1,4,6,8,10,12,14,16,-1,-1,-1,18,20,-1,-1,-1,22,24,26,28,-1,-1,-1,-1,-1,-1,-1,-1],"split_conditions":[7.877518E1,8.00002E0,9.700174E1,9.27E1,6.788695E2,9.194237E1,9.359E1,1E2,7.063756E2,-1.6019418E0,-3.8892233E-1,4.709051E0,9.667E1,3.6624286E2,9.9531734E-1,1.7480947E0,-5.041343E-1,9.396988E1,9.671E1,2.3147798E2,9.777E1,-1.19235E0,6.8862426E-1,3.7205713E0,9.0899736E-1,-3.91857E-1,-7.280141E-1,-1.0408816E0,-2.6874796E-1],"split_indices":[2,0,2,2,0,2,2,2,0,0,0,0,2,0,0,0,0,2,2,0,2,0,0,0,0,0,0,0,0],"split_type":[0,0,0,0,0,0,0,0,0,0,0,0,0,0,0,0,0,0,0,0,0,0,0,0,0,0,0,0,0],"sum_hessian":[2.46E2,4E0,2.42E2,1.2E1,2.3E2,3E0,9E0,2.26E2,4E0,2E0,1E0,1E0,8E0,2.25E2,1E0,3E0,1E0,6E0,2E0,1.4E1,2.11E2,1E0,5E0,1E0,1E0,5E0,9E0,2E0,2.09E2],"tree_param":{"num_deleted":"0","num_feature":"3","num_nodes":"29","size_leaf_vector":"1"}},{"base_weights":[7.615126E-1,2.3784528E2,-6.398607E0,8.2617444E-1,2.6402347E2,8.109456E1,-8.393069E0,1.4420584E2,3.7571173E2,-2.6340124E1,5.971366E0,-9.446303E0,6.137546E1,2.2632135E2,-2.7881632E0,2.9875042E0,1.4068298E1,1.0395004E0,-1.7558764E0,-8.90143E0,-1.0631016E0,3.758368E0,-9.5681256E-1,7.936632E0,1.7938243E0,-8.039407E-1,-8.4382105E0,4.530703E-1,-4.9650574E-1,1.7740934E-1,-2.8598574E-1],"categories":[],"categories_nodes":[],"categories_segments":[],"categories_sizes":[],"default_left":[0,0,0,0,0,0,1,0,0,0,0,1,0,0,0,0,0,0,0,0,0,0,0,0,0,0,0,0,0,0,0],"id":37,"left_children":[1,3,5,-1,7,9,11,13,15,17,-1,19,21,23,-1,-1,-1,-1,-1,25,-1,-1,27,-1,-1,-1,29,-1,-1,-1,-1],"loss_changes":[4.6325497E5,3.688625E4,4.6923625E4,0E0,3.949572E4,8.01101E4,1.9685238E4,1.1788395E5,2.81875E4,9.682828E3,0E0,3.2835273E3,1.5779354E4,8.461125E3,0E0,0E0,0E0,0E0,0E0,1.845834E3,0E0,0E0,9.8379407E2,0E0,0E0,0E0,3.642621E3,0E0,0E0,0E0,0E0],"parents":[2147483647,0,0,1,1,2,2,4,4,5,5,6,6,7,7,8,8,9,9,11,11,12,12,13,13,19,19,22,22,26,26],"right_children":[2,4,6,-1,8,10,12,14,16,18,-1,20,22,24,-1,-1,-1,-1,-1,26,-1,-1,28,-1,-1,-1,30,-1,-1,-1,-1],"split_conditions":[7.877518E1,6.0791473E2,9.359E1,8.2617444E-1,7.075E1,8.613652E1,5.9830066E2,6.959522E1,7.974566E2,1.1740607E3,5.971366E0,7.304711E3,5.99014E2,1.5338663E3,-2.7881632E0,2.9875042E0,1.4068298E1,1.0395004E0,-1.7558764E0,9.583325E1,-1.0631016E0,3.758368E0,8.028645E2,7.936632E0,1.7938243E0,-8.039407E-1,9.891217E1,4.530703E-1,-4.9650574E-1,1.7740934E-1,-2.8598574E-1],"split_indices":[2,0,2,0,2,2,0,2,0,0,0,1,0,0,0,0,0,0,0,2,0,0,0,0,0,0,2,0,0,0,0],"split_type":[0,0,0,0,0,0,0,0,0,0,0,0,0,0,0,0,0,0,0,0,0,0,0,0,0,0,0,0,0,0,0],"sum_hessian":[2.71E2,7E0,2.64E2,1E0,6E0,5E0,2.59E2,4E0,2E0,3E0,2E0,2.56E2,3E0,3E0,1E0,1E0,1E0,1E0,2E0,2.52E2,4E0,1E0,2E0,2E0,1E0,5E0,2.47E2,1E0,1E0,1.6E1,2.31E2],"tree_param":{"num_deleted":"0","num_feature":"3","num_nodes":"31","size_leaf_vector":"1"}},{"base_weights":[-4.8357224E-1,3.3434714E2,-9.393578E0,5.490418E-1,1.162211E1,-1.1425727E1,7.9144783E0,-1.2467437E1,1.781987E0,1.4915123E1,-1.4331782E1,-2.7997675E1,3.5128593E1,-6.8899965E-1,-1.3716718E1,-9.7143567E-1,-1.1337462E-1,-2.929344E-1,1.3636379E0,-6.332891E-2,-4.2757064E-1],"categories":[],"categories_nodes":[],"categories_segments":[],"categories_sizes":[],"default_left":[0,0,1,0,0,1,0,0,0,0,0,0,0,0,0,0,0,0,0,0,0],"id":38,"left_children":[1,3,5,-1,-1,7,-1,9,-1,11,13,15,17,-1,19,-1,-1,-1,-1,-1,-1],"loss_changes":[8.056601E5,1.0299069E5,1.4777633E5,0E0,0E0,1.9922895E4,0E0,1.3435859E4,0E0,1.5729603E4,9.4835156E2,4.7649268E2,5.775176E3,0E0,1.0653359E3,0E0,0E0,0E0,0E0,0E0,0E0],"parents":[2147483647,0,0,1,1,2,2,5,5,7,7,9,9,10,10,11,11,12,12,14,14],"right_children":[2,4,6,-1,-1,8,-1,10,-1,12,14,16,18,-1,20,-1,-1,-1,-1,-1,-1],"split_conditions":[6.768E1,1.3946567E3,1.71702E3,5.490418E-1,1.162211E1,6.788695E2,7.9144783E0,9.826115E1,1.781987E0,9.428854E1,1.2757595E3,9.358E1,4.1679678E2,-6.8899965E-1,4.761164E3,-9.7143567E-1,-1.1337462E-1,-2.929344E-1,1.3636379E0,-6.332891E-2,-4.2757064E-1],"split_indices":[2,0,0,0,0,0,0,2,0,2,1,2,0,0,1,0,0,0,0,0,0],"split_type":[0,0,0,0,0,0,0,0,0,0,0,0,0,0,0,0,0,0,0,0,0],"sum_hessian":[2.68E2,6E0,2.62E2,1E0,5E0,2.61E2,1E0,2.58E2,3E0,1.6E1,2.42E2,5E0,1.1E1,1.4E1,2.28E2,4E0,1E0,2E0,9E0,8E0,2.2E2],"tree_param":{"num_deleted":"0","num_feature":"3","num_nodes":"21","size_leaf_vector":"1"}},{"base_weights":[-6.2847514E0,-8.442515E0,5.9681034E0,7.613515E1,-1.2184112E1,-2.6602842E1,1.8330693E2,-1.302527E1,2.927861E0,-3.1529336E0,2.5264645E1,9.724534E0,3.396769E1,3.3211994E0,-1.3775812E1,1.6314493E1,-1.987117E1,3.8366933E0,-3.1806301E1,-1.2349869E1,2.6166298E0,-2.1179197E1,1.0339198E1,-6.7613906E-1,-1.3314287E1,-5.1738495E-1,2.1926266E1,-5.931225E-1,-1.1788281E0,-2.0974088E0,1.14825144E-1,-1.0193835E-1,-4.5869607E-1,-1.6778721E-1,-7.9366326E-1,-5.075607E-1,4.604639E-1,-3.836707E-2,-4.0911707E-1,9.344089E-1,-1.8955857E-1,-9.231259E-2,3.7608054E-2],"categories":[],"categories_nodes":[],"categories_segments":[],"categories_sizes":[],"default_left":[1,0,0,0,1,0,0,0,0,0,0,0,0,0,0,0,0,0,0,0,0,0,0,0,0,0,1,0,0,0,0,0,0,0,0,0,0,0,0,0,0,0,0],"id":39,"left_children":[1,3,-1,5,7,9,11,13,15,-1,17,-1,19,21,23,25,27,-1,29,31,-1,33,35,-1,37,-1,39,41,-1,-1,-1,-1,-1,-1,-1,-1,-1,-1,-1,-1,-1,-1,-1],"loss_changes":[1.254841E5,8.953516E4,0E0,1.3700388E5,3.4575508E3,3.07986E4,1.127532E5,3.1742734E3,4.902222E3,0E0,3.2998457E4,0E0,1.0793068E4,2.282301E3,6.671289E2,2.249751E3,2.1838875E3,0E0,5.6026494E3,2.4572052E1,0E0,9.126648E1,1.576992E3,0E0,5.5789453E2,0E0,2.4638213E3,2.1833477E1,0E0,0E0,0E0,0E0,0E0,0E0,0E0,0E0,0E0,0E0,0E0,0E0,0E0,0E0,0E0],"parents":[2147483647,0,0,1,1,3,3,4,4,5,5,6,6,7,7,8,8,10,10,12,12,13,13,14,14,15,15,16,16,18,18,19,19,21,21,22,22,24,24,26,26,27,27],"right_children":[2,4,-1,6,8,10,12,14,16,-1,18,-1,20,22,24,26,28,-1,30,32,-1,34,36,-1,38,-1,40,42,-1,-1,-1,-1,-1,-1,-1,-1,-1,-1,-1,-1,-1,-1,-1],"split_conditions":[1.2661393E3,9.538E1,5.9681034E0,8.484802E1,2.446757E3,7.075E1,9.018481E1,9.856687E1,8.274404E3,-3.1529336E0,7.797246E1,9.724534E0,9.27E1,9.699E1,9.967125E1,9.721E1,4.1679678E2,3.8366933E0,7.856844E1,9.17059E1,2.6166298E0,9.655204E1,5.008348E2,-6.7613906E-1,9.982821E1,-5.1738495E-1,9.959304E1,3.023639E2,-1.1788281E0,-2.0974088E0,1.14825144E-1,-1.0193835E-1,-4.5869607E-1,-1.6778721E-1,-7.9366326E-1,-5.075607E-1,4.604639E-1,-3.836707E-2,-4.0911707E-1,9.344089E-1,-1.8955857E-1,-9.231259E-2,3.7608054E-2],"split_indices":[0,2,0,2,1,2,2,2,1,0,2,0,2,2,2,2,0,0,2,2,0,2,0,0,2,0,2,0,0,0,0,0,0,0,0,0,0,0,0,0,0,0,0],"split_type":[0,0,0,0,0,0,0,0,0,0,0,0,0,0,0,0,0,0,0,0,0,0,0,0,0,0,0,0,0,0,0,0,0,0,0,0,0,0,0,0,0,0,0],"sum_hessian":[2.81E2,2.79E2,2E0,1.1E1,2.68E2,6E0,5E0,2.54E2,1.4E1,2E0,4E0,2E0,3E0,1.1E1,2.43E2,9E0,5E0,1E0,3E0,2E0,1E0,2E0,9E0,1E1,2.33E2,1E0,8E0,3E0,2E0,1E0,2E0,1E0,1E0,1E0,1E0,1E0,8E0,4E0,2.29E2,6E0,2E0,1E0,2E0],"tree_param":{"num_deleted":"0","num_feature":"3","num_nodes":"43","size_leaf_vector":"1"}},{"base_weights":[-7.6594067E-1,1.8043501E2,-4.522118E0,4.5042434E-1,6.6006417E0,-6.6624055E0,7.7044063E0,-5.7126175E1,-5.565027E0,5.6133425E-1,-2.4417496E0,-6.5773077E0,3.4335266E1,-5.1170025E0,-1.8959229E1,-5.1420856E-1,4.799863E1,-5.2335143E-1,-1.21427566E-1,-7.7090716E-1,-2.7073318E-1,1.5972438E0,4.3708733E-1],"categories":[],"categories_nodes":[],"categories_segments":[],"categories_sizes":[],"default_left":[0,0,1,0,0,0,0,0,1,0,0,1,0,0,0,0,0,0,0,0,0,0,0],"id":40,"left_children":[1,3,5,-1,-1,7,-1,9,11,-1,-1,13,15,17,19,-1,21,-1,-1,-1,-1,-1,-1],"loss_changes":[1.6756858E5,2.7933281E4,1.3533992E5,0E0,0E0,1.2972773E4,0E0,1.04091875E4,9.757939E3,0E0,0E0,4.0797852E3,5.0232515E3,2.728418E3,1.3374863E3,0E0,3.949414E1,0E0,0E0,0E0,0E0,0E0,0E0],"parents":[2147483647,0,0,1,1,2,2,5,5,7,7,8,8,11,11,12,12,13,13,14,14,16,16],"right_children":[2,4,6,-1,-1,8,-1,10,12,-1,-1,14,16,18,20,-1,22,-1,-1,-1,-1,-1,-1],"split_conditions":[4.704113E1,1.3946567E3,1.71702E3,4.5042434E-1,6.6006417E0,9.021858E1,7.7044063E0,6.998174E1,5.9388916E2,5.6133425E-1,-2.4417496E0,9.63E1,2.8688901E3,5.482512E2,9.902E1,-5.1420856E-1,7.063756E2,-5.2335143E-1,-1.21427566E-1,-7.7090716E-1,-2.7073318E-1,1.5972438E0,4.3708733E-1],"split_indices":[2,0,0,0,0,2,0,2,0,0,0,2,1,0,2,0,0,0,0,0,0,0,0],"split_type":[0,0,0,0,0,0,0,0,0,0,0,0,0,0,0,0,0,0,0,0,0,0,0],"sum_hessian":[2.44E2,4E0,2.4E2,1E0,3E0,2.39E2,1E0,4E0,2.35E2,1E0,3E0,2.3E2,5E0,2.07E2,2.3E1,1E0,4E0,1.6E1,1.91E2,1.3E1,1E1,3E0,1E0],"tree_param":{"num_deleted":"0","num_feature":"3","num_nodes":"23","size_leaf_vector":"1"}},{"base_weights":[-1.8158497E0,-5.936732E0,1.1021367E1,8.174121E1,-9.680953E0,6.0483084E0,4.9944996E1,-1.0017638E1,1.1526612E0,9.1544884E-1,3.7303529E0,-9.164534E0,-2.3056341E1,-2.050299E0,2.3650406E1,-9.823929E0,1.8299093E1,-9.182015E-1,-7.074624E0,3.382539E0,-4.9410892E-1,-7.9943866E-1,-2.8073648E-1,1.0552107E0,-9.76616E-1,2.570136E-1,-3.5973305E-1],"categories":[],"categories_nodes":[],"categories_segments":[],"categories_sizes":[],"default_left":[1,0,0,0,1,0,0,1,0,0,0,1,0,0,0,0,0,0,0,0,0,0,0,0,0,0,0],"id":41,"left_children":[1,3,-1,5,7,-1,9,11,-1,13,-1,15,17,-1,19,21,23,-1,25,-1,-1,-1,-1,-1,-1,-1,-1],"loss_changes":[4.0636022E5,8.8115305E4,0E0,3.1328531E4,4.4987188E3,0E0,3.58334E4,2.625162E3,0E0,1.2529535E4,0E0,4.544127E3,1.5313765E3,0E0,2.2960822E4,1.8994434E3,6.1520474E3,0E0,5.503844E2,0E0,0E0,0E0,0E0,0E0,0E0,0E0,0E0],"parents":[2147483647,0,0,1,1,3,3,4,4,6,6,7,7,9,9,11,11,12,12,14,14,15,15,16,16,18,18],"right_children":[2,4,-1,6,8,-1,10,12,-1,14,-1,16,18,-1,20,22,24,-1,26,-1,-1,-1,-1,-1,-1,-1,-1],"split_conditions":[1.1740607E3,9.359E1,1.1021367E1,2.653412E1,1E2,6.0483084E0,8.484802E1,9.90173E1,1.1526612E0,3.077491E1,3.7303529E0,5.915542E2,9.979E1,-2.050299E0,3.329975E1,9.756E1,7.063756E2,-9.182015E-1,9.982011E1,3.382539E0,-4.9410892E-1,-7.9943866E-1,-2.8073648E-1,1.0552107E0,-9.76616E-1,2.570136E-1,-3.5973305E-1],"split_indices":[0,2,0,2,2,0,2,2,0,2,0,0,2,0,2,2,0,0,2,0,0,0,0,0,0,0,0],"split_type":[0,0,0,0,0,0,0,0,0,0,0,0,0,0,0,0,0,0,0,0,0,0,0,0,0,0,0],"sum_hessian":[2.67E2,2.65E2,2E0,1E1,2.55E2,1E0,9E0,2.54E2,1E0,6E0,3E0,2.4E2,1.4E1,1E0,5E0,2.35E2,5E0,9E0,5E0,1E0,4E0,6E0,2.29E2,4E0,1E0,1E0,4E0],"tree_param":{"num_deleted":"0","num_feature":"3","num_nodes":"27","size_leaf_vector":"1"}},{"base_weights":[7.972331E0,4.0741504E2,1.9129226E0,2.7683312E-1,1.6255451E1,6.3667655E-1,6.815038E1,3.2617679E0,-1.2747781E1,-1.1849578E-2,8.538375E1,-1.9695549E1,4.5705466E0,-1.2349269E0,-1.038388E1,7.545816E-1,2.9423492E0,-1.4319506E-1,-6.242182E-1,3.829365E0,1.6324855E0,4.9564925E-1,-1.1462353E1,-5.404691E-1,1.2173005E-1,-6.641942E-1,-2.713677E-1],"categories":[],"categories_nodes":[],"categories_segments":[],"categories_sizes":[],"default_left":[0,0,1,0,0,1,0,0,0,0,0,0,1,0,0,0,0,0,0,0,0,0,0,0,0,0,0],"id":42,"left_children":[1,3,5,-1,-1,7,9,11,13,-1,15,17,19,-1,21,-1,-1,-1,-1,23,-1,-1,25,-1,-1,-1,-1],"loss_changes":[6.4788425E5,2.01719E5,2.2358465E4,0E0,0E0,9.211925E3,5.9394727E3,6.670105E3,2.4282534E3,0E0,4.3861328E2,6.9447754E1,7.404756E3,0E0,1.3710444E3,0E0,0E0,0E0,0E0,9.336909E2,0E0,0E0,8.4982764E2,0E0,0E0,0E0,0E0],"parents":[2147483647,0,0,1,1,2,2,5,5,6,6,7,7,8,8,10,10,11,11,12,12,14,14,19,19,22,22],"right_children":[2,4,6,-1,-1,8,10,12,14,-1,16,18,20,-1,22,-1,-1,-1,-1,24,-1,-1,26,-1,-1,-1,-1],"split_conditions":[3.078655E1,1.3946567E3,6.788695E2,2.7683312E-1,1.6255451E1,8.83E1,5.2577075E3,3.1405704E2,9.192E1,-1.1849578E-2,1.1743011E4,1.24877655E2,3.3925444E3,-1.2349269E0,9.296355E1,7.545816E-1,2.9423492E0,-1.4319506E-1,-6.242182E-1,3.973871E2,1.6324855E0,4.9564925E-1,5.008348E2,-5.404691E-1,1.2173005E-1,-6.641942E-1,-2.713677E-1],"split_indices":[2,0,0,0,0,2,1,0,2,0,1,0,1,0,2,0,0,0,0,0,0,0,0,0,0,0,0],"split_type":[0,0,0,0,0,0,0,0,0,0,0,0,0,0,0,0,0,0,0,0,0,0,0,0,0,0,0],"sum_hessian":[2.67E2,3E0,2.64E2,1E0,2E0,2.6E2,4E0,2.18E2,4.2E1,1E0,3E0,1.1E1,2.07E2,2E0,4E1,1E0,2E0,1E0,1E1,2.05E2,2E0,1E0,3.9E1,1E0,2.04E2,6E0,3.3E1],"tree_param":{"num_deleted":"0","num_feature":"3","num_nodes":"27","size_leaf_vector":"1"}},{"base_weights":[2.8557571E1,3.5650632E2,1.8156992E1,2.8745756E0,4.2785007E2,-2.7565481E1,2.0727064E1,1.980223E1,2.5169342E2,-6.403456E-1,-1.6774435E0,2.4526382E1,-4.078507E0,8.572026E1,1.3854643E1,2.3233795E1,4.459052E0,-1.3212258E0,2.8859572E0,1.9040877E-1,3.3320434E0,-1.5376498E0,2.4194624E1,-1.2896421E0,1.1955596E0,-6.195178E-1,7.5514126E-1,3.4408924E-1,-1.4174263E-1],"categories":[],"categories_nodes":[],"categories_segments":[],"categories_sizes":[],"default_left":[0,0,0,0,0,0,1,0,0,0,0,1,0,0,0,0,0,0,1,0,0,0,0,0,0,0,0,0,0],"id":43,"left_children":[1,3,5,-1,7,9,11,-1,13,-1,-1,15,17,19,-1,21,-1,-1,23,-1,-1,-1,25,27,-1,-1,-1,-1,-1],"loss_changes":[8.871714E5,1.08625625E5,3.0536414E4,0E0,7.4674375E4,1.326294E3,2.290714E4,0E0,1.3179284E5,0E0,0E0,2.9913297E4,9.222141E3,7.052875E3,0E0,1.609782E4,0E0,0E0,4.4851562E3,0E0,0E0,0E0,7.511453E3,1.2132822E3,0E0,0E0,0E0,0E0,0E0],"parents":[2147483647,0,0,1,1,2,2,4,4,5,5,6,6,8,8,11,11,12,12,13,13,15,15,18,18,22,22,23,23],"right_children":[2,4,6,-1,8,10,12,-1,14,-1,-1,16,18,20,-1,22,-1,-1,24,-1,-1,-1,26,28,-1,-1,-1,-1,-1],"split_conditions":[7.2771E1,3.329975E1,3.3925444E3,2.8745756E0,5.325022E1,1.9205409E3,9.361E1,1.980223E1,7.072151E1,-6.403456E-1,-1.6774435E0,9.358E1,9.583325E1,5.612098E1,1.3854643E1,9.358E1,4.459052E0,-1.3212258E0,6.1644293E2,1.9040877E-1,3.3320434E0,-1.5376498E0,4.062908E2,9.743798E1,1.1955596E0,-6.195178E-1,7.5514126E-1,3.4408924E-1,-1.4174263E-1],"split_indices":[2,2,1,0,2,1,2,0,2,0,0,2,2,2,0,2,0,0,0,0,0,0,0,2,0,0,0,0,0],"split_type":[0,0,0,0,0,0,0,0,0,0,0,0,0,0,0,0,0,0,0,0,0,0,0,0,0,0,0,0,0],"sum_hessian":[2.61E2,7E0,2.54E2,2E0,5E0,1.3E1,2.41E2,1E0,4E0,1.2E1,1E0,2.09E2,3.2E1,3E0,1E0,2.08E2,1E0,4E0,2.8E1,1E0,2E0,2E0,2.06E2,2.6E1,2E0,3E0,2.03E2,5E0,2.1E1],"tree_param":{"num_deleted":"0","num_feature":"3","num_nodes":"29","size_leaf_vector":"1"}},{"base_weights":[4.841598E0,2.169635E2,-9.111641E-2,2.1862564E0,8.2095785E0,-1.5890994E0,5.8468285E0,4.7699944E1,-2.356029E0,-6.3098854E-1,2.3454463E0,-3.0753355E0,2.8007746E1,-1.6352797E1,-1.9747016E0,1.7142285E0,-5.9038585E-1,-3.7424827E-1,-1.0136317E0,-4.312133E-1,-4.1087918E-2],"categories":[],"categories_nodes":[],"categories_segments":[],"categories_sizes":[],"default_left":[0,0,1,0,0,0,0,0,1,0,0,0,0,0,0,0,0,0,0,0,0],"id":44,"left_children":[1,3,5,-1,-1,7,-1,9,11,-1,-1,13,15,17,19,-1,-1,-1,-1,-1,-1],"loss_changes":[2.762527E5,2.7556781E4,7.529739E4,0E0,0E0,9.865102E3,0E0,9.786819E3,5.6555527E3,0E0,0E0,3.6211138E3,9.268566E3,8.8413574E2,1.7377068E3,0E0,0E0,0E0,0E0,0E0,0E0],"parents":[2147483647,0,0,1,1,2,2,5,5,7,7,8,8,11,11,12,12,13,13,14,14],"right_children":[2,4,6,-1,-1,8,-1,10,12,-1,-1,14,16,18,20,-1,-1,-1,-1,-1,-1],"split_conditions":[7.551E1,3.401E1,1.2661393E3,2.1862564E0,8.2095785E0,9.538E1,5.8468285E0,3.8604526E2,4.5977844E2,-6.3098854E-1,2.3454463E0,4.5107794E2,5.9275244E2,4.1679678E2,9.922757E1,1.7142285E0,-5.9038585E-1,-3.7424827E-1,-1.0136317E0,-4.312133E-1,-4.1087918E-2],"split_indices":[2,2,0,0,0,2,0,0,0,0,0,0,0,0,2,0,0,0,0,0,0],"split_type":[0,0,0,0,0,0,0,0,0,0,0,0,0,0,0,0,0,0,0,0,0],"sum_hessian":[2.63E2,5E0,2.58E2,2E0,3E0,2.57E2,1E0,3E0,2.54E2,1E0,2E0,2.49E2,5E0,1.8E1,2.31E2,3E0,2E0,1.6E1,2E0,1E1,2.21E2],"tree_param":{"num_deleted":"0","num_feature":"3","num_nodes":"21","size_leaf_vector":"1"}},{"base_weights":[2.7123255E1,1.8000214E1,1.8005302E1,1.7467581E2,1.281604E1,6.330057E-2,1.9903189E2,-1.0767567E1,1.6537863E1,8.065637E0,1.1873903E2,-1.3809266E1,4.6901593E-1,1.5470409E1,3.6584713E0,6.983935E0,-3.2868793E1,-9.0874684E-1,-1.0294466E1,1.6749752E1,-2.420608E1,-4.0629964E0,2.5708852E0,1.0474795E0,-4.6217325E-1,-4.3562052E-1,5.326557E-1,-3.9831507E-1,-8.836868E-1],"categories":[],"categories_nodes":[],"categories_segments":[],"categories_sizes":[],"default_left":[0,0,0,0,0,0,0,1,1,0,0,0,0,1,0,0,0,0,0,0,0,0,0,0,0,0,0,0,0],"id":45,"left_children":[1,-1,3,5,7,-1,9,11,13,-1,15,17,-1,19,-1,-1,21,-1,23,25,27,-1,-1,-1,-1,-1,-1,-1,-1],"loss_changes":[1.3091215E6,0E0,2.0263845E5,3.3211484E4,2.168271E4,0E0,6.2806562E3,2.9302827E3,2.1743691E4,0E0,9.250675E4,1.4579849E3,0E0,1.1115762E4,0E0,0E0,4.723859E4,0E0,6.562884E3,5.68375E3,1.737793E0,0E0,0E0,0E0,0E0,0E0,0E0,0E0,0E0],"parents":[2147483647,0,0,2,2,3,3,4,4,6,6,7,7,8,8,10,10,11,11,13,13,16,16,18,18,19,19,20,20],"right_children":[2,-1,4,6,8,-1,10,12,14,-1,16,18,-1,20,-1,-1,22,-1,24,26,28,-1,-1,-1,-1,-1,-1,-1,-1],"split_conditions":[5.325022E1,1.8000214E1,7.8020004E1,5.612098E1,2.0000002E2,6.330057E-2,3.7477458E3,3.685014E2,1.4526657E4,8.065637E0,5.837056E1,9.547E1,4.6901593E-1,3.3560596E2,3.6584713E0,6.983935E0,6.631098E1,-9.0874684E-1,9.743798E1,2.386272E2,5.859407E3,-4.0629964E0,2.5708852E0,1.0474795E0,-4.6217325E-1,-4.3562052E-1,5.326557E-1,-3.9831507E-1,-8.836868E-1],"split_indices":[2,0,2,2,2,0,0,0,1,0,2,2,0,0,0,0,2,0,2,0,1,0,0,0,0,0,0,0,0],"split_type":[0,0,0,0,0,0,0,0,0,0,0,0,0,0,0,0,0,0,0,0,0,0,0,0,0,0,0,0,0],"sum_hessian":[2.54E2,3E0,2.51E2,7E0,2.44E2,1E0,6E0,3.3E1,2.11E2,2E0,4E0,3E1,3E0,2.1E2,1E0,2E0,2E0,4E0,2.6E1,2.04E2,6E0,1E0,1E0,2E0,2.4E1,5E0,1.99E2,3E0,3E0],"tree_param":{"num_deleted":"0","num_feature":"3","num_nodes":"29","size_leaf_vector":"1"}},{"base_weights":[2.5763838E0,2.609405E2,-1.4864901E0,2.1634254E0,9.087184E0,-5.0511856E0,9.0680485E0,4.439926E1,-6.2271996E0,-6.478878E1,5.3017535E0,-1.5497046E0,-5.279977E0,1.7618612E0,-4.0015154E0,2.150676E1,-5.7026615E0,-2.742383E0,2.8223643E0,8.6214733E-1,2.9307556E-1,-1.8288118E-1,7.051831E-1],"categories":[],"categories_nodes":[],"categories_segments":[],"categories_sizes":[],"default_left":[0,0,1,0,0,0,0,0,0,0,0,0,0,0,0,0,1,0,0,0,0,0,0],"id":46,"left_children":[1,3,5,-1,-1,7,-1,9,11,13,-1,-1,15,17,-1,19,21,-1,-1,-1,-1,-1,-1],"loss_changes":[2.7121072E5,8.335719E3,2.7522906E5,0E0,0E0,1.4989553E4,0E0,9.703042E4,1.0295709E4,1.818341E4,0E0,0E0,2.885296E3,3.380716E4,0E0,5.425757E1,2.5187886E3,0E0,0E0,0E0,0E0,0E0,0E0],"parents":[2147483647,0,0,1,1,2,2,5,5,7,7,8,8,9,9,12,12,13,13,15,15,16,16],"right_children":[2,4,6,-1,-1,8,-1,10,12,14,-1,-1,16,18,-1,20,22,-1,-1,-1,-1,-1,-1],"split_conditions":[4.704113E1,3.329975E1,1.045466E3,2.1634254E0,9.087184E0,8.175145E1,9.0680485E0,6.631098E1,9.547E1,6.408E1,5.3017535E0,-1.5497046E0,9.63E1,5.847755E1,-4.0015154E0,9.605E1,3.973871E2,-2.742383E0,2.8223643E0,8.6214733E-1,2.9307556E-1,-1.8288118E-1,7.051831E-1],"split_indices":[2,2,0,0,0,2,0,2,2,2,0,0,2,2,0,2,0,0,0,0,0,0,0],"split_type":[0,0,0,0,0,0,0,0,0,0,0,0,0,0,0,0,0,0,0,0,0,0,0],"sum_hessian":[2.57E2,3E0,2.54E2,1E0,2E0,2.52E2,2E0,5E0,2.47E2,3E0,2E0,4E0,2.43E2,2E0,1E0,3E0,2.4E2,1E0,1E0,1E0,2E0,2.38E2,2E0],"tree_param":{"num_deleted":"0","num_feature":"3","num_nodes":"23","size_leaf_vector":"1"}},{"base_weights":[2.1548492E1,3.4213376E2,4.7210956E0,3.5662427E0,3.696966E2,8.5455635E1,3.1741493E0,1.1966888E1,4.864345E0,-2.730654E1,8.118381E0,4.837272E0,-1.0748991E0,-1.2183014E1,-1.0997497E0,-7.393804E-1,6.262714E0,-8.056398E-1,2.5257993E-1,1.6877339E0,5.620491E0,2.0527528E-1,-5.182984E-1],"categories":[],"categories_nodes":[],"categories_segments":[],"categories_sizes":[],"default_left":[0,0,0,0,0,0,1,0,0,0,0,0,0,0,0,0,0,0,0,0,1,0,0],"id":47,"left_children":[1,3,5,-1,7,9,11,-1,-1,13,-1,15,-1,17,-1,-1,19,-1,-1,-1,21,-1,-1],"loss_changes":[1.5142716E6,4.2987125E4,3.3199805E4,0E0,9.40125E2,1.1038772E5,1.7159904E4,0E0,0E0,1.036709E2,0E0,1.0749952E4,0E0,1.1113229E3,0E0,0E0,7.4122227E3,0E0,0E0,0E0,6.48793E3,0E0,0E0],"parents":[2147483647,0,0,1,1,2,2,4,4,5,5,6,6,9,9,11,11,13,13,16,16,20,20],"right_children":[2,4,6,-1,8,10,12,-1,-1,14,-1,16,-1,18,-1,-1,20,-1,-1,-1,22,-1,-1],"split_conditions":[8.650945E1,1.6248696E3,9.411213E1,3.5662427E0,7.551E1,9.396988E1,5.859407E3,1.1966888E1,4.864345E0,9.27E1,8.118381E0,2.118434E3,-1.0748991E0,8.942925E1,-1.0997497E0,-7.393804E-1,3.4798691E3,-8.056398E-1,2.5257993E-1,1.6877339E0,9.926991E1,2.0527528E-1,-5.182984E-1],"split_indices":[2,0,2,0,2,2,1,0,0,2,0,1,0,2,0,0,1,0,0,0,2,0,0],"split_type":[0,0,0,0,0,0,0,0,0,0,0,0,0,0,0,0,0,0,0,0,0,0,0],"sum_hessian":[2.8E2,1.3E1,2.67E2,2E0,1.1E1,4E0,2.63E2,9E0,2E0,3E0,1E0,2.53E2,1E1,2E0,1E0,1.1E1,2.42E2,1E0,1E0,2E0,2.4E2,2.29E2,1.1E1],"tree_param":{"num_deleted":"0","num_feature":"3","num_nodes":"23","size_leaf_vector":"1"}},{"base_weights":[-7.814439E0,-1.2740808E1,3.3036383E2,1.476991E2,-1.6285206E1,1.2186515E1,1.7164801E0,1.9825685E2,-1.5902162E0,-1.8634263E0,-1.5190117E1,8.439138E0,5.157726E1,4.409929E0,-1.6360426E1,2.5535512E0,-2.1215086E-1,-1.118279E0,-1.605992E1,-4.4274785E-2,-4.9629822E-1],"categories":[],"categories_nodes":[],"categories_segments":[],"categories_sizes":[],"default_left":[1,0,0,1,0,0,0,0,0,0,0,0,0,0,0,0,0,0,0,0,0],"id":48,"left_children":[1,3,5,7,9,-1,-1,11,-1,-1,13,-1,15,-1,17,-1,-1,-1,19,-1,-1],"loss_changes":[4.6402253E5,1.5765028E5,5.631122E4,7.116068E4,1.2355758E4,0E0,0E0,4.4725094E4,0E0,0E0,5.1909266E4,0E0,6.356224E3,0E0,1.0277109E3,0E0,0E0,0E0,1.2627812E3,0E0,0E0],"parents":[2147483647,0,0,1,1,2,2,3,3,4,4,7,7,10,10,12,12,14,14,18,18],"right_children":[2,4,6,8,10,-1,-1,12,-1,-1,14,-1,16,-1,18,-1,-1,-1,20,-1,-1],"split_conditions":[4.3037117E4,6.765E1,1.669103E3,1.5338663E3,9.358E1,1.2186515E1,1.7164801E0,5.085709E1,-1.5902162E0,-1.8634263E0,9.359E1,8.439138E0,6.983817E2,4.409929E0,9.534632E1,2.5535512E0,-2.1215086E-1,-1.118279E0,9.721E1,-4.4274785E-2,-4.9629822E-1],"split_indices":[1,2,0,0,2,0,0,2,0,0,2,0,0,0,2,0,0,0,2,0,0],"split_type":[0,0,0,0,0,0,0,0,0,0,0,0,0,0,0,0,0,0,0,0,0],"sum_hessian":[2.75E2,2.72E2,3E0,5E0,2.67E2,2E0,1E0,4E0,1E0,5E0,2.62E2,2E0,2E0,1E0,2.61E2,1E0,1E0,2E0,2.59E2,6E0,2.53E2],"tree_param":{"num_deleted":"0","num_feature":"3","num_nodes":"21","size_leaf_vector":"1"}},{"base_weights":[-3.768668E0,-7.3705206E0,7.0271277E0,5.0203276E0,-8.674904E0,-7.6096E1,-7.3241987E0,-2.907178E-1,-2.7333517E0,7.493032E1,-8.595716E0,3.725179E0,4.3662724E0,-1.007549E1,4.4847134E1,-2.0894048E-1,3.7804863E-1,-2.3233254E0,-2.7896482E-1,2.8139475E-1,2.6979325E0],"categories":[],"categories_nodes":[],"categories_segments":[],"categories_sizes":[],"default_left":[1,0,0,0,0,0,0,0,0,0,1,0,0,0,0,0,0,0,0,0,0],"id":49,"left_children":[1,3,-1,-1,5,7,9,-1,-1,11,13,15,-1,17,19,-1,-1,-1,-1,-1,-1],"loss_changes":[2.2608606E5,6.042268E4,0E0,0E0,2.3119812E4,3.86017E3,2.7418617E4,0E0,0E0,1.9212746E4,2.0459945E4,3.6578275E2,0E0,1.3422682E4,1.0194773E4,0E0,0E0,0E0,0E0,0E0,0E0],"parents":[2147483647,0,0,1,1,4,4,5,5,6,6,9,9,10,10,11,11,13,13,14,14],"right_children":[2,4,-1,-1,6,8,10,-1,-1,12,14,16,-1,18,20,-1,-1,-1,-1,-1,-1],"split_conditions":[1.5536434E3,2.653412E1,7.0271277E0,5.0203276E0,5.847755E1,1.3946567E3,7.2771E1,-2.907178E-1,-2.7333517E0,6.765E1,7.9498374E3,6.3200005E1,4.3662724E0,8.484802E1,5.9830066E2,-2.0894048E-1,3.7804863E-1,-2.3233254E0,-2.7896482E-1,2.8139475E-1,2.6979325E0],"split_indices":[0,2,0,0,2,0,2,0,0,2,1,2,0,2,0,0,0,0,0,0,0],"split_type":[0,0,0,0,0,0,0,0,0,0,0,0,0,0,0,0,0,0,0,0,0],"sum_hessian":[2.63E2,2.6E2,3E0,1E0,2.59E2,4E0,2.55E2,1E0,3E0,3E0,2.52E2,2E0,1E0,2.46E2,6E0,1E0,1E0,2E0,2.44E2,4E0,2E0],"tree_param":{"num_deleted":"0","num_feature":"3","num_nodes":"21","size_leaf_vector":"1"}},{"base_weights":[9.679657E0,2.3555077E2,4.6244483E0,1.0210907E1,1.4770306E2,3.3127046E0,6.1789062E1,-4.7125793E1,8.876354E0,-4.10255E1,4.4982443E0,-4.7775966E-1,8.046143E1,-2.4725525E0,3.3323082E-1,5.434538E-1,-5.3848785E1,8.490524E1,1.9277909E0,3.5753908E0,4.1506744E1,-2.0577858E-1,-1.8733034E0,-3.681081E-2,9.738208E1,-1.9244068E1,3.2540517E0,1.9728293E0,-4.4692478E-1,4.3474193E0,1.9892255E0,-6.8876535E-1,-2.3192292E-1,1.0610149E0,7.3271625E-2],"categories":[],"categories_nodes":[],"categories_segments":[],"categories_sizes":[],"default_left":[0,0,1,0,0,0,0,0,0,0,0,0,0,0,0,0,0,0,0,0,0,0,0,0,0,1,0,0,0,0,0,0,0,0,0],"id":50,"left_children":[1,3,5,-1,7,9,11,13,-1,15,17,-1,19,-1,-1,-1,21,23,25,-1,27,-1,-1,-1,29,31,33,-1,-1,-1,-1,-1,-1,-1,-1],"loss_changes":[3.1291272E5,3.8462812E3,2.004135E4,0E0,1.5565194E5,1.4114186E4,9.961305E3,6.9295684E3,0E0,6.261425E3,5.336707E4,0E0,2.4351973E3,0E0,0E0,0E0,1.8515996E3,8.714652E3,7.138632E3,0E0,6.293095E3,0E0,0E0,0E0,8.096094E2,4.3610303E2,6.2202744E3,0E0,0E0,0E0,0E0,0E0,0E0,0E0,0E0],"parents":[2147483647,0,0,1,1,2,2,4,4,5,5,6,6,7,7,9,9,10,10,12,12,16,16,17,17,18,18,20,20,24,24,25,25,26,26],"right_children":[2,4,6,-1,8,10,12,14,-1,16,18,-1,20,-1,-1,-1,22,24,26,-1,28,-1,-1,-1,30,32,34,-1,-1,-1,-1,-1,-1,-1,-1],"split_conditions":[5.837056E1,1.669103E3,1.2748762E4,1.0210907E1,3.079846E1,9.358E1,5.282688E2,2.669029E1,8.876354E0,5.0023602E2,9.671E1,-4.7775966E-1,5.99014E2,-2.4725525E0,3.3323082E-1,5.434538E-1,6.3200005E1,1.0201436E3,4.160063E3,3.5753908E0,8.83E1,-2.0577858E-1,-1.8733034E0,-3.681081E-2,9.359E1,9.959304E1,7.128907E3,1.9728293E0,-4.4692478E-1,4.3474193E0,1.9892255E0,-6.8876535E-1,-2.3192292E-1,1.0610149E0,7.3271625E-2],"split_indices":[2,0,1,0,2,2,0,2,0,0,2,0,0,0,0,0,2,0,1,0,2,0,0,0,2,2,1,0,0,0,0,0,0,0,0],"split_type":[0,0,0,0,0,0,0,0,0,0,0,0,0,0,0,0,0,0,0,0,0,0,0,0,0,0,0,0,0,0,0,0,0,0,0],"sum_hessian":[2.74E2,5E0,2.69E2,1E0,4E0,2.64E2,5E0,2E0,2E0,6E0,2.58E2,1E0,4E0,1E0,1E0,1E0,5E0,7E0,2.51E2,1E0,3E0,1E0,4E0,1E0,6E0,1.4E1,2.37E2,2E0,1E0,1E0,5E0,1E1,4E0,5E0,2.32E2],"tree_param":{"num_deleted":"0","num_feature":"3","num_nodes":"35","size_leaf_vector":"1"}},{"base_weights":[3.6034784E0,4.342606E1,1.1606238E0,-5.0846695E1,9.564711E1,-1.4472416E1,2.5328712E0,-7.525895E1,-1.3481241E0,1.3203337E2,6.1191086E1,-1.0471429E1,-7.378691E-1,2.4852798E1,2.0210664E0,-4.4083017E-1,-2.7429612E0,2.773084E0,-2.8342834E0,1.1866424E0,4.5367136E0,-1.5934217E0,8.893985E1,-1.3489267E1,2.1494372E-1,3.219203E-1,9.3165433E-1,-7.564097E-1,2.255339E0,4.736566E1,4.491339E0,-1.6003857E1,-5.7622347E0,1.8324463E1,1.8006381E0,4.177553E0,-2.9693428E-1,-5.263808E-1,-2.1078639E-1,-3.8499758E-2,-3.5897097E-1,-1.7284868E-2,1.7069261E0,-8.834257E-1,6.732829E-2],"categories":[],"categories_nodes":[],"categories_segments":[],"categories_sizes":[],"default_left":[0,0,0,0,0,0,0,0,0,0,0,0,0,0,0,0,0,0,0,0,0,0,0,0,0,0,0,0,0,0,0,0,0,0,0,0,0,0,0,0,0,0,0,0,0],"id":51,"left_children":[1,3,5,7,9,11,13,15,17,19,21,23,-1,25,27,-1,-1,-1,-1,-1,-1,-1,29,31,-1,-1,-1,-1,33,35,-1,37,39,41,43,-1,-1,-1,-1,-1,-1,-1,-1,-1,-1],"loss_changes":[2.52426E4,7.870867E4,5.3139473E3,7.1487744E3,4.457992E3,5.3758496E2,2.5428938E3,2.412541E3,3.4327992E4,7.578047E2,2.6795543E4,9.4435925E2,0E0,9.414526E1,1.4676968E3,0E0,0E0,0E0,0E0,0E0,0E0,0E0,7.8040703E3,1.798064E2,0E0,0E0,0E0,0E0,1.5890793E3,2.727601E4,0E0,4.4206543E0,1.2183855E2,4.3491123E3,2.9168018E3,0E0,0E0,0E0,0E0,0E0,0E0,0E0,0E0,0E0,0E0],"parents":[2147483647,0,0,1,1,2,2,3,3,4,4,5,5,6,6,7,7,8,8,9,9,10,10,11,11,13,13,14,14,22,22,23,23,28,28,29,29,31,31,32,32,33,33,34,34],"right_children":[2,4,6,8,10,12,14,16,18,20,22,24,-1,26,28,-1,-1,-1,-1,-1,-1,-1,30,32,-1,-1,-1,-1,34,36,-1,38,40,42,44,-1,-1,-1,-1,-1,-1,-1,-1,-1,-1],"split_conditions":[9.612111E1,5.847755E1,4.7529575E3,3.717031E1,8.175145E1,3.9605447E2,6.596645E3,1.3946567E3,3.875008E1,6.6509995E1,8.613652E1,3.7748575E2,-7.378691E-1,5.227969E3,9.613215E1,-4.4083017E-1,-2.7429612E0,2.773084E0,-2.8342834E0,1.1866424E0,4.5367136E0,-1.5934217E0,9.605E1,1.2455133E3,2.1494372E-1,3.219203E-1,9.3165433E-1,-7.564097E-1,9.743798E1,9.018481E1,4.491339E0,2.5627246E2,3.5487012E2,9.733687E1,9.787893E1,4.177553E0,-2.9693428E-1,-5.263808E-1,-2.1078639E-1,-3.8499758E-2,-3.5897097E-1,-1.7284868E-2,1.7069261E0,-8.834257E-1,6.732829E-2],"split_indices":[2,2,1,2,2,0,1,0,2,2,2,0,0,1,2,0,0,0,0,0,0,0,2,1,0,0,0,0,2,2,0,0,0,2,2,0,0,0,0,0,0,0,0,0,0],"split_type":[0,0,0,0,0,0,0,0,0,0,0,0,0,0,0,0,0,0,0,0,0,0,0,0,0,0,0,0,0,0,0,0,0,0,0,0,0,0,0,0,0,0,0,0,0],"sum_hessian":[2.59E2,1.4E1,2.45E2,5E0,9E0,1.9E1,2.26E2,3E0,2E0,3E0,6E0,1.5E1,4E0,4E0,2.22E2,1E0,2E0,1E0,1E0,1E0,2E0,1E0,5E0,1.3E1,2E0,2E0,2E0,1E0,2.21E2,4E0,1E0,9E0,4E0,5E0,2.16E2,1E0,3E0,7E0,2E0,3E0,1E0,4E0,1E0,2E0,2.14E2],"tree_param":{"num_deleted":"0","num_feature":"3","num_nodes":"45","size_leaf_vector":"1"}},{"base_weights":[7.6994514E0,2.3852914E2,-1.9104921E0,9.272359E0,1.4222978E2,-3.99976E0,7.55864E0,-2.7913947E0,2.0756969E2,1.253486E1,-4.9249806E0,1.8169365E0,6.94389E0,6.461365E0,9.2686653E-1,-4.3607736E0,-1.6788618E1,1.6764467E1,-1.8210455E0,-4.903449E0,1.0999856E0,-2.8175606E1,2.3349151E-1,-1.751439E-1,7.217715E-1,-2.574925E-1,5.795852E-1,-1.1999526E-1,-4.9770668E-1,-2.0742857E-1,-9.40276E-1,1.0330278E0,-5.0768095E-1],"categories":[],"categories_nodes":[],"categories_segments":[],"categories_sizes":[],"default_left":[0,0,1,0,0,0,0,0,0,1,1,0,0,0,0,1,0,0,0,1,0,0,0,0,0,0,0,0,0,0,0,0,0],"id":52,"left_children":[1,3,5,-1,7,9,-1,-1,11,13,15,-1,-1,17,-1,19,21,23,25,27,-1,29,31,-1,-1,-1,-1,-1,-1,-1,-1,-1,-1],"loss_changes":[5.550208E5,2.1765688E4,1.2771691E5,0E0,1.1106453E5,3.7332944E3,0E0,0E0,2.361E3,1.2305118E3,1.452918E3,0E0,0E0,9.692086E2,0E0,5.0161E3,1.9448845E3,9.368815E2,1.1446454E3,2.285379E3,0E0,1.5722168E2,3.4555867E3,0E0,0E0,0E0,0E0,0E0,0E0,0E0,0E0,0E0,0E0],"parents":[2147483647,0,0,1,1,2,2,4,4,5,5,8,8,9,9,10,10,13,13,15,15,16,16,17,17,18,18,19,19,21,21,22,22],"right_children":[2,4,6,-1,8,10,-1,-1,12,14,16,-1,-1,18,-1,20,22,24,26,28,-1,30,32,-1,-1,-1,-1,-1,-1,-1,-1,-1,-1],"split_conditions":[8.175145E1,5.837056E1,1.045466E3,9.272359E0,5.847755E1,9.79363E1,7.55864E0,-2.7913947E0,8.2056964E2,5.915542E2,3.730899E3,1.8169365E0,6.94389E0,9.612111E1,9.2686653E-1,2.446757E3,4.8979327E2,9.492E1,9.765E1,9.93E1,1.0999856E0,2.3669307E2,5.389174E2,-1.751439E-1,7.217715E-1,-2.574925E-1,5.795852E-1,-1.1999526E-1,-4.9770668E-1,-2.0742857E-1,-9.40276E-1,1.0330278E0,-5.0768095E-1],"split_indices":[2,2,0,0,2,2,0,0,0,0,1,0,0,2,0,1,0,2,2,2,0,0,0,0,0,0,0,0,0,0,0,0,0],"split_type":[0,0,0,0,0,0,0,0,0,0,0,0,0,0,0,0,0,0,0,0,0,0,0,0,0,0,0,0,0,0,0,0,0],"sum_hessian":[2.49E2,9E0,2.4E2,4E0,5E0,2.39E2,1E0,1E0,4E0,1.2E1,2.27E2,1E0,3E0,1E1,2E0,2.18E2,9E0,4E0,6E0,2.16E2,2E0,5E0,4E0,1E0,3E0,5E0,1E0,2.01E2,1.5E1,1E0,4E0,1E0,3E0],"tree_param":{"num_deleted":"0","num_feature":"3","num_nodes":"33","size_leaf_vector":"1"}},{"base_weights":[8.574367E0,1.0623492E1,2.7583885E0,8.055707E1,3.8891172E-1,5.9389052E0,7.9937186E0,-2.28516E1,2.1086307E0,2.995822E0,-1.9772642E0,-3.842636E0,-2.8867702E1,1.5155042E0,1.9615728E0,-1.8566202E-1,-2.6964316E-1,-1.4919108E-1,-9.259491E-1,2.507372E0,-1.9068521E1,1.6627403E-1,-1.7851475E-1,1.0720585E-1,-4.8913023E-1,-2.0174375E-1,-6.4570796E-1],"categories":[],"categories_nodes":[],"categories_segments":[],"categories_sizes":[],"default_left":[0,0,0,0,0,0,0,0,1,0,0,0,0,1,0,0,0,0,0,1,0,0,0,0,0,0,0],"id":53,"left_children":[1,-1,3,5,7,9,-1,11,13,-1,-1,15,17,19,-1,-1,21,-1,-1,23,25,-1,-1,-1,-1,-1,-1],"loss_changes":[4.770397E5,0E0,4.3657766E4,9.431805E4,9.280598E3,4.6259305E4,0E0,1.7188301E3,7.93547E3,0E0,0E0,3.929435E1,3.4556348E2,4.4373877E3,0E0,0E0,1.2973926E2,0E0,0E0,4.0377168E3,1.3897534E2,0E0,0E0,0E0,0E0,0E0,0E0],"parents":[2147483647,0,0,2,2,3,3,4,4,5,5,7,7,8,8,11,11,12,12,13,13,16,16,19,19,20,20],"right_children":[2,-1,4,6,8,10,-1,12,14,-1,-1,16,18,20,-1,-1,22,-1,-1,24,26,-1,-1,-1,-1,-1,-1],"split_conditions":[6.768E1,1.0623492E1,9.411213E1,9.396988E1,9.8E1,7.072151E1,7.9937186E0,9.66E1,6.6124194E2,2.995822E0,-1.9772642E0,9.5130005E1,3.1212875E2,3.730899E3,1.9615728E0,-1.8566202E-1,9.629E1,-1.4919108E-1,-9.259491E-1,9.955811E1,4.5464395E3,1.6627403E-1,-1.7851475E-1,1.0720585E-1,-4.8913023E-1,-2.0174375E-1,-6.4570796E-1],"split_indices":[2,0,2,2,2,2,0,2,0,0,0,2,0,1,0,0,2,0,0,2,1,0,0,0,0,0,0],"split_type":[0,0,0,0,0,0,0,0,0,0,0,0,0,0,0,0,0,0,0,0,0,0,0,0,0,0,0],"sum_hessian":[2.39E2,3E0,2.36E2,6E0,2.3E2,5E0,1E0,1.5E1,2.15E2,2E0,3E0,4E0,1.1E1,2.14E2,1E0,2E0,2E0,1E0,1E1,2.05E2,9E0,1E0,1E0,1.95E2,1E1,2E0,7E0],"tree_param":{"num_deleted":"0","num_feature":"3","num_nodes":"27","size_leaf_vector":"1"}},{"base_weights":[-5.5717263E0,2.0587924E2,-1.1690337E1,2.6154742E2,-1.9388607E0,-1.2271002E1,1.9318902E0,1.1238198E1,3.444554E0,4.3261967E1,-1.2919438E1,-2.2274969E0,4.1914163E0,-1.8003486E0,-1.1869169E1,8.1754425E1,-1.3028659E1,5.2402865E-2,3.6589198E0,-4.1155827E-1,-1.1718057E-1],"categories":[],"categories_nodes":[],"categories_segments":[],"categories_sizes":[],"default_left":[0,1,1,0,0,0,0,0,0,0,0,0,0,0,0,0,1,0,0,0,0],"id":54,"left_children":[1,3,5,7,-1,9,-1,-1,-1,11,13,-1,-1,-1,15,17,19,-1,-1,-1,-1],"loss_changes":[3.2197197E5,1.2194716E5,1.1352301E4,5.5052688E4,0E0,9.201227E3,0E0,0E0,0E0,4.358161E4,1.0934426E4,0E0,0E0,0E0,2.646716E4,9.1883125E3,1.1588359E3,0E0,0E0,0E0,0E0],"parents":[2147483647,0,0,1,1,2,2,3,3,5,5,9,9,10,10,14,14,15,15,16,16],"right_children":[2,4,6,8,-1,10,-1,-1,-1,12,14,-1,-1,-1,16,18,20,-1,-1,-1,-1],"split_conditions":[7.694608E1,1.5338663E3,6.6124194E2,5.837056E1,-1.9388607E0,8.175145E1,1.9318902E0,1.1238198E1,3.444554E0,7.856844E1,9.358E1,-2.2274969E0,4.1914163E0,-1.8003486E0,9.671E1,9.629552E1,2.207766E3,5.2402865E-2,3.6589198E0,-4.1155827E-1,-1.1718057E-1],"split_indices":[2,0,0,2,0,2,0,0,0,2,2,0,0,0,2,2,1,0,0,0,0],"split_type":[0,0,0,0,0,0,0,0,0,0,0,0,0,0,0,0,0,0,0,0,0],"sum_hessian":[2.46E2,6E0,2.4E2,5E0,1E0,2.39E2,1E0,2E0,3E0,2E0,2.37E2,1E0,1E0,4E0,2.33E2,2E0,2.31E2,1E0,1E0,2.17E2,1.4E1],"tree_param":{"num_deleted":"0","num_feature":"3","num_nodes":"21","size_leaf_vector":"1"}},{"base_weights":[6.306805E0,2.63682E2,-3.5113063E0,1.1668956E1,1.9375392E2,8.860727E1,-4.7874007E0,-4.722044E1,8.15159E0,2.1016699E1,4.4091454E0,-5.757735E0,2.5717077E1,2.2885013E0,-4.4321194E0,1.5065515E0,-5.524778E-1,-4.950052E0,-9.80501E-1,-7.010628E-1,4.2992634E1,1.4211824E1,-5.511965E0,1.6821215E0,-4.9241439E-1,-1.2651797E-1,7.893847E-1,-7.379178E-1,-1.5293977E-1],"categories":[],"categories_nodes":[],"categories_segments":[],"categories_sizes":[],"default_left":[0,0,0,0,0,0,1,0,0,0,0,1,0,0,0,0,0,0,0,0,0,0,0,0,0,0,0,0,0],"id":55,"left_children":[1,3,5,-1,7,9,11,13,-1,15,-1,17,19,-1,-1,-1,-1,21,-1,-1,23,25,27,-1,-1,-1,-1,-1,-1],"loss_changes":[7.564805E5,1.9053E4,3.439673E4,0E0,1.7666819E5,1.2370969E4,8.613539E3,4.7641242E4,0E0,4.29757E3,0E0,5.821383E3,8.596094E3,0E0,0E0,0E0,0E0,2.996274E3,0E0,0E0,6.1268E3,1.8557913E3,2.1606807E3,0E0,0E0,0E0,0E0,0E0,0E0],"parents":[2147483647,0,0,1,1,2,2,4,4,5,5,6,6,7,7,9,9,11,11,12,12,17,17,20,20,21,21,22,22],"right_children":[2,4,6,-1,8,10,12,14,-1,16,-1,18,20,-1,-1,-1,-1,22,-1,-1,24,26,28,-1,-1,-1,-1,-1,-1],"split_conditions":[8.650945E1,3.875008E1,9.612111E1,1.1668956E1,6.631098E1,9.534632E1,5.282688E2,6.408E1,8.15159E0,9.055661E1,4.4091454E0,4.0213455E2,1.3614557E3,2.2885013E0,-4.4321194E0,1.5065515E0,-5.524778E-1,9.780653E1,-9.80501E-1,-7.010628E-1,7.063756E2,9.686E1,9.855E1,1.6821215E0,-4.9241439E-1,-1.2651797E-1,7.893847E-1,-7.379178E-1,-1.5293977E-1],"split_indices":[2,2,2,0,2,2,0,2,0,2,0,0,1,0,0,0,0,2,0,0,0,2,2,0,0,0,0,0,0],"split_type":[0,0,0,0,0,0,0,0,0,0,0,0,0,0,0,0,0,0,0,0,0,0,0,0,0,0,0,0,0],"sum_hessian":[2.98E2,1E1,2.88E2,2E0,8E0,3E0,2.85E2,2E0,6E0,2E0,1E0,2.77E2,8E0,1E0,1E0,1E0,1E0,2.7E2,7E0,2E0,6E0,7E0,2.63E2,5E0,1E0,3E0,4E0,5E0,2.58E2],"tree_param":{"num_deleted":"0","num_feature":"3","num_nodes":"29","size_leaf_vector":"1"}},{"base_weights":[9.784455E-1,2.2856468E2,-5.7761397E0,1.2466659E2,1.2891752E1,-2.8557532E0,-3.842077E0,2.0720769E2,3.1594109E1,6.447643E1,-5.3234386E0,1.9398886E0,7.4665084E0,2.0469666E0,-2.9658813E0,8.853075E0,4.3424263E0,-6.2580295E0,3.0299416E1,-1.0927703E-1,-2.5362069E-2,6.078965E-1,-1.5868759E0,-5.535555E0,-9.5225406E-1,1.368318E1,1.7156745E0,-2.075132E-1,1.354754E-1,3.5915616E-1,-1.9457604E-1,5.5370826E-1,-7.2147585E-2],"categories":[],"categories_nodes":[],"categories_segments":[],"categories_sizes":[],"default_left":[0,0,0,0,0,0,0,0,0,0,1,0,0,0,0,0,0,1,0,0,0,0,0,0,0,0,0,0,0,0,0,0,0],"id":56,"left_children":[1,3,5,7,-1,-1,9,11,13,15,17,-1,-1,-1,19,21,-1,23,25,-1,-1,-1,27,29,-1,31,-1,-1,-1,-1,-1,-1,-1],"loss_changes":[3.7333488E5,9.047003E4,4.007122E4,3.9547305E4,0E0,0E0,2.3822662E4,1.1464922E3,5.183177E3,2.0703305E4,7.78037E3,0E0,0E0,0E0,1.0908928E0,5.0097882E2,0E0,3.8869512E3,1.8553989E3,0E0,0E0,0E0,1.2655337E2,3.4670093E3,0E0,4.141858E2,0E0,0E0,0E0,0E0,0E0,0E0,0E0],"parents":[2147483647,0,0,1,1,2,2,3,3,6,6,7,7,8,8,9,9,10,10,14,14,15,15,17,17,18,18,22,22,23,23,25,25],"right_children":[2,4,6,8,-1,-1,10,12,14,16,18,-1,-1,-1,20,22,-1,24,26,-1,-1,-1,28,30,-1,32,-1,-1,-1,-1,-1,-1,-1],"split_conditions":[7.2771E1,6.796426E1,9.037226E1,6.405435E1,1.2891752E1,-2.8557532E0,9.612111E1,3.329975E1,6.983817E2,9.545E1,5.0202618E2,1.9398886E0,7.4665084E0,2.0469666E0,6.765E1,5.0023602E2,4.3424263E0,1.4318963E4,9.824359E3,-1.0927703E-1,-2.5362069E-2,6.078965E-1,9.490321E1,9.869E1,-9.5225406E-1,8.028645E2,1.7156745E0,-2.075132E-1,1.354754E-1,3.5915616E-1,-1.9457604E-1,5.5370826E-1,-7.2147585E-2],"split_indices":[2,2,2,2,0,0,2,2,0,2,0,0,0,0,2,0,0,1,1,0,0,0,2,2,0,0,0,0,0,0,0,0,0],"split_type":[0,0,0,0,0,0,0,0,0,0,0,0,0,0,0,0,0,0,0,0,0,0,0,0,0,0,0,0,0,0,0,0,0],"sum_hessian":[2.41E2,6E0,2.35E2,5E0,1E0,4E0,2.31E2,2E0,3E0,4E0,2.27E2,1E0,1E0,1E0,2E0,3E0,1E0,2.22E2,5E0,1E0,1E0,1E0,2E0,2.17E2,5E0,4E0,1E0,1E0,1E0,1E1,2.07E2,3E0,1E0],"tree_param":{"num_deleted":"0","num_feature":"3","num_nodes":"33","size_leaf_vector":"1"}},{"base_weights":[1.2381662E0,1.6381256E2,-3.991861E0,9.300801E-1,1.7660606E2,-2.7358778E0,-3.0450354E0,6.7683034E0,1.03655975E2,2.0474903E1,-3.639133E0,3.832954E1,4.068401E0,-2.9705173E-1,8.2194483E-1,-2.942992E0,-1.4593449E1,2.255525E0,-5.1551807E-1,-3.7218108E0,1.6666012E1,-6.263867E-1,-1.0834003E1,-4.9944055E-1,-8.9113906E-2,2.6049253E-1,6.961689E-1,4.0346965E-2,-4.0556026E-1],"categories":[],"categories_nodes":[],"categories_segments":[],"categories_sizes":[],"default_left":[0,0,0,0,0,0,0,0,0,0,1,0,0,0,0,1,0,0,0,0,0,0,0,0,0,0,0,0,0],"id":57,"left_children":[1,3,5,-1,7,-1,9,-1,11,13,15,17,-1,-1,-1,19,21,-1,-1,23,25,-1,27,-1,-1,-1,-1,-1,-1],"loss_changes":[2.4553123E5,9.895578E3,2.2632613E4,0E0,4.268453E3,0E0,3.9590427E3,0E0,4.8992695E3,1.683854E3,2.0312544E3,7.281807E3,0E0,0E0,0E0,3.9868953E3,1.4292505E2,0E0,0E0,2.4150698E3,3.1269727E2,0E0,3.926266E2,0E0,0E0,0E0,0E0,0E0,0E0],"parents":[2147483647,0,0,1,1,2,2,4,4,6,6,8,8,9,9,10,10,11,11,15,15,16,16,19,19,20,20,22,22],"right_children":[2,4,6,-1,8,-1,10,-1,12,14,16,18,-1,-1,-1,20,22,-1,-1,24,26,-1,28,-1,-1,-1,-1,-1,-1],"split_conditions":[7.2771E1,1.7102329E3,8.613652E1,9.300801E-1,6.405435E1,-2.7358778E0,9.686E1,6.7683034E0,6.998174E1,9.192E1,9.938657E1,6.408E1,4.068401E0,-2.9705173E-1,8.2194483E-1,9.890874E1,9.967125E1,2.255525E0,-5.1551807E-1,