{"learner":{"attributes":{"scikit_learn":"{\"_estimator_type\": \"regressor\"}"},"feature_names":["date","Women and girls who use menstrual materials (% of women and girls ages 15-49 who had a menstrual period within the last year)","setting","Women participating in own health care decisions (% of women age 15-49)","Mortality rate, infant (per 1,000 live births)","Female genital mutilation prevalence (%)","Borrowed for health or medical purposes (% age 15+)","Survival to age 65, female (% of cohort)","Pregnant women receiving prenatal care (%)","Knowledge of any method of contraception (% of all women ages 15-49)","Demand for family planning satisfied by any methods (% of married women with demand for family planning)","Unmet need for contraception (% of married women ages 15-49)","Pregnant women receiving prenatal care of at least four visits (% of pregnant women)","Women's share of population ages 15+ living with HIV (%)","Births attended by skilled health staff (% of total)","Prevalence of overweight (% of adults)","Stillbirth rate (per 1,000 total births)","Fertility rate, total (births per woman)","Probability of Survival to Age 5","Prevalence of anemia among pregnant women (%)","Decision maker about a woman's own health care: someone else (% of women age 15-49)","Teenage mothers (% of women ages 15-19 who have had children or are currently pregnant)","Women with high empowerment in the attitude to violence domain (%) Quintile 1 (poorest)","1.0.0 Communicable, maternal, neonatal, and nutritional diseases prevalence (age standardized) (per 100 000 population) female","1.D.0 Neglected tropical diseases and malaria prevalence (age standardized) (per 100 000 population) female","1.F.0 Maternal and neonatal disorders prevalence (age standardized) (per 100 000 population) female","1.G.0 Nutritional deficiencies prevalence (age standardized) (per 100 000 population) female","2.0.0 Non-communicable diseases prevalence (age standardized) (per 100 000 population) female","2.B.04 Hypertensive heart disease prevalence (age standardized) (per 100 000 population) female","2.G.0 Substance use disorders prevalence (age standardized) (per 100 000 population) female","2.H.0 Diabetes and kidney diseases prevalence (age standardized) (per 100 000 population) female","3.B.06 Adverse effects of medical treatment prevalence (age standardized) (per 100 000 population) female","3.B.10 Exposure to forces of nature prevalence (age standardized) (per 100 000 population) female","3.C.0 Self-harm and interpersonal violence prevalence (age standardized) (per 100 000 population) female","3.C.04 Conflict and terrorism prevalence (age standardized) (per 100 000 population) female","School enrollment, secondary (% net) female","Literacy rate, adult total (% of people ages 15 and above) female","Population living in areas where elevation is below 5 meters (% of total population) rural","Coverage of social safety net programs (% of population) Quintile 1 (poorest)","income_num"],"feature_types":["float","float","c","float","float","float","float","float","float","float","float","float","float","float","float","float","float","float","float","float","float","float","float","float","float","float","float","float","float","float","float","float","float","float","float","float","float","float","float","float"],"gradient_booster":{"model":{"gbtree_model_param":{"num_parallel_tree":"1","num_trees":"100"},"iteration_indptr":[0,1,2,3,4,5,6,7,8,9,10,11,12,13,14,15,16,17,18,19,20,21,22,23,24,25,26,27,28,29,30,31,32,33,34,35,36,37,38,39,40,41,42,43,44,45,46,47,48,49,50,51,52,53,54,55,56,57,58,59,60,61,62,63,64,65,66,67,68,69,70,71,72,73,74,75,76,77,78,79,80,81,82,83,84,85,86,87,88,89,90,91,92,93,94,95,96,97,98,99,100],"tree_info":[0,0,0,0,0,0,0,0,0,0,0,0,0,0,0,0,0,0,0,0,0,0,0,0,0,0,0,0,0,0,0,0,0,0,0,0,0,0,0,0,0,0,0,0,0,0,0,0,0,0,0,0,0,0,0,0,0,0,0,0,0,0,0,0,0,0,0,0,0,0,0,0,0,0,0,0,0,0,0,0,0,0,0,0,0,0,0,0,0,0,0,0,0,0,0,0,0,0,0,0],"trees":[{"base_weights":[-2.0341E-1,6.297844E2,-3.1632847E1,8.3871173E2,4.3785114E2,1.8248528E2,-3.6840252E1,1.28728E-1,7.279132E2,4.900571E2,2.723321E2,2.4506516E2,1.1161061E2,1.5366822E1,-4.5603508E1,8.540824E-2,1.3325333E-2,4.9780237E2,1.2578568E-2,2.9439194E2,1.0720713E-2,1.3483401E2,2.779747E2,1.3069675E2,2.0578411E1,4.2053783E1,1.4553183E0,-2.975544E1,-5.580231E1,1.5450741E-2,5.7964202E-2,1.24057215E-2,3.2087573E2,1.8563246E-2,5.20614E-3,3.4085713E-2,1.1256851E-2,1.539193E-2,4.3067094E-3,3.271952E-3,-6.3342816E-4,1.0435971E2,3.0693375E1,1.4022731E1,-1.0128951E1,-2.3923355E1,-3.733938E1,-4.8356384E1,-5.8675346E1,1.062549E-2,3.859925E-2,1.28958495E-2,4.6700016E-3,5.110307E-4,4.4694818E-3,4.1695246E-3,6.4606254E-4,-1.4889297E-3,6.6182413E-4,-1.5247584E-3,-3.263549E-3,7.4086566E-3,-4.3647364E-3,-5.648234E-3,-3.3522572E-3,-9.780889E-4,-6.748324E-3],"categories":[1,2,3,4,5,6,7,8,9,10,11,12,13,14,15,16,18,22,23,24,27,28,29,30,31,34,35,38,39,41,42,45,46,47,48,49,50,51,52,53,55,56,57,59,60,62,63,65,67,68,69,70,71,72,73,75,76,79,80,81,82,83,84,85,86,88,90,91,92,93,94,95,97,98,99,101,102,103,104,105,107,109,110,112,113,114,115,116,117,1,2,3,4,5,6,7,8,9,10,11,12,13,14,15,16,17,18,19,22,23,24,25,26,27,28,29,30,31,34,35,36,37,38,39,40,41,42,44,45,46,47,48,49,50,51,52,53,54,55,56,57,58,59,60,62,63,64,65,67,68,69,70,71,72,73,74,75,76,79,80,81,82,83,84,85,86,88,89,90,91,92,93,94,95,97,98,99,100,101,102,103,104,105,107,108,109,110,111,112,113,114,115,116,117,0,1,4,5,6,7,8,9,10,11,13,15,16,17,18,19,20,21,22,23,25,26,27,28,29,30,31,32,33,34,35,36,37,38,39,40,41,42,43,44,45,46,48,49,50,51,52,53,54,55,56,57,58,59,60,61,62,63,64,65,66,67,68,69,70,71,74,75,76,77,78,79,80,83,84,85,86,87,88,89,90,91,92,93,94,95,96,97,98,99,100,101,102,103,104,105,106,108,109,110,111,112,113,114,115,116,0,1,2,3,4,5,6,7,8,9,10,11,12,13,14,15,16,17,18,19,20,22,23,24,25,26,27,28,29,30,31,33,34,35,36,37,38,39,40,41,42,43,44,45,46,47,48,49,50,51,52,53,54,55,56,57,58,59,60,61,62,63,64,65,66,67,68,69,70,71,72,73,74,75,76,77,79,80,81,82,83,84,85,86,87,88,89,90,91,92,93,94,95,97,98,99,100,101,102,103,104,105,106,107,108,109,110,111,112,113,114,115,116,117,0,1,2,4,5,6,7,8,9,10,11,13,14,15,16,17,18,19,20,21,22,23,25,26,27,28,29,30,31,32,33,34,35,36,37,38,39,40,41,42,43,44,45,46,48,49,50,51,52,53,54,55,56,57,58,59,60,61,62,63,64,65,66,67,68,69,70,71,72,74,75,76,77,78,79,80,81,82,83,84,85,86,87,88,89,90,91,92,93,94,95,96,97,98,99,100,101,102,103,104,105,106,108,109,110,111,112,113,114,115,116,1,4,5,6,7,8,9,10,11,13,15,16,18,27,28,29,30,34,35,38,39,41,46,48,49,50,51,53,55,56,57,59,62,63,65,67,69,71,75,76,79,80,84,85,86,88,90,91,92,93,94,97,98,99,102,103,104,105,109,110,112,113,114,115,116,1,6,7,9,10,13,15,16,28,30,35,38,39,41,46,49,50,51,55,56,62,63,71,75,76,79,80,84,85,90,92,93,94,97,102,103,104,113,114,115,5,8,27,34,48,59,65,69,110,112,6,7,10,28,30,35,39,46,49,50,51,56,63,71,75,76,79,84,90,92,93,94,97,102,103,104,113,114,115,0,1,2,3,4,5,6,7,8,9,10,11,12,13,14,15,16,17,18,19,20,21,23,24,25,26,27,28,29,30,32,33,34,35,36,37,38,39,40,41,42,43,44,46,47,48,49,50,51,52,53,54,55,56,57,58,59,60,61,62,63,64,65,66,67,68,69,70,71,72,73,74,75,76,77,78,79,80,81,82,83,84,85,86,87,88,89,90,91,92,93,94,95,96,97,98,99,100,102,103,104,105,106,107,108,109,110,111,112,113,114,115,116,117],"categories_nodes":[0,1,2,3,5,6,14,27,28,43],"categories_segments":[0,89,194,300,414,525,590,630,640,669],"categories_sizes":[89,105,106,114,111,65,40,10,29,114],"default_left":[0,0,0,0,0,0,0,0,1,1,1,0,0,0,1,0,0,0,0,0,0,0,1,1,0,0,0,1,1,0,0,0,0,0,0,0,0,0,0,0,0,0,0,0,0,0,0,1,0,0,0,0,0,0,0,0,0,0,0,0,0,0,0,0,0,0,0],"id":0,"left_children":[1,3,5,7,9,11,13,-1,15,17,19,21,23,25,27,-1,-1,29,-1,31,-1,33,35,37,39,41,43,45,47,-1,-1,-1,49,-1,-1,-1,-1,-1,-1,-1,-1,51,53,55,57,59,61,63,65,-1,-1,-1,-1,-1,-1,-1,-1,-1,-1,-1,-1,-1,-1,-1,-1,-1,-1],"loss_changes":[3.7501624E7,3.241784E6,2.0181819E6,4.9559E5,2.89955E5,1.6336725E5,8.0682275E5,0E0,2.26736E5,5.1612E4,2.7815812E4,4.2328E4,3.5534406E4,9.4237766E4,2.422415E5,0E0,0E0,1.7729E4,0E0,2.4593312E4,0E0,9.436875E3,2.4825375E4,4.773125E2,1.1878293E3,5.837728E4,2.4600197E4,2.5335188E4,1.677925E4,0E0,0E0,0E0,3.4141875E3,0E0,0E0,0E0,0E0,0E0,0E0,0E0,0E0,1.9708281E3,1.5987336E4,1.4946885E4,4.0332148E3,1.5763719E4,1.9451281E4,2.605E3,1.5925E3,0E0,0E0,0E0,0E0,0E0,0E0,0E0,0E0,0E0,0E0,0E0,0E0,0E0,0E0,0E0,0E0,0E0,0E0],"parents":[2147483647,0,0,1,1,2,2,3,3,4,4,5,5,6,6,8,8,9,9,10,10,11,11,12,12,13,13,14,14,17,17,19,19,21,21,22,22,23,23,24,24,25,25,26,26,27,27,28,28,32,32,41,41,42,42,43,43,44,44,45,45,46,46,47,47,48,48],"right_children":[2,4,6,8,10,12,14,-1,16,18,20,22,24,26,28,-1,-1,30,-1,32,-1,34,36,38,40,42,44,46,48,-1,-1,-1,50,-1,-1,-1,-1,-1,-1,-1,-1,52,54,56,58,60,62,64,66,-1,-1,-1,-1,-1,-1,-1,-1,-1,-1,-1,-1,-1,-1,-1,-1,-1,-1],"split_conditions":[1E-45,1E-45,1E-45,1E-45,6.6098E1,1E-45,1E-45,1.28728E-1,8.34E1,9.3E-1,7.49E1,1.12E1,7.8863E1,7.1958E1,1E-45,8.540824E-2,1.3325333E-2,1.79772E1,1.2578568E-2,6.979492E4,1.0720713E-2,2.013E3,8.795106E1,2.5998855E3,2.017E3,1.0073E1,7.872E1,1E-45,1E-45,1.5450741E-2,5.7964202E-2,1.24057215E-2,2.88E1,1.8563246E-2,5.20614E-3,3.4085713E-2,1.1256851E-2,1.539193E-2,4.3067094E-3,3.271952E-3,-6.3342816E-4,2.003E3,1.993E3,1E-45,3.2081E1,1.996E3,4.8778E1,9E0,7.13E1,1.062549E-2,3.859925E-2,1.28958495E-2,4.6700016E-3,5.110307E-4,4.4694818E-3,4.1695246E-3,6.4606254E-4,-1.4889297E-3,6.6182413E-4,-1.5247584E-3,-3.263549E-3,7.4086566E-3,-4.3647364E-3,-5.648234E-3,-3.3522572E-3,-9.780889E-4,-6.748324E-3],"split_indices":[2,2,2,2,7,2,2,0,3,18,10,21,7,7,2,0,0,36,0,23,0,0,36,25,0,13,7,2,2,0,0,0,4,0,0,0,0,0,0,0,0,0,0,2,13,0,7,16,8,0,0,0,0,0,0,0,0,0,0,0,0,0,0,0,0,0,0],"split_type":[1,1,1,1,0,1,1,0,0,0,0,0,0,0,1,0,0,0,0,0,0,0,0,0,0,0,0,1,1,0,0,0,0,0,0,0,0,0,0,0,0,0,0,1,0,0,0,0,0,0,0,0,0,0,0,0,0,0,0,0,0,0,0,0,0,0,0],"sum_hessian":[1.892E3,8.9E1,1.803E3,4.1E1,4.8E1,4.2E1,1.761E3,9E0,3.2E1,3.5E1,1.3E1,2.1E1,2.1E1,2.53E2,1.508E3,3.1E1,1E0,3.4E1,1E0,1.1E1,2E0,6E0,1.5E1,1.7E1,4E0,8.6E1,1.67E2,5.92E2,9.16E2,1E0,3.3E1,2E0,9E0,4E0,2E0,1.3E1,2E0,1.6E1,1E0,3E0,1E0,1.2E1,7.4E1,8E1,8.7E1,3.37E2,2.55E2,2.6E2,6.56E2,1E0,8E0,1E1,2E0,1.8E1,5.6E1,2.1E1,5.9E1,7.4E1,1.3E1,1.01E2,2.36E2,1E0,2.54E2,2.48E2,1.2E1,1E0,6.55E2],"tree_param":{"num_deleted":"0","num_feature":"40","num_nodes":"67","size_leaf_vector":"1"}},{"base_weights":[3.0970627E-1,6.414038E2,-3.1254179E1,8.3763763E2,4.3549246E2,1.8593286E2,-3.6964916E1,1.2850042E-1,7.254357E2,4.9152634E2,2.7230597E2,2.5517542E2,1.2019175E2,1.2039529E1,-4.610825E1,8.501054E-2,1.3324567E-2,5.0004404E2,1.2577845E-2,2.9436325E2,1.0719892E-2,1.3482191E2,2.9188162E2,1.373683E2,2.0576574E1,4.3326744E1,-6.286502E-1,-3.050439E1,-5.5754112E1,1.5449854E-2,5.830493E-2,1.240477E-2,3.2084378E2,1.856154E-2,5.2057416E-3,3.5911866E-2,1.125599E-2,1.1292858E-2,1.924416E-2,3.27167E-3,-6.333918E-4,1.0434907E2,3.1201859E1,1.3538449E1,-1.05046215E1,-2.4580757E1,-3.7659645E1,-4.8422832E1,-5.8662094E1,1.0624879E-2,3.8595308E-2,1.2894503E-2,4.669644E-3,8.395206E-4,4.4659986E-3,8.6345174E-4,4.9039866E-3,-2.5486024E-3,-4.1415644E-4,-1.671251E-3,-3.2787635E-3,7.4082306E-3,-4.4007986E-3,-5.6403293E-3,-3.240191E-3,-9.780328E-4,-6.746777E-3],"categories":[1,2,3,4,5,6,7,8,9,10,11,12,13,14,15,16,18,22,23,24,27,28,29,30,31,34,35,38,39,41,42,45,46,47,48,49,50,51,52,53,55,56,57,59,60,62,63,64,65,67,68,69,70,71,72,73,75,76,79,80,81,82,83,84,85,86,88,90,91,92,93,94,95,97,98,99,101,102,103,104,105,107,109,110,112,113,114,115,116,117,1,2,3,4,5,6,7,8,9,10,11,12,13,14,15,16,17,18,19,22,23,24,25,26,27,28,29,30,31,34,35,36,37,38,39,40,41,42,44,45,46,47,48,49,50,51,52,53,54,55,56,57,58,59,60,62,63,64,65,67,68,69,70,71,72,73,74,75,76,79,80,81,82,83,84,85,86,88,89,90,91,92,93,94,95,97,98,99,100,101,102,103,104,105,107,108,109,110,111,112,113,114,115,116,117,0,1,4,5,6,7,8,9,10,11,13,15,16,17,18,19,20,21,22,23,25,26,27,28,29,30,31,32,33,34,35,36,37,38,39,40,41,42,43,44,45,46,48,49,50,51,52,53,54,55,56,57,58,59,60,61,62,63,65,66,67,68,69,70,71,74,75,76,77,78,79,80,83,84,85,86,87,88,89,90,91,92,93,94,95,96,97,98,99,100,101,102,103,104,105,106,108,109,110,111,112,113,114,115,116,0,1,2,3,4,5,6,7,8,9,10,11,12,13,14,15,16,17,18,19,20,22,23,24,25,26,27,28,29,30,31,33,34,35,36,37,38,39,40,41,42,43,44,45,46,47,48,49,50,51,52,53,54,55,56,57,58,59,60,61,62,63,64,65,66,67,68,69,70,71,72,73,74,75,76,77,79,80,81,82,83,84,85,86,87,88,89,90,91,92,93,94,95,97,98,99,100,101,102,103,104,105,106,107,108,109,110,111,112,113,114,115,116,117,0,1,2,3,4,5,6,7,8,9,10,11,13,14,15,16,17,18,19,20,21,22,23,25,26,27,28,29,30,31,32,33,34,35,36,37,38,39,40,41,42,43,44,45,46,48,49,50,51,52,53,54,55,56,57,58,59,60,61,62,63,65,66,67,68,69,70,71,72,74,75,76,77,78,79,80,81,82,83,84,85,86,87,88,89,90,91,92,93,94,95,96,97,98,99,100,101,102,103,104,105,106,108,109,110,111,112,113,114,115,116,1,4,5,6,7,8,9,10,11,13,15,16,18,27,28,29,30,34,35,38,39,41,46,48,49,50,51,53,55,56,57,59,60,62,63,65,67,69,71,75,76,79,80,84,85,86,88,90,91,92,93,94,97,98,99,102,103,104,105,110,112,113,114,115,116,1,6,7,9,10,13,15,16,28,30,35,38,39,41,46,49,50,51,55,56,62,63,71,75,76,79,80,84,85,90,92,93,94,97,102,103,104,113,114,115,22,23,68,70,109,5,8,27,34,48,59,65,69,110,112,6,7,10,28,30,35,39,46,49,50,51,56,63,71,75,76,79,84,90,92,93,94,97,102,103,104,113,114,115],"categories_nodes":[0,1,2,3,5,6,14,26,27,28],"categories_segments":[0,90,195,300,414,525,590,630,635,645],"categories_sizes":[90,105,105,114,111,65,40,5,10,29],"default_left":[0,0,0,0,0,0,0,0,1,1,1,0,0,0,1,0,0,0,0,0,0,0,1,0,0,0,1,1,1,0,0,0,0,0,0,0,0,0,0,0,0,0,0,0,0,0,0,1,0,0,0,0,0,0,0,0,0,0,0,0,0,0,0,0,0,0,0],"id":1,"left_children":[1,3,5,7,9,11,13,-1,15,17,19,21,23,25,27,-1,-1,29,-1,31,-1,33,35,37,39,41,43,45,47,-1,-1,-1,49,-1,-1,-1,-1,-1,-1,-1,-1,51,53,55,57,59,61,63,65,-1,-1,-1,-1,-1,-1,-1,-1,-1,-1,-1,-1,-1,-1,-1,-1,-1,-1],"loss_changes":[3.8811348E7,3.271824E6,2.2741385E6,6.06678E5,2.86778E5,1.8327788E5,7.9900525E5,0E0,2.23778E5,5.2642E4,2.7808438E4,5.783775E4,4.1660594E4,1.1140216E5,2.2436925E5,0E0,0E0,1.8954E4,0E0,2.4585562E4,0E0,9.434773E3,3.3605375E4,9.4408125E3,1.1876411E3,5.667511E4,2.8264904E4,2.3488188E4,1.692225E4,0E0,0E0,0E0,3.4096875E3,0E0,0E0,0E0,0E0,0E0,0E0,0E0,0E0,1.97E3,1.2363492E4,1.4249454E4,9.509223E3,1.2214797E4,1.9555531E4,2.26925E3,1.59125E3,0E0,0E0,0E0,0E0,0E0,0E0,0E0,0E0,0E0,0E0,0E0,0E0,0E0,0E0,0E0,0E0,0E0,0E0],"parents":[2147483647,0,0,1,1,2,2,3,3,4,4,5,5,6,6,8,8,9,9,10,10,11,11,12,12,13,13,14,14,17,17,19,19,21,21,22,22,23,23,24,24,25,25,26,26,27,27,28,28,32,32,41,41,42,42,43,43,44,44,45,45,46,46,47,47,48,48],"right_children":[2,4,6,8,10,12,14,-1,16,18,20,22,24,26,28,-1,-1,30,-1,32,-1,34,36,38,40,42,44,46,48,-1,-1,-1,50,-1,-1,-1,-1,-1,-1,-1,-1,52,54,56,58,60,62,64,66,-1,-1,-1,-1,-1,-1,-1,-1,-1,-1,-1,-1,-1,-1,-1,-1,-1,-1],"split_conditions":[1E-45,1E-45,1E-45,1E-45,6.6098E1,1E-45,1E-45,1.2850042E-1,8.34E1,9.3E-1,7.49E1,1.12E1,7.8863E1,7.0815E1,1E-45,8.501054E-2,1.3324567E-2,1.79772E1,1.2577845E-2,6.979492E4,1.0719892E-2,2.013E3,8.795106E1,1.83E1,2.017E3,1.0073E1,1E-45,1E-45,1E-45,1.5449854E-2,5.830493E-2,1.240477E-2,2.88E1,1.856154E-2,5.2057416E-3,3.5911866E-2,1.125599E-2,1.1292858E-2,1.924416E-2,3.27167E-3,-6.333918E-4,2.003E3,1.993E3,4.2427E1,2.54E1,1.996E3,4.8778E1,9E0,7.13E1,1.0624879E-2,3.8595308E-2,1.2894503E-2,4.669644E-3,8.395206E-4,4.4659986E-3,8.6345174E-4,4.9039866E-3,-2.5486024E-3,-4.1415644E-4,-1.671251E-3,-3.2787635E-3,7.4082306E-3,-4.4007986E-3,-5.6403293E-3,-3.240191E-3,-9.780328E-4,-6.746777E-3],"split_indices":[2,2,2,2,7,2,2,0,3,18,10,21,7,7,2,0,0,36,0,23,0,0,36,16,0,13,2,2,2,0,0,0,4,0,0,0,0,0,0,0,0,0,0,13,19,0,7,16,8,0,0,0,0,0,0,0,0,0,0,0,0,0,0,0,0,0,0],"split_type":[1,1,1,1,0,1,1,0,0,0,0,0,0,0,1,0,0,0,0,0,0,0,0,0,0,0,1,1,1,0,0,0,0,0,0,0,0,0,0,0,0,0,0,0,0,0,0,0,0,0,0,0,0,0,0,0,0,0,0,0,0,0,0,0,0,0,0],"sum_hessian":[1.916E3,8.9E1,1.827E3,4.4E1,4.5E1,4.6E1,1.781E3,1E1,3.4E1,3.2E1,1.3E1,2.1E1,2.5E1,2.8E2,1.501E3,3.3E1,1E0,3.1E1,1E0,1.1E1,2E0,6E0,1.5E1,2.1E1,4E0,8E1,2E2,5.75E2,9.26E2,1E0,3E1,2E0,9E0,4E0,2E0,1.3E1,2E0,1.1E1,1E1,3E0,1E0,1.2E1,6.8E1,8.2E1,1.18E2,3.17E2,2.58E2,2.68E2,6.58E2,1E0,8E0,1E1,2E0,1.7E1,5.1E1,6.9E1,1.3E1,4.3E1,7.5E1,9.1E1,2.26E2,1E0,2.57E2,2.58E2,1E1,1E0,6.57E2],"tree_param":{"num_deleted":"0","num_feature":"40","num_nodes":"67","size_leaf_vector":"1"}},{"base_weights":[5.507528E-1,6.394332E2,-3.1568232E1,8.132805E2,4.0334808E2,1.8041447E2,-3.7013405E1,1.28487E-1,7.1401025E2,4.3182144E2,1.8988872E-2,2.4640028E2,1.20179214E2,1.2095642E1,-4.6119328E1,8.3381236E-2,1.3323802E-2,5.182368E-2,1.8950364E-2,1.3480981E2,2.8204913E2,1.3735391E2,2.0574738E1,4.0574287E1,2.999413E-1,-3.0518246E1,-5.572202E1,1.8559834E-2,5.2053435E-3,3.4791615E-2,1.1255127E-2,1.1291669E-2,1.924215E-2,3.271388E-3,-6.333554E-4,1.0413683E2,3.0299809E1,1.5196744E1,-1.04899845E1,-2.451346E1,-3.7722084E1,-4.7826E1,-5.8334442E1,1.3066189E-2,4.6692863E-3,5.1088375E-4,4.461647E-3,2.640513E-4,3.221476E-3,-2.5567587E-3,-4.034887E-4,-1.6710612E-3,-3.2700084E-3,7.4078045E-3,-4.40771E-3,-5.5939807E-3,-3.3515582E-3,-9.779767E-4,-6.708703E-3],"categories":[1,2,3,4,5,6,7,8,9,10,11,12,13,14,15,16,18,22,23,24,27,28,29,30,31,34,35,38,39,41,42,45,46,47,48,49,50,51,52,53,55,56,57,59,60,62,63,65,67,68,69,70,71,72,73,75,76,79,80,81,82,83,84,85,86,88,90,91,92,93,94,95,97,98,99,101,102,103,104,105,107,109,110,112,113,114,115,116,117,1,2,3,4,5,6,7,8,9,10,11,12,13,14,15,16,17,18,19,22,23,24,25,27,28,29,30,31,34,35,36,37,38,39,40,41,42,45,46,47,48,49,50,51,52,53,55,56,57,58,59,60,62,63,64,65,67,68,69,70,71,72,73,74,75,76,79,80,81,82,83,84,85,86,88,89,90,91,92,93,94,95,97,98,99,100,101,102,103,104,105,107,108,109,110,111,112,113,114,115,116,117,0,1,4,5,6,7,8,9,10,11,13,15,16,17,18,19,20,21,22,23,25,26,27,28,29,30,31,32,33,34,35,36,37,38,39,40,41,42,43,44,45,46,48,49,50,51,52,53,54,55,56,57,58,59,60,61,62,63,64,65,66,67,68,69,70,71,74,75,76,77,78,79,80,83,84,85,86,87,88,89,90,91,92,93,94,95,96,97,98,99,100,101,102,103,104,105,106,108,109,110,111,112,113,114,115,116,0,1,2,3,4,5,6,7,8,9,10,11,12,13,14,15,16,17,18,19,20,22,23,24,25,26,27,28,29,30,31,33,34,35,36,37,38,39,40,41,42,43,44,45,46,47,48,49,50,51,52,53,54,55,56,57,58,59,60,61,62,63,64,65,66,67,68,69,70,71,72,73,74,75,76,77,79,80,81,82,83,84,85,86,87,88,89,90,91,92,93,94,95,97,98,99,100,101,102,103,104,105,106,107,108,109,110,111,112,113,114,115,116,117,0,1,2,3,4,5,6,7,8,9,10,11,13,14,15,16,17,18,19,20,21,22,23,25,26,27,28,29,30,31,32,33,34,35,36,37,38,39,40,41,42,43,44,45,46,48,49,50,51,52,53,54,55,56,57,58,59,60,61,62,63,64,65,66,67,68,69,70,71,72,74,75,76,77,78,79,80,81,82,83,84,85,86,87,88,89,90,91,92,93,94,95,96,97,98,99,100,101,102,103,104,105,106,108,109,110,111,112,113,114,115,116,1,4,5,6,7,8,9,10,11,13,15,16,18,27,28,29,30,34,35,38,39,41,46,48,49,50,51,53,55,56,57,59,60,62,63,65,67,69,71,75,76,79,80,84,85,86,88,90,91,92,93,94,97,98,99,102,103,104,105,110,112,113,114,115,116,1,6,7,9,10,13,15,16,28,30,35,38,39,41,46,49,50,51,55,56,62,63,71,75,76,79,80,84,85,90,92,93,94,97,102,103,104,113,114,115,0,1,2,3,4,5,6,7,8,9,10,11,12,13,14,15,16,17,18,19,20,21,22,23,24,25,26,27,28,29,30,31,32,33,34,35,36,37,38,39,40,41,42,43,44,45,46,47,48,49,50,51,52,53,54,55,56,57,58,59,60,61,62,63,64,65,66,67,68,69,71,72,73,74,75,76,77,78,79,80,81,82,83,84,85,86,87,88,89,90,91,92,93,94,95,96,97,98,99,100,101,102,103,104,105,106,107,108,109,110,111,112,113,114,115,116,117,22,23,68,70,109,5,8,27,34,48,59,65,69,110,112,6,7,10,28,30,35,39,46,49,50,51,55,56,63,71,75,76,79,84,90,92,93,94,97,102,103,104,113,114,115],"categories_nodes":[0,1,2,3,5,6,14,23,24,25,26],"categories_segments":[0,89,191,297,411,523,588,628,745,750,760],"categories_sizes":[89,102,106,114,112,65,40,117,5,10,30],"default_left":[0,0,0,0,0,0,0,0,1,1,0,0,0,0,1,0,0,0,0,0,1,0,0,0,1,1,1,0,0,0,0,0,0,0,0,0,0,0,0,0,0,1,0,0,0,0,0,0,0,0,0,0,0,0,0,0,0,0,0],"id":2,"left_children":[1,3,5,7,9,11,13,-1,15,17,-1,19,21,23,25,-1,-1,-1,-1,27,29,31,33,35,37,39,41,-1,-1,-1,-1,-1,-1,-1,-1,43,45,47,49,51,53,55,57,-1,-1,-1,-1,-1,-1,-1,-1,-1,-1,-1,-1,-1,-1,-1,-1],"loss_changes":[3.9439596E7,3.4479E6,2.119015E6,7.76396E5,2.06546E5,1.5322262E5,7.9877975E5,0E0,2.11154E5,1.106615E5,0E0,4.551675E4,4.165153E4,9.404699E4,2.23917E5,0E0,0E0,0E0,0E0,9.432656E3,2.7722875E4,9.438906E3,1.1874529E3,5.039658E4,3.2145758E4,2.3991625E4,1.64145E4,0E0,0E0,0E0,0E0,0E0,0E0,0E0,0E0,2.0785547E3,1.5715047E4,1.3851203E4,9.444569E3,1.2065719E4,1.9574469E4,2.404375E3,1.564E3,0E0,0E0,0E0,0E0,0E0,0E0,0E0,0E0,0E0,0E0,0E0,0E0,0E0,0E0,0E0,0E0],"parents":[2147483647,0,0,1,1,2,2,3,3,4,4,5,5,6,6,8,8,9,9,11,11,12,12,13,13,14,14,19,19,20,20,21,21,22,22,23,23,24,24,25,25,26,26,35,35,36,36,37,37,38,38,39,39,40,40,41,41,42,42],"right_children":[2,4,6,8,10,12,14,-1,16,18,-1,20,22,24,26,-1,-1,-1,-1,28,30,32,34,36,38,40,42,-1,-1,-1,-1,-1,-1,-1,-1,44,46,48,50,52,54,56,58,-1,-1,-1,-1,-1,-1,-1,-1,-1,-1,-1,-1,-1,-1,-1,-1],"split_conditions":[1E-45,1E-45,1E-45,1E-45,7.1958E1,1E-45,1E-45,1.28487E-1,8.34E1,9.24E-1,1.8988872E-2,1.12E1,7.8863E1,7.0815E1,1E-45,8.3381236E-2,1.3323802E-2,5.182368E-2,1.8950364E-2,2.013E3,8.795106E1,1.83E1,2.017E3,1E-45,1E-45,1E-45,1E-45,1.8559834E-2,5.2053435E-3,3.4791615E-2,1.1255127E-2,1.1291669E-2,1.924215E-2,3.271388E-3,-6.333554E-4,2.003E3,1.993E3,3.4634E1,2.54E1,1.996E3,4.8778E1,9E0,7.13E1,1.3066189E-2,4.6692863E-3,5.1088375E-4,4.461647E-3,2.640513E-4,3.221476E-3,-2.5567587E-3,-4.034887E-4,-1.6710612E-3,-3.2700084E-3,7.4078045E-3,-4.40771E-3,-5.5939807E-3,-3.3515582E-3,-9.779767E-4,-6.708703E-3],"split_indices":[2,2,2,2,7,2,2,0,3,18,0,21,7,7,2,0,0,0,0,0,36,16,0,2,2,2,2,0,0,0,0,0,0,0,0,0,0,13,19,0,7,16,8,0,0,0,0,0,0,0,0,0,0,0,0,0,0,0,0],"split_type":[1,1,1,1,0,1,1,0,0,0,0,0,0,0,1,0,0,0,0,0,0,0,0,1,1,1,1,0,0,0,0,0,0,0,0,0,0,0,0,0,0,0,0,0,0,0,0,0,0,0,0,0,0,0,0,0,0,0,0],"sum_hessian":[1.92E3,9.1E1,1.829E3,5.1E1,4E1,4.5E1,1.784E3,1E1,4.1E1,3.5E1,5E0,2E1,2.5E1,2.79E2,1.505E3,4E1,1E0,3.2E1,3E0,6E0,1.4E1,2.1E1,4E0,8.1E1,1.98E2,5.75E2,9.3E2,4E0,2E0,1.2E1,2E0,1.1E1,1E1,3E0,1E0,1E1,7.1E1,8.3E1,1.15E2,3.16E2,2.59E2,2.36E2,6.94E2,8E0,2E0,1.8E1,5.3E1,4.2E1,4.1E1,4.2E1,7.3E1,9.1E1,2.25E2,1E0,2.58E2,2.24E2,1.2E1,1E0,6.93E2],"tree_param":{"num_deleted":"0","num_feature":"40","num_nodes":"59","size_leaf_vector":"1"}},{"base_weights":[1.18614055E-1,6.386434E2,-3.1261187E1,8.225265E2,4.0330392E2,1.8605266E2,-3.6651768E1,1.284736E-1,7.180237E2,4.317738E2,1.8987054E-2,2.3662408E2,1.1353574E2,1.2884565E1,-4.6100704E1,7.3081555E2,1.3323037E-2,5.1817905E-2,1.894873E-2,2.512905E2,5.205166E-3,5.3127036E0,1.4391353E-2,4.21007E1,4.0328464E-1,-3.1306517E1,-5.595602E1,3.567418E-2,8.5652806E-2,2.5980563E2,3.6739346E-3,1.5488593E-3,-6.33319E-4,1.0432766E2,3.0442465E1,1.51950655E1,-1.0219902E1,-2.5146725E1,-3.794002E1,-4.8687798E1,-5.8579987E1,1.3463998E-2,3.172663E-2,1.2891791E-2,4.6689287E-3,5.108281E-4,4.46559E-3,2.6402713E-4,3.2211149E-3,-2.5406885E-3,-4.0348226E-4,-1.634165E-3,-3.374717E-3,7.4073793E-3,-4.4263247E-3,-5.905608E-3,-4.9804514E-3,-9.779206E-4,-6.737442E-3],"categories":[1,2,3,4,5,6,7,8,9,10,11,12,13,14,15,16,18,22,23,24,27,28,29,30,31,34,35,38,39,41,42,45,46,47,48,49,50,51,52,53,55,56,57,59,60,62,63,65,67,68,69,70,71,72,73,75,76,79,80,81,82,83,84,85,86,88,90,91,92,93,94,95,97,98,99,101,102,103,104,105,107,109,110,112,113,114,115,116,117,1,2,3,4,5,6,7,8,9,10,11,12,13,14,15,16,17,18,19,22,23,24,25,27,28,29,30,31,34,35,36,37,38,39,40,41,42,45,46,47,48,49,50,51,52,53,55,56,57,58,59,60,62,63,64,65,67,68,69,70,71,72,73,74,75,76,79,80,81,82,83,84,85,86,88,89,90,91,92,93,94,95,97,98,99,100,101,102,103,104,105,107,108,109,110,111,112,113,114,115,116,117,0,1,4,5,6,7,8,9,10,11,13,15,16,17,18,19,20,21,22,23,25,26,27,28,29,30,31,32,33,34,35,36,37,38,39,40,41,42,43,44,45,46,48,49,50,51,52,53,54,55,56,57,58,59,60,61,62,63,64,65,66,67,68,69,70,71,74,75,76,77,78,79,80,83,84,85,86,87,88,89,90,91,92,93,94,95,96,97,98,99,100,101,102,103,104,105,106,108,109,110,111,112,113,114,115,116,0,1,2,3,4,5,6,7,8,9,10,11,12,13,14,15,16,17,18,19,20,22,23,24,25,26,27,28,29,30,31,33,34,35,36,37,38,39,40,41,42,43,44,45,46,47,48,49,50,51,52,53,54,55,56,57,58,59,60,61,62,63,64,65,66,67,68,69,70,71,72,73,74,75,76,77,79,80,81,82,83,84,85,86,87,88,89,90,91,92,93,94,95,97,98,99,100,101,102,103,104,105,106,107,108,109,110,111,112,113,114,115,116,117,0,1,2,3,4,5,6,7,8,9,10,11,13,14,15,16,17,18,19,20,21,22,23,25,26,27,28,29,30,31,32,33,34,35,36,37,38,39,40,41,42,43,44,45,46,48,49,50,51,52,53,54,55,56,57,58,59,60,61,62,63,64,65,66,67,68,69,70,71,74,75,76,77,78,79,80,81,82,83,84,85,86,87,88,89,90,91,92,93,94,95,96,97,98,99,100,101,102,103,104,105,106,108,109,110,111,112,113,114,115,116,1,4,5,6,7,8,9,10,11,13,15,16,18,27,28,29,30,34,35,38,39,41,46,48,49,50,51,53,55,56,57,59,60,62,63,65,67,69,71,75,76,79,80,84,85,86,88,90,91,92,93,94,97,98,99,102,103,104,105,110,112,113,114,115,116,1,6,7,9,10,13,15,16,28,30,35,38,39,46,49,50,51,55,56,62,63,71,75,76,79,80,84,85,90,92,93,94,97,102,103,104,113,114,115,22,23,68,70,109,5,8,27,34,41,48,59,65,69,110,112,6,7,10,28,30,35,39,46,49,50,51,56,63,71,75,76,79,84,90,92,93,94,97,102,103,104,113,114,115],"categories_nodes":[0,1,2,3,5,6,14,24,25,26],"categories_segments":[0,89,191,297,411,522,587,626,631,642],"categories_sizes":[89,102,106,114,111,65,39,5,11,29],"default_left":[0,0,0,0,0,0,0,0,1,1,0,0,0,0,1,0,0,0,0,0,0,0,0,0,1,1,1,0,0,0,0,0,0,0,0,0,0,0,0,0,0,0,0,0,0,0,0,0,0,0,0,0,0,0,0,0,0,0,0],"id":3,"left_children":[1,3,5,7,9,11,13,-1,15,17,-1,19,21,23,25,27,-1,-1,-1,29,-1,31,-1,33,35,37,39,-1,-1,41,-1,-1,-1,43,45,47,49,51,53,55,57,-1,-1,-1,-1,-1,-1,-1,-1,-1,-1,-1,-1,-1,-1,-1,-1,-1,-1],"loss_changes":[3.806981E7,3.51974E6,2.1283115E6,7.11412E5,2.064935E5,1.3449525E5,8.2813425E5,0E0,2.15606E5,1.106275E5,0E0,5.876325E4,2.4722828E4,1.03544984E5,2.14763E5,3.67E3,0E0,0E0,0E0,3.46435E4,0E0,3.3960876E2,0E0,5.848783E4,3.158246E4,2.3399062E4,1.412175E4,0E0,0E0,1.8932875E4,0E0,0E0,0E0,1.9682969E3,1.5819172E4,1.3848053E4,9.25766E3,1.3988969E4,1.9636469E4,1.27925E3,1.5845E3,0E0,0E0,0E0,0E0,0E0,0E0,0E0,0E0,0E0,0E0,0E0,0E0,0E0,0E0,0E0,0E0,0E0,0E0],"parents":[2147483647,0,0,1,1,2,2,3,3,4,4,5,5,6,6,8,8,9,9,11,11,12,12,13,13,14,14,15,15,19,19,21,21,23,23,24,24,25,25,26,26,29,29,33,33,34,34,35,35,36,36,37,37,38,38,39,39,40,40],"right_children":[2,4,6,8,10,12,14,-1,16,18,-1,20,22,24,26,28,-1,-1,-1,30,-1,32,-1,34,36,38,40,-1,-1,42,-1,-1,-1,44,46,48,50,52,54,56,58,-1,-1,-1,-1,-1,-1,-1,-1,-1,-1,-1,-1,-1,-1,-1,-1,-1,-1],"split_conditions":[1E-45,1E-45,1E-45,1E-45,7.1958E1,1E-45,1E-45,1.284736E-1,8.34E1,9.24E-1,1.8987054E-2,7.4623E1,1.85E1,7.0815E1,1E-45,1.72E1,1.3323037E-2,5.1817905E-2,1.894873E-2,2.014E3,5.205166E-3,2.017E3,1.4391353E-2,1.0073E1,1E-45,1E-45,1E-45,3.567418E-2,8.5652806E-2,3.12E1,3.6739346E-3,1.5488593E-3,-6.33319E-4,2.003E3,1.993E3,3.4634E1,2.54E1,1.996E3,4.8778E1,1.98E0,7.13E1,1.3463998E-2,3.172663E-2,1.2891791E-2,4.6689287E-3,5.108281E-4,4.46559E-3,2.6402713E-4,3.2211149E-3,-2.5406885E-3,-4.0348226E-4,-1.634165E-3,-3.374717E-3,7.4073793E-3,-4.4263247E-3,-5.905608E-3,-4.9804514E-3,-9.779206E-4,-6.737442E-3],"split_indices":[2,2,2,2,7,2,2,0,3,18,0,7,4,7,2,16,0,0,0,0,0,0,0,13,2,2,2,0,0,4,0,0,0,0,0,13,19,0,7,17,8,0,0,0,0,0,0,0,0,0,0,0,0,0,0,0,0,0,0],"split_type":[1,1,1,1,0,1,1,0,0,0,0,0,0,0,1,0,0,0,0,0,0,0,0,0,1,1,1,0,0,0,0,0,0,0,0,0,0,0,0,0,0,0,0,0,0,0,0,0,0,0,0,0,0,0,0,0,0,0,0],"sum_hessian":[1.898E3,8.8E1,1.81E3,4.8E1,4E1,4.3E1,1.767E3,1E1,3.8E1,3.5E1,5E0,2.4E1,1.9E1,2.83E2,1.484E3,3.7E1,1E0,3.2E1,3E0,2.2E1,2E0,2E0,1.7E1,8.4E1,1.99E2,5.95E2,8.89E2,2E0,3.5E1,2.1E1,1E0,1E0,1E0,1.2E1,7.2E1,8.3E1,1.16E2,3.11E2,2.84E2,2.41E2,6.48E2,3E0,1.8E1,1E1,2E0,1.8E1,5.4E1,4.2E1,4.1E1,4.1E1,7.5E1,8.8E1,2.23E2,1E0,2.83E2,1.54E2,8.7E1,1E0,6.47E2],"tree_param":{"num_deleted":"0","num_feature":"40","num_nodes":"59","size_leaf_vector":"1"}},{"base_weights":[8.190391E-1,6.3733673E2,-3.1516933E1,8.096409E2,4.032598E2,1.898229E2,-3.675126E1,1.2846017E-1,7.0956525E2,4.3172617E2,1.8985238E-2,2.463503E2,1.27236626E2,1.2710728E1,-4.6015247E1,2.0817796E-2,7.314533E2,5.1812135E-2,1.8947098E-2,1.3478355E2,2.8199142E2,8.854874E1,1.8934192E-2,4.2503265E1,-5.7209924E-2,-3.0375937E1,-5.5716347E1,3.5671446E-2,8.5641116E-2,1.8556053E-2,5.2046045E-3,3.478456E-2,1.12525355E-2,1.3187865E-3,1.0801052E-2,1.0251667E2,3.205581E1,1.4858682E1,-1.0822095E1,-2.4431568E1,-3.7488297E1,-4.824148E1,-5.8607983E1,1.2732819E-2,4.668571E-3,7.889817E-4,4.615514E-3,1.0158279E-3,5.35099E-3,-2.5561869E-3,-4.5295118E-4,-1.6482078E-3,-3.270215E-3,7.4069547E-3,-4.381026E-3,-5.6341123E-3,-3.3506553E-3,-9.778646E-4,-6.7405626E-3],"categories":[1,2,3,4,5,6,7,8,9,10,11,12,13,14,15,16,18,22,23,24,27,28,29,30,31,34,35,38,39,41,42,45,46,47,48,49,50,51,52,53,55,56,57,59,60,62,63,65,67,68,69,70,71,72,73,75,76,79,80,81,82,83,84,85,86,88,90,91,92,93,94,95,97,98,99,101,102,103,104,105,107,109,110,112,113,114,115,116,117,1,2,3,4,5,6,7,8,9,10,11,12,13,14,15,16,17,18,19,22,23,24,25,27,28,29,30,31,34,35,36,37,38,39,40,41,42,45,46,47,48,49,50,51,52,53,55,56,57,58,59,60,62,63,64,65,67,68,69,70,71,72,73,74,75,76,79,80,81,82,83,84,85,86,88,89,90,91,92,93,94,95,97,98,99,100,101,102,103,104,105,107,108,109,110,111,112,113,114,115,116,117,0,1,4,5,6,7,8,9,10,11,13,15,16,17,18,19,20,21,22,23,25,26,27,28,29,30,31,32,33,34,35,36,37,38,39,40,41,42,43,44,45,46,48,49,50,51,52,53,54,55,56,57,58,59,60,61,62,63,64,65,66,67,68,69,70,71,74,75,76,77,78,79,80,82,83,84,85,86,87,88,89,90,91,92,93,94,95,96,97,98,99,100,101,102,103,104,105,106,108,109,110,111,112,113,114,115,116,0,1,2,3,4,5,6,7,8,9,10,11,12,13,14,15,16,17,18,19,20,22,23,24,25,26,27,28,29,30,31,33,34,35,36,37,38,39,40,41,42,43,44,45,46,47,48,49,50,51,52,53,54,55,56,57,58,59,60,61,62,63,64,65,66,67,68,69,70,71,72,73,74,75,76,77,79,80,81,82,83,84,85,86,87,88,89,90,91,92,93,94,95,97,98,99,100,101,102,103,104,105,106,107,108,109,110,111,112,113,114,115,116,117,0,1,2,3,4,5,6,7,8,9,10,11,13,14,15,16,17,18,19,20,21,22,23,25,26,27,28,29,30,31,32,33,34,35,36,37,38,39,40,41,42,43,44,45,46,48,49,50,51,52,53,54,55,56,57,58,59,60,61,62,63,64,65,66,67,68,69,70,71,72,74,75,76,77,78,79,80,81,82,83,84,85,86,87,88,89,90,91,92,93,94,95,96,97,98,99,100,101,102,103,104,105,106,108,109,110,111,112,113,114,115,116,1,4,5,6,7,8,9,10,11,13,15,16,18,27,28,29,30,34,35,38,39,41,46,48,49,50,51,53,55,56,57,59,60,62,63,65,67,69,71,75,76,79,80,84,85,86,88,90,91,92,93,94,97,98,99,102,103,104,105,110,112,113,114,115,116,1,6,7,9,10,13,15,16,28,30,35,38,39,41,46,49,50,51,55,56,62,63,71,75,76,79,80,84,85,90,92,93,94,97,102,103,104,113,114,115,22,23,68,70,109,5,8,27,34,48,59,65,69,110,112,6,7,10,28,30,35,39,46,49,50,51,56,63,71,75,76,79,84,90,92,93,94,97,102,103,104,113,114,115],"categories_nodes":[0,1,2,3,5,6,14,24,25,26],"categories_segments":[0,89,191,298,412,524,589,629,634,644],"categories_sizes":[89,102,107,114,112,65,40,5,10,29],"default_left":[0,0,0,0,0,0,0,0,0,1,0,0,0,0,1,0,0,0,0,0,1,0,0,0,1,1,1,0,0,0,0,0,0,0,0,0,0,0,0,0,0,1,0,0,0,0,0,0,0,0,0,0,0,0,0,0,0,0,0],"id":4,"left_children":[1,3,5,7,9,11,13,-1,15,17,-1,19,21,23,25,-1,27,-1,-1,29,31,33,-1,35,37,39,41,-1,-1,-1,-1,-1,-1,-1,-1,43,45,47,49,51,53,55,57,-1,-1,-1,-1,-1,-1,-1,-1,-1,-1,-1,-1,-1,-1,-1,-1],"loss_changes":[3.916785E7,3.384088E6,2.105137E6,8.12036E5,2.064415E5,1.172445E5,8.11626E5,0E0,3.53182E5,1.10594E5,0E0,4.5495875E4,1.7384125E4,1.0651142E5,2.2451975E5,0E0,4.036E3,0E0,0E0,9.427328E3,2.7714625E4,4.397125E3,0E0,4.9380656E4,3.1792668E4,2.3309625E4,1.703625E4,0E0,0E0,0E0,0E0,0E0,0E0,0E0,0E0,1.668875E3,1.4652172E4,1.5427441E4,8.953073E3,1.2404094E4,1.9493656E4,2.5633125E3,1.58725E3,0E0,0E0,0E0,0E0,0E0,0E0,0E0,0E0,0E0,0E0,0E0,0E0,0E0,0E0,0E0,0E0],"parents":[2147483647,0,0,1,1,2,2,3,3,4,4,5,5,6,6,8,8,9,9,11,11,12,12,13,13,14,14,16,16,19,19,20,20,21,21,23,23,24,24,25,25,26,26,35,35,36,36,37,37,38,38,39,39,40,40,41,41,42,42],"right_children":[2,4,6,8,10,12,14,-1,16,18,-1,20,22,24,26,-1,28,-1,-1,30,32,34,-1,36,38,40,42,-1,-1,-1,-1,-1,-1,-1,-1,44,46,48,50,52,54,56,58,-1,-1,-1,-1,-1,-1,-1,-1,-1,-1,-1,-1,-1,-1,-1,-1],"split_conditions":[1E-45,1E-45,1E-45,1E-45,7.1958E1,1E-45,1E-45,1.2846017E-1,3.56E1,9.24E-1,1.8985238E-2,1.12E1,1.83E1,7.1958E1,1E-45,2.0817796E-2,1.72E1,5.1812135E-2,1.8947098E-2,2.013E3,8.795106E1,2.57E1,1.8934192E-2,1.0073E1,1E-45,1E-45,1E-45,3.5671446E-2,8.5641116E-2,1.8556053E-2,5.2046045E-3,3.478456E-2,1.12525355E-2,1.3187865E-3,1.0801052E-2,2.003E3,1.993E3,4.2427E1,2.54E1,1.996E3,4.8778E1,9E0,7.13E1,1.2732819E-2,4.668571E-3,7.889817E-4,4.615514E-3,1.0158279E-3,5.35099E-3,-2.5561869E-3,-4.5295118E-4,-1.6482078E-3,-3.270215E-3,7.4069547E-3,-4.381026E-3,-5.6341123E-3,-3.3506553E-3,-9.778646E-4,-6.7405626E-3],"split_indices":[2,2,2,2,7,2,2,0,4,18,0,21,16,7,2,0,16,0,0,0,36,4,0,13,2,2,2,0,0,0,0,0,0,0,0,0,0,13,19,0,7,16,8,0,0,0,0,0,0,0,0,0,0,0,0,0,0,0,0],"split_type":[1,1,1,1,0,1,1,0,0,0,0,0,0,0,1,0,0,0,0,0,0,0,0,0,1,1,1,0,0,0,0,0,0,0,0,0,0,0,0,0,0,0,0,0,0,0,0,0,0,0,0,0,0,0,0,0,0,0,0],"sum_hessian":[1.901E3,9.1E1,1.81E3,5.1E1,4E1,4.1E1,1.769E3,1E1,4.1E1,3.5E1,5E0,2E1,2.1E1,2.79E2,1.49E3,2E0,3.9E1,3.2E1,3E0,6E0,1.4E1,1.2E1,9E0,8.3E1,1.96E2,5.72E2,9.18E2,2E0,3.7E1,4E0,2E0,1.2E1,2E0,1E0,1.1E1,1.1E1,7.2E1,8.2E1,1.14E2,3.14E2,2.58E2,2.61E2,6.57E2,9E0,2E0,1.8E1,5.4E1,7E1,1.2E1,4.2E1,7.2E1,9.1E1,2.23E2,1E0,2.57E2,2.49E2,1.2E1,1E0,6.56E2],"tree_param":{"num_deleted":"0","num_feature":"40","num_nodes":"59","size_leaf_vector":"1"}},{"base_weights":[-2.0627759E0,6.3503894E2,-3.145019E1,7.7284314E2,4.200318E2,1.7821417E2,-3.6741943E1,4.3266644E2,9.505021E-2,1.3920768E-2,4.442636E2,2.3960057E2,1.2413949E2,1.5690239E1,-4.549668E1,5.259091E-2,1.3321075E-2,1.0620997E-2,5.2001305E-2,1.0934388E-2,2.5948886E2,1.420358E2,2.0567806E1,4.182398E1,2.1439328E0,-2.9923786E1,-5.567117E1,3.0878702E-2,6.3713146E-3,1.1291497E-2,1.703057E2,3.2703853E-3,-6.3334097E-4,1.0430651E2,3.0436022E1,1.4669576E1,-1.0115346E1,-2.4019203E1,-3.759142E1,-4.789573E1,-5.834501E1,4.1328846E-3,2.0593181E-2,1.2889115E-2,4.6682134E-3,5.1068695E-4,4.430693E-3,4.2010993E-3,7.2489463E-4,-1.4739038E-3,5.466127E-4,-1.616195E-3,-3.2346996E-3,7.4065286E-3,-4.392346E-3,-5.6007467E-3,-3.3503002E-3,-9.778085E-4,-6.71007E-3],"categories":[1,2,3,4,5,6,7,8,9,10,11,12,13,14,15,16,18,22,23,24,27,28,29,30,31,34,35,38,39,40,41,42,45,46,47,48,49,50,51,52,53,55,56,57,59,60,62,63,65,67,68,69,70,71,72,73,75,76,79,80,81,82,83,84,85,86,88,90,91,92,93,94,95,96,97,98,99,101,102,103,104,105,107,109,110,112,113,114,115,116,117,1,2,3,4,5,6,7,8,9,10,11,12,13,14,15,16,17,18,19,22,23,24,25,27,28,29,30,31,34,35,36,37,38,39,40,41,42,45,46,47,48,49,50,51,52,53,55,56,57,58,59,60,62,63,64,65,67,68,69,70,71,72,73,74,75,76,79,80,81,82,83,84,85,86,88,89,90,91,92,93,94,95,96,97,98,99,100,101,102,103,104,105,107,108,109,110,111,112,113,114,115,116,117,0,1,4,5,6,7,8,9,10,11,13,15,16,17,18,19,20,21,22,23,25,26,27,28,29,30,31,32,33,34,35,36,37,38,39,41,42,43,44,45,46,48,49,50,51,52,53,54,55,56,57,58,59,60,61,62,63,64,65,66,67,68,69,70,71,74,75,76,77,78,79,80,83,84,85,86,87,88,89,90,91,92,93,94,95,96,97,98,99,100,101,102,103,104,105,106,108,109,110,111,112,113,114,115,116,0,1,2,3,4,5,6,7,8,9,10,11,13,14,15,16,17,18,19,20,21,22,23,25,26,27,28,29,30,31,32,33,34,35,36,37,38,39,41,42,43,44,45,46,48,49,50,51,52,53,54,55,56,57,58,59,60,61,62,63,64,65,66,67,68,69,70,71,72,74,75,76,77,78,79,80,81,82,83,84,85,86,87,88,89,90,91,92,93,94,95,96,97,98,99,100,101,102,103,104,105,106,108,109,110,111,112,113,114,115,116,117,1,4,5,6,7,8,9,10,11,13,15,16,18,27,28,29,30,34,35,38,39,41,46,48,49,50,51,53,55,56,57,59,60,62,63,65,67,69,71,75,76,79,80,84,85,86,90,91,92,93,94,97,98,99,102,103,104,105,109,110,112,113,114,115,116,0,1,2,3,4,5,6,7,8,9,10,11,12,13,14,15,16,17,18,19,20,21,22,23,24,25,27,28,29,30,31,34,35,36,37,38,39,40,41,42,43,44,45,46,47,48,49,50,51,52,53,55,56,57,58,59,60,61,62,63,64,65,66,67,68,69,70,71,72,73,74,75,76,77,78,79,80,81,82,83,84,85,86,87,88,89,90,91,92,93,94,95,96,97,98,99,100,101,102,103,104,105,107,108,109,110,111,112,113,114,115,116,117,1,6,7,9,10,13,15,16,28,30,35,38,39,41,46,49,50,51,55,56,62,63,71,75,76,79,80,84,85,90,92,93,94,97,102,103,104,113,114,115,5,8,27,34,48,59,65,69,110,112,6,7,10,28,30,35,39,46,49,50,51,55,56,63,71,75,76,79,84,90,92,93,94,97,102,103,104,114,115,0,1,2,3,4,5,6,7,8,9,10,11,12,13,14,15,16,17,18,19,20,21,23,24,25,26,27,28,29,30,32,33,34,35,36,37,38,39,40,41,42,43,44,46,47,48,49,50,51,52,53,54,55,56,57,58,59,60,61,62,63,64,65,66,67,68,69,70,71,72,73,74,75,76,77,78,79,80,81,82,83,84,85,86,87,88,89,90,91,92,93,94,95,96,97,98,99,100,102,103,104,105,106,107,108,109,110,111,112,113,114,115,116,117],"categories_nodes":[0,1,2,5,6,7,14,25,26,35],"categories_segments":[0,91,194,299,411,476,589,629,639,668],"categories_sizes":[91,103,105,112,65,113,40,10,29,114],"default_left":[0,0,0,0,0,0,0,0,0,0,0,0,0,0,1,0,0,0,0,0,1,0,0,0,0,1,1,0,0,0,0,0,0,0,0,0,0,0,0,1,0,0,0,0,0,0,0,0,0,0,0,0,0,0,0,0,0,0,0],"id":5,"left_children":[1,3,5,7,9,11,13,15,-1,-1,17,19,21,23,25,-1,-1,-1,-1,-1,27,29,31,33,35,37,39,-1,-1,-1,41,-1,-1,43,45,47,49,51,53,55,57,-1,-1,-1,-1,-1,-1,-1,-1,-1,-1,-1,-1,-1,-1,-1,-1,-1,-1],"loss_changes":[3.566813E7,2.164208E6,2.0269331E6,5.68916E5,1.99638E5,1.1963125E5,8.1641E5,1.84575E4,0E0,0E0,5.23495E4,3.27505E4,4.527097E4,9.018433E4,2.39648E5,0E0,0E0,0E0,0E0,0E0,1.7303E4,1.0472906E4,1.1868882E3,5.873003E4,2.609924E4,2.6442688E4,1.63325E4,0E0,0E0,0E0,7.96575E3,0E0,0E0,1.9666406E3,1.5675867E4,1.5146592E4,3.5322734E3,1.3763828E4,1.9525781E4,2.4356875E3,1.56525E3,0E0,0E0,0E0,0E0,0E0,0E0,0E0,0E0,0E0,0E0,0E0,0E0,0E0,0E0,0E0,0E0,0E0,0E0],"parents":[2147483647,0,0,1,1,2,2,3,3,4,4,5,5,6,6,7,7,10,10,11,11,12,12,13,13,14,14,20,20,21,21,22,22,23,23,24,24,25,25,26,26,30,30,33,33,34,34,35,35,36,36,37,37,38,38,39,39,40,40],"right_children":[2,4,6,8,10,12,14,16,-1,-1,18,20,22,24,26,-1,-1,-1,-1,-1,28,30,32,34,36,38,40,-1,-1,-1,42,-1,-1,44,46,48,50,52,54,56,58,-1,-1,-1,-1,-1,-1,-1,-1,-1,-1,-1,-1,-1,-1,-1,-1,-1,-1],"split_conditions":[1E-45,1E-45,1E-45,4.2E1,7.388934E4,1E-45,1E-45,1E-45,9.505021E-2,1.3920768E-2,2.88E1,8.7E0,7.8863E1,7.1958E1,1E-45,5.259091E-2,1.3321075E-2,1.0620997E-2,5.2001305E-2,1.0934388E-2,5.37E1,1.83E1,2.017E3,1.0073E1,7.872E1,1E-45,1E-45,3.0878702E-2,6.3713146E-3,1.1291497E-2,5.8E1,3.2703853E-3,-6.3334097E-4,2.003E3,1.993E3,1E-45,3.2081E1,1.996E3,4.8778E1,9E0,7.13E1,4.1328846E-3,2.0593181E-2,1.2889115E-2,4.6682134E-3,5.1068695E-4,4.430693E-3,4.2010993E-3,7.2489463E-4,-1.4739038E-3,5.466127E-4,-1.616195E-3,-3.2346996E-3,7.4065286E-3,-4.392346E-3,-5.6007467E-3,-3.3503002E-3,-9.778085E-4,-6.71007E-3],"split_indices":[2,2,2,4,23,2,2,2,0,0,4,21,7,7,2,0,0,0,0,0,15,16,0,13,7,2,2,0,0,0,3,0,0,0,0,2,13,0,7,16,8,0,0,0,0,0,0,0,0,0,0,0,0,0,0,0,0,0,0],"split_type":[1,1,1,0,0,1,1,1,0,0,0,0,0,0,1,0,0,0,0,0,0,0,0,0,0,1,1,0,0,0,0,0,0,0,0,1,0,0,0,0,0,0,0,0,0,0,0,0,0,0,0,0,0,0,0,0,0,0,0],"sum_hessian":[1.903E3,8.3E1,1.82E3,4.9E1,3.4E1,4.4E1,1.776E3,8E0,4.1E1,3E0,3.1E1,1.9E1,2.5E1,2.54E2,1.522E3,7E0,1E0,1E0,3E1,3E0,1.6E1,2.1E1,4E0,8.6E1,1.68E2,6.03E2,9.19E2,1.5E1,1E0,1E1,1.1E1,3E0,1E0,1.2E1,7.4E1,8.3E1,8.5E1,3.43E2,2.6E2,2.4E2,6.79E2,1E0,1E1,1E1,2E0,1.8E1,5.6E1,2.2E1,6.1E1,7.2E1,1.3E1,1.02E2,2.41E2,1E0,2.59E2,2.28E2,1.2E1,1E0,6.78E2],"tree_param":{"num_deleted":"0","num_feature":"40","num_nodes":"59","size_leaf_vector":"1"}},{"base_weights":[-1.7009348E-1,6.383383E2,-3.167535E1,8.4447876E2,4.4037213E2,1.8034088E2,-3.7139694E1,1.2843916E-1,7.2772754E2,4.6852438E2,1.8981485E-2,2.4630219E2,1.2012825E2,1.2118417E1,-4.6348763E1,8.538656E-2,1.3320311E-2,4.8717508E2,1.8943293E-2,1.3475737E2,2.8193628E2,1.3729567E2,2.0565968E1,4.1353706E1,2.767409E-1,-3.0990047E1,-5.571233E1,1.5437048E-2,5.661353E-2,1.8552424E-2,5.203629E-3,3.477778E-2,1.1250246E-2,1.1286731E-2,1.9234154E-2,3.2701031E-3,-6.333046E-4,1.017459E2,3.0409992E1,1.4870059E1,-1.0327607E1,-2.2372322E1,-3.548152E1,-4.82277E1,-5.8606796E1,1.2626771E-2,4.667856E-3,5.106313E-4,4.5164945E-3,2.2647441E-4,3.2201672E-3,-2.5563124E-3,-4.138974E-4,7.4061025E-3,-2.6585232E-3,-2.893609E-3,-4.8074676E-3,-5.631401E-3,-3.349945E-3,-9.777524E-4,-6.7403386E-3],"categories":[1,2,3,4,5,6,7,8,9,10,11,12,13,14,15,16,18,22,23,24,27,28,29,30,31,34,35,38,39,41,42,45,46,47,48,49,50,51,52,53,55,56,57,59,60,62,63,65,67,68,69,70,71,72,73,75,76,79,80,81,82,83,84,85,86,88,90,91,92,93,94,95,97,98,99,101,102,103,104,105,107,109,110,112,113,114,115,116,117,1,2,3,4,5,6,7,8,9,10,11,12,13,14,15,16,17,18,19,22,23,24,25,26,27,28,29,30,31,34,35,36,37,38,39,40,41,42,44,45,46,47,48,49,50,51,52,53,54,55,56,57,58,59,60,62,63,64,65,67,68,69,70,71,72,73,74,75,76,79,80,81,82,83,84,85,86,88,89,90,91,92,93,94,95,97,98,99,100,101,102,103,104,105,107,108,109,110,111,112,113,114,115,116,117,0,1,4,5,6,7,8,9,10,11,13,15,16,17,18,19,20,21,22,23,25,26,27,28,29,30,31,32,33,34,35,36,37,38,39,40,41,42,43,44,45,46,48,49,50,51,52,53,54,55,56,57,58,59,60,61,62,63,64,65,66,67,68,69,70,71,74,75,76,77,78,79,80,83,84,85,86,87,88,89,90,91,92,93,94,95,96,97,98,99,100,101,102,103,104,105,106,108,109,110,111,112,113,114,115,116,0,1,2,3,4,5,6,7,8,9,10,11,12,13,14,15,16,17,18,19,20,22,23,24,25,26,27,28,29,30,31,33,34,35,36,37,38,39,40,41,42,43,44,45,46,47,48,49,50,51,52,53,54,55,56,57,58,59,60,61,62,63,64,65,66,67,68,69,70,71,72,73,74,75,76,77,79,80,81,82,83,84,85,86,87,88,89,90,91,92,93,94,95,97,98,99,100,101,102,103,104,105,106,107,108,109,110,111,112,113,114,115,116,117,0,1,2,3,4,5,6,7,8,9,10,11,13,14,15,16,17,18,19,20,21,22,23,25,26,27,28,29,30,31,32,33,34,35,36,37,38,39,40,41,42,43,44,45,46,48,49,50,51,52,53,54,55,56,57,58,59,60,61,62,63,64,65,66,67,68,69,70,71,72,74,75,76,77,78,79,80,81,82,83,84,85,86,87,88,89,90,91,92,93,94,95,96,97,98,99,100,101,102,103,104,105,106,108,109,110,111,112,113,114,115,116,1,4,5,6,7,8,9,10,11,13,15,16,18,27,28,29,30,34,35,38,39,41,46,48,49,50,51,53,55,56,57,59,60,62,63,65,67,69,71,75,76,79,80,84,85,86,88,90,91,92,93,94,97,98,99,102,103,104,105,110,112,113,114,115,116,1,6,7,9,10,13,15,16,28,30,35,38,39,41,46,49,50,51,55,56,62,63,71,75,76,79,80,84,85,90,92,93,94,97,102,103,104,113,114,115,22,23,68,70,109,6,7,10,28,30,35,39,46,49,50,51,56,63,71,75,76,79,84,90,92,93,94,97,102,103,104,113,114,115,5,8,27,34,48,53,59,65,69,86,99,105,110,112],"categories_nodes":[0,1,2,3,5,6,14,24,26,42],"categories_segments":[0,89,194,300,414,526,591,631,636,665],"categories_sizes":[89,105,106,114,112,65,40,5,29,14],"default_left":[0,0,0,0,0,0,0,0,1,1,0,0,0,0,1,0,0,0,0,0,1,0,0,0,1,0,1,0,0,0,0,0,0,0,0,0,0,0,0,0,0,0,1,1,0,0,0,0,0,0,0,0,0,0,0,0,0,0,0,0,0],"id":6,"left_children":[1,3,5,7,9,11,13,-1,15,17,-1,19,21,23,25,-1,-1,27,-1,29,31,33,35,37,39,41,43,-1,-1,-1,-1,-1,-1,-1,-1,-1,-1,45,47,49,51,53,55,57,59,-1,-1,-1,-1,-1,-1,-1,-1,-1,-1,-1,-1,-1,-1,-1,-1],"loss_changes":[3.8502836E7,3.300908E6,2.1198565E6,5.59394E5,2.94409E5,1.531105E5,8.075535E5,0E0,2.26658E5,1.63182E5,0E0,4.5477875E4,4.161628E4,9.72693E4,2.1384825E5,0E0,0E0,1.2831E4,0E0,9.4234375E3,2.7704625E4,9.433094E3,1.1866997E3,5.0440016E4,3.125885E4,2.1268812E4,1.732075E4,0E0,0E0,0E0,0E0,0E0,0E0,0E0,0E0,0E0,0E0,1.5191094E3,1.6006285E4,1.4372176E4,9.301152E3,1.4696867E4,2.3382719E4,2.558875E3,1.587E3,0E0,0E0,0E0,0E0,0E0,0E0,0E0,0E0,0E0,0E0,0E0,0E0,0E0,0E0,0E0,0E0],"parents":[2147483647,0,0,1,1,2,2,3,3,4,4,5,5,6,6,8,8,9,9,11,11,12,12,13,13,14,14,17,17,19,19,20,20,21,21,22,22,23,23,24,24,25,25,26,26,37,37,38,38,39,39,40,40,41,41,42,42,43,43,44,44],"right_children":[2,4,6,8,10,12,14,-1,16,18,-1,20,22,24,26,-1,-1,28,-1,30,32,34,36,38,40,42,44,-1,-1,-1,-1,-1,-1,-1,-1,-1,-1,46,48,50,52,54,56,58,60,-1,-1,-1,-1,-1,-1,-1,-1,-1,-1,-1,-1,-1,-1,-1,-1],"split_conditions":[1E-45,1E-45,1E-45,1E-45,7.1958E1,1E-45,1E-45,1.2843916E-1,8.34E1,9.24E-1,1.8981485E-2,1.12E1,7.8863E1,7.0815E1,1E-45,8.538656E-2,1.3320311E-2,1.79772E1,1.8943293E-2,2.013E3,8.795106E1,1.83E1,2.017E3,1.0073E1,1E-45,1.998E3,1E-45,1.5437048E-2,5.661353E-2,1.8552424E-2,5.203629E-3,3.477778E-2,1.1250246E-2,1.1286731E-2,1.9234154E-2,3.2701031E-3,-6.333046E-4,2.003E3,1.993E3,3.4634E1,2.54E1,4.8778E1,1E-45,9E0,7.13E1,1.2626771E-2,4.667856E-3,5.106313E-4,4.5164945E-3,2.2647441E-4,3.2201672E-3,-2.5563124E-3,-4.138974E-4,7.4061025E-3,-2.6585232E-3,-2.893609E-3,-4.8074676E-3,-5.631401E-3,-3.349945E-3,-9.777524E-4,-6.7403386E-3],"split_indices":[2,2,2,2,7,2,2,0,3,18,0,21,7,7,2,0,0,36,0,0,36,16,0,13,2,0,2,0,0,0,0,0,0,0,0,0,0,0,0,13,19,7,2,16,8,0,0,0,0,0,0,0,0,0,0,0,0,0,0,0,0],"split_type":[1,1,1,1,0,1,1,0,0,0,0,0,0,0,1,0,0,0,0,0,0,0,0,0,1,0,1,0,0,0,0,0,0,0,0,0,0,0,0,0,0,0,1,0,0,0,0,0,0,0,0,0,0,0,0,0,0,0,0,0,0],"sum_hessian":[1.912E3,8.9E1,1.823E3,4.2E1,4.7E1,4.5E1,1.778E3,1E1,3.2E1,4.2E1,5E0,2E1,2.5E1,2.8E2,1.498E3,3.1E1,1E0,3.9E1,3E0,6E0,1.4E1,2.1E1,4E0,8E1,2E2,5.69E2,9.29E2,1E0,3.8E1,4E0,2E0,1.2E1,2E0,1.1E1,1E1,3E0,1E0,1.1E1,6.9E1,8.4E1,1.16E2,1.97E2,3.72E2,2.64E2,6.65E2,9E0,2E0,1.8E1,5.1E1,4.3E1,4.1E1,4.1E1,7.5E1,1E0,1.96E2,1.44E2,2.28E2,2.52E2,1.2E1,1E0,6.64E2],"tree_param":{"num_deleted":"0","num_feature":"40","num_nodes":"61","size_leaf_vector":"1"}},{"base_weights":[4.7885218E-1,6.390869E2,-3.183821E1,8.128434E2,4.031253E2,1.8104895E2,-3.7097477E1,1.2842575E-1,7.136087E2,4.315811E2,1.8979667E-2,2.3293396E2,1.07140236E2,1.17453375E1,-4.6175663E1,8.3334185E-2,1.33195445E-2,5.179461E-2,1.894166E-2,2.4906352E2,3.6337886E-3,5.309962E0,1.3575005E-2,4.1737522E1,-1.0107016E-1,-3.0662622E1,-5.568135E1,2.5747858E2,3.6724976E-3,1.548336E-3,-6.332682E-4,1.0428545E2,2.8978409E1,1.5133217E1,-1.0510324E1,-2.4862675E1,-3.7504627E1,-4.8282978E1,-5.860117E1,1.3458676E-2,3.1418186E-2,1.288645E-2,4.667498E-3,-1.7717653E-5,4.2950497E-3,1.9706404E-4,3.352304E-3,-2.5469554E-3,-4.2641317E-4,-1.7172131E-3,-3.296266E-3,7.4056773E-3,-4.382614E-3,-5.637006E-3,-3.3495899E-3,-9.776963E-4,-6.739757E-3],"categories":[1,2,3,4,5,6,7,8,9,10,11,12,13,14,15,16,18,22,23,24,27,28,29,30,31,34,35,38,39,41,42,45,46,47,48,49,50,51,52,53,55,56,57,59,60,62,63,65,67,68,69,70,71,72,73,75,76,79,80,81,82,83,84,85,86,88,90,91,92,93,94,95,97,98,99,101,102,103,104,105,107,109,110,112,113,114,115,116,117,1,2,3,4,5,6,7,8,9,10,11,12,13,14,15,16,17,18,19,22,23,24,25,27,28,29,30,31,34,35,36,37,38,39,40,41,42,45,46,47,48,49,50,51,52,53,55,56,57,58,59,60,62,63,64,65,67,68,69,70,71,72,73,74,75,76,79,80,81,82,83,84,85,86,88,89,90,91,92,93,94,95,97,98,99,100,101,102,103,104,105,107,108,109,110,111,112,113,114,115,116,117,0,1,4,5,6,7,8,9,10,11,13,15,16,17,18,19,20,21,22,23,25,26,27,28,29,30,31,32,33,34,35,36,37,38,39,40,41,42,43,44,45,46,48,49,50,51,52,53,54,55,56,57,58,59,60,61,62,63,64,65,66,67,68,69,70,71,74,75,76,77,78,79,80,83,84,85,86,87,88,89,90,91,92,93,94,95,96,97,98,99,100,101,102,103,104,105,106,108,109,110,111,112,113,114,115,116,0,1,2,3,4,5,6,7,8,9,10,11,12,13,14,15,16,17,18,19,20,22,23,24,25,26,27,28,29,30,31,33,34,35,36,37,38,39,40,41,42,43,44,45,46,47,48,49,50,51,52,53,54,55,56,57,58,59,60,61,62,63,64,65,66,67,68,69,70,71,72,73,74,75,76,77,79,80,81,82,83,84,85,86,87,88,89,90,91,92,93,94,95,97,98,99,100,101,102,103,104,105,106,107,108,109,110,111,112,113,114,115,116,117,0,1,2,4,5,6,7,8,9,10,11,13,14,15,16,17,18,19,20,21,22,23,25,26,27,28,29,30,31,32,33,34,35,36,37,38,39,40,41,42,43,44,45,46,48,49,50,51,52,53,54,55,56,57,58,59,60,61,62,63,64,65,66,67,68,69,70,71,74,75,76,77,78,79,80,81,82,83,84,85,86,87,88,89,90,91,92,93,94,95,96,97,98,99,100,101,102,103,104,105,106,108,109,110,111,112,113,114,115,116,1,4,5,6,7,8,9,10,11,13,15,16,18,27,28,29,30,34,35,38,39,41,46,48,49,50,51,53,55,56,57,59,60,62,63,65,67,69,71,75,76,79,80,84,85,86,88,90,91,92,93,94,97,98,99,102,103,104,105,110,112,113,114,115,116,1,6,7,9,10,13,15,16,28,30,35,38,39,41,46,49,50,51,55,56,62,63,71,75,76,79,80,84,85,90,92,93,94,97,102,103,104,113,114,115,22,23,68,70,109,5,8,27,34,48,59,65,69,110,112,6,7,10,28,30,35,39,46,49,50,51,56,63,71,75,76,79,84,90,92,93,94,97,102,103,104,113,114,115],"categories_nodes":[0,1,2,3,5,6,14,24,25,26],"categories_segments":[0,89,191,297,411,521,586,626,631,641],"categories_sizes":[89,102,106,114,110,65,40,5,10,29],"default_left":[0,0,0,0,0,0,0,0,1,1,0,0,0,0,1,0,0,0,0,1,0,0,0,0,1,1,1,0,0,0,0,0,0,0,0,0,0,1,0,0,0,0,0,0,0,0,0,0,0,0,0,0,0,0,0,0,0],"id":7,"left_children":[1,3,5,7,9,11,13,-1,15,17,-1,19,21,23,25,-1,-1,-1,-1,27,-1,29,-1,31,33,35,37,39,-1,-1,-1,41,43,45,47,49,51,53,55,-1,-1,-1,-1,-1,-1,-1,-1,-1,-1,-1,-1,-1,-1,-1,-1,-1,-1],"loss_changes":[3.941817E7,3.444312E6,2.042204E6,7.76168E5,2.06282E5,1.4377262E5,7.8758525E5,0E0,2.10848E5,1.10501E5,0E0,7.3296375E4,2.1814922E4,9.913281E4,2.1904325E5,0E0,0E0,0E0,0E0,3.3787625E4,0E0,3.394408E2,0E0,6.0024406E4,3.2033145E4,2.1726625E4,1.719575E4,1.73355E4,0E0,0E0,0E0,1.9649688E3,1.6414508E4,1.5404281E4,9.429617E3,1.14160625E4,1.9494188E4,2.5816875E3,1.58675E3,0E0,0E0,0E0,0E0,0E0,0E0,0E0,0E0,0E0,0E0,0E0,0E0,0E0,0E0,0E0,0E0,0E0,0E0],"parents":[2147483647,0,0,1,1,2,2,3,3,4,4,5,5,6,6,8,8,9,9,11,11,12,12,13,13,14,14,19,19,21,21,23,23,24,24,25,25,26,26,27,27,31,31,32,32,33,33,34,34,35,35,36,36,37,37,38,38],"right_children":[2,4,6,8,10,12,14,-1,16,18,-1,20,22,24,26,-1,-1,-1,-1,28,-1,30,-1,32,34,36,38,40,-1,-1,-1,42,44,46,48,50,52,54,56,-1,-1,-1,-1,-1,-1,-1,-1,-1,-1,-1,-1,-1,-1,-1,-1,-1,-1],"split_conditions":[1E-45,1E-45,1E-45,1E-45,7.1958E1,1E-45,1E-45,1.2842575E-1,8.34E1,9.24E-1,1.8979667E-2,7.4623E1,1.85E1,7.0815E1,1E-45,8.3334185E-2,1.33195445E-2,5.179461E-2,1.894166E-2,9.29E1,3.6337886E-3,2.017E3,1.3575005E-2,1.0073E1,1E-45,1E-45,1E-45,3.12E1,3.6724976E-3,1.548336E-3,-6.332682E-4,2.003E3,1.993E3,3.4634E1,2.54E1,1.996E3,4.8778E1,9E0,7.13E1,1.3458676E-2,3.1418186E-2,1.288645E-2,4.667498E-3,-1.7717653E-5,4.2950497E-3,1.9706404E-4,3.352304E-3,-2.5469554E-3,-4.2641317E-4,-1.7172131E-3,-3.296266E-3,7.4056773E-3,-4.382614E-3,-5.637006E-3,-3.3495899E-3,-9.776963E-4,-6.739757E-3],"split_indices":[2,2,2,2,7,2,2,0,3,18,0,7,4,7,2,0,0,0,0,3,0,0,0,13,2,2,2,4,0,0,0,0,0,13,19,0,7,16,8,0,0,0,0,0,0,0,0,0,0,0,0,0,0,0,0,0,0],"split_type":[1,1,1,1,0,1,1,0,0,0,0,0,0,0,1,0,0,0,0,0,0,0,0,0,1,1,1,0,0,0,0,0,0,0,0,0,0,0,0,0,0,0,0,0,0,0,0,0,0,0,0,0,0,0,0,0,0],"sum_hessian":[1.908E3,9.1E1,1.817E3,5.1E1,4E1,4.3E1,1.774E3,1E1,4.1E1,3.5E1,5E0,2.4E1,1.9E1,2.78E2,1.496E3,4E1,1E0,3.2E1,3E0,2.2E1,2E0,2E0,1.7E1,7.8E1,2E2,5.7E2,9.26E2,2.1E1,1E0,1E0,1E0,1.2E1,6.6E1,8.1E1,1.19E2,3.11E2,2.59E2,2.67E2,6.59E2,3E0,1.8E1,1E1,2E0,1.5E1,5.1E1,4.2E1,3.9E1,4.3E1,7.6E1,8.8E1,2.23E2,1E0,2.58E2,2.55E2,1.2E1,1E0,6.58E2],"tree_param":{"num_deleted":"0","num_feature":"40","num_nodes":"57","size_leaf_vector":"1"}},{"base_weights":[-5.4785824E-1,6.2572754E2,-3.1483227E1,7.95783E2,4.0308118E2,1.8030319E2,-3.694788E1,1.2862773E-1,6.9739325E2,4.3153348E2,1.8977849E-2,2.462525E2,1.201017E2,1.2669066E1,-4.6040646E1,2.0807296E-2,8.262959E-2,5.178884E-2,1.8940028E-2,1.3473141E2,2.8187885E2,1.3726508E2,2.0562496E1,4.2360973E1,-5.41772E-1,-3.105342E1,-5.594795E1,1.8548658E-2,5.202951E-3,3.477076E-2,1.1247667E-2,1.1284113E-2,1.9229982E-2,3.269568E-3,-6.3323183E-4,1.0427482E2,3.0754932E1,1.3999141E1,-1.08314295E1,-2.4686684E1,-3.7957153E1,-4.8653023E1,-5.85451E1,1.2885104E-2,4.6671405E-3,3.9880295E-4,4.628847E-3,9.167246E-4,5.450955E-3,-2.528389E-3,-4.4922956E-4,-1.6598277E-3,-3.3066592E-3,7.405252E-3,-4.4280477E-3,-6.021835E-3,-5.1262225E-3,-9.776402E-4,-6.733295E-3],"categories":[1,2,3,4,5,6,7,8,9,10,11,12,13,14,15,16,18,22,23,24,27,28,29,30,31,34,35,38,39,41,42,45,46,47,48,49,50,51,52,53,55,56,57,59,60,62,63,65,67,68,69,70,71,72,73,75,76,79,80,81,82,83,84,85,86,88,90,91,92,93,94,95,97,98,99,101,102,103,104,105,107,109,110,112,113,114,115,116,117,1,2,3,4,5,6,7,8,9,10,11,12,13,14,15,16,17,18,19,22,23,24,25,27,28,29,30,31,34,35,36,37,38,39,40,41,42,45,46,47,48,49,50,51,52,53,55,56,57,58,59,60,62,63,64,65,67,68,69,70,71,72,73,74,75,76,79,80,81,82,83,84,85,86,88,89,90,91,92,93,94,95,97,98,99,100,101,102,103,104,105,107,108,109,110,111,112,113,114,115,116,117,0,1,4,5,6,7,8,9,10,11,13,15,16,17,18,19,20,21,22,23,25,26,27,28,29,30,31,32,33,34,35,36,37,38,39,40,41,42,43,44,45,46,48,49,50,51,52,53,54,55,56,57,58,59,60,61,62,63,64,65,66,67,68,69,70,71,74,75,76,77,78,79,80,83,84,85,86,87,88,89,90,91,92,93,94,95,96,97,98,99,100,101,102,103,104,105,106,108,109,110,111,112,113,114,115,116,0,1,2,3,4,5,6,7,8,9,10,11,12,13,14,15,16,17,18,19,20,22,23,24,25,26,27,28,29,30,31,33,34,35,36,37,38,39,40,41,42,43,44,45,46,47,48,49,50,51,52,53,54,55,56,57,58,59,60,61,62,63,64,65,66,67,68,69,70,71,72,73,74,75,76,77,79,80,81,82,83,84,85,86,87,88,89,90,91,92,93,94,95,97,98,99,100,101,102,103,104,105,106,107,108,109,110,111,112,113,114,115,116,117,0,1,2,3,4,5,6,7,8,9,10,11,13,14,15,16,17,18,19,20,21,22,23,25,26,27,28,29,30,31,32,33,34,35,36,37,38,39,40,41,42,43,44,45,46,48,49,50,51,52,53,54,55,56,57,58,59,60,61,62,63,64,65,66,67,68,69,70,71,72,74,75,76,77,78,79,80,81,82,83,84,85,86,87,88,89,90,91,92,93,94,95,96,97,98,99,100,101,102,103,104,105,106,108,109,110,111,112,113,114,115,116,1,4,5,6,7,8,9,10,11,13,15,16,18,27,28,29,30,34,35,38,39,41,46,48,49,50,51,53,55,56,57,59,60,62,63,65,67,69,71,75,76,79,80,84,85,86,88,90,91,92,93,94,97,98,99,102,103,104,105,110,112,113,114,115,116,1,6,7,9,10,13,15,16,28,30,35,38,39,46,49,50,51,55,56,62,63,71,75,76,79,80,84,85,90,92,93,94,97,102,103,104,113,114,115,22,23,68,70,109,5,8,27,34,41,48,59,65,69,110,112,6,7,10,28,30,35,39,46,49,50,51,56,63,71,75,76,79,84,90,92,93,94,97,102,103,104,113,114,115],"categories_nodes":[0,1,2,3,5,6,14,24,25,26],"categories_segments":[0,89,191,297,411,523,588,627,632,643],"categories_sizes":[89,102,106,114,112,65,39,5,11,29],"default_left":[0,0,0,0,0,0,0,0,0,1,0,0,0,0,1,0,0,0,0,0,1,0,0,0,1,1,1,0,0,0,0,0,0,0,0,0,0,0,0,0,0,0,0,0,0,0,0,0,0,0,0,0,0,0,0,0,0,0,0],"id":8,"left_children":[1,3,5,7,9,11,13,-1,15,17,-1,19,21,23,25,-1,-1,-1,-1,27,29,31,33,35,37,39,41,-1,-1,-1,-1,-1,-1,-1,-1,43,45,47,49,51,53,55,57,-1,-1,-1,-1,-1,-1,-1,-1,-1,-1,-1,-1,-1,-1,-1,-1],"loss_changes":[3.7043532E7,3.08684E6,2.1153345E6,8.12224E5,2.0623E5,1.5305612E5,8.02286E5,0E0,3.31876E5,1.104675E5,0E0,4.5456875E4,4.1596625E4,1.0828533E5,2.2128425E5,0E0,0E0,0E0,0E0,9.417828E3,2.76965E4,9.430406E3,1.1863396E3,5.7871875E4,2.8878863E4,2.54355E4,1.425975E4,0E0,0E0,0E0,0E0,0E0,0E0,0E0,0E0,1.9641406E3,1.8852125E4,1.5728945E4,8.654856E3,1.2792531E4,1.9634219E4,1.348625E3,1.58225E3,0E0,0E0,0E0,0E0,0E0,0E0,0E0,0E0,0E0,0E0,0E0,0E0,0E0,0E0,0E0,0E0],"parents":[2147483647,0,0,1,1,2,2,3,3,4,4,5,5,6,6,8,8,9,9,11,11,12,12,13,13,14,14,19,19,20,20,21,21,22,22,23,23,24,24,25,25,26,26,35,35,36,36,37,37,38,38,39,39,40,40,41,41,42,42],"right_children":[2,4,6,8,10,12,14,-1,16,18,-1,20,22,24,26,-1,-1,-1,-1,28,30,32,34,36,38,40,42,-1,-1,-1,-1,-1,-1,-1,-1,44,46,48,50,52,54,56,58,-1,-1,-1,-1,-1,-1,-1,-1,-1,-1,-1,-1,-1,-1,-1,-1],"split_conditions":[1E-45,1E-45,1E-45,1E-45,7.1958E1,1E-45,1E-45,1.2862773E-1,3.56E1,9.24E-1,1.8977849E-2,1.12E1,7.8863E1,7.1958E1,1E-45,2.0807296E-2,8.262959E-2,5.178884E-2,1.8940028E-2,2.013E3,8.795106E1,1.83E1,2.017E3,1.0073E1,1E-45,1E-45,1E-45,1.8548658E-2,5.202951E-3,3.477076E-2,1.1247667E-2,1.1284113E-2,1.9229982E-2,3.269568E-3,-6.3323183E-4,2.003E3,1.993E3,4.2427E1,2.54E1,1.996E3,4.8778E1,1.78E0,7.13E1,1.2885104E-2,4.6671405E-3,3.9880295E-4,4.628847E-3,9.167246E-4,5.450955E-3,-2.528389E-3,-4.4922956E-4,-1.6598277E-3,-3.3066592E-3,7.405252E-3,-4.4280477E-3,-6.021835E-3,-5.1262225E-3,-9.776402E-4,-6.733295E-3],"split_indices":[2,2,2,2,7,2,2,0,4,18,0,21,7,7,2,0,0,0,0,0,36,16,0,13,2,2,2,0,0,0,0,0,0,0,0,0,0,13,19,0,7,17,8,0,0,0,0,0,0,0,0,0,0,0,0,0,0,0,0],"split_type":[1,1,1,1,0,1,1,0,0,0,0,0,0,0,1,0,0,0,0,0,0,0,0,0,1,1,1,0,0,0,0,0,0,0,0,0,0,0,0,0,0,0,0,0,0,0,0,0,0,0,0,0,0,0,0,0,0,0,0],"sum_hessian":[1.91E3,8.9E1,1.821E3,4.9E1,4E1,4.5E1,1.776E3,9E0,4E1,3.5E1,5E0,2E1,2.5E1,2.75E2,1.501E3,2E0,3.8E1,3.2E1,3E0,6E0,1.4E1,2.1E1,4E0,8.4E1,1.91E2,5.99E2,9.02E2,4E0,2E0,1.2E1,2E0,1.1E1,1E1,3E0,1E0,1.2E1,7.2E1,7.9E1,1.12E2,3.14E2,2.85E2,2.42E2,6.6E2,1E1,2E0,1.9E1,5.3E1,6.8E1,1.1E1,4.2E1,7E1,9.1E1,2.23E2,1E0,2.84E2,1.19E2,1.23E2,1E0,6.59E2],"tree_param":{"num_deleted":"0","num_feature":"40","num_nodes":"59","size_leaf_vector":"1"}},{"base_weights":[7.553906E-1,6.3405554E2,-3.2116486E1,8.3691766E2,4.387985E2,5.6232994E1,-4.392792E1,1.283989E-1,7.2478784E2,4.896268E2,2.7312378E2,2.328457E2,3.4783382E1,-2.6978725E1,-5.519336E1,8.4934324E-2,1.3317585E-2,4.971497E2,1.2568818E-2,1.4344453E-2,3.022095E2,2.5050377E2,3.6331858E-3,7.911862E1,2.2595695E1,-1.902242E1,-3.4488922E1,-4.7518425E1,-5.859834E1,1.5430211E-2,5.7866156E-2,1.1628636E-2,3.8559247E-2,2.95817E-2,6.3688834E-3,8.160138E0,1.3756831E-2,6.2887874E0,3.2590504E1,-1.00662E1,-2.2997826E1,-4.4167793E1,-2.7660936E1,-5.1194313E1,-4.295174E1,-9.77584E-4,-6.739432E-3,3.672449E-3,-1.0707253E-3,2.2246388E-3,-8.0372335E-4,1.2865725E-3,4.3496727E-3,-1.2844553E-3,5.628817E-3,-1.6080145E-3,-3.1920508E-3,-4.5880087E-4,-5.105555E-3,7.404826E-3,-3.270599E-3,-5.910052E-3,-2.4107972E-3,-2.4980057E-3,-5.044053E-3],"categories":[1,2,3,4,5,6,7,8,9,10,11,12,13,14,15,16,18,22,23,24,27,28,29,30,31,34,35,38,39,41,42,45,46,47,48,49,50,51,52,53,55,56,57,59,60,62,63,65,67,68,69,70,71,72,73,75,76,79,80,81,82,83,84,85,86,88,90,91,92,93,94,95,97,98,99,101,102,103,104,105,109,110,112,113,114,115,116,117,1,2,3,4,5,6,7,8,9,10,11,12,13,14,15,16,17,18,19,22,23,24,25,26,27,28,29,30,31,34,35,36,37,38,39,40,41,42,44,45,46,47,48,49,50,51,52,53,54,55,56,57,58,59,60,62,63,64,65,67,68,69,70,71,72,73,74,75,76,79,80,81,82,83,84,85,86,88,89,90,91,92,93,94,95,97,98,99,100,101,102,103,104,105,107,108,109,110,111,112,113,114,115,116,117,0,1,2,4,5,6,7,8,9,10,11,13,15,16,17,18,19,20,21,22,23,25,26,27,28,29,30,32,33,34,35,36,37,38,39,40,41,43,44,46,48,49,50,51,53,54,55,56,57,58,59,60,61,62,63,64,65,66,67,68,69,71,74,75,76,77,78,79,80,84,85,86,87,88,89,90,91,92,93,94,96,97,98,99,100,102,103,104,105,106,107,108,109,110,111,112,113,114,115,116,0,1,2,3,4,5,6,7,8,9,10,11,12,13,14,15,16,17,18,19,20,22,23,24,25,26,27,28,29,30,31,33,34,35,36,37,38,39,40,41,42,43,44,45,46,47,48,49,50,51,52,53,54,55,56,57,58,59,60,61,62,63,64,65,66,67,68,69,70,71,72,73,74,75,76,77,79,80,81,82,83,84,85,86,87,88,89,90,91,92,93,94,95,97,98,99,100,101,102,103,104,105,106,107,108,109,110,111,112,113,114,115,116,117,0,1,2,4,5,6,7,8,9,10,11,13,14,15,16,17,18,19,20,21,22,23,25,26,27,28,29,30,31,32,33,34,35,36,37,38,39,40,41,42,43,44,45,46,48,49,50,51,52,53,54,55,56,57,58,59,60,61,62,63,64,65,66,67,68,69,70,71,74,75,76,77,78,79,80,81,82,83,84,85,86,87,88,89,90,91,92,93,94,95,96,97,98,99,100,101,102,103,104,105,106,107,108,109,110,111,112,113,114,115,116,1,6,7,8,9,10,13,15,16,28,30,35,38,39,41,46,49,50,51,55,56,62,63,71,75,76,79,80,84,85,90,92,93,94,97,102,103,104,113,114,115,0,1,2,3,4,5,6,7,8,9,10,11,12,13,15,16,17,18,19,20,21,22,23,24,25,26,27,28,29,30,31,32,33,34,35,36,37,38,39,40,41,42,43,44,45,46,47,48,49,50,51,52,53,54,55,56,57,58,59,60,61,62,63,64,65,66,67,68,69,71,72,73,74,75,76,77,78,79,80,83,84,85,86,87,88,89,90,91,92,93,94,95,96,97,98,99,100,101,102,103,104,105,106,107,108,109,110,111,112,113,114,115,116,117,5,18,27,34,48,53,59,65,69,86,98,110,112,6,7,10,28,30,35,39,46,49,50,51,56,63,71,75,76,79,84,90,92,93,94,97,102,103,104,113,114,115,4,11,29,60,67,88,99,105,109,116],"categories_nodes":[0,1,2,3,5,6,12,13,14,40],"categories_segments":[0,88,193,293,407,518,559,673,686,715],"categories_sizes":[88,105,100,114,111,41,114,13,29,10],"default_left":[0,0,0,0,0,0,1,0,1,1,0,0,0,1,1,0,0,0,0,0,0,0,0,0,1,0,0,0,0,0,0,0,0,0,0,0,0,0,0,1,1,0,0,1,0,0,0,0,0,0,0,0,0,0,0,0,0,0,0,0,0,0,0,0,0],"id":9,"left_children":[1,3,5,7,9,11,13,-1,15,17,19,21,23,25,27,-1,-1,29,-1,-1,31,33,-1,35,37,39,41,43,45,-1,-1,-1,-1,-1,-1,47,-1,49,51,53,55,57,59,61,63,-1,-1,-1,-1,-1,-1,-1,-1,-1,-1,-1,-1,-1,-1,-1,-1,-1,-1,-1,-1],"loss_changes":[3.9657384E7,3.356128E6,1.8923106E6,6.06302E5,2.8732E5,8.0259144E5,3.03633E5,0E0,2.23272E5,5.1445E4,2.2641125E4,7.3801375E4,1.0195833E5,3.7586125E4,2.2277E4,0E0,0E0,1.7643E4,0E0,0E0,3.9913188E4,1.43255E4,0E0,1.1720941E5,2.4568672E4,1.0912734E4,2.0454844E4,2.837125E3,1.58675E3,0E0,0E0,0E0,0E0,0E0,0E0,6.9558574E3,0E0,1.0383462E4,1.0173078E4,6.9953525E3,8.917359E3,1.2870156E3,1.633125E4,1.2690625E2,1.8742969E3,0E0,0E0,0E0,0E0,0E0,0E0,0E0,0E0,0E0,0E0,0E0,0E0,0E0,0E0,0E0,0E0,0E0,0E0,0E0,0E0],"parents":[2147483647,0,0,1,1,2,2,3,3,4,4,5,5,6,6,8,8,9,9,10,10,11,11,12,12,13,13,14,14,17,17,20,20,21,21,23,23,24,24,25,25,26,26,27,27,28,28,35,35,37,37,38,38,39,39,40,40,41,41,42,42,43,43,44,44],"right_children":[2,4,6,8,10,12,14,-1,16,18,20,22,24,26,28,-1,-1,30,-1,-1,32,34,-1,36,38,40,42,44,46,-1,-1,-1,-1,-1,-1,48,-1,50,52,54,56,58,60,62,64,-1,-1,-1,-1,-1,-1,-1,-1,-1,-1,-1,-1,-1,-1,-1,-1,-1,-1,-1,-1],"split_conditions":[1E-45,1E-45,1E-45,1E-45,6.6398E1,1E-45,1E-45,1.283989E-1,8.34E1,9.3E-1,7.606004E4,7.4623E1,1E-45,1E-45,1E-45,8.4934324E-2,1.3317585E-2,1.79772E1,1.2568818E-2,1.4344453E-2,2.88E1,5.13E1,3.6331858E-3,1.13E1,3.5698E1,1.996E3,3.33E1,1.97E0,7.13E1,1.5430211E-2,5.7866156E-2,1.1628636E-2,3.8559247E-2,2.95817E-2,6.3688834E-3,2.526E0,1.3756831E-2,3.88E1,8.78E1,1E2,1E-45,4.4E0,4.8778E1,1.0682775E0,2.3E1,-9.77584E-4,-6.739432E-3,3.672449E-3,-1.0707253E-3,2.2246388E-3,-8.0372335E-4,1.2865725E-3,4.3496727E-3,-1.2844553E-3,5.628817E-3,-1.6080145E-3,-3.1920508E-3,-4.5880087E-4,-5.105555E-3,7.404826E-3,-3.270599E-3,-5.910052E-3,-2.4107972E-3,-2.4980057E-3,-5.044053E-3],"split_indices":[2,2,2,2,7,2,2,0,3,18,23,7,2,2,2,0,0,36,0,0,4,15,0,16,13,0,19,17,8,0,0,0,0,0,0,17,0,15,14,14,2,4,7,37,19,0,0,0,0,0,0,0,0,0,0,0,0,0,0,0,0,0,0,0,0],"split_type":[1,1,1,1,0,1,1,0,0,0,0,0,1,1,1,0,0,0,0,0,0,0,0,0,0,0,0,0,0,0,0,0,0,0,0,0,0,0,0,0,1,0,0,0,0,0,0,0,0,0,0,0,0,0,0,0,0,0,0,0,0,0,0,0,0],"sum_hessian":[1.903E3,9.3E1,1.81E3,4.4E1,4.9E1,2.13E2,1.597E3,1E1,3.4E1,3.6E1,1.3E1,2.2E1,1.91E2,6.39E2,9.58E2,3.3E1,1E0,3.5E1,1E0,3E0,1E1,2E1,2E0,4E1,1.51E2,3.12E2,3.27E2,2.99E2,6.59E2,1E0,3.4E1,2E0,8E0,1.9E1,1E0,1.5E1,2.5E1,5.8E1,9.3E1,9.7E1,2.15E2,1.33E2,1.94E2,1.6E2,1.39E2,1E0,6.58E2,6E0,9E0,2.9E1,2.9E1,1.9E1,7.4E1,9.6E1,1E0,7.6E1,1.39E2,1E0,1.32E2,1E0,1.93E2,1.58E2,2E0,7E0,1.32E2],"tree_param":{"num_deleted":"0","num_feature":"40","num_nodes":"65","size_leaf_vector":"1"}},{"base_weights":[-3.3020818E-1,6.3402856E2,-3.1699417E1,8.1079803E2,4.0299194E2,1.7265643E2,-3.6859505E1,1.2838548E-1,7.061866E2,4.31437E2,1.89743E-2,2.389993E2,1.23841156E2,1.183951E1,-4.598221E1,2.0802977E-2,7.29059E2,5.1777177E-2,1.8936515E-2,1.09272525E-2,2.6143567E2,1.4019809E2,2.0559633E1,3.3253128E1,-4.095514E0,-3.0946247E1,-5.598844E1,2.2481589E-2,8.4807895E-2,3.1271145E-2,6.3685174E-3,1.1281476E-2,1.6818446E2,3.2691082E-3,-6.331341E-4,9.970384E1,2.5632381E1,-1.1681605E1,1.2176634E1,-2.4612291E1,-3.7860577E1,-4.9146736E1,-5.877943E1,4.131632E-3,2.0243773E-2,1.2991769E-2,5.1325196E-3,2.0563713E-4,3.5961585E-3,-2.9692333E-3,-9.952004E-4,1.1088148E-3,8.0975555E-3,-1.5978738E-3,-3.295265E-3,7.4044E-3,-4.417144E-3,-6.0292706E-3,-5.247423E-3,-9.775279E-4,-6.7605916E-3],"categories":[1,2,3,4,5,6,7,8,9,10,11,12,13,14,15,16,18,22,23,24,27,28,29,30,31,34,35,38,39,41,42,45,46,47,48,49,50,51,52,53,55,56,57,59,60,62,63,65,67,68,69,70,71,72,73,75,76,79,80,81,82,83,84,85,86,88,90,91,92,93,94,95,97,98,99,101,102,103,104,105,107,109,110,112,113,114,115,116,117,1,2,3,4,5,6,7,8,9,10,11,12,13,14,15,16,17,18,19,22,23,24,25,27,28,29,30,31,34,35,36,37,38,39,40,41,42,45,46,47,48,49,50,51,52,53,55,56,57,58,59,60,62,63,64,65,67,68,69,70,71,72,73,74,75,76,79,80,81,82,83,84,85,86,88,89,90,91,92,93,94,95,97,98,99,100,101,102,103,104,105,107,108,109,110,111,112,113,114,115,116,117,0,1,4,5,6,7,8,9,10,11,13,15,16,17,18,19,20,21,22,23,25,26,27,28,29,30,31,32,33,34,35,36,37,38,39,40,41,42,43,44,45,46,48,49,50,51,52,53,54,55,56,57,58,59,60,61,62,63,64,65,66,67,68,69,70,71,74,75,76,77,78,79,80,83,84,85,86,87,88,89,90,91,92,93,94,95,96,97,98,99,100,101,102,103,104,105,106,108,109,110,111,112,113,114,115,116,0,1,2,3,4,5,6,7,8,9,10,11,12,13,14,15,16,17,18,19,20,22,23,24,25,26,27,28,29,30,31,33,34,35,36,37,38,39,40,41,42,43,44,45,46,47,48,49,50,51,52,53,54,55,56,57,58,59,60,61,62,63,64,65,66,67,68,69,70,71,72,73,74,75,76,77,79,80,81,82,83,84,85,86,87,88,89,90,91,92,93,94,95,97,98,99,100,101,102,103,104,105,106,107,108,109,110,111,112,113,114,115,116,117,0,1,2,3,4,5,6,7,8,9,10,11,13,14,15,16,17,18,19,20,21,22,23,25,26,27,28,29,30,31,32,33,34,35,36,37,38,39,40,41,42,43,44,45,46,48,49,50,51,52,53,54,55,56,57,58,59,60,61,62,63,64,65,66,67,68,69,70,71,72,74,75,76,77,78,79,80,81,82,83,84,85,86,87,88,89,90,91,92,93,94,95,96,97,98,99,100,101,102,103,104,105,106,108,109,110,111,112,113,114,115,116,117,1,4,5,6,7,8,9,10,11,13,15,16,18,27,28,29,30,34,35,38,39,41,46,48,49,50,51,53,55,56,57,59,60,62,63,65,67,69,71,75,76,79,80,84,85,86,88,90,92,93,94,97,98,99,102,103,104,105,110,112,113,114,115,116,0,1,2,3,4,5,6,7,8,9,10,11,12,13,14,15,16,17,18,19,20,21,22,23,24,25,26,27,28,29,30,31,32,33,34,35,36,37,38,39,40,41,43,44,46,47,48,49,50,51,52,53,54,55,56,57,58,59,60,61,62,63,64,65,66,67,68,69,71,72,73,74,75,76,77,78,79,80,81,82,83,84,85,86,87,88,89,90,91,92,93,94,96,97,98,99,100,102,103,104,105,106,107,108,109,110,111,112,113,114,115,116,117,1,6,7,9,10,13,15,16,28,30,35,38,39,46,49,50,51,55,56,62,63,71,75,76,79,80,84,85,90,92,93,94,97,102,103,104,113,114,115,5,8,27,34,41,48,59,65,69,110,112,6,7,10,28,30,35,39,46,49,50,51,56,63,71,75,76,79,84,90,92,93,94,97,102,103,104,113,114],"categories_nodes":[0,1,2,3,5,6,13,14,25,26],"categories_segments":[0,89,191,297,411,524,588,701,740,751],"categories_sizes":[89,102,106,114,113,64,113,39,11,28],"default_left":[0,0,0,0,0,0,0,0,0,1,0,0,0,0,1,0,0,0,0,0,0,0,0,0,1,1,1,0,0,0,0,0,0,0,0,0,1,0,0,0,0,0,0,0,0,0,0,0,0,0,0,0,0,0,0,0,0,0,0,0,0],"id":10,"left_children":[1,3,5,7,9,11,13,-1,15,17,-1,19,21,23,25,-1,27,-1,-1,-1,29,31,33,35,37,39,41,-1,-1,-1,-1,-1,43,-1,-1,45,47,49,51,53,55,57,59,-1,-1,-1,-1,-1,-1,-1,-1,-1,-1,-1,-1,-1,-1,-1,-1,-1,-1],"loss_changes":[3.8007924E7,3.348876E6,1.925543E6,8.1504E5,2.061205E5,1.16136625E5,7.89562E5,0E0,3.4841E5,1.10404E5,0E0,3.3243125E4,4.4419938E4,9.602084E4,2.233455E5,0E0,4.0532E4,0E0,0E0,0E0,1.8145062E4,1.16963125E4,1.1859978E3,5.8212844E4,2.0139846E4,2.534525E4,1.42395E4,0E0,0E0,0E0,0E0,0E0,7.4514375E3,0E0,0E0,3.7830938E3,1.4677625E4,4.522615E3,6.9761826E3,1.3369094E4,1.9599156E4,6.815E2,1.602E3,0E0,0E0,0E0,0E0,0E0,0E0,0E0,0E0,0E0,0E0,0E0,0E0,0E0,0E0,0E0,0E0,0E0,0E0],"parents":[2147483647,0,0,1,1,2,2,3,3,4,4,5,5,6,6,8,8,9,9,11,11,12,12,13,13,14,14,16,16,20,20,21,21,22,22,23,23,24,24,25,25,26,26,32,32,35,35,36,36,37,37,38,38,39,39,40,40,41,41,42,42],"right_children":[2,4,6,8,10,12,14,-1,16,18,-1,20,22,24,26,-1,28,-1,-1,-1,30,32,34,36,38,40,42,-1,-1,-1,-1,-1,44,-1,-1,46,48,50,52,54,56,58,60,-1,-1,-1,-1,-1,-1,-1,-1,-1,-1,-1,-1,-1,-1,-1,-1,-1,-1],"split_conditions":[1E-45,1E-45,1E-45,1E-45,7.1958E1,1E-45,1E-45,1.2838548E-1,3.56E1,9.24E-1,1.89743E-2,8.7E0,7.8863E1,1E-45,1E-45,2.0802977E-2,1.72E1,5.1777177E-2,1.8936515E-2,1.09272525E-2,5.13E1,1.83E1,2.017E3,1.0073E1,3.102E0,1E-45,1E-45,2.2481589E-2,8.4807895E-2,3.1271145E-2,6.3685174E-3,1.1281476E-2,5.8E1,3.2691082E-3,-6.331341E-4,7.785817E1,3.7093E1,2.21E1,2.012E3,1.996E3,4.8778E1,2.5796E1,7.13E1,4.131632E-3,2.0243773E-2,1.2991769E-2,5.1325196E-3,2.0563713E-4,3.5961585E-3,-2.9692333E-3,-9.952004E-4,1.1088148E-3,8.0975555E-3,-1.5978738E-3,-3.295265E-3,7.4044E-3,-4.417144E-3,-6.0292706E-3,-5.247423E-3,-9.775279E-4,-6.7605916E-3],"split_indices":[2,2,2,2,7,2,2,0,4,18,0,21,7,2,2,0,16,0,0,0,15,16,0,13,17,2,2,0,0,0,0,0,3,0,0,35,13,19,0,0,7,13,8,0,0,0,0,0,0,0,0,0,0,0,0,0,0,0,0,0,0],"split_type":[1,1,1,1,0,1,1,0,0,0,0,0,0,1,1,0,0,0,0,0,0,0,0,0,0,1,1,0,0,0,0,0,0,0,0,0,0,0,0,0,0,0,0,0,0,0,0,0,0,0,0,0,0,0,0,0,0,0,0,0,0],"sum_hessian":[1.908E3,8.9E1,1.819E3,4.9E1,4E1,4.4E1,1.775E3,1E1,3.9E1,3.5E1,5E0,1.7E1,2.7E1,2.8E2,1.495E3,2E0,3.7E1,3.2E1,3E0,3E0,1.4E1,2.3E1,4E0,1.19E2,1.61E2,5.99E2,8.96E2,1E0,3.6E1,1.3E1,1E0,1.1E1,1.2E1,3E0,1E0,1.1E1,1.08E2,1.1E2,5.1E1,3.15E2,2.84E2,2.65E2,6.31E2,1E0,1.1E1,8E0,3E0,2.1E1,8.7E1,1.8E1,9.2E1,5E1,1E0,8.8E1,2.27E2,1E0,2.83E2,1.28E2,1.37E2,1E0,6.3E2],"tree_param":{"num_deleted":"0","num_feature":"40","num_nodes":"61","size_leaf_vector":"1"}},{"base_weights":[-1.0604457E0,6.1910583E2,-3.1626657E1,7.938205E2,4.096777E2,1.7817017E2,-3.690681E1,4.1732584E2,9.623723E-2,2.8799005E2,4.7816617E2,1.1890786E2,2.4630266E2,1.2250278E1,-4.6078735E1,5.149762E-2,1.3315625E-2,1.615624E-2,3.2004886E2,1.5426351E-2,5.589833E-2,1.3585524E2,2.05578E1,1.1205712E2,3.1348098E-2,4.2609665E1,-4.73738E-1,-3.043433E1,-5.564106E1,1.1626291E-2,3.9991092E-2,2.1648366E-2,1.2557976E-2,3.2688268E-3,-6.330977E-4,1.6256137E-2,5.20036E-3,1.0424347E2,3.0724464E1,1.3882705E1,-1.0446235E1,-2.4555431E1,-3.7646313E1,-4.8307175E1,-5.8501972E1,1.2881129E-2,4.666108E-3,3.5360607E-4,4.5232163E-3,2.1283564E-4,3.0408313E-3,-2.5905904E-3,-4.2611972E-4,-1.6505218E-3,-3.2830886E-3,7.4039754E-3,-4.400396E-3,-1.13123366E-4,-5.569876E-3,-9.774718E-4,-6.728289E-3],"categories":[1,2,3,4,5,6,7,8,9,10,11,12,13,14,15,16,18,22,23,24,27,28,29,30,31,34,35,37,38,39,41,42,45,46,47,48,49,50,51,52,53,55,56,57,59,60,62,63,65,67,68,69,70,71,72,73,75,76,79,80,81,82,83,84,85,86,88,90,91,92,93,94,95,97,98,99,101,102,103,104,105,107,109,110,112,113,114,115,116,117,1,2,3,4,5,6,7,8,9,10,11,12,13,14,15,16,17,18,19,22,23,24,25,27,28,29,30,31,34,35,36,37,38,39,40,41,42,45,46,47,48,49,50,51,52,53,54,55,56,57,58,59,60,62,63,64,65,67,68,69,70,71,72,73,74,75,76,79,80,81,82,83,84,85,86,88,89,90,91,92,93,94,95,97,98,99,100,101,102,103,104,105,107,108,109,110,111,112,113,114,115,116,117,0,1,4,5,6,7,8,9,10,11,13,15,16,17,18,19,20,21,22,23,25,26,27,28,29,30,31,32,33,34,35,36,37,38,39,40,41,42,43,44,45,46,48,49,50,51,52,53,54,55,56,57,58,59,60,61,62,63,64,65,66,67,68,69,70,71,74,75,76,77,78,79,80,83,84,85,86,87,88,89,90,91,92,93,94,95,96,97,98,99,100,101,102,103,104,105,106,108,109,110,111,112,113,114,115,116,1,4,5,6,7,8,9,10,11,13,15,16,18,27,28,29,30,34,35,38,39,41,46,48,49,50,51,53,55,56,57,59,60,62,63,65,67,69,71,75,76,79,80,84,85,86,88,90,91,92,93,94,97,98,99,102,103,104,105,110,112,113,114,115,116,0,1,2,3,4,5,6,7,8,9,10,11,12,13,14,15,16,17,18,19,20,21,22,23,24,25,27,28,29,30,31,34,35,36,37,38,39,40,41,42,43,44,45,46,47,48,49,50,51,52,53,54,55,56,57,58,59,60,61,62,63,64,65,66,67,68,69,70,71,72,73,74,75,76,77,78,79,80,81,82,83,84,85,86,87,88,89,90,91,92,93,94,95,96,97,98,99,100,101,102,103,104,105,107,108,109,110,111,112,113,114,115,116,117,1,6,7,9,10,13,15,16,28,30,35,38,39,41,46,49,50,51,55,56,62,63,71,75,76,79,80,84,85,90,92,93,94,97,102,103,104,113,114,115,0,1,2,3,4,5,6,7,8,9,10,11,12,13,14,15,16,17,18,19,20,21,22,23,24,25,26,27,28,29,30,31,32,33,34,35,36,37,38,39,40,41,42,43,44,45,46,48,49,50,51,52,53,54,55,56,57,58,59,60,61,62,63,64,65,66,67,68,69,70,71,73,74,75,76,77,78,79,80,81,82,83,84,85,86,87,88,89,90,91,92,93,94,95,96,97,98,99,100,101,102,103,104,105,106,107,108,109,110,111,112,113,114,115,116,117,22,23,68,70,109,5,8,27,34,48,59,65,69,110,112,6,7,10,28,30,35,39,46,49,50,51,56,63,71,75,76,79,84,90,92,93,94,97,102,103,104,113,114,115],"categories_nodes":[0,1,2,6,7,14,21,26,27,28],"categories_segments":[0,90,193,299,364,478,518,634,639,649],"categories_sizes":[90,103,106,65,114,40,116,5,10,29],"default_left":[0,0,0,0,0,0,0,0,0,0,0,0,0,0,1,0,0,0,0,0,0,0,0,0,0,0,1,1,1,0,0,0,0,0,0,0,0,0,0,0,0,0,0,0,0,0,0,0,0,0,0,0,0,0,0,0,0,0,0,0,0],"id":11,"left_children":[1,3,5,7,9,11,13,15,-1,17,19,21,23,25,27,-1,-1,-1,29,-1,-1,31,33,35,-1,37,39,41,43,-1,-1,-1,-1,-1,-1,-1,-1,45,47,49,51,53,55,57,59,-1,-1,-1,-1,-1,-1,-1,-1,-1,-1,-1,-1,-1,-1,-1,-1],"loss_changes":[3.6320576E7,2.967904E6,2.0293438E6,4.4284E5,2.20663E5,1.5240862E5,8.040065E5,1.3288125E4,0E0,4.0029375E4,9.6385E3,4.0543312E4,4.0729375E4,1.085686E5,2.23001E5,0E0,0E0,0E0,5.06925E4,0E0,0E0,1.011075E4,1.1858105E3,3.4268398E3,0E0,5.759717E4,2.863577E4,2.3327562E4,1.6708E4,0E0,0E0,0E0,0E0,0E0,0E0,0E0,0E0,1.9615781E3,1.6851234E4,1.2366033E4,9.537972E3,1.2618703E4,1.95375E4,2.1533125E3,1.57875E3,0E0,0E0,0E0,0E0,0E0,0E0,0E0,0E0,0E0,0E0,0E0,0E0,0E0,0E0,0E0,0E0],"parents":[2147483647,0,0,1,1,2,2,3,3,4,4,5,5,6,6,7,7,9,9,10,10,11,11,12,12,13,13,14,14,18,18,21,21,22,22,23,23,25,25,26,26,27,27,28,28,37,37,38,38,39,39,40,40,41,41,42,42,43,43,44,44],"right_children":[2,4,6,8,10,12,14,16,-1,18,20,22,24,26,28,-1,-1,-1,30,-1,-1,32,34,36,-1,38,40,42,44,-1,-1,-1,-1,-1,-1,-1,-1,46,48,50,52,54,56,58,60,-1,-1,-1,-1,-1,-1,-1,-1,-1,-1,-1,-1,-1,-1,-1,-1],"split_conditions":[1E-45,1E-45,1E-45,4.2E1,5.02E1,3.345E0,1E-45,1E-45,9.623723E-2,8.859275E4,1.79772E1,7.8863E1,1.12E1,7.0815E1,1E-45,5.149762E-2,1.3315625E-2,1.615624E-2,2.88E1,1.5426351E-2,5.589833E-2,1E-45,2.017E3,2.011E3,3.1348098E-2,1.0073E1,1E-45,1E-45,1E-45,1.1626291E-2,3.9991092E-2,2.1648366E-2,1.2557976E-2,3.2688268E-3,-6.330977E-4,1.6256137E-2,5.20036E-3,2.003E3,1.993E3,3.4634E1,2.54E1,1.996E3,4.8778E1,7.4346E1,7.13E1,1.2881129E-2,4.666108E-3,3.5360607E-4,4.5232163E-3,2.1283564E-4,3.0408313E-3,-2.5905904E-3,-4.2611972E-4,-1.6505218E-3,-3.2830886E-3,7.4039754E-3,-4.400396E-3,-1.13123366E-4,-5.569876E-3,-9.774718E-4,-6.728289E-3],"split_indices":[2,2,2,4,4,17,2,2,0,23,36,7,21,7,2,0,0,0,4,0,0,2,0,0,0,13,2,2,2,0,0,0,0,0,0,0,0,0,0,13,19,0,7,7,8,0,0,0,0,0,0,0,0,0,0,0,0,0,0,0,0],"split_type":[1,1,1,0,0,0,1,1,0,0,0,0,0,0,1,0,0,0,0,0,0,1,0,0,0,0,1,1,1,0,0,0,0,0,0,0,0,0,0,0,0,0,0,0,0,0,0,0,0,0,0,0,0,0,0,0,0,0,0,0,0],"sum_hessian":[1.914E3,8.9E1,1.825E3,4.7E1,4.2E1,4.4E1,1.781E3,6E0,4.1E1,1.7E1,2.5E1,2.5E1,1.9E1,2.8E2,1.501E3,5E0,1E0,4E0,1.3E1,1E0,2.4E1,2.1E1,4E0,4E0,1.5E1,8.2E1,1.98E2,5.71E2,9.3E2,2E0,1.1E1,5E0,1.6E1,3E0,1E0,2E0,2E0,1.2E1,7E1,8.1E1,1.17E2,3.17E2,2.54E2,2.66E2,6.64E2,1E1,2E0,1.7E1,5.3E1,4.2E1,3.9E1,4.1E1,7.6E1,9.1E1,2.26E2,1E0,2.53E2,1E0,2.65E2,1E0,6.63E2],"tree_param":{"num_deleted":"0","num_feature":"40","num_nodes":"61","size_leaf_vector":"1"}},{"base_weights":[-6.624926E-1,6.332274E2,-3.1558187E1,8.4388403E2,4.4404068E2,1.77849E2,-3.6708134E1,1.2836249E-1,7.1964545E2,4.7198288E2,1.8970653E-2,2.4758243E2,1.2004961E2,1.2326339E1,-4.58899E1,8.454612E-2,1.331486E-2,4.904406E2,1.8932806E-2,1.3467128E2,2.8933594E2,1.37205E2,2.0555967E1,-1.2640252E0,3.8670834E1,-3.033331E1,-5.5615723E1,1.5425466E-2,5.698257E-2,1.8540777E-2,5.1999614E-3,3.6218636E-2,1.1242306E-2,1.1278965E-2,1.9221794E-2,3.2685455E-3,-6.3306134E-4,1.9157877E1,-1.0826917E1,1.0518411E2,2.8825775E1,-2.451943E1,-3.739455E1,-4.6165646E1,-5.778045E1,5.110235E-3,1.3672148E-3,9.6071296E-4,-1.4802135E-3,1.3101409E-2,4.6657505E-3,5.15896E-3,1.8492524E-3,-1.656792E-3,-3.2829223E-3,7.40355E-3,-4.3699024E-3,-5.4381355E-3,-3.003933E-3,-9.774158E-4,-6.6444953E-3],"categories":[1,2,3,4,5,6,7,8,9,10,11,12,13,14,15,16,18,22,23,24,27,28,29,30,31,34,35,38,39,41,42,45,46,47,48,49,50,51,52,53,55,56,57,59,60,62,63,65,67,68,69,70,71,72,73,75,76,79,80,81,82,83,84,85,86,88,90,91,92,93,94,95,97,98,99,101,102,103,104,105,107,109,110,112,113,114,115,116,117,0,1,2,3,4,5,6,7,8,9,10,11,12,13,14,15,16,17,18,19,22,23,24,25,26,27,28,29,30,31,34,35,36,37,38,39,40,41,42,44,45,46,47,48,49,50,51,52,53,54,55,56,57,58,59,60,62,63,64,65,67,68,69,70,71,72,73,74,75,76,79,80,81,82,83,84,85,86,88,89,90,91,92,93,94,95,97,98,99,100,101,102,103,104,105,107,108,109,110,111,112,113,114,115,116,117,0,1,4,5,6,7,8,9,10,11,13,15,16,17,18,19,20,21,22,23,25,26,27,28,29,30,31,32,33,34,35,36,37,38,39,40,41,42,43,44,45,46,48,49,50,51,52,53,54,55,56,57,58,59,60,61,62,63,64,65,66,67,68,69,70,71,74,75,76,77,78,79,80,83,84,85,86,87,88,89,90,91,92,93,94,95,96,97,98,99,100,101,102,103,104,105,106,108,109,110,111,112,113,114,115,116,0,1,2,3,4,5,6,7,8,9,10,11,12,13,14,15,16,17,18,19,20,22,23,24,25,26,27,28,29,30,31,33,34,35,36,37,38,39,40,41,42,43,44,45,46,47,48,49,50,51,52,53,54,55,56,57,58,59,60,61,62,63,64,65,66,67,68,69,70,71,72,73,74,75,76,77,79,80,81,82,83,84,85,86,87,88,89,90,91,92,93,94,95,97,98,99,100,101,102,103,104,105,106,107,108,109,110,111,112,113,114,115,116,117,0,1,2,3,4,5,6,7,8,9,10,11,13,14,15,16,17,18,19,20,21,22,23,25,26,27,28,29,30,31,32,33,34,35,36,37,38,39,40,41,42,43,44,45,46,48,49,50,51,52,53,54,55,56,57,58,59,60,61,62,63,64,65,66,67,68,69,70,71,72,74,75,76,77,78,79,80,81,82,83,84,85,86,87,88,89,90,91,92,93,94,95,96,97,98,99,100,101,102,103,104,105,106,108,109,110,111,112,113,114,115,116,1,4,5,6,7,8,9,10,11,13,15,16,18,27,28,29,30,34,35,38,39,41,46,48,49,50,51,53,55,56,57,59,60,62,63,65,67,69,71,75,76,79,80,84,85,86,88,90,91,92,93,94,97,98,99,102,103,104,105,110,112,113,114,115,116,1,6,7,9,10,13,15,16,28,30,35,38,39,41,46,49,50,51,55,56,62,63,71,75,76,79,80,84,85,90,92,93,94,97,102,103,104,113,114,115,22,23,31,68,70,109,5,8,27,34,48,59,65,69,110,112,6,7,10,16,28,30,35,39,46,49,50,51,55,56,62,63,71,75,76,79,84,90,92,93,94,97,102,103,104,113,114,115],"categories_nodes":[0,1,2,3,5,6,14,23,25,26],"categories_segments":[0,89,195,301,415,527,592,632,638,648],"categories_sizes":[89,106,106,114,112,65,40,6,10,32],"default_left":[0,0,0,0,0,0,0,0,1,1,0,0,0,0,1,0,0,0,0,0,1,0,0,1,0,1,1,0,0,0,0,0,0,0,0,0,0,0,1,0,0,0,0,1,0,0,0,0,0,0,0,0,0,0,0,0,0,0,0,0,0],"id":12,"left_children":[1,3,5,7,9,11,13,-1,15,17,-1,19,21,23,25,-1,-1,27,-1,29,31,33,35,37,39,41,43,-1,-1,-1,-1,-1,-1,-1,-1,-1,-1,45,47,49,51,53,55,57,59,-1,-1,-1,-1,-1,-1,-1,-1,-1,-1,-1,-1,-1,-1,-1,-1],"loss_changes":[3.7504656E7,3.172236E6,1.9757526E6,5.88638E5,3.03947E5,1.4762212E5,8.0331375E5,0E0,2.19071E5,1.68658E5,0E0,5.0609125E4,4.155775E4,1.010137E5,2.255665E5,0E0,0E0,1.4419E4,0E0,9.413492E3,3.3668625E4,9.425156E3,1.1856228E3,3.6727105E4,5.983139E4,2.2893938E4,1.6214E4,0E0,0E0,0E0,0E0,0E0,0E0,0E0,0E0,0E0,0E0,1.0497193E4,5.1605977E3,2.2289219E3,1.667468E4,1.2735172E4,1.9449812E4,2.904625E3,1.51925E3,0E0,0E0,0E0,0E0,0E0,0E0,0E0,0E0,0E0,0E0,0E0,0E0,0E0,0E0,0E0,0E0],"parents":[2147483647,0,0,1,1,2,2,3,3,4,4,5,5,6,6,8,8,9,9,11,11,12,12,13,13,14,14,17,17,19,19,20,20,21,21,22,22,23,23,24,24,25,25,26,26,37,37,38,38,39,39,40,40,41,41,42,42,43,43,44,44],"right_children":[2,4,6,8,10,12,14,-1,16,18,-1,20,22,24,26,-1,-1,28,-1,30,32,34,36,38,40,42,44,-1,-1,-1,-1,-1,-1,-1,-1,-1,-1,46,48,50,52,54,56,58,60,-1,-1,-1,-1,-1,-1,-1,-1,-1,-1,-1,-1,-1,-1,-1,-1],"split_conditions":[1E-45,1E-45,1E-45,1E-45,7.1958E1,1E-45,1E-45,1.2836249E-1,8.34E1,9.24E-1,1.8970653E-2,1.12E1,7.8863E1,3.3E1,1E-45,8.454612E-2,1.331486E-2,1.79772E1,1.8932806E-2,2.013E3,8.795106E1,1.83E1,2.017E3,1E-45,1.0073E1,1E-45,1E-45,1.5425466E-2,5.698257E-2,1.8540777E-2,5.1999614E-3,3.6218636E-2,1.1242306E-2,1.1278965E-2,1.9221794E-2,3.2685455E-3,-6.3306134E-4,2.28E1,1.6495E1,2.003E3,3.122E0,1.996E3,4.8778E1,9E0,7.13E1,5.110235E-3,1.3672148E-3,9.6071296E-4,-1.4802135E-3,1.3101409E-2,4.6657505E-3,5.15896E-3,1.8492524E-3,-1.656792E-3,-3.2829223E-3,7.40355E-3,-4.3699024E-3,-5.4381355E-3,-3.003933E-3,-9.774158E-4,-6.6444953E-3],"split_indices":[2,2,2,2,7,2,2,0,3,18,0,21,7,4,2,0,0,36,0,0,36,16,0,2,13,2,2,0,0,0,0,0,0,0,0,0,0,4,13,0,17,0,7,16,8,0,0,0,0,0,0,0,0,0,0,0,0,0,0,0,0],"split_type":[1,1,1,1,0,1,1,0,0,0,0,0,0,0,1,0,0,0,0,0,0,0,0,1,0,1,1,0,0,0,0,0,0,0,0,0,0,0,0,0,0,0,0,0,0,0,0,0,0,0,0,0,0,0,0,0,0,0,0,0,0],"sum_hessian":[1.913E3,8.8E1,1.825E3,4E1,4.8E1,4.3E1,1.782E3,1E1,3E1,4.3E1,5E0,1.8E1,2.5E1,2.81E2,1.501E3,2.9E1,1E0,4E1,3E0,6E0,1.2E1,2.1E1,4E0,1.86E2,9.5E1,5.79E2,9.22E2,1E0,3.9E1,4E0,2E0,1E1,2E0,1.1E1,1E1,3E0,1E0,5.9E1,1.27E2,1.1E1,8.4E1,3.2E2,2.59E2,1.76E2,7.46E2,1.2E1,4.7E1,1.2E1,1.15E2,9E0,2E0,3.6E1,4.8E1,9.3E1,2.27E2,1E0,2.58E2,1.65E2,1.1E1,1E0,7.45E2],"tree_param":{"num_deleted":"0","num_feature":"40","num_nodes":"61","size_leaf_vector":"1"}},{"base_weights":[1.9754021E-1,6.2972015E2,-3.1642086E1,8.2977704E2,4.3722583E2,1.7966231E2,-3.6859287E1,1.2834908E-1,7.1238934E2,4.8936102E2,2.7193347E2,2.5179881E2,1.2003709E2,1.238141E1,-4.604468E1,8.3517425E-2,1.3314094E-2,4.9709317E2,1.25649925E-2,2.939623E2,1.0704442E-2,1.11491295E2,3.3770435E-2,1.3719061E2,2.0554134E1,4.2839645E1,1.971292E-1,-3.0565603E1,-5.5692223E1,1.5424578E-2,5.7881866E-2,1.2388798E-2,3.2040436E2,1.5313666E-2,5.1995628E-3,1.1277777E-2,1.9219786E-2,3.268264E-3,-6.3302496E-4,1.0309017E2,3.174043E1,1.509561E1,-1.0410239E1,-2.1897396E1,-3.5355934E1,-4.7667706E1,-5.8371662E1,1.0613601E-2,3.8541723E-2,1.2812838E-2,4.665393E-3,1.6334654E-3,4.9815164E-3,2.4490902E-4,3.217836E-3,-2.5699735E-3,-4.02884E-4,4.649092E-3,-2.6432537E-3,-3.0749834E-3,-4.8242435E-3,-5.575539E-3,-3.3468208E-3,-9.773597E-4,-6.713077E-3],"categories":[1,2,3,4,5,6,7,8,9,10,11,12,13,14,15,16,18,22,23,24,27,28,29,30,31,34,35,38,39,41,42,45,46,47,48,49,50,51,52,53,55,56,57,59,60,62,63,65,67,68,69,70,71,72,73,75,76,79,80,81,82,83,84,85,86,88,90,91,92,93,94,95,97,98,99,101,102,103,104,105,107,109,110,112,113,114,115,116,117,1,2,3,4,5,6,7,8,9,10,11,12,13,14,15,16,17,18,19,22,23,24,25,26,27,28,29,30,31,34,35,36,37,38,39,40,41,42,44,45,46,47,48,49,50,51,52,53,54,55,56,57,58,59,60,62,63,64,65,67,68,69,70,71,72,73,74,75,76,79,80,81,82,83,84,85,86,88,89,90,91,92,93,94,95,97,98,99,100,101,102,103,104,105,107,108,109,110,111,112,113,114,115,116,117,0,1,4,5,6,7,8,9,10,11,13,15,16,17,18,19,20,21,22,23,25,26,27,28,29,30,31,32,33,34,35,36,37,38,39,40,41,42,43,44,45,46,48,49,50,51,52,53,54,55,56,57,58,59,60,61,62,63,64,65,66,67,68,69,70,71,74,75,76,77,78,79,80,83,84,85,86,87,88,89,90,91,92,93,94,95,96,97,98,99,100,101,102,103,104,105,106,108,109,110,111,112,113,114,115,116,0,1,2,3,4,5,6,7,8,9,10,11,12,13,14,15,16,17,18,19,20,22,23,24,25,26,27,28,29,30,31,33,34,35,36,37,38,39,40,41,42,43,44,45,46,47,48,49,50,51,52,53,54,55,56,57,58,59,60,61,62,63,64,65,66,67,68,69,70,71,72,73,74,75,76,77,79,80,81,82,83,84,85,86,87,88,89,90,91,92,93,94,95,97,98,99,100,101,102,103,104,105,106,107,108,109,110,111,112,113,114,115,116,117,0,1,2,3,4,5,6,7,8,9,10,11,13,14,15,16,17,18,19,20,21,22,23,25,26,27,28,29,30,31,32,33,34,35,36,37,38,39,40,41,42,43,44,45,46,48,49,50,51,52,53,54,55,56,57,58,59,60,61,62,63,64,65,66,67,68,69,70,71,72,74,75,76,77,78,79,80,81,82,83,84,85,86,87,88,89,90,91,92,93,94,95,96,97,98,99,100,101,102,103,104,105,106,108,109,110,111,112,113,114,115,116,1,4,5,6,7,8,9,10,11,13,15,16,18,27,28,29,30,34,35,38,39,41,46,48,49,50,51,53,55,56,57,59,60,62,63,65,67,69,71,75,76,79,80,84,85,86,88,90,91,92,93,94,97,98,99,102,103,104,105,110,112,113,114,115,116,1,6,7,9,10,13,15,16,28,30,35,38,39,41,46,49,50,51,55,56,62,63,71,75,76,79,80,84,85,90,92,93,94,97,102,103,104,113,114,115,0,1,2,3,4,5,6,7,8,9,10,11,12,13,14,15,16,17,18,19,20,21,22,23,24,25,26,27,28,29,30,31,32,33,34,35,36,37,38,39,40,41,42,43,44,45,46,47,48,49,50,51,52,53,54,55,56,57,58,59,60,61,62,63,64,65,66,67,68,69,71,72,73,74,75,76,77,78,79,80,81,82,83,84,85,86,87,88,89,90,91,92,93,94,95,96,97,98,99,100,101,102,103,104,105,106,107,108,109,110,111,112,113,114,115,116,117,22,23,68,70,109,6,7,10,28,30,35,39,46,49,50,51,55,56,63,71,75,76,79,84,90,92,93,94,97,102,103,104,113,114,115,5,8,27,34,48,53,59,65,69,86,105,110,112],"categories_nodes":[0,1,2,3,5,6,14,25,26,28,44],"categories_segments":[0,89,194,300,414,526,591,631,748,753,783],"categories_sizes":[89,105,106,114,112,65,40,117,5,30,13],"default_left":[0,0,0,0,0,0,0,0,1,1,1,0,0,0,1,0,0,0,0,0,0,0,0,0,0,0,1,0,1,0,0,0,0,0,0,0,0,0,0,0,1,0,0,0,1,1,0,0,0,0,0,0,0,0,0,0,0,0,0,0,0,0,0,0,0],"id":13,"left_children":[1,3,5,7,9,11,13,-1,15,17,19,21,23,25,27,-1,-1,29,-1,31,-1,33,-1,35,37,39,41,43,45,-1,-1,-1,47,-1,-1,-1,-1,-1,-1,49,51,53,55,57,59,61,63,-1,-1,-1,-1,-1,-1,-1,-1,-1,-1,-1,-1,-1,-1,-1,-1,-1,-1],"loss_changes":[3.830352E7,3.1801E6,2.0119204E6,6.88576E5,2.89186E5,1.5902562E5,8.038465E5,0E0,2.11126E5,5.1408E4,2.77405E4,7.958275E4,4.154878E4,1.0390283E5,2.21852E5,0E0,0E0,1.7732E4,0E0,2.45085E4,0E0,2.6315312E3,0E0,9.423219E3,1.185435E3,5.022658E4,3.1921916E4,2.3184875E4,1.702025E4,0E0,0E0,0E0,3.372625E3,0E0,0E0,0E0,0E0,0E0,0E0,1.7958438E3,1.3432289E4,1.4002223E4,9.66373E3,1.5330219E4,1.9966625E4,2.3613125E3,1.56825E3,0E0,0E0,0E0,0E0,0E0,0E0,0E0,0E0,0E0,0E0,0E0,0E0,0E0,0E0,0E0,0E0,0E0,0E0],"parents":[2147483647,0,0,1,1,2,2,3,3,4,4,5,5,6,6,8,8,9,9,10,10,11,11,12,12,13,13,14,14,17,17,19,19,21,21,23,23,24,24,25,25,26,26,27,27,28,28,32,32,39,39,40,40,41,41,42,42,43,43,44,44,45,45,46,46],"right_children":[2,4,6,8,10,12,14,-1,16,18,20,22,24,26,28,-1,-1,30,-1,32,-1,34,-1,36,38,40,42,44,46,-1,-1,-1,48,-1,-1,-1,-1,-1,-1,50,52,54,56,58,60,62,64,-1,-1,-1,-1,-1,-1,-1,-1,-1,-1,-1,-1,-1,-1,-1,-1,-1,-1],"split_conditions":[1E-45,1E-45,1E-45,1E-45,6.6098E1,1E-45,1E-45,1.2834908E-1,8.34E1,9.3E-1,7.49E1,1.12E1,7.8863E1,7.0815E1,1E-45,8.3517425E-2,1.3314094E-2,1.79772E1,1.25649925E-2,6.979492E4,1.0704442E-2,2.013E3,3.3770435E-2,1.83E1,2.017E3,1E-45,1E-45,1.998E3,1E-45,1.5424578E-2,5.7881866E-2,1.2388798E-2,2.88E1,1.5313666E-2,5.1995628E-3,1.1277777E-2,1.9219786E-2,3.268264E-3,-6.3302496E-4,2.003E3,4.9563E1,3.4634E1,2.54E1,6.4976E1,1E-45,9E0,7.13E1,1.0613601E-2,3.8541723E-2,1.2812838E-2,4.665393E-3,1.6334654E-3,4.9815164E-3,2.4490902E-4,3.217836E-3,-2.5699735E-3,-4.02884E-4,4.649092E-3,-2.6432537E-3,-3.0749834E-3,-4.8242435E-3,-5.575539E-3,-3.3468208E-3,-9.773597E-4,-6.713077E-3],"split_indices":[2,2,2,2,7,2,2,0,3,18,10,21,7,7,2,0,0,36,0,23,0,0,0,16,0,2,2,0,2,0,0,0,4,0,0,0,0,0,0,0,13,13,19,7,2,16,8,0,0,0,0,0,0,0,0,0,0,0,0,0,0,0,0,0,0],"split_type":[1,1,1,1,0,1,1,0,0,0,0,0,0,0,1,0,0,0,0,0,0,0,0,0,0,1,1,0,1,0,0,0,0,0,0,0,0,0,0,0,0,0,0,0,1,0,0,0,0,0,0,0,0,0,0,0,0,0,0,0,0,0,0,0,0],"sum_hessian":[1.909E3,9.1E1,1.818E3,4.3E1,4.8E1,4.3E1,1.775E3,1E1,3.3E1,3.5E1,1.3E1,1.8E1,2.5E1,2.79E2,1.496E3,3.2E1,1E0,3.4E1,1E0,1.1E1,2E0,5E0,1.3E1,2.1E1,4E0,7.9E1,2E2,5.76E2,9.2E2,1E0,3.3E1,2E0,9E0,3E0,2E0,1.1E1,1E1,3E0,1E0,1.1E1,6.8E1,8.3E1,1.17E2,2.07E2,3.69E2,2.35E2,6.85E2,1E0,8E0,9E0,2E0,2.8E1,4E1,4.2E1,4.1E1,4.2E1,7.5E1,3E0,2.04E2,1.63E2,2.06E2,2.23E2,1.2E1,1E0,6.84E2],"tree_param":{"num_deleted":"0","num_feature":"40","num_nodes":"65","size_leaf_vector":"1"}},{"base_weights":[8.744289E-1,6.350834E2,-3.1444643E1,8.3646643E2,4.3717883E2,1.8019075E2,-3.6896206E1,1.2833568E-1,7.2438055E2,4.893072E2,2.719074E2,2.4610168E2,1.20024574E2,1.2488465E1,-4.6123005E1,8.488642E-2,1.331333E-2,4.9703815E2,1.2564271E-2,2.9393365E2,1.0703621E-2,1.3464896E2,2.8170618E2,1.3717625E2,2.0552303E1,4.3091934E1,-1.2140026E-1,-3.0540136E1,-5.5640953E1,1.5423692E-2,5.787541E-2,1.2387849E-2,3.2037247E2,1.8537669E-2,5.199164E-3,3.4749903E-2,1.1238857E-2,1.1276591E-2,1.9217778E-2,3.2679827E-3,-6.329886E-4,1.0421148E2,3.1125565E1,1.4915227E1,-1.0696982E1,-2.474497E1,-3.7474792E1,-4.8327827E1,-5.849783E1,1.0612992E-2,3.8537785E-2,1.2877078E-2,4.6650353E-3,3.7216826E-4,4.596517E-3,2.1283205E-4,3.245709E-3,-2.5452187E-3,-4.4034256E-4,-1.6785861E-3,-3.310459E-3,7.4028578E-3,-4.379726E-3,-5.642913E-3,-3.3464658E-3,-9.773036E-4,-6.7278235E-3],"categories":[1,2,3,4,5,6,7,8,9,10,11,12,13,14,15,16,18,22,23,24,27,28,29,30,31,34,35,38,39,41,42,45,46,47,48,49,50,51,52,53,55,56,57,59,60,62,63,65,67,68,69,70,71,72,73,75,76,79,80,81,82,83,84,85,86,88,90,91,92,93,94,95,97,98,99,101,102,103,104,105,107,109,110,112,113,114,115,116,117,1,2,3,4,5,6,7,8,9,10,11,12,13,14,15,16,17,18,19,22,23,24,25,26,27,28,29,30,31,34,35,36,37,38,39,40,41,42,44,45,46,47,48,49,50,51,52,53,54,55,56,57,58,59,60,62,63,64,65,67,68,69,70,71,72,73,74,75,76,79,80,81,82,83,84,85,86,88,89,90,91,92,93,94,95,97,98,99,100,101,102,103,104,105,107,108,109,110,111,112,113,114,115,116,117,0,1,4,5,6,7,8,9,10,11,13,15,16,17,18,19,20,21,22,23,25,26,27,28,29,30,31,32,33,34,35,36,37,38,39,40,41,42,43,44,45,46,48,49,50,51,52,53,54,55,56,57,58,59,60,61,62,63,64,65,66,67,68,69,70,71,74,75,76,77,78,79,80,83,84,85,86,87,88,89,90,91,92,93,94,95,96,97,98,99,100,101,102,103,104,105,106,108,109,110,111,112,113,114,115,116,0,1,2,3,4,5,6,7,8,9,10,11,12,13,14,15,16,17,18,19,20,22,23,24,25,26,27,28,29,30,31,33,34,35,36,37,38,39,40,41,42,43,44,45,46,47,48,49,50,51,52,53,54,55,56,57,58,59,60,61,62,63,64,65,66,67,68,69,70,71,72,73,74,75,76,77,79,80,81,82,83,84,85,86,87,88,89,90,91,92,93,94,95,97,98,99,100,101,102,103,104,105,106,107,108,109,110,111,112,113,114,115,116,117,0,1,2,3,4,5,6,7,8,9,10,11,13,14,15,16,17,18,19,20,21,22,23,25,26,27,28,29,30,31,32,33,34,35,36,37,38,39,40,41,42,43,44,45,46,48,49,50,51,52,53,54,55,56,57,58,59,60,61,62,63,64,65,66,67,68,69,70,71,72,74,75,76,77,78,79,80,81,82,83,84,85,86,87,88,89,90,91,92,93,94,95,96,97,98,99,100,101,102,103,104,105,106,108,109,110,111,112,113,114,115,116,1,4,5,6,7,8,9,10,11,13,15,16,18,27,28,29,30,34,35,38,39,41,46,48,49,50,51,53,55,56,57,59,60,62,63,65,67,69,71,75,76,79,80,84,85,86,88,90,91,92,93,94,97,98,99,102,103,104,105,110,112,113,114,115,116,1,6,7,9,10,13,15,16,28,30,35,38,39,41,46,49,50,51,55,56,62,63,71,75,76,79,80,84,85,90,92,93,94,97,102,103,104,113,114,115,22,23,68,70,109,5,8,27,34,48,59,65,69,110,112,6,7,10,28,30,35,39,46,49,50,51,56,63,71,75,76,79,84,90,92,93,94,97,102,103,104,113,114,115],"categories_nodes":[0,1,2,3,5,6,14,26,27,28],"categories_segments":[0,89,194,300,414,526,591,631,636,646],"categories_sizes":[89,105,106,114,112,65,40,5,10,29],"default_left":[0,0,0,0,0,0,0,0,1,1,1,0,0,0,1,0,0,0,0,0,0,0,1,0,0,0,1,1,1,0,0,0,0,0,0,0,0,0,0,0,0,0,0,0,0,0,0,1,0,0,0,0,0,0,0,0,0,0,0,0,0,0,0,0,0,0,0],"id":14,"left_children":[1,3,5,7,9,11,13,-1,15,17,19,21,23,25,27,-1,-1,29,-1,31,-1,33,35,37,39,41,43,45,47,-1,-1,-1,49,-1,-1,-1,-1,-1,-1,-1,-1,51,53,55,57,59,61,63,65,-1,-1,-1,-1,-1,-1,-1,-1,-1,-1,-1,-1,-1,-1,-1,-1,-1,-1],"loss_changes":[3.9312804E7,3.340792E6,2.112231E6,6.06104E5,2.89104E5,1.5287975E5,8.1165475E5,0E0,2.22952E5,5.1387E4,2.7733062E4,4.5401125E4,4.153972E4,1.08444734E5,2.207765E5,0E0,0E0,1.7718E4,0E0,2.450075E4,0E0,9.409961E3,2.7683E4,9.421344E3,1.1852473E3,5.6729438E4,3.1963764E4,2.201975E4,1.6603E4,0E0,0E0,0E0,3.3683125E3,0E0,0E0,0E0,0E0,0E0,0E0,0E0,0E0,1.9590312E3,1.7211227E4,1.4406723E4,9.1950205E3,1.2530172E4,1.9474906E4,2.615375E3,1.57875E3,0E0,0E0,0E0,0E0,0E0,0E0,0E0,0E0,0E0,0E0,0E0,0E0,0E0,0E0,0E0,0E0,0E0,0E0],"parents":[2147483647,0,0,1,1,2,2,3,3,4,4,5,5,6,6,8,8,9,9,10,10,11,11,12,12,13,13,14,14,17,17,19,19,21,21,22,22,23,23,24,24,25,25,26,26,27,27,28,28,32,32,41,41,42,42,43,43,44,44,45,45,46,46,47,47,48,48],"right_children":[2,4,6,8,10,12,14,-1,16,18,20,22,24,26,28,-1,-1,30,-1,32,-1,34,36,38,40,42,44,46,48,-1,-1,-1,50,-1,-1,-1,-1,-1,-1,-1,-1,52,54,56,58,60,62,64,66,-1,-1,-1,-1,-1,-1,-1,-1,-1,-1,-1,-1,-1,-1,-1,-1,-1,-1],"split_conditions":[1E-45,1E-45,1E-45,1E-45,6.6098E1,1E-45,1E-45,1.2833568E-1,8.34E1,9.3E-1,7.49E1,1.12E1,7.8863E1,7.0815E1,1E-45,8.488642E-2,1.331333E-2,1.79772E1,1.2564271E-2,6.979492E4,1.0703621E-2,2.013E3,8.795106E1,1.83E1,2.017E3,1.0073E1,1E-45,1E-45,1E-45,1.5423692E-2,5.787541E-2,1.2387849E-2,2.88E1,1.8537669E-2,5.199164E-3,3.4749903E-2,1.1238857E-2,1.1276591E-2,1.9217778E-2,3.2679827E-3,-6.329886E-4,2.003E3,1.993E3,3.4634E1,2.54E1,1.996E3,4.8778E1,9E0,7.13E1,1.0612992E-2,3.8537785E-2,1.2877078E-2,4.6650353E-3,3.7216826E-4,4.596517E-3,2.1283205E-4,3.245709E-3,-2.5452187E-3,-4.4034256E-4,-1.6785861E-3,-3.310459E-3,7.4028578E-3,-4.379726E-3,-5.642913E-3,-3.3464658E-3,-9.773036E-4,-6.7278235E-3],"split_indices":[2,2,2,2,7,2,2,0,3,18,10,21,7,7,2,0,0,36,0,23,0,0,36,16,0,13,2,2,2,0,0,0,4,0,0,0,0,0,0,0,0,0,0,13,19,0,7,16,8,0,0,0,0,0,0,0,0,0,0,0,0,0,0,0,0,0,0],"split_type":[1,1,1,1,0,1,1,0,0,0,0,0,0,0,1,0,0,0,0,0,0,0,0,0,0,0,1,1,1,0,0,0,0,0,0,0,0,0,0,0,0,0,0,0,0,0,0,0,0,0,0,0,0,0,0,0,0,0,0,0,0,0,0,0,0,0,0],"sum_hessian":[1.916E3,9.2E1,1.824E3,4.4E1,4.8E1,4.5E1,1.779E3,1E1,3.4E1,3.5E1,1.3E1,2E1,2.5E1,2.8E2,1.499E3,3.3E1,1E0,3.4E1,1E0,1.1E1,2E0,6E0,1.4E1,2.1E1,4E0,8.1E1,1.99E2,5.7E2,9.29E2,1E0,3.3E1,2E0,9E0,4E0,2E0,1.2E1,2E0,1.1E1,1E1,3E0,1E0,1.2E1,6.9E1,8.2E1,1.17E2,3.13E2,2.57E2,2.66E2,6.63E2,1E0,8E0,1E1,2E0,1.7E1,5.2E1,4.2E1,4E1,4.3E1,7.4E1,9.1E1,2.22E2,1E0,2.56E2,2.54E2,1.2E1,1E0,6.62E2],"tree_param":{"num_deleted":"0","num_feature":"40","num_nodes":"67","size_leaf_vector":"1"}},{"base_weights":[-5.98144E-2,6.326017E2,-3.223494E1,8.383002E2,4.349826E2,5.4216454E1,-4.3745213E1,1.2832227E-1,7.2349475E2,4.92409E2,2.7198886E2,1.7769368E2,2.8098522E1,-2.678265E1,-5.5209576E1,8.483206E-2,1.3312566E-2,1.256355E-2,5.004589E2,2.9233496E2,1.0702802E-2,2.3617354E2,1.27085884E2,1.127765E1,4.423339E1,-1.9476364E1,-3.4938152E1,-4.701807E1,-5.8300888E1,1.5422806E-2,5.8303777E-2,1.23869E-2,3.1608182E2,1.0921615E-2,2.6142465E2,8.8442924E1,1.8911894E-2,1.9504234E1,-3.0243628E0,1.0096072E2,3.3344875E1,-1.0145312E1,-2.3328806E1,-4.4032345E1,-2.6694897E1,-5.085194E1,-4.3036892E1,-9.772475E-4,-6.7049237E-3,1.0612382E-2,3.7822556E-2,3.1476427E-2,6.364199E-3,1.3167915E-3,1.0788215E-2,1.1506992E-3,4.1453945E-3,8.6873985E-4,-1.5432205E-3,1.306299E-2,4.6735043E-3,5.7184906E-3,2.121735E-3,-3.3469466E-4,-2.2978096E-3,-2.7389769E-3,5.745594E-3,-4.255847E-3,-5.4074917E-3,7.4024335E-3,-3.1778992E-3,-5.862623E-3,-1.605303E-3,-2.4956525E-3,-5.057033E-3],"categories":[1,2,3,4,5,6,7,8,9,10,11,12,13,14,15,16,18,22,23,24,27,28,29,30,31,34,35,38,39,41,42,45,46,47,48,49,50,51,52,53,55,56,57,59,60,62,63,65,67,68,69,70,71,72,73,75,76,79,80,81,82,83,84,85,86,88,90,91,92,93,94,95,97,98,99,101,102,103,104,105,107,109,110,112,113,114,115,116,1,2,3,4,5,6,7,8,9,10,11,12,13,14,15,16,17,18,19,22,23,24,25,26,27,28,29,30,31,34,35,36,37,38,39,40,41,42,44,45,46,47,48,49,50,51,52,53,54,55,56,57,58,59,60,62,63,64,65,67,68,69,70,71,72,73,74,75,76,79,80,81,82,83,84,85,86,88,89,90,91,92,93,94,95,97,98,99,100,101,102,103,104,105,107,108,109,110,111,112,113,114,115,116,117,0,1,4,5,6,7,8,9,10,11,13,15,16,17,18,19,20,21,22,23,25,26,27,28,29,30,32,33,34,35,36,37,38,39,40,41,43,44,46,48,49,50,51,53,54,55,56,57,58,59,60,61,62,63,64,65,66,67,68,69,71,74,75,76,77,78,79,80,84,85,86,87,88,89,90,91,92,93,94,96,97,98,99,100,102,103,104,105,106,108,109,110,111,112,113,114,115,116,117,0,1,2,3,4,5,6,7,8,9,10,11,12,13,14,15,16,17,18,19,20,22,23,24,25,26,27,28,29,30,31,33,34,35,36,37,38,39,40,41,42,43,44,45,46,47,48,49,50,51,52,53,54,55,56,57,58,59,60,61,62,63,64,65,66,67,68,69,70,71,72,73,74,75,76,77,79,80,81,82,83,84,85,86,87,88,89,90,91,92,93,94,95,97,98,99,100,101,102,103,104,105,106,107,108,109,110,111,112,113,114,115,116,117,0,1,4,5,6,7,8,9,10,11,13,15,16,17,18,19,20,21,22,23,25,26,27,28,29,30,31,32,33,34,35,36,37,38,39,40,41,42,43,44,45,46,48,49,50,51,52,53,54,55,56,57,58,59,60,61,62,63,64,65,66,67,68,69,70,71,74,75,76,77,78,79,80,82,83,84,85,86,87,88,89,90,91,92,93,94,95,96,97,98,99,100,101,102,103,104,105,106,108,109,110,111,112,113,114,115,116,117,1,6,7,8,9,10,13,15,16,28,30,35,38,39,41,46,49,50,51,55,56,62,63,71,75,76,79,80,84,85,90,92,93,94,97,102,103,104,113,114,115,0,1,2,3,4,5,6,7,8,9,10,11,13,14,15,16,17,18,19,20,21,22,23,25,26,27,28,29,30,31,32,33,34,35,36,37,38,39,40,41,42,43,44,45,46,48,49,50,51,52,53,54,55,56,57,58,59,60,61,62,63,64,65,66,67,68,69,70,71,72,74,75,76,77,78,79,80,81,82,83,84,85,86,87,88,89,90,91,92,93,94,95,96,97,98,99,100,101,102,103,104,105,106,108,109,110,111,112,113,114,115,116,117,5,18,27,34,48,53,59,65,69,86,110,112,6,7,10,28,30,35,39,46,49,50,51,55,56,63,71,75,76,79,84,90,92,93,94,97,102,103,104,113,114,115,0,1,2,3,4,5,6,7,8,9,10,11,12,13,14,15,16,17,18,19,20,21,22,23,24,25,26,27,28,29,30,31,32,33,34,35,36,37,38,39,40,41,43,44,46,47,48,49,50,51,53,54,55,56,57,58,59,60,61,62,63,64,65,66,67,68,69,70,71,72,73,74,75,76,77,78,79,80,81,84,85,86,87,88,89,90,91,92,93,94,96,97,98,99,100,102,103,104,105,106,107,108,109,110,111,112,113,114,115,116,117,0,1,2,3,4,5,6,7,8,9,10,11,12,13,14,15,16,17,18,19,20,21,22,23,24,25,26,27,28,29,30,31,32,33,34,35,36,37,38,39,40,41,42,43,44,45,46,47,48,49,50,51,52,53,54,55,56,57,58,59,60,61,62,63,64,65,66,67,68,69,71,72,73,74,75,76,77,78,79,80,81,83,84,85,86,87,88,89,90,91,92,93,94,95,96,97,98,99,100,101,102,103,104,105,106,107,108,109,110,111,112,113,114,115,116,117,4,11,29,57,91,98],"categories_nodes":[0,1,2,3,5,6,11,13,14,23,24,41],"categories_segments":[0,88,193,292,406,514,555,668,680,710,821,937],"categories_sizes":[88,105,99,114,108,41,113,12,30,111,116,6],"default_left":[0,0,0,0,0,0,1,0,1,0,1,0,0,1,1,0,0,0,0,0,0,0,0,0,0,0,0,0,0,0,0,0,0,0,0,0,0,0,0,0,0,1,1,0,0,0,0,0,0,0,0,0,0,0,0,0,0,0,0,0,0,0,0,0,0,0,0,0,0,0,0,0,0,0,0],"id":15,"left_children":[1,3,5,7,9,11,13,-1,15,17,19,21,23,25,27,-1,-1,-1,29,31,-1,33,35,37,39,41,43,45,47,-1,-1,-1,49,-1,51,53,-1,55,57,59,61,63,65,67,69,71,73,-1,-1,-1,-1,-1,-1,-1,-1,-1,-1,-1,-1,-1,-1,-1,-1,-1,-1,-1,-1,-1,-1,-1,-1,-1,-1,-1,-1],"loss_changes":[3.869672E7,3.375148E6,1.8024705E6,5.99452E5,3.24717E5,6.819255E5,3.0908175E5,0E0,2.22284E5,5.3196E4,2.7343375E4,7.9488625E4,4.7539406E4,3.7812406E4,2.1366E4,0E0,0E0,0E0,1.9399E4,2.2882625E4,0E0,3.2158625E4,1.734475E4,1.041278E4,5.222436E4,1.2093273E4,2.1614125E4,1.8715E3,1.5625E3,0E0,0E0,0E0,1.909E3,0E0,1.844425E4,4.387828E3,0E0,8.447322E3,3.7375566E3,6.1284062E3,1.7901688E4,7.211698E3,1.02763125E4,1.2900938E3,1.6046023E4,1.3828125E2,1.9072031E3,0E0,0E0,0E0,0E0,0E0,0E0,0E0,0E0,0E0,0E0,0E0,0E0,0E0,0E0,0E0,0E0,0E0,0E0,0E0,0E0,0E0,0E0,0E0,0E0,0E0,0E0,0E0,0E0],"parents":[2147483647,0,0,1,1,2,2,3,3,4,4,5,5,6,6,8,8,9,9,10,10,11,11,12,12,13,13,14,14,18,18,19,19,21,21,22,22,23,23,24,24,25,25,26,26,27,27,28,28,32,32,34,34,35,35,37,37,38,38,39,39,40,40,41,41,42,42,43,43,44,44,45,45,46,46],"right_children":[2,4,6,8,10,12,14,-1,16,18,20,22,24,26,28,-1,-1,-1,30,32,-1,34,36,38,40,42,44,46,48,-1,-1,-1,50,-1,52,54,-1,56,58,60,62,64,66,68,70,72,74,-1,-1,-1,-1,-1,-1,-1,-1,-1,-1,-1,-1,-1,-1,-1,-1,-1,-1,-1,-1,-1,-1,-1,-1,-1,-1,-1,-1],"split_conditions":[1E-45,1E-45,1E-45,1E-45,6.6098E1,1E-45,1E-45,1.2832227E-1,8.34E1,9.36E-1,7.49E1,1E-45,3.12E1,1E-45,1E-45,8.483206E-2,1.3312566E-2,1.256355E-2,1.79772E1,6.979492E4,1.0702802E-2,8.7E0,1.83E1,1E-45,1E-45,1.996E3,3.53E1,1.97E0,7.13E1,1.5422806E-2,5.8303777E-2,1.23869E-2,2.88E1,1.0921615E-2,5.13E1,2.57E1,1.8911894E-2,7.7605E1,2.659E0,2.003E3,3.122E0,1E-45,1.4304146E3,2.267E1,4.8778E1,9.166E1,2.3E1,-9.772475E-4,-6.7049237E-3,1.0612382E-2,3.7822556E-2,3.1476427E-2,6.364199E-3,1.3167915E-3,1.0788215E-2,1.1506992E-3,4.1453945E-3,8.6873985E-4,-1.5432205E-3,1.306299E-2,4.6735043E-3,5.7184906E-3,2.121735E-3,-3.3469466E-4,-2.2978096E-3,-2.7389769E-3,5.745594E-3,-4.255847E-3,-5.4074917E-3,7.4024335E-3,-3.1778992E-3,-5.862623E-3,-1.605303E-3,-2.4956525E-3,-5.057033E-3],"split_indices":[2,2,2,2,7,2,2,0,3,18,10,2,4,2,2,0,0,0,36,23,0,21,16,2,2,0,19,17,8,0,0,0,4,0,15,4,0,7,17,0,17,2,32,13,7,7,19,0,0,0,0,0,0,0,0,0,0,0,0,0,0,0,0,0,0,0,0,0,0,0,0,0,0,0,0],"split_type":[1,1,1,1,0,1,1,0,0,0,0,1,0,1,1,0,0,0,0,0,0,0,0,1,1,0,0,0,0,0,0,0,0,0,0,0,0,0,0,0,0,1,0,0,0,0,0,0,0,0,0,0,0,0,0,0,0,0,0,0,0,0,0,0,0,0,0,0,0,0,0,0,0,0,0],"sum_hessian":[1.899E3,9.1E1,1.808E3,4.3E1,4.8E1,2.12E2,1.596E3,1E1,3.3E1,3.4E1,1.4E1,3.6E1,1.76E2,6.45E2,9.51E2,3.2E1,1E0,1E0,3.3E1,1.2E1,2E0,1.5E1,2.1E1,8.7E1,8.9E1,3.42E2,3.03E2,2.65E2,6.86E2,1E0,3.2E1,2E0,1E1,3E0,1.2E1,1.2E1,9E0,5.5E1,3.2E1,1.3E1,7.6E1,1.01E2,2.41E2,1.42E2,1.61E2,1.29E2,1.36E2,1E0,6.85E2,1E0,9E0,1.1E1,1E0,1E0,1.1E1,3.6E1,1.9E1,1.6E1,1.6E1,1E1,3E0,3.5E1,4.1E1,5.9E1,4.2E1,2.4E2,1E0,4.7E1,9.5E1,1E0,1.6E2,1.28E2,1E0,7E0,1.29E2],"tree_param":{"num_deleted":"0","num_feature":"40","num_nodes":"75","size_leaf_vector":"1"}},{"base_weights":[-5.205318E-2,6.489973E2,-3.1382986E1,8.3628436E2,4.427038E2,1.7721747E2,-3.6882614E1,1.2830888E-1,7.242198E2,4.763178E2,2.2630917E-2,2.431952E2,1.23761314E2,1.2430467E1,-4.607539E1,8.486749E-2,1.3311801E-2,6.820477E-3,4.8598224E2,1.0920674E-2,2.637459E2,1.401077E2,2.054639E1,-1.446457E0,3.8625553E1,-3.0530447E1,-5.5617607E1,1.5421921E-2,4.9202423E2,2.7330603E2,6.3638333E-3,1.127433E-2,1.68075E2,3.2672347E-3,-6.331902E-4,1.8535948E1,-1.056089E1,1.0713102E2,2.8617516E1,-2.4668314E1,-3.7470127E1,-4.762157E1,-5.8310543E1,5.7779815E-2,2.3487855E-2,3.233057E-2,8.7150205E-3,4.128027E-3,2.023075E-2,5.3628697E-3,1.2586971E-3,8.5086736E-4,-1.4561603E-3,1.2874369E-2,3.0386925E-3,5.2870708E-3,1.7425463E-3,-2.8799789E-3,5.745264E-3,7.4020075E-3,-4.378607E-3,-5.5687143E-3,-3.3456674E-3,-9.771914E-4,-6.706015E-3],"categories":[1,2,3,4,5,6,7,8,9,10,11,12,13,14,15,16,18,22,23,24,27,28,29,30,31,34,35,38,39,41,42,45,46,47,48,49,50,51,52,53,55,56,57,58,59,60,62,63,65,67,68,69,70,71,72,73,75,76,79,80,81,82,83,84,85,86,88,90,91,92,93,94,95,97,98,99,101,102,103,104,105,107,109,110,112,113,114,115,116,117,1,2,3,4,5,6,7,8,9,10,11,12,13,14,15,16,17,18,19,22,23,24,25,26,27,28,29,30,31,34,35,36,37,38,39,40,41,42,44,45,46,47,48,49,50,51,52,53,54,55,56,57,58,59,60,62,63,64,65,67,68,69,70,71,72,73,74,75,76,79,80,81,82,83,84,85,86,88,89,90,91,92,93,94,95,97,98,99,100,101,102,103,104,105,107,108,109,110,111,112,113,114,115,116,117,0,1,4,5,6,7,8,9,10,11,13,15,16,17,18,19,20,21,22,23,25,26,27,28,29,30,31,32,33,34,35,36,37,38,39,40,41,42,43,44,45,46,48,49,50,51,52,53,54,55,56,57,59,60,61,62,63,64,65,66,67,68,69,70,71,74,75,76,77,78,79,80,83,84,85,86,87,88,89,90,91,92,93,94,95,96,97,98,99,100,101,102,103,104,105,106,108,109,110,111,112,113,114,115,116,0,1,2,3,4,5,6,7,8,9,10,11,12,13,14,15,16,17,18,19,20,22,23,24,25,26,27,28,29,30,31,33,34,35,36,37,38,39,40,41,42,43,44,45,46,47,48,49,50,51,52,53,54,55,56,57,58,59,60,61,62,63,64,65,66,67,68,69,70,71,72,73,74,75,76,77,79,80,81,82,83,84,85,86,87,88,89,90,91,92,93,94,95,97,98,99,100,101,102,103,104,105,106,107,108,109,110,111,112,113,114,115,116,117,0,1,2,3,4,5,6,7,8,9,10,11,13,14,15,16,17,18,19,20,21,22,23,25,