{"learner":{"attributes":{"scikit_learn":"{\"_estimator_type\": \"regressor\"}"},"feature_names":["date","setting","Mortality rate, infant (per 1,000 live births)","Survival to age 65, female (% of cohort)","Pregnant women receiving prenatal care (%)","Women's share of population ages 15+ living with HIV (%)","Births attended by skilled health staff (% of total)","Prevalence of overweight (% of adults)","Stillbirth rate (per 1,000 total births)","Fertility rate, total (births per woman)","Prevalence of anemia among pregnant women (%)","School enrollment, secondary (% net) female","income_num"],"feature_types":["float","c","float","float","float","float","float","float","float","float","float","float","float"],"gradient_booster":{"model":{"gbtree_model_param":{"num_parallel_tree":"1","num_trees":"100"},"iteration_indptr":[0,1,2,3,4,5,6,7,8,9,10,11,12,13,14,15,16,17,18,19,20,21,22,23,24,25,26,27,28,29,30,31,32,33,34,35,36,37,38,39,40,41,42,43,44,45,46,47,48,49,50,51,52,53,54,55,56,57,58,59,60,61,62,63,64,65,66,67,68,69,70,71,72,73,74,75,76,77,78,79,80,81,82,83,84,85,86,87,88,89,90,91,92,93,94,95,96,97,98,99,100],"tree_info":[0,0,0,0,0,0,0,0,0,0,0,0,0,0,0,0,0,0,0,0,0,0,0,0,0,0,0,0,0,0,0,0,0,0,0,0,0,0,0,0,0,0,0,0,0,0,0,0,0,0,0,0,0,0,0,0,0,0,0,0,0,0,0,0,0,0,0,0,0,0,0,0,0,0,0,0,0,0,0,0,0,0,0,0,0,0,0,0,0,0,0,0,0,0,0,0,0,0,0,0],"trees":[{"base_weights":[-4.9887757E0,5.623561E2,-3.303382E1,1.9208438E0,3.8718863E2,3.825775E1,-4.3695972E1,2.968799E-1,4.0310876E2,1.1935346E2,2.4537323E1,-2.4321009E1,-5.466138E1,4.011439E-1,1.0772873E0,3.22001E1,1.3283934E2,8.323715E1,1.964497E1,-1.45859375E1,-3.0535465E1,-4.438487E1,-5.8307205E1,1.21095866E-1,-1.5165506E-2,3.690113E-1,1.6789983E-1,8.214972E-3,2.731302E-1,3.1545687E1,6.0581555E0,-2.0705023E1,1.4176736E0,-1.8848547E1,-3.5436443E1,-4.6530674E1,-3.3087227E1,-1.532689E-1,-1.2643287E-1,1.0022677E-1,-1.5219967E-3,-1.6089076E-2,4.15968E-2,-6.846132E-2,-2.5106741E-2,1.0949909E-1,-2.376553E-2,-5.3691056E-2,1.2959778E-1,-9.3028024E-2,5.592361E-2,-1.207936E-1,-2.679827E-2,-3.696608E-2,-8.971447E-2],"categories":[1,2,3,4,5,6,7,8,9,10,12,13,16,19,21,22,26,28,29,30,31,33,34,35,36,37,38,39,41,44,46,47,48,50,51,52,53,54,55,56,58,59,60,61,64,65,67,69,70,71,72,73,74,77,78,79,80,81,82,83,84,85,86,87,88,89,91,92,93,94,95,96,97,98,99,100,101,102,104,105,107,109,110,111,112,113,114,115,116,117,0,1,2,3,4,5,6,7,8,9,10,11,12,13,14,16,17,19,21,22,23,24,25,26,28,29,30,31,33,34,35,36,37,38,39,40,41,44,45,46,47,48,49,50,51,52,53,54,55,56,58,59,60,61,62,64,65,66,67,69,70,71,72,73,74,75,76,77,78,79,80,81,82,83,84,85,86,87,88,89,90,91,92,93,94,95,96,97,98,99,100,101,102,104,105,106,107,108,109,110,111,112,113,114,115,116,117,0,1,2,3,4,5,7,8,9,10,11,13,14,15,16,17,18,19,20,21,22,23,24,25,26,27,28,30,31,32,33,34,35,36,37,38,39,40,42,43,45,46,47,49,50,51,52,53,55,56,57,58,59,60,61,62,63,64,65,66,67,68,69,70,71,73,75,76,77,78,79,80,81,82,85,86,87,88,89,90,91,92,93,94,97,98,100,101,102,103,104,106,107,108,109,110,111,112,113,114,115,116,0,1,2,3,4,5,7,8,9,10,11,13,14,15,16,17,18,19,20,21,22,23,24,25,26,27,28,29,30,31,32,33,34,35,36,37,38,39,40,41,42,43,44,45,46,47,49,50,51,52,53,54,55,56,57,58,59,60,61,62,63,64,65,66,67,68,69,70,71,72,73,75,76,77,78,79,80,81,82,84,85,86,87,88,89,90,91,92,93,94,95,96,97,98,99,100,101,102,103,104,106,107,108,109,110,111,112,113,114,115,116,1,3,4,5,8,9,13,19,33,35,38,39,46,47,50,51,52,53,55,58,64,65,69,73,77,79,80,81,85,86,93,94,100,101,104,109,110,111,112,113,114,7,10,16,26,28,30,34,56,60,78,88,89,91,98,102,107,116,4,5,8,9,19,35,39,46,47,51,52,53,55,58,64,65,69,73,77,79,80,85,86,93,94,100,101,110,111,112,83,0,1,2,3,4,5,6,7,8,9,10,11,12,13,14,15,16,17,18,19,20,21,22,23,24,25,26,27,28,30,31,32,33,34,35,36,37,38,39,40,42,43,45,46,47,48,49,50,51,52,53,54,55,56,57,58,59,60,61,62,63,64,65,66,67,68,69,70,71,73,74,75,76,77,78,79,80,81,82,83,84,85,86,87,88,89,90,91,92,93,94,97,98,99,100,101,102,103,104,105,106,107,108,109,110,111,112,113,114,115,116,117,21,22,59,71,82],"categories_nodes":[0,1,2,5,6,11,12,15,29,32],"categories_segments":[0,90,197,299,410,451,468,498,499,611],"categories_sizes":[90,107,102,111,41,17,30,1,112,5],"default_left":[0,0,0,0,0,0,1,0,0,0,0,1,1,0,0,1,1,0,0,0,0,0,0,0,0,0,0,0,0,0,0,0,1,1,1,1,0,0,0,0,0,0,0,0,0,0,0,0,0,0,0,0,0,0,0],"id":0,"left_children":[1,3,5,-1,7,9,11,-1,13,15,17,19,21,-1,-1,23,25,27,29,31,33,35,37,-1,-1,-1,-1,-1,-1,39,41,43,45,47,49,51,53,-1,-1,-1,-1,-1,-1,-1,-1,-1,-1,-1,-1,-1,-1,-1,-1,-1,-1],"loss_changes":[1.790278E7,1.389894E6,8.16522E5,0E0,7.94425E4,1.5284492E5,1.968905E5,0E0,2.65555E4,1.9229344E4,3.3113625E4,2.00635E4,1.97045E4,0E0,0E0,2.5046792E3,2.1639688E3,1.5818664E4,1.808018E4,1.3151633E4,1.1131203E4,2.33925E3,1.1285E3,0E0,0E0,0E0,0E0,0E0,0E0,1.3954789E4,6.7543877E3,5.904332E3,1.6897621E4,9.390596E3,5.3015156E3,4.5565625E2,3.8513867E2,0E0,0E0,0E0,0E0,0E0,0E0,0E0,0E0,0E0,0E0,0E0,0E0,0E0,0E0,0E0,0E0,0E0,0E0],"parents":[2147483647,0,0,1,1,2,2,4,4,5,5,6,6,8,8,9,9,10,10,11,11,12,12,15,15,16,16,17,17,18,18,19,19,20,20,21,21,22,22,29,29,30,30,31,31,32,32,33,33,34,34,35,35,36,36],"right_children":[2,4,6,-1,8,10,12,-1,14,16,18,20,22,-1,-1,24,26,28,30,32,34,36,38,-1,-1,-1,-1,-1,-1,40,42,44,46,48,50,52,54,-1,-1,-1,-1,-1,-1,-1,-1,-1,-1,-1,-1,-1,-1,-1,-1,-1,-1],"split_conditions":[1E-45,1E-45,1E-45,1.9208438E0,2.781E0,1E-45,1E-45,2.968799E-1,1.993E3,1.5E1,6.897E0,1E-45,1E-45,4.011439E-1,1.0772873E0,1E-45,4.29E1,2.45E1,7.5072E1,2.37E1,1.995E3,5.0238E1,1.05E1,1.21095866E-1,-1.5165506E-2,3.690113E-1,1.6789983E-1,8.214972E-3,2.731302E-1,1E-45,3.4744E1,2.276E0,1E-45,8.40442E1,9.687225E1,2.02E1,7.6823E1,-1.532689E-1,-1.2643287E-1,1.0022677E-1,-1.5219967E-3,-1.6089076E-2,4.15968E-2,-6.846132E-2,-2.5106741E-2,1.0949909E-1,-2.376553E-2,-5.3691056E-2,1.2959778E-1,-9.3028024E-2,5.592361E-2,-1.207936E-1,-2.679827E-2,-3.696608E-2,-8.971447E-2],"split_indices":[1,1,1,0,9,1,1,0,0,8,5,1,1,0,0,1,7,7,3,2,0,5,2,0,0,0,0,0,0,1,5,9,1,11,11,8,3,0,0,0,0,0,0,0,0,0,0,0,0,0,0,0,0,0,0],"split_type":[1,1,1,0,0,1,1,0,0,0,0,1,1,0,0,1,0,0,0,0,0,0,0,0,0,0,0,0,0,1,0,0,1,0,0,0,0,0,0,0,0,0,0,0,0,0,0,0,0,0,0,0,0,0,0],"sum_hessian":[1.123E3,5.2E1,1.071E3,2.4E1,2.8E1,1.39E2,9.32E2,2E0,2.6E1,1.9E1,1.2E2,3.38E2,5.94E2,2E0,2.4E1,3E0,1.6E1,8E0,1.12E2,1.33E2,2.05E2,1.59E2,4.35E2,2E0,1E0,1.3E1,3E0,2E0,6E0,5.9E1,5.3E1,9.6E1,3.7E1,6.2E1,1.43E2,1.31E2,2.8E1,3.89E2,4.6E1,4.8E1,1.1E1,2.4E1,2.9E1,6.2E1,3.4E1,7E0,3E1,6.1E1,1E0,1.42E2,1E0,1.3E2,1E0,3E0,2.5E1],"tree_param":{"num_deleted":"0","num_feature":"13","num_nodes":"55","size_leaf_vector":"1"}},{"base_weights":[-2.7045978E-2,6.560353E2,-2.6015406E1,2.7482855E0,5.2472675E2,2.15279E2,-3.5246777E1,5.4741833E2,2.3949693E-1,2.4321318E2,2.6256013E-1,1.613636E1,-4.6467278E1,1.482146E0,7.2986215E-1,1.2877704E2,2.6906995E2,4.152527E1,-2.3281255E0,-3.1945145E1,-5.679906E1,3.519634E-1,9.9713095E-2,4.4053337E-1,8.046629E-1,2.7467453E-1,3.1202688E1,-6.4231825E0,3.0296413E1,-2.1330881E1,-3.6367367E1,-5.000305E1,-1.5340023E-1,1.1719255E-2,1.0138019E-1,6.125088E-3,-3.365885E-2,1.0446254E-1,1.5594245E-2,7.167333E-2,-6.419232E-2,-6.3457035E-2,-1.081665E-1,-1.368146E-1,-1.0444728E-1],"categories":[1,2,3,4,5,6,7,8,9,10,12,13,14,16,19,21,22,23,26,28,29,30,31,33,34,35,37,38,39,41,44,46,47,48,49,50,51,52,53,54,55,56,58,59,60,61,64,65,66,67,69,70,71,72,73,74,75,76,77,78,79,80,81,82,83,84,85,86,87,88,89,90,91,93,94,95,96,97,98,99,100,101,102,104,105,106,107,109,110,111,112,113,114,115,116,117,1,2,3,4,5,6,7,8,9,10,11,12,13,14,15,16,17,18,19,21,22,23,24,25,26,27,28,29,30,31,33,34,35,36,37,38,39,40,41,42,43,44,45,46,47,48,49,50,51,52,53,54,55,56,57,58,59,60,61,62,64,65,66,67,68,69,70,71,72,73,74,75,76,77,78,79,80,81,82,83,84,85,86,87,88,89,90,91,93,94,95,96,97,98,99,100,101,102,103,104,105,106,107,108,109,110,111,112,113,114,115,116,117,0,1,2,3,4,5,7,8,9,10,11,13,15,16,17,18,19,20,21,22,24,25,26,27,28,29,30,31,32,33,34,35,36,37,38,39,40,41,42,43,44,45,46,47,50,51,52,53,54,55,56,57,58,59,60,61,62,63,64,65,67,68,69,70,71,72,73,77,78,79,80,81,82,83,84,85,86,87,88,89,91,92,93,94,95,96,97,98,99,100,101,102,103,104,106,107,108,109,110,111,112,113,114,115,116,1,3,4,5,7,8,9,10,13,16,19,26,28,30,33,34,35,38,39,46,47,50,51,52,53,55,56,58,59,60,64,65,67,69,70,73,77,79,80,81,85,86,87,88,89,91,93,94,97,98,100,101,102,104,107,109,110,111,112,113,114,116,0,1,2,3,4,5,6,7,8,9,10,12,13,14,16,19,20,21,22,23,26,28,29,30,31,32,33,34,35,36,37,38,39,40,41,44,46,47,48,49,50,51,52,53,54,55,56,58,59,60,61,63,64,65,66,67,69,70,71,72,73,74,75,76,77,78,79,80,81,82,83,84,85,86,87,88,89,90,91,92,93,94,95,96,97,98,99,100,101,102,104,105,106,107,109,110,111,112,113,114,115,116,117,0,1,2,3,4,5,6,7,8,9,10,11,12,13,14,15,16,17,18,19,20,21,22,23,24,25,26,27,28,29,30,31,32,33,34,35,36,37,38,39,40,42,43,45,46,47,48,49,50,51,52,53,54,55,56,57,58,59,60,61,62,63,64,65,66,67,68,69,70,71,73,74,75,76,77,78,79,80,81,82,84,85,86,87,88,89,90,91,92,93,94,97,98,100,101,102,103,104,105,106,107,108,109,110,111,112,113,114,115,116,117,1,4,5,8,9,13,19,33,35,38,39,46,47,51,52,53,55,58,64,65,69,73,77,79,80,81,85,86,93,94,100,101,110,111,112,4,5,9,19,35,39,47,51,52,53,55,65,69,73,77,79,80,85,86,93,94,100,101,110,112,0,1,2,3,4,5,6,7,8,9,10,11,12,13,14,15,16,17,18,19,20,21,23,24,25,26,27,28,30,31,32,33,34,35,36,37,38,39,40,41,42,43,44,45,46,47,48,49,50,51,52,53,54,55,56,57,58,59,60,61,62,63,64,65,66,67,68,69,70,71,72,73,74,75,76,77,78,79,80,81,82,83,84,85,86,87,88,89,90,91,92,93,94,95,96,97,98,99,100,101,102,103,104,105,106,107,108,109,110,111,112,113,114,115,116,117,3,7,10,26,28,30,56,59,60,70,88,91,97,102,104,107,109,113,114,3,7,16,26,30,34,56,60,87,88,98,102,104,107,109,113,114],"categories_nodes":[0,1,2,6,7,11,12,20,28,29,30],"categories_segments":[0,96,209,314,376,479,590,625,650,766,785],"categories_sizes":[96,113,105,62,103,111,35,25,116,19,17],"default_left":[0,0,0,0,0,1,1,0,0,0,0,0,1,0,0,0,0,0,0,0,1,0,0,0,0,0,1,0,0,1,1,0,0,0,0,0,0,0,0,0,0,0,0,0,0],"id":1,"left_children":[1,3,5,-1,7,9,11,13,-1,15,-1,17,19,-1,-1,21,23,25,27,29,31,-1,-1,-1,-1,-1,33,35,37,39,41,43,-1,-1,-1,-1,-1,-1,-1,-1,-1,-1,-1,-1,-1],"loss_changes":[2.0136046E7,1.84769E6,2.538003E6,0E0,3.02248E5,1.087065E5,6.320661E5,7.1844E4,0E0,6.2995375E4,0E0,9.244892E4,1.3307088E5,0E0,0E0,7.0890625E1,5.5209625E4,5.2143047E4,1.5558523E4,1.6873188E4,6.085375E3,0E0,0E0,0E0,0E0,0E0,1.5426367E4,6.005665E3,2.9464102E3,2.0096977E4,1.6058969E4,2.0408438E3,0E0,0E0,0E0,0E0,0E0,0E0,0E0,0E0,0E0,0E0,0E0,0E0,0E0],"parents":[2147483647,0,0,1,1,2,2,4,4,5,5,6,6,7,7,9,9,11,11,12,12,15,15,16,16,17,17,18,18,19,19,20,20,26,26,27,27,28,28,29,29,30,30,31,31],"right_children":[2,4,6,-1,8,10,12,14,-1,16,-1,18,20,-1,-1,22,24,26,28,30,32,-1,-1,-1,-1,-1,34,36,38,40,42,44,-1,-1,-1,-1,-1,-1,-1,-1,-1,-1,-1,-1,-1],"split_conditions":[1E-45,1E-45,1E-45,2.7482855E0,7.1286E1,3.89E1,1E-45,1E-45,2.3949693E-1,1.62E1,2.6256013E-1,1E-45,1E-45,1.482146E0,7.2986215E-1,2.017E3,2.84E0,1.0165E1,3.64E1,1.996E3,1E-45,3.519634E-1,9.9713095E-2,4.4053337E-1,8.046629E-1,2.7467453E-1,3.1092E1,8.0765E1,1E-45,1E-45,1E-45,4.5248E1,-1.5340023E-1,1.1719255E-2,1.0138019E-1,6.125088E-3,-3.365885E-2,1.0446254E-1,1.5594245E-2,7.167333E-2,-6.419232E-2,-6.3457035E-2,-1.081665E-1,-1.368146E-1,-1.0444728E-1],"split_indices":[1,1,1,0,3,7,1,1,0,8,0,1,1,0,0,0,9,5,2,0,1,0,0,0,0,0,5,3,1,1,1,5,0,0,0,0,0,0,0,0,0,0,0,0,0],"split_type":[1,1,1,0,0,0,1,1,0,0,0,1,1,0,0,0,0,0,0,0,1,0,0,0,0,0,0,0,1,1,1,0,0,0,0,0,0,0,0,0,0,0,0,0,0],"sum_hessian":[1.179E3,4.4E1,1.135E3,9E0,3.5E1,4.1E1,1.094E3,3.3E1,2E0,3.2E1,9E0,1.96E2,8.98E2,2.9E1,4E0,7E0,2.5E1,8.2E1,1.14E2,3.75E2,5.23E2,6E0,1E0,9E0,1.6E1,1E1,7.2E1,1.02E2,1.2E1,1.12E2,2.63E2,1.48E2,3.75E2,1.7E1,5.5E1,4.4E1,5.8E1,8E0,4E0,7E0,1.05E2,8.5E1,1.78E2,1.1E2,3.8E1],"tree_param":{"num_deleted":"0","num_feature":"13","num_nodes":"45","size_leaf_vector":"1"}},{"base_weights":[-3.926045E0,5.3723425E2,-3.3095577E1,7.654524E2,3.523512E2,2.8943123E1,-4.3238712E1,2.815406E0,6.365294E2,1.0028291E0,2.991382E-1,1.2990012E2,1.8926865E1,-2.6169193E1,-5.5086502E1,3.9792302E-1,1.687947E0,9.1558054E-2,3.475443E-1,6.0455027E0,4.4563644E1,-1.7972166E1,-3.427499E1,-4.41543E1,-5.778817E1,1.8062647E1,-3.858198E0,7.163467E1,2.2668816E1,-2.3261791E1,-6.533547E0,1.6591935E-1,-3.51048E1,-1.2376721E-1,-3.5251163E1,-1.4968364E-1,-5.5215202E-2,3.3084597E-2,1.2736547E-1,1.5152952E-2,-2.6422516E-2,3.2636356E-1,9.127629E-2,7.662597E-2,-6.8710774E-2,4.6995403E-3,-6.425405E-2,1.4694975E-1,-3.6372118E-2,-6.1675448E-2,-1.0571091E-1,-4.7186445E-2,-9.6354E-2],"categories":[1,2,3,4,5,6,7,8,9,10,12,13,16,19,21,22,23,26,28,29,30,31,33,34,35,38,39,41,44,46,47,50,51,52,53,54,55,56,58,59,60,61,64,65,66,67,69,70,71,72,73,76,77,78,79,80,81,82,83,84,85,86,87,88,89,91,93,94,95,96,97,98,99,100,101,102,104,105,107,109,110,111,112,113,114,115,116,117,1,2,3,4,5,6,7,8,9,10,12,13,14,16,17,19,21,22,23,24,25,26,28,29,30,31,33,34,35,36,37,38,39,40,41,44,45,46,47,48,49,50,51,52,53,54,55,56,58,59,60,61,64,65,66,67,69,70,71,72,73,74,75,76,77,78,79,80,81,82,83,84,85,86,87,88,89,90,91,93,94,95,96,97,98,99,100,101,102,104,105,106,107,108,109,110,111,112,113,114,115,116,117,1,3,4,5,7,8,9,10,13,16,19,21,26,28,30,33,34,35,38,39,46,47,50,51,52,53,55,56,58,59,60,61,64,65,67,69,70,71,73,77,79,80,81,82,85,86,87,88,91,93,94,97,98,100,101,102,104,107,109,110,111,112,113,114,116,1,2,3,4,5,6,7,8,9,10,11,12,13,14,15,16,17,18,19,21,22,23,24,25,26,27,28,29,30,31,32,33,34,35,36,37,38,39,40,41,42,43,44,45,46,47,48,49,50,51,52,53,54,55,56,57,58,59,60,61,62,63,64,65,66,67,68,69,70,71,72,73,74,75,76,77,78,79,80,81,82,83,84,85,86,87,88,89,90,91,93,94,95,96,97,98,99,100,101,102,103,104,105,106,107,108,109,110,111,112,113,114,115,116,117,0,1,3,4,5,6,7,8,9,10,11,13,14,15,16,17,18,19,20,21,22,23,24,25,26,27,28,29,30,31,32,33,34,35,36,37,38,39,40,41,42,43,44,45,46,47,48,49,50,51,52,53,54,55,56,57,58,59,60,61,62,63,64,65,66,67,68,69,70,71,72,73,74,75,77,78,79,80,81,82,83,84,85,86,87,88,89,90,91,92,93,94,95,96,97,98,99,100,101,102,103,104,106,107,108,109,110,111,112,113,114,115,116,1,4,5,8,9,13,19,33,35,38,39,46,47,51,52,53,55,58,64,65,69,73,77,79,80,81,85,86,93,94,100,101,104,110,111,112,113,114,3,7,26,30,34,50,56,60,88,98,107,109,1,4,5,8,9,19,35,39,46,47,51,52,53,55,58,64,65,69,73,77,79,80,85,86,93,94,100,101,110,112,0,1,2,3,4,5,6,7,8,9,10,11,12,13,14,15,16,17,18,19,20,21,22,23,24,25,26,27,28,29,30,31,32,33,34,35,36,37,38,39,40,42,43,45,46,47,48,49,50,51,52,53,55,56,57,58,59,60,61,62,63,64,65,66,67,68,69,70,71,72,73,74,75,76,77,78,79,80,81,82,84,85,86,87,88,89,90,91,92,93,94,95,97,98,100,101,102,103,104,105,106,107,108,109,110,111,112,113,114,115,116,117,0,1,2,3,4,5,6,7,8,9,10,11,12,13,14,15,16,17,18,19,20,21,22,23,24,25,26,27,28,29,30,31,32,33,34,35,36,37,38,39,40,41,42,43,44,45,46,47,48,49,50,51,52,53,54,55,56,57,58,59,60,61,62,63,64,65,66,67,68,69,70,71,73,74,75,76,77,78,79,80,81,82,83,84,85,86,87,88,89,90,91,92,93,94,95,96,97,98,100,101,102,103,104,105,106,107,108,109,110,111,112,113,114,115,116,117,99,0,1,2,3,4,5,6,7,8,9,10,11,12,13,14,15,16,17,18,19,20,21,22,23,24,25,26,27,28,29,30,31,32,33,34,35,36,37,38,39,40,41,42,43,44,45,46,47,48,49,50,51,52,53,54,55,56,57,58,59,60,61,62,63,64,65,66,68,69,71,72,73,74,75,76,77,78,79,80,81,82,83,84,85,86,88,89,90,91,92,93,94,95,96,97,98,99,100,101,102,103,104,105,106,107,108,109,110,111,112,113,114,115,116,117],"categories_nodes":[0,1,2,3,5,6,13,14,19,27,28,30],"categories_segments":[0,88,191,256,371,484,522,534,564,676,792,793],"categories_sizes":[88,103,65,115,113,38,12,30,112,116,1,115],"default_left":[0,0,0,0,0,0,1,0,0,0,0,0,0,1,1,0,0,0,0,0,0,0,0,0,0,0,0,0,1,0,0,0,0,0,0,0,0,0,0,0,0,0,0,0,0,0,0,0,0,0,0,0,0],"id":2,"left_children":[1,3,5,7,9,11,13,-1,15,-1,-1,17,19,21,23,-1,-1,-1,-1,25,27,29,31,33,35,37,39,41,43,45,47,-1,49,-1,51,-1,-1,-1,-1,-1,-1,-1,-1,-1,-1,-1,-1,-1,-1,-1,-1,-1,-1],"loss_changes":[1.8518258E7,2.261912E6,7.016255E5,3.91641E5,2.498005E5,1.5630158E5,1.920985E5,0E0,6.6031E4,0E0,0E0,1.2479688E3,4.7284656E4,2.5562688E4,1.410625E4,0E0,0E0,0E0,0E0,1.1614066E4,2.6826477E4,1.1828207E4,1.8348531E4,2.1578438E3,6.475E2,6.5978604E3,3.3997295E3,3.720468E4,1.040348E4,5.442578E3,3.1370318E4,0E0,1.1783297E4,0E0,6.2583203E2,0E0,0E0,0E0,0E0,0E0,0E0,0E0,0E0,0E0,0E0,0E0,0E0,0E0,0E0,0E0,0E0,0E0,0E0],"parents":[2147483647,0,0,1,1,2,2,3,3,4,4,5,5,6,6,8,8,11,11,12,12,13,13,14,14,19,19,20,20,21,21,22,22,23,23,24,24,25,25,26,26,27,27,28,28,29,29,30,30,32,32,34,34],"right_children":[2,4,6,8,10,12,14,-1,16,-1,-1,18,20,22,24,-1,-1,-1,-1,26,28,30,32,34,36,38,40,42,44,46,48,-1,50,-1,52,-1,-1,-1,-1,-1,-1,-1,-1,-1,-1,-1,-1,-1,-1,-1,-1,-1,-1],"split_conditions":[1E-45,1E-45,1E-45,1E-45,7.2098E1,1E-45,1E-45,2.815406E0,3.53E1,1.0028291E0,2.991382E-1,3.679645E1,3.37E1,1E-45,1E-45,3.9792302E-1,1.687947E0,9.1558054E-2,3.475443E-1,1E-45,5.2174E1,2.41E1,4.8553E1,4.2328E1,3.19E1,5.54E1,7.8506E1,1E-45,1E-45,7.7057E1,1E-45,1.6591935E-1,1.998E3,-1.2376721E-1,8.40442E1,-1.4968364E-1,-5.5215202E-2,3.3084597E-2,1.2736547E-1,1.5152952E-2,-2.6422516E-2,3.2636356E-1,9.127629E-2,7.662597E-2,-6.8710774E-2,4.6995403E-3,-6.425405E-2,1.4694975E-1,-3.6372118E-2,-6.1675448E-2,-1.0571091E-1,-4.7186445E-2,-9.6354E-2],"split_indices":[1,1,1,1,3,1,1,0,2,0,0,11,2,1,1,0,0,0,0,1,5,2,3,5,2,7,3,1,1,3,1,0,0,0,11,0,0,0,0,0,0,0,0,0,0,0,0,0,0,0,0,0,0],"split_type":[1,1,1,1,0,1,1,0,0,0,0,0,0,1,1,0,0,0,0,1,0,0,0,0,0,0,0,1,1,0,1,0,0,0,0,0,0,0,0,0,0,0,0,0,0,0,0,0,0,0,0,0,0],"sum_hessian":[1.171E3,5.9E1,1.112E3,2.5E1,3.4E1,1.56E2,9.56E2,5E0,2E1,2.9E1,5E0,1.3E1,1.43E2,3.93E2,5.63E2,1E0,1.9E1,1E0,1.2E1,9.6E1,4.7E1,1.97E2,1.96E2,1.15E2,4.48E2,4.3E1,5.3E1,2E1,2.7E1,1.34E2,6.3E1,1E0,1.95E2,7.8E1,3.7E1,4.46E2,2E0,3.8E1,5E0,2.1E1,3.2E1,7E0,1.3E1,2.4E1,3E0,8E0,1.26E2,6E0,5.7E1,6.8E1,1.27E2,5E0,3.2E1],"tree_param":{"num_deleted":"0","num_feature":"13","num_nodes":"53","size_leaf_vector":"1"}},{"base_weights":[1.5741998E0,6.843431E2,-2.7981674E1,2.076733E0,1.0677702E0,2.053922E2,-3.5614742E1,2.7278635E2,1.0410038E2,-8.796352E0,-5.230372E1,2.8888525E2,2.0654005E-1,2.8910485E-1,-1.5441561E-2,2.479246E1,-2.0428148E1,-4.2068493E1,-1.5028527E-1,8.124346E-1,4.0048054E-1,7.791626E1,1.7417181E1,-7.8659625E0,-2.4981878E1,-4.30989E1,-1.585611E1,9.539208E-3,2.5802788E-1,-7.6797362E-3,6.652294E-2,-2.7498027E-2,1.8464947E-1,-3.9767776E-2,-8.053725E-2,-9.11957E-2,-1.1891959E-1,-4.3656863E-2,-7.1550426E-3],"categories":[1,2,3,4,5,6,7,8,9,10,12,13,16,19,21,22,23,24,26,28,29,30,31,33,34,35,36,37,38,39,40,41,43,44,46,47,48,49,50,51,52,53,54,55,56,58,59,60,61,64,65,66,67,69,70,71,72,73,74,75,77,78,79,80,81,82,83,84,85,86,87,88,89,91,93,94,95,96,97,98,99,100,101,102,104,105,106,107,109,110,111,112,113,114,115,116,117,1,2,3,4,5,6,7,8,9,10,11,12,13,14,15,16,17,19,21,22,23,24,26,27,28,29,30,31,33,34,35,36,37,38,39,40,41,43,44,45,46,47,48,49,50,51,52,53,54,55,56,58,59,60,61,64,65,66,67,69,70,71,72,73,74,75,77,78,79,80,81,82,83,84,85,86,87,88,89,90,91,93,94,95,96,97,98,99,100,101,102,104,105,106,107,108,109,110,111,112,113,114,115,116,117,0,1,3,4,5,7,8,9,10,11,13,14,15,16,17,18,19,20,21,22,24,25,26,27,28,29,30,32,33,34,35,37,38,39,41,42,43,44,45,46,47,50,51,52,53,54,55,56,57,58,59,60,61,62,63,64,65,66,67,68,69,70,71,72,73,76,77,78,79,80,81,82,84,85,86,87,88,89,90,91,92,93,94,95,96,97,98,99,100,101,102,103,104,106,107,108,109,110,111,112,113,114,115,116,1,3,4,5,8,9,13,19,26,33,34,35,38,39,46,47,50,51,52,53,55,58,60,64,65,69,73,77,79,80,81,85,86,93,94,100,101,104,107,109,110,111,112,113,114,83,7,10,16,21,22,28,30,56,59,61,67,70,71,78,82,87,88,91,97,98,102,115,116,4,5,9,19,35,39,46,47,51,52,53,55,58,64,65,69,73,77,79,80,85,86,93,94,100,101,110,111,112,7,10,16,28,30,56,61,70,87,88,98,102,116],"categories_nodes":[0,1,2,6,8,9,10,24],"categories_segments":[0,97,202,306,351,352,375,404],"categories_sizes":[97,105,104,45,1,23,29,13],"default_left":[0,0,0,0,0,0,1,0,1,1,1,0,0,0,0,0,0,0,0,0,0,0,0,1,1,1,0,0,0,0,0,0,0,0,0,0,0,0,0],"id":3,"left_children":[1,3,5,-1,-1,7,9,11,13,15,17,19,-1,-1,-1,21,23,25,-1,-1,-1,27,29,31,33,35,37,-1,-1,-1,-1,-1,-1,-1,-1,-1,-1,-1,-1],"loss_changes":[2.3831346E7,1.250278E6,2.0238134E6,0E0,0E0,2.1735588E5,4.9052588E5,4.2130125E4,1.4293359E4,1.6538111E5,3.790875E4,1.595125E4,0E0,0E0,0E0,4.134942E4,1.7765797E4,6.042E3,0E0,0E0,0E0,2.0762719E4,1.652335E4,1.9438904E4,1.3148156E4,3.8047812E3,1.0184033E2,0E0,0E0,0E0,0E0,0E0,0E0,0E0,0E0,0E0,0E0,0E0,0E0],"parents":[2147483647,0,0,1,1,2,2,5,5,6,6,7,7,8,8,9,9,10,10,11,11,15,15,16,16,17,17,21,21,22,22,23,23,24,24,25,25,26,26],"right_children":[2,4,6,-1,-1,8,10,12,14,16,18,20,-1,-1,-1,22,24,26,-1,-1,-1,28,30,32,34,36,38,-1,-1,-1,-1,-1,-1,-1,-1,-1,-1,-1,-1],"split_conditions":[1E-45,1E-45,1E-45,2.076733E0,1.0677702E0,3.85E1,1E-45,2.015E3,1E-45,1E-45,1E-45,7.2098E1,2.0654005E-1,2.8910485E-1,-1.5441561E-2,1.0165E1,1.996E3,6.33E1,-1.5028527E-1,8.124346E-1,4.0048054E-1,2.41E1,3.4591E1,9.99E1,1E-45,2.1053E1,7.2845E1,9.539208E-3,2.5802788E-1,-7.6797362E-3,6.652294E-2,-2.7498027E-2,1.8464947E-1,-3.9767776E-2,-8.053725E-2,-9.11957E-2,-1.1891959E-1,-4.3656863E-2,-7.1550426E-3],"split_indices":[1,1,1,0,0,7,1,0,1,1,1,3,0,0,0,5,0,2,0,0,0,7,5,6,1,5,3,0,0,0,0,0,0,0,0,0,0,0,0],"split_type":[1,1,1,0,0,0,1,0,1,1,1,0,0,0,0,0,0,0,0,0,0,0,0,0,1,0,0,0,0,0,0,0,0,0,0,0,0,0,0],"sum_hessian":[1.179E3,4.8E1,1.131E3,3.2E1,1.6E1,3.5E1,1.096E3,2E1,1.5E1,4.21E2,6.75E2,1.8E1,2E0,1.4E1,1E0,1.08E2,3.13E2,2.48E2,4.27E2,1.4E1,4E0,1.2E1,9.6E1,8.4E1,2.29E2,2.38E2,1E1,3E0,9E0,2.8E1,6.8E1,8.2E1,2E0,9.1E1,1.38E2,6.8E1,1.7E2,9E0,1E0],"tree_param":{"num_deleted":"0","num_feature":"13","num_nodes":"39","size_leaf_vector":"1"}},{"base_weights":[-1.8776362E0,5.9439325E2,-3.0085371E1,8.387381E2,4.2310297E2,1.367737E2,-3.7486565E1,2.6732597E0,1.6087006E0,2.4833962E-1,1.2056491E0,2.1801183E2,7.676305E1,-1.0616187E1,-5.1844246E1,5.847646E-1,9.106603E-2,2.1654562E1,2.744708E-1,1.8410788E1,-1.934874E1,-4.0687798E1,-5.7506718E1,-2.4019927E-2,8.8980146E-2,-8.934625E0,2.5482529E1,-4.8328805E0,-2.4494226E1,-4.422703E1,-2.9922846E1,-5.763846E1,-4.893108E-2,1.0565866E-2,-4.0808216E-2,3.1963136E-2,8.174211E-2,5.96078E-2,-3.8484704E-2,-3.832172E-2,-8.4983416E-2,-1.1589147E-1,-3.9293207E-2,-2.174969E-2,-9.226901E-2,-1.497337E-1,-9.700419E-2],"categories":[1,2,3,4,5,6,7,8,9,10,12,13,14,16,19,21,22,23,26,28,29,30,31,33,34,35,36,38,39,40,41,44,46,47,49,50,51,52,53,54,55,56,58,59,60,61,63,64,65,67,69,70,71,72,73,74,75,76,77,78,79,80,81,82,83,84,85,86,87,88,89,91,93,94,95,96,97,98,99,100,101,102,104,107,109,110,111,112,113,114,115,116,117,1,2,3,4,5,6,7,8,9,10,11,12,13,14,15,16,17,18,19,21,22,23,24,26,27,28,29,30,31,33,34,35,36,37,38,39,40,41,44,45,46,47,48,49,50,51,52,53,54,55,56,57,58,59,60,61,62,63,64,65,66,67,69,70,71,72,73,74,75,76,77,78,79,80,81,82,83,84,85,86,87,88,89,90,91,93,94,95,96,97,98,99,100,101,102,104,105,106,107,108,109,110,111,112,113,114,115,116,117,0,1,2,3,4,5,7,8,9,10,11,13,15,16,17,18,19,20,21,22,24,25,26,27,28,29,30,32,33,34,35,36,37,38,39,41,42,43,44,45,46,47,48,50,51,52,53,54,55,56,57,58,59,60,61,62,63,64,65,66,67,68,69,70,71,73,76,77,78,79,80,81,82,84,85,86,87,88,89,90,91,92,93,94,96,97,98,99,100,101,102,103,104,105,106,107,108,109,110,111,112,113,114,115,116,0,1,2,3,4,5,7,8,9,10,11,12,13,15,16,17,18,19,20,21,22,24,25,26,27,28,29,30,32,33,34,35,36,37,38,39,41,42,43,44,45,46,47,48,50,51,52,53,54,55,56,57,58,59,60,61,62,63,64,65,66,67,68,69,70,71,72,73,76,77,78,79,80,81,82,83,84,85,86,87,88,89,90,91,92,93,94,95,96,97,98,99,100,101,102,103,104,105,106,107,108,109,110,111,112,113,114,115,116,1,4,5,8,9,13,19,26,33,34,35,38,39,46,47,50,51,52,53,55,58,60,64,65,69,73,77,79,80,81,85,86,93,94,98,100,101,104,107,109,110,111,112,113,114,3,7,10,16,21,22,28,30,56,59,67,70,71,78,82,87,88,97,99,102,115,116,1,4,5,8,9,19,35,39,46,47,51,52,53,55,58,64,65,69,73,77,79,80,85,86,93,94,100,101,111,112,7,10,22,28,56,59,71,82,88,97,99,102,3,28,30,56,70,87,88,97,102,116],"categories_nodes":[0,1,2,5,6,13,14,27,28],"categories_segments":[0,93,202,307,416,461,483,513,525],"categories_sizes":[93,109,105,109,45,22,30,12,10],"default_left":[0,0,0,0,0,0,1,0,0,0,0,1,0,1,1,0,0,0,0,0,0,0,0,0,0,0,0,1,1,0,0,1,0,0,0,0,0,0,0,0,0,0,0,0,0,0,0],"id":4,"left_children":[1,3,5,7,9,11,13,-1,-1,-1,-1,15,17,19,21,-1,-1,23,-1,25,27,29,31,-1,-1,33,35,37,39,41,43,45,-1,-1,-1,-1,-1,-1,-1,-1,-1,-1,-1,-1,-1,-1,-1],"loss_changes":[1.8990224E7,1.779678E6,1.3364099E6,2.02192E5,4.08214E5,2.0752188E5,3.9797712E5,0E0,0E0,0E0,0E0,2.0500375E4,4.3085844E4,9.186236E4,4.017575E4,0E0,0E0,4.66564E3,0E0,1.6471568E4,2.0645766E4,7.4395312E3,1.1655E3,0E0,0E0,1.6704895E3,5.004129E3,2.1095414E4,1.6125828E4,2.31775E3,7.146633E3,3.53875E2,0E0,0E0,0E0,0E0,0E0,0E0,0E0,0E0,0E0,0E0,0E0,0E0,0E0,0E0,0E0],"parents":[2147483647,0,0,1,1,2,2,3,3,4,4,5,5,6,6,11,11,12,12,13,13,14,14,17,17,19,19,20,20,21,21,22,22,25,25,26,26,27,27,28,28,29,29,30,30,31,31],"right_children":[2,4,6,8,10,12,14,-1,-1,-1,-1,16,18,20,22,-1,-1,24,-1,26,28,30,32,-1,-1,34,36,38,40,42,44,46,-1,-1,-1,-1,-1,-1,-1,-1,-1,-1,-1,-1,-1,-1,-1],"split_conditions":[1E-45,1E-45,1E-45,6.0179E1,2.781E0,1E-45,1E-45,2.6732597E0,1.6087006E0,2.4833962E-1,1.2056491E0,4.61E1,1.13E1,1E-45,1E-45,5.847646E-1,9.106603E-2,6.3E0,2.744708E-1,3.1628E1,1.995E3,5.0238E1,3.19E1,-2.4019927E-2,8.8980146E-2,2.612E1,8.988706E1,1E-45,1E-45,6.33E1,7.741E1,4.322E1,-4.893108E-2,1.0565866E-2,-4.0808216E-2,3.1963136E-2,8.174211E-2,5.96078E-2,-3.8484704E-2,-3.832172E-2,-8.4983416E-2,-1.1589147E-1,-3.9293207E-2,-2.174969E-2,-9.226901E-2,-1.497337E-1,-9.700419E-2],"split_indices":[1,1,1,5,9,1,1,0,0,0,0,7,8,1,1,0,0,8,0,5,0,5,2,0,0,5,11,1,1,2,3,5,0,0,0,0,0,0,0,0,0,0,0,0,0,0,0],"split_type":[1,1,1,0,0,1,1,0,0,0,0,0,0,1,1,0,0,0,0,0,0,0,0,0,0,0,0,1,1,0,0,0,0,0,0,0,0,0,0,0,0,0,0,0,0,0,0],"sum_hessian":[1.127E3,5E1,1.077E3,1.9E1,3.1E1,4.5E1,1.032E3,8E0,1.1E1,4E0,2.7E1,1.8E1,2.7E1,3.6E2,6.72E2,1.7E1,1E0,1E1,1.7E1,8.3E1,2.77E2,2.29E2,4.43E2,3E0,7E0,1.7E1,6.6E1,7.3E1,2.04E2,1.7E2,5.9E1,4.41E2,2E0,6E0,1.1E1,2.2E1,4.4E1,1.9E1,5.4E1,9.6E1,1.08E2,1.66E2,4E0,1.3E1,4.6E1,4.33E2,8E0],"tree_param":{"num_deleted":"0","num_feature":"13","num_nodes":"47","size_leaf_vector":"1"}},{"base_weights":[-1.1997938E0,6.289618E2,-2.9996426E1,2.207634E0,4.803363E2,1.9173717E2,-3.5253143E1,3.1721532E-1,4.8767737E2,1.226487E2,8.578651E-1,9.4468427E-1,-4.7572235E1,3.4198123E-1,1.2792783E0,3.7116185E-1,1.9626072E-1,3.745673E1,-9.491683E0,-3.503502E1,-5.685961E1,9.192269E1,3.2115585E1,4.5465183E0,-1.7245169E1,4.989104E1,-3.566828E1,-5.704006E1,-5.6245137E-2,7.090834E-2,2.6157779E-1,2.8875265E-2,9.651784E-2,-7.024638E-2,2.082685E-2,-6.0681757E-2,-4.219338E-3,1.656843E-1,2.7772618E-2,-6.541226E-2,-1.0309198E-1,-1.289781E-1,-1.5030569E-1],"categories":[0,1,2,3,4,5,6,7,8,9,10,12,13,16,19,21,22,23,26,28,29,30,31,33,34,35,36,38,39,41,44,46,47,48,49,50,51,52,53,54,55,56,58,59,60,61,64,65,66,67,69,70,71,72,73,74,75,77,78,79,80,81,82,83,84,85,86,87,88,89,91,93,94,95,96,97,98,99,100,101,102,104,105,107,109,110,111,112,113,114,115,116,117,0,1,2,3,4,5,6,7,8,9,10,11,12,13,14,15,16,17,19,21,22,23,24,25,26,27,28,29,30,31,33,34,35,36,37,38,39,40,41,43,44,45,46,47,48,49,50,51,52,53,54,55,56,58,59,60,61,62,64,65,66,67,69,70,71,72,73,74,75,76,77,78,79,80,81,82,83,84,85,86,87,88,89,90,91,93,94,95,96,97,98,99,100,101,102,104,105,106,107,108,109,110,111,112,113,114,115,116,117,0,1,2,3,4,5,7,8,9,10,11,13,14,15,16,17,18,19,20,21,22,23,24,25,26,27,28,29,30,32,33,34,35,36,37,38,39,40,41,42,43,44,45,46,47,50,51,52,53,54,55,56,57,58,59,60,61,62,63,64,65,66,67,68,69,70,71,72,73,74,76,77,78,79,80,81,82,84,85,86,87,88,89,90,91,92,93,94,95,96,97,98,99,100,101,102,103,104,106,107,108,109,110,111,112,113,114,115,116,1,3,4,5,7,8,9,13,16,19,26,28,30,33,34,35,38,39,46,47,50,51,52,53,55,56,58,60,64,65,69,70,73,77,79,80,81,85,86,88,93,94,98,100,101,102,104,107,109,110,111,112,113,114,0,1,2,3,4,5,6,7,8,9,10,11,12,13,14,15,16,17,18,19,20,21,22,23,24,25,26,27,28,29,30,31,32,33,34,35,36,37,38,39,40,42,43,45,46,47,48,49,50,51,52,53,54,55,56,57,58,59,60,61,62,63,64,65,66,67,68,69,70,71,73,74,75,76,77,78,79,80,81,82,83,84,85,86,87,88,89,90,91,92,93,94,97,98,99,100,101,102,103,104,105,106,107,108,109,110,111,112,113,114,115,116,117,1,4,5,8,9,19,35,39,46,47,51,52,53,55,58,64,65,69,73,77,79,80,85,86,93,94,100,101,111,112,10,21,59,67,71,78,82,87,97,115,116],"categories_nodes":[0,1,2,6,11,12,18],"categories_segments":[0,93,202,311,365,478,508],"categories_sizes":[93,109,109,54,113,30,11],"default_left":[0,0,0,0,0,0,1,0,0,0,0,0,1,0,0,0,0,0,1,0,0,0,0,0,0,0,0,0,0,0,0,0,0,0,0,0,0,0,0,0,0,0,0],"id":5,"left_children":[1,3,5,-1,7,9,11,-1,13,15,-1,17,19,-1,-1,-1,-1,21,23,25,27,29,31,33,35,37,39,41,-1,-1,-1,-1,-1,-1,-1,-1,-1,-1,-1,-1,-1,-1,-1],"loss_changes":[2.1177722E7,1.295544E6,1.3075582E6,0E0,2.6793E4,2.1099244E5,4.865485E5,0E0,1.63745E4,7.6822188E3,0E0,1.062883E5,9.278825E4,0E0,0E0,0E0,0E0,1.50843125E4,2.369777E4,2.0549031E4,1.710625E3,2.1222266E2,5.9258945E3,8.903639E3,1.3576828E4,9.793364E2,1.413775E4,7.51625E2,0E0,0E0,0E0,0E0,0E0,0E0,0E0,0E0,0E0,0E0,0E0,0E0,0E0,0E0,0E0],"parents":[2147483647,0,0,1,1,2,2,4,4,5,5,6,6,8,8,9,9,11,11,12,12,17,17,18,18,19,19,20,20,21,21,22,22,23,23,24,24,25,25,26,26,27,27],"right_children":[2,4,6,-1,8,10,12,-1,14,16,-1,18,20,-1,-1,-1,-1,22,24,26,28,30,32,34,36,38,40,42,-1,-1,-1,-1,-1,-1,-1,-1,-1,-1,-1,-1,-1,-1,-1],"split_conditions":[1E-45,1E-45,1E-45,2.207634E0,1.993E3,5.32E1,1E-45,3.1721532E-1,3.67E1,2.013E3,8.578651E-1,1E-45,1E-45,3.4198123E-1,1.2792783E0,3.7116185E-1,1.9626072E-1,9.184E0,1E-45,6.5146E1,3.19E1,1.995E3,2.7E1,6.6143E1,2.41E1,1.989E3,1.997E3,8.402E1,-5.6245137E-2,7.090834E-2,2.6157779E-1,2.8875265E-2,9.651784E-2,-7.024638E-2,2.082685E-2,-6.0681757E-2,-4.219338E-3,1.656843E-1,2.7772618E-2,-6.541226E-2,-1.0309198E-1,-1.289781E-1,-1.5030569E-1],"split_indices":[1,1,1,0,0,2,1,0,2,0,0,1,1,0,0,0,0,5,1,3,2,0,10,3,2,0,0,3,0,0,0,0,0,0,0,0,0,0,0,0,0,0,0],"split_type":[1,1,1,0,0,0,1,0,0,0,0,1,1,0,0,0,0,0,1,0,0,0,0,0,0,0,0,0,0,0,0,0,0,0,0,0,0,0,0,0,0,0,0],"sum_hessian":[1.165E3,5E1,1.115E3,1.8E1,3.2E1,2.5E1,1.09E3,1E0,3.1E1,1.8E1,7E0,2.77E2,8.13E2,1E0,3E1,1.1E1,7E0,6.1E1,2.16E2,3.48E2,4.65E2,4E0,5.7E1,7.7E1,1.39E2,2E0,3.46E2,4.62E2,3E0,1E0,3E0,1.2E1,4.5E1,7E0,7E1,9.9E1,4E1,1E0,1E0,1.02E2,2.44E2,6.8E1,3.94E2],"tree_param":{"num_deleted":"0","num_feature":"13","num_nodes":"43","size_leaf_vector":"1"}},{"base_weights":[-1.7205085E0,6.707224E2,-2.55601E1,2.2925236E0,1.3293024E0,2.0541913E2,-3.447009E1,2.3614941E2,1.1147517E2,2.9743536E0,-4.7980827E1,2.600546E2,3.564882E-1,3.3447698E-2,1.1925675E2,2.858027E1,-1.3567687E1,-3.533686E1,-5.599857E1,7.023538E-1,2.3748922E-1,1.5308213E-1,3.4735182E-1,1.0239386E2,2.185306E1,-2.6232494E1,6.526182E-1,2.712332E1,-3.6468273E1,-4.8377235E1,-1.4987843E-1,2.9671517E-1,1.0174702E-1,-1.4136402E-2,7.2635084E-2,-4.3005057E-2,-1.0128074E-1,7.313045E-2,-1.5399232E-2,1.6547014E-1,1.79504E-2,-7.3949605E-2,-1.0304603E-1,-8.667623E-2,-1.2866579E-1],"categories":[1,2,3,4,5,6,7,8,9,10,12,13,14,15,16,17,19,21,22,23,26,28,29,30,31,33,34,35,37,38,39,40,41,43,44,46,47,48,49,50,51,52,53,54,55,56,58,59,60,61,64,65,67,69,70,71,72,73,74,75,76,77,78,79,80,81,82,83,84,85,86,87,88,89,91,93,94,95,96,97,98,99,100,101,102,104,105,106,107,109,110,111,112,113,114,115,116,117,1,2,3,4,5,6,7,8,9,10,11,12,13,14,15,16,17,19,21,22,23,24,25,26,27,28,29,30,31,33,34,35,36,37,38,39,40,41,43,44,45,46,47,48,49,50,51,52,53,54,55,56,57,58,59,60,61,62,63,64,65,66,67,68,69,70,71,72,73,74,75,76,77,78,79,80,81,82,83,84,85,86,87,88,89,90,91,93,94,95,96,97,98,99,100,101,102,104,105,106,107,108,109,110,111,112,113,114,115,116,117,0,1,3,4,5,7,8,9,10,11,13,15,16,18,19,20,21,22,24,25,26,27,28,29,30,31,32,33,34,35,36,37,38,39,41,42,43,44,45,46,47,50,51,52,53,54,55,56,57,58,59,60,61,62,63,64,65,66,67,68,69,70,71,72,73,77,78,79,80,81,82,84,85,86,87,88,89,90,91,92,93,94,95,96,97,98,99,100,101,102,103,104,107,108,109,110,111,112,113,114,115,116,1,3,4,5,7,8,9,13,16,19,26,28,30,33,34,35,38,39,46,47,50,51,52,53,55,56,58,60,64,65,69,73,77,79,80,81,85,86,88,89,93,94,97,100,101,102,104,107,109,110,111,112,113,114,116,0,1,2,3,4,5,6,7,8,9,10,11,12,13,14,15,16,17,18,19,20,21,22,23,24,25,26,27,28,30,31,32,33,34,35,36,37,38,39,40,42,43,45,46,47,48,49,50,51,52,53,55,56,57,58,59,60,61,62,63,64,65,66,67,68,69,70,71,73,74,75,76,77,78,79,80,81,82,83,84,85,86,87,88,89,90,91,92,93,94,95,97,98,100,101,102,103,104,105,106,107,108,109,110,111,112,113,114,115,116,117,4,5,8,9,13,19,33,35,38,39,46,47,51,52,53,55,58,64,65,69,73,77,79,80,85,86,93,94,100,101,110,111,112,0,1,2,3,4,5,6,7,8,9,10,11,12,13,15,16,18,19,20,21,22,24,25,26,27,28,29,30,31,32,33,34,35,36,37,38,39,41,42,43,44,45,46,47,50,51,52,53,54,55,56,57,58,59,60,61,62,63,64,65,66,67,68,69,70,71,72,73,77,78,79,80,81,82,83,84,85,86,87,88,89,90,91,92,93,94,95,96,97,98,99,100,101,102,103,104,105,107,108,109,110,111,112,113,114,115,116,0,1,2,3,4,5,6,7,8,9,10,11,12,13,14,15,16,17,18,19,20,21,22,23,24,25,26,27,28,29,30,31,32,33,34,35,36,37,38,39,40,41,42,43,44,45,46,47,48,49,50,51,52,53,54,55,56,57,58,59,60,61,62,63,64,65,66,68,69,70,71,72,73,74,75,76,77,79,80,81,82,83,84,85,86,88,89,90,91,92,93,94,95,96,97,98,99,100,101,102,103,104,105,106,107,108,109,110,111,112,113,114,115,116,117,0,1,2,4,5,6,7,8,9,10,11,12,13,14,15,16,17,18,19,20,21,22,23,24,25,26,27,28,29,30,31,32,33,34,35,36,37,38,39,40,41,42,43,44,45,46,47,48,49,50,51,52,53,54,55,56,57,58,59,60,61,62,63,64,65,66,67,68,69,70,71,72,73,74,75,76,77,78,79,80,81,82,83,84,85,86,87,88,89,90,91,92,93,94,95,96,97,98,99,100,101,102,103,104,105,106,107,108,109,110,111,112,113,114,115,116,117,1,3,7,26,30,34,50,60,81,102,104,107,109,113,114,8,13,38,46,58,64,73,79,85,86,93],"categories_nodes":[0,1,2,6,9,10,11,26,27,28,29],"categories_segments":[0,98,209,311,366,477,510,617,732,849,864],"categories_sizes":[98,111,102,55,111,33,107,115,117,15,11],"default_left":[0,0,0,0,0,0,1,0,0,0,1,0,0,0,1,0,0,0,0,0,0,0,0,0,0,0,0,0,1,1,0,0,0,0,0,0,0,0,0,0,0,0,0,0,0],"id":6,"left_children":[1,3,5,-1,-1,7,9,11,13,15,17,19,-1,-1,21,23,25,27,29,-1,-1,-1,-1,31,33,35,37,39,41,43,-1,-1,-1,-1,-1,-1,-1,-1,-1,-1,-1,-1,-1,-1,-1],"loss_changes":[1.8260154E7,8.62992E5,2.2709055E6,0E0,0E0,9.2039E4,5.3639875E5,3.459525E4,7.6581875E3,1.1983567E5,7.6993125E4,2.0076625E4,0E0,0E0,2.0234531E3,5.2880477E4,3.099388E4,2.2543E4,4.363625E3,0E0,0E0,0E0,0E0,2.5094844E3,1.7727785E4,1.0654379E4,1.5147521E4,4.0216533E3,6.8642188E3,4.861875E2,0E0,0E0,0E0,0E0,0E0,0E0,0E0,0E0,0E0,0E0,0E0,0E0,0E0,0E0,0E0],"parents":[2147483647,0,0,1,1,2,2,5,5,6,6,7,7,8,8,9,9,10,10,11,11,14,14,15,15,16,16,17,17,18,18,23,23,24,24,25,25,26,26,27,27,28,28,29,29],"right_children":[2,4,6,-1,-1,8,10,12,14,16,18,20,-1,-1,22,24,26,28,30,-1,-1,-1,-1,32,34,36,38,40,42,44,-1,-1,-1,-1,-1,-1,-1,-1,-1,-1,-1,-1,-1,-1,-1],"split_conditions":[1E-45,1E-45,1E-45,2.2925236E0,1.3293024E0,3.85E1,1E-45,7.2098E1,1.84E1,1E-45,1E-45,1E-45,3.564882E-1,3.3447698E-2,5.8E1,1.0165E1,1.22E1,6.6143E1,8.4158E1,7.023538E-1,2.3748922E-1,1.5308213E-1,3.4735182E-1,2.001E3,3.4744E1,4.0448E1,1E-45,1E-45,1E-45,1E-45,-1.4987843E-1,2.9671517E-1,1.0174702E-1,-1.4136402E-2,7.2635084E-2,-4.3005057E-2,-1.0128074E-1,7.313045E-2,-1.5399232E-2,1.6547014E-1,1.79504E-2,-7.3949605E-2,-1.0304603E-1,-8.667623E-2,-1.2866579E-1],"split_indices":[1,1,1,0,0,7,1,3,2,1,1,1,0,0,6,5,8,3,3,0,0,0,0,0,5,5,1,1,1,1,0,0,0,0,0,0,0,0,0,0,0,0,0,0,0],"split_type":[1,1,1,0,0,0,1,0,0,1,1,1,0,0,0,0,0,0,0,0,0,0,0,0,0,0,1,1,1,1,0,0,0,0,0,0,0,0,0,0,0,0,0,0,0],"sum_hessian":[1.137E3,3.8E1,1.099E3,1.4E1,2.4E1,4E1,1.059E3,2.9E1,1.1E1,2.81E2,7.78E2,2.2E1,7E0,1E0,1E1,1.1E2,1.71E2,3.04E2,4.74E2,2E1,2E0,3E0,7E0,8E0,1.02E2,9E1,8.1E1,5E0,2.99E2,1.03E2,3.71E2,6E0,2E0,1.9E1,8.3E1,5.3E1,3.7E1,1.5E1,6.6E1,1E0,4E0,9.3E1,2.06E2,1.1E1,9.2E1],"tree_param":{"num_deleted":"0","num_feature":"13","num_nodes":"45","size_leaf_vector":"1"}},{"base_weights":[-3.6534065E-1,5.5169226E2,-3.427641E1,8.035768E2,3.4378897E2,3.1659391E1,-4.262605E1,2.6829414E0,1.7763158E0,3.6517993E2,1.6886382E-1,1.1650852E2,2.4071886E1,-2.6107435E1,-5.4499187E1,3.3949554E-1,3.7507318E2,-1.5833514E-2,1.3081503E2,1.0963672E1,4.1155453E1,-1.8117416E1,-3.4363754E1,-4.5282375E1,-1.4909464E-1,6.7699677E-1,1.0478386E0,3.5704625E-1,9.355537E-2,-5.4546227E0,1.5804615E1,3.0737923E1,9.200525E1,-7.92654E-2,-2.2183363E1,1.6525625E-1,-3.517081E1,-4.8648624E1,-3.704545E1,1.638382E-2,-4.6632838E-2,1.44441705E-2,6.8802714E-2,1.1394991E-1,-8.899676E-3,5.271066E-1,1.212141E-1,1.2781858E-1,-2.2145936E-2,-9.474176E-2,-4.8837356E-2,-6.195575E-2,-1.0113657E-1,-1.1053427E-1,-1.3549861E-1,-4.8865E-2,-1.0008171E-1],"categories":[1,2,3,4,5,6,7,8,9,10,12,13,16,19,21,22,24,26,28,29,30,31,33,34,35,38,39,41,43,44,46,47,50,51,52,53,54,55,56,58,59,60,61,64,65,67,69,70,71,72,73,74,77,78,79,80,81,82,83,84,85,86,87,88,89,91,93,94,95,96,97,98,99,100,101,102,104,105,106,107,109,110,111,112,113,114,115,116,1,2,3,4,5,6,7,8,9,10,11,12,13,14,16,17,19,21,22,23,24,25,26,28,29,30,31,33,34,35,36,37,38,39,40,41,43,44,45,46,47,48,49,50,51,52,53,54,55,56,57,58,59,60,61,64,65,66,67,69,70,71,72,73,74,75,76,77,78,79,80,81,82,83,84,85,86,87,88,89,90,91,93,94,95,96,97,98,99,100,101,102,104,105,106,107,108,109,110,111,112,113,114,115,116,117,0,1,2,3,4,5,7,8,9,10,11,13,14,15,16,17,18,19,20,21,22,23,24,25,26,27,28,30,31,32,33,34,35,36,37,38,39,40,42,43,45,46,47,48,49,50,51,52,53,55,56,57,58,59,60,61,62,63,64,65,66,67,68,69,70,71,73,75,76,77,78,79,80,81,82,85,86,87,88,89,90,91,92,93,94,95,97,98,100,101,102,103,104,106,107,108,109,110,111,112,113,114,115,116,117,0,1,2,3,4,5,6,7,8,9,10,11,12,13,14,15,16,17,18,19,21,22,23,24,25,26,27,28,29,30,31,33,34,35,36,37,38,39,40,41,42,43,44,45,46,47,48,49,50,51,52,53,54,55,56,57,58,59,60,61,62,63,64,65,66,67,68,69,70,71,72,73,74,75,76,77,78,79,80,81,82,83,84,85,86,87,88,89,90,91,93,94,95,96,97,98,99,100,101,102,103,104,105,106,107,108,109,110,111,112,113,114,115,116,117,0,1,2,3,4,5,7,8,9,10,11,13,14,15,16,17,18,19,20,21,22,23,24,25,26,27,28,29,30,31,32,33,34,35,36,37,38,39,40,41,42,43,44,45,46,47,48,49,50,51,52,53,54,55,56,57,58,59,60,61,62,63,64,65,66,67,68,69,70,71,72,73,75,76,77,78,79,80,81,82,84,85,86,87,88,89,90,91,92,93,94,95,96,97,98,99,100,101,102,103,104,106,107,108,109,110,111,112,113,114,115,116,117,1,4,5,8,9,13,19,33,34,35,38,39,46,47,51,52,53,55,58,64,65,69,73,77,79,80,81,85,86,93,94,100,101,104,110,111,112,113,3,10,16,26,30,50,60,61,88,98,102,107,109,114,116,4,5,9,19,35,39,46,47,51,52,53,55,58,65,69,73,77,79,80,85,86,93,94,100,101,111,112,29,72,99,0,1,2,3,4,5,6,7,8,9,10,11,12,13,14,15,16,17,18,19,20,21,22,23,24,25,26,27,28,30,31,32,33,34,35,36,37,38,39,40,42,43,45,46,47,48,49,50,51,52,53,54,55,56,57,58,59,60,61,62,63,64,65,66,67,68,69,70,71,73,74,75,76,77,78,79,80,81,82,83,84,85,86,87,88,89,90,91,92,93,94,95,96,97,98,99,100,101,102,103,104,105,106,107,108,109,110,111,112,113,114,115,116,117,0,1,2,3,4,5,6,7,8,9,10,11,12,13,14,15,16,17,18,19,20,22,23,24,25,26,27,28,29,30,31,32,33,34,35,36,37,38,39,40,41,42,43,44,45,46,47,48,49,50,51,52,53,54,55,56,57,58,59,60,61,62,63,64,65,66,67,68,69,70,71,72,73,74,75,76,77,78,79,80,81,82,83,84,85,86,88,89,90,91,92,93,94,95,96,97,98,99,100,101,102,103,104,105,106,107,108,109,110,111,112,113,114,115,116,117,1,8,13,33,64,104,110,8,13,33,34,38,64,113],"categories_nodes":[0,1,2,3,5,6,13,14,29,31,33,37,38],"categories_segments":[0,88,194,299,414,527,565,580,607,610,724,840,847],"categories_sizes":[88,106,105,115,113,38,15,27,3,114,116,7,7],"default_left":[0,0,0,0,0,0,1,0,0,0,0,0,0,1,1,0,1,0,0,1,0,0,0,0,0,0,0,0,0,1,0,0,0,0,0,0,0,1,1,0,0,0,0,0,0,0,0,0,0,0,0,0,0,0,0,0,0],"id":7,"left_children":[1,3,5,7,9,11,13,-1,-1,15,-1,17,19,21,23,-1,25,-1,27,29,31,33,35,37,-1,-1,-1,-1,-1,39,41,43,45,47,49,-1,51,53,55,-1,-1,-1,-1,-1,-1,-1,-1,-1,-1,-1,-1,-1,-1,-1,-1,-1,-1],"loss_changes":[2.1997204E7,3.284736E6,6.107976E5,1.05176E5,2.08455E5,7.766958E4,1.9137088E5,0E0,0E0,3.40285E4,0E0,1.8345828E4,2.552525E4,2.662225E4,1.4104625E4,0E0,1.0337E4,0E0,1.2217188E3,5.41137E3,2.3658414E4,1.5546773E4,1.827236E4,2.3846562E3,0E0,0E0,0E0,0E0,0E0,2.4888247E3,5.5949834E3,1.976182E4,3.082571E4,1.7237389E4,7.5444375E3,0E0,7.963797E3,6.6421875E1,7.2247656E2,0E0,0E0,0E0,0E0,0E0,0E0,0E0,0E0,0E0,0E0,0E0,0E0,0E0,0E0,0E0,0E0,0E0,0E0],"parents":[2147483647,0,0,1,1,2,2,3,3,4,4,5,5,6,6,9,9,11,11,12,12,13,13,14,14,16,16,18,18,19,19,20,20,21,21,22,22,23,23,29,29,30,30,31,31,32,32,33,33,34,34,36,36,37,37,38,38],"right_children":[2,4,6,8,10,12,14,-1,-1,16,-1,18,20,22,24,-1,26,-1,28,30,32,34,36,38,-1,-1,-1,-1,-1,40,42,44,46,48,50,-1,52,54,56,-1,-1,-1,-1,-1,-1,-1,-1,-1,-1,-1,-1,-1,-1,-1,-1,-1,-1],"split_conditions":[1E-45,1E-45,1E-45,1E-45,7.4755E1,1E-45,1E-45,2.6829414E0,1.7763158E0,2.85E1,1.6886382E-1,1.78E1,3.31E1,1E-45,1E-45,3.3949554E-1,2.17E1,-1.5833514E-2,5.9339E1,6.7E0,4.6E1,1.992E3,4.8553E1,4.4414E1,-1.4909464E-1,6.7699677E-1,1.0478386E0,3.5704625E-1,9.355537E-2,1E-45,9.7E1,1E-45,1.995E3,1E-45,7E0,1.6525625E-1,1.995E3,1E-45,1E-45,1.638382E-2,-4.6632838E-2,1.44441705E-2,6.8802714E-2,1.1394991E-1,-8.899676E-3,5.271066E-1,1.212141E-1,1.2781858E-1,-2.2145936E-2,-9.474176E-2,-4.8837356E-2,-6.195575E-2,-1.0113657E-1,-1.1053427E-1,-1.3549861E-1,-4.8865E-2,-1.0008171E-1],"split_indices":[1,1,1,1,3,1,1,0,0,2,0,2,2,1,1,0,6,0,5,8,7,0,3,5,0,0,0,0,0,1,6,1,0,1,8,0,0,1,1,0,0,0,0,0,0,0,0,0,0,0,0,0,0,0,0,0,0],"split_type":[1,1,1,1,0,1,1,0,0,0,0,0,0,1,1,0,0,0,0,0,0,0,0,0,0,0,0,0,0,1,0,1,0,1,0,0,0,1,1,0,0,0,0,0,0,0,0,0,0,0,0,0,0,0,0,0,0],"sum_hessian":[1.173E3,6.7E1,1.106E3,2.9E1,3.8E1,1.24E2,9.82E2,7E0,2.2E1,3.5E1,3E0,9E0,1.15E2,4.12E2,5.7E2,2E0,3.3E1,1E0,8E0,6.6E1,4.9E1,2.11E2,2.01E2,1.5E2,4.2E2,9E0,2.4E1,7E0,1E0,1.5E1,5.1E1,4.2E1,7E0,3.9E1,1.72E2,1E0,2E2,1.03E2,4.7E1,8E0,7E0,2.7E1,2.4E1,3E1,1.2E1,1E0,6E0,5E0,3.4E1,3E1,1.42E2,5.4E1,1.46E2,4.5E1,5.8E1,5E0,4.2E1],"tree_param":{"num_deleted":"0","num_feature":"13","num_nodes":"57","size_leaf_vector":"1"}},{"base_weights":[-8.609716E0,4.5712866E2,-3.272881E1,5.8551117E2,2.975507E2,3.418843E1,-4.26393E1,1.4896122E-1,6.017272E2,3.3490085E2,1.1100839E2,2.9249337E-1,2.4517183E1,-2.3369328E1,-5.2799435E1,1.7031008E0,1.104749E0,2.2837315E-1,8.852142E-1,3.4259525E-1,1.1713281E-1,9.314678E0,4.4614697E1,-5.045606E0,-2.7809147E1,-4.302455E1,-5.7124325E1,1.607725E1,-8.19632E0,9.3301254E1,3.2804024E1,5.992973E1,-1.2669025E1,-1.9148235E1,-3.4513348E1,-2.934751E1,-4.576463E1,-1.480249E-1,-4.8488036E-2,-1.7822804E-2,6.333476E-2,-3.948696E-3,-3.9756298E-2,-3.9479446E-2,3.6711574E-1,1.971489E-2,9.6270934E-2,1.9213565E-1,4.1258294E-2,1.6504265E-1,-3.900596E-2,-2.8620007E-2,-6.0386572E-2,-7.8063846E-2,-1.1438356E-1,-8.420721E-2,-3.0466756E-2,-1.18674785E-1,-2.9880423E-2],"categories":[0,1,2,3,4,5,7,8,9,10,12,13,16,19,20,21,22,26,27,28,29,30,31,33,34,35,38,39,41,43,44,46,47,49,50,51,52,53,54,55,56,58,59,60,61,63,64,65,67,69,70,71,72,73,76,77,78,79,80,81,82,83,84,85,86,87,88,89,90,91,93,94,95,96,97,98,99,100,101,102,104,107,109,110,111,112,113,114,115,116,0,1,2,3,4,5,6,7,8,9,10,11,12,13,14,16,19,20,21,22,23,26,27,28,29,30,31,33,34,35,36,38,39,40,41,43,44,45,46,47,48,49,50,51,52,53,54,55,56,57,58,59,60,61,63,64,65,67,69,70,71,72,73,74,75,76,77,78,79,80,81,82,83,84,85,86,87,88,89,90,91,93,94,95,96,97,98,99,100,101,102,104,105,106,107,109,110,111,112,113,114,115,116,117,0,1,3,4,5,6,7,8,9,10,11,13,14,15,16,17,18,19,20,21,22,23,24,25,26,27,28,30,31,32,33,34,35,36,37,38,39,40,42,43,45,46,47,48,50,51,52,53,55,56,57,58,59,60,61,62,63,64,65,66,67,68,69,70,71,73,74,75,76,77,79,80,81,82,85,86,87,88,89,90,91,92,93,94,97,98,100,101,102,103,104,105,106,107,108,109,110,111,112,113,114,115,116,117,0,1,3,4,5,6,7,8,9,10,11,13,14,15,16,17,18,19,20,21,22,23,24,25,26,27,28,29,30,31,32,33,34,35,36,37,38,39,40,41,42,43,44,45,46,47,48,50,51,52,53,54,55,56,57,58,59,60,61,62,63,64,65,66,67,68,69,70,71,72,73,74,75,76,77,78,79,80,81,82,83,84,85,86,87,88,89,90,91,92,93,94,96,97,98,99,100,101,102,103,104,105,106,107,108,109,110,111,112,113,114,115,116,117,1,4,5,8,9,13,19,26,33,34,35,38,39,46,47,51,52,53,55,58,60,64,65,69,77,79,80,81,85,86,91,93,94,100,101,104,107,109,110,111,112,113,114,1,4,5,8,9,19,35,39,46,51,52,53,55,58,64,65,69,77,79,80,85,86,93,94,100,101,111,112,0,1,2,3,4,5,6,7,8,9,10,11,12,13,14,15,16,17,18,19,20,21,22,23,24,25,26,27,28,29,30,31,32,33,34,35,36,37,38,39,40,41,42,43,44,45,46,47,48,49,50,51,52,53,54,55,56,57,58,59,60,61,62,63,64,65,66,67,68,69,70,71,73,74,75,76,77,78,79,80,81,82,83,84,85,86,87,88,89,90,91,92,93,94,95,96,97,98,100,101,102,103,104,105,106,107,108,109,110,111,112,113,114,115,116,117,0,1,2,3,4,5,6,7,8,9,10,11,12,13,14,15,16,17,18,19,20,22,23,24,25,26,27,28,29,30,31,32,33,34,35,36,37,38,39,40,41,42,43,44,45,46,47,48,49,50,51,52,53,54,55,56,57,58,59,60,61,62,63,64,65,66,67,68,69,70,71,72,73,74,75,76,77,78,79,80,81,82,83,84,85,86,88,89,90,91,92,93,94,95,96,97,98,99,100,101,102,103,104,105,106,107,108,109,110,111,112,113,114,115,116,117,3,7,10,16,30,50,56,67,73,87,88,97,98,102],"categories_nodes":[0,1,2,5,6,14,22,23,24],"categories_segments":[0,90,194,298,412,455,483,599,715],"categories_sizes":[90,104,104,114,43,28,116,116,14],"default_left":[0,0,0,0,0,0,1,0,0,0,0,0,0,0,1,0,0,0,0,0,0,0,0,0,1,0,0,1,0,0,0,0,0,0,0,1,0,0,0,0,0,0,0,0,0,0,0,0,0,0,0,0,0,0,0,0,0,0,0],"id":8,"left_children":[1,3,5,7,9,11,13,-1,15,17,19,-1,21,23,25,-1,-1,-1,-1,-1,-1,27,29,31,33,35,37,39,41,43,45,47,49,51,53,55,57,-1,-1,-1,-1,-1,-1,-1,-1,-1,-1,-1,-1,-1,-1,-1,-1,-1,-1,-1,-1,-1,-1],"loss_changes":[1.2775861E7,9.73054E5,7.183585E5,2.22132E5,1.509425E5,1.04134734E5,1.83196E5,0E0,7.169E3,1.06145E4,2.4779453E3,0E0,3.808154E4,2.6462438E4,2.3583875E4,0E0,0E0,0E0,0E0,0E0,0E0,8.776387E3,2.7990477E4,3.2955977E4,1.4610109E4,5.8897812E3,1.161E3,1.042405E4,9.824437E2,5.505846E4,4.7433633E3,3.2445469E3,1.1887903E4,3.7213477E3,4.8388594E3,1.5996445E3,2.489375E2,0E0,0E0,0E0,0E0,0E0,0E0,0E0,0E0,0E0,0E0,0E0,0E0,0E0,0E0,0E0,0E0,0E0,0E0,0E0,0E0,0E0,0E0],"parents":[2147483647,0,0,1,1,2,2,3,3,4,4,5,5,6,6,8,8,9,9,10,10,12,12,13,13,14,14,21,21,22,22,23,23,24,24,25,25,26,26,27,27,28,28,29,29,30,30,31,31,32,32,33,33,34,34,35,35,36,36],"right_children":[2,4,6,8,10,12,14,-1,16,18,20,-1,22,24,26,-1,-1,-1,-1,-1,-1,28,30,32,34,36,38,40,42,44,46,48,50,52,54,56,58,-1,-1,-1,-1,-1,-1,-1,-1,-1,-1,-1,-1,-1,-1,-1,-1,-1,-1,-1,-1,-1,-1],"split_conditions":[1E-45,1E-45,1E-45,2.89E1,6.9513E1,1E-45,1E-45,1.4896122E-1,6.0186E1,2.95E1,4.119E1,2.9249337E-1,3.24E1,1.992E3,1E-45,1.7031008E0,1.104749E0,2.2837315E-1,8.852142E-1,3.4259525E-1,1.1713281E-1,8.0543E1,1E-45,1E-45,1E-45,1.992E3,2.97E1,7.5E0,1.64E1,1.988E3,3.37E1,1.99E3,4.8553E1,9.8E1,5.16E1,4.371E0,6.18E1,-1.480249E-1,-4.8488036E-2,-1.7822804E-2,6.333476E-2,-3.948696E-3,-3.9756298E-2,-3.9479446E-2,3.6711574E-1,1.971489E-2,9.6270934E-2,1.9213565E-1,4.1258294E-2,1.6504265E-1,-3.900596E-2,-2.8620007E-2,-6.0386572E-2,-7.8063846E-2,-1.1438356E-1,-8.420721E-2,-3.0466756E-2,-1.18674785E-1,-2.9880423E-2],"split_indices":[1,1,1,2,3,1,1,0,3,10,5,0,2,0,1,0,0,0,0,0,0,3,1,1,1,0,2,8,2,0,7,0,3,6,7,9,2,0,0,0,0,0,0,0,0,0,0,0,0,0,0,0,0,0,0,0,0,0,0],"split_type":[1,1,1,0,0,1,1,0,0,0,0,0,0,0,1,0,0,0,0,0,0,0,1,1,1,0,0,0,0,0,0,0,0,0,0,0,0,0,0,0,0,0,0,0,0,0,0,0,0,0,0,0,0,0,0,0,0,0,0],"sum_hessian":[1.135E3,5.5E1,1.08E3,2.9E1,2.6E1,1.39E2,9.41E2,1E0,2.8E1,2.1E1,5E0,1.4E1,1.25E2,3.26E2,6.15E2,1.9E1,9E0,1E0,2E1,3E0,2E0,7.2E1,5.3E1,6.4E1,2.62E2,1.92E2,4.23E2,5.2E1,2E1,9E0,4.4E1,6E0,5.8E1,1.16E2,1.46E2,3.4E1,1.58E2,4.21E2,2E0,1.4E1,3.8E1,1.1E1,9E0,3E0,6E0,7E0,3.7E1,4E0,2E0,1E0,5.7E1,4.1E1,7.5E1,1.04E2,4.2E1,2.8E1,6E0,1.57E2,1E0],"tree_param":{"num_deleted":"0","num_feature":"13","num_nodes":"59","size_leaf_vector":"1"}},{"base_weights":[5.081195E-1,6.1719055E2,-2.8667494E1,7.954752E2,3.999554E2,1.8236246E2,-3.405641E1,1.0488791E0,2.1859593E0,4.2260745E2,4.533686E-1,7.1924496E-1,1.2735274E2,-4.5074862E-1,-4.8419144E1,3.1306794E-1,1.1146712E0,1.3893958E2,1.7351341E-1,2.4225502E1,-1.4884101E1,-3.6757187E1,-5.68939E1,4.3589073E-1,1.0041764E2,7.216511E1,1.8569834E1,9.909603E0,-1.8004164E1,-2.3768654E1,-4.0332764E1,-1.2871931E-1,-1.4973865E-1,2.72605E-1,7.771472E-2,3.1398952E-3,2.4733922E-1,2.8745422E-2,1.2023069E-1,1.3520056E-1,-2.1012653E-2,-5.0639622E-2,3.6032364E-2,-3.671774E-2,-9.513417E-2,-7.106159E-2,-1.0929957E-1],"categories":[1,2,3,4,5,6,7,8,9,10,12,13,15,16,19,21,22,23,26,28,29,30,31,33,34,35,38,39,40,41,44,46,47,48,49,50,51,52,53,54,55,56,58,59,60,61,64,65,67,69,70,71,72,73,74,75,77,78,79,80,81,82,83,84,85,86,87,88,89,91,92,93,94,95,96,97,98,99,100,101,102,104,105,107,109,110,111,112,113,114,115,116,117,1,2,3,4,5,6,7,8,9,10,11,12,13,14,15,16,17,19,21,22,23,26,28,29,30,31,33,34,35,36,37,38,39,40,41,44,45,46,47,48,49,50,51,52,53,54,55,56,58,59,60,61,62,64,65,66,67,69,70,71,72,73,74,75,76,77,78,79,80,81,82,83,84,85,86,87,88,89,90,91,92,93,94,95,96,97,98,99,100,101,102,104,105,106,107,108,109,110,111,112,113,114,115,116,117,0,1,2,3,4,5,6,7,8,9,10,11,13,14,15,16,17,18,19,20,21,22,23,24,25,26,27,28,29,30,31,32,33,34,35,36,37,38,39,40,41,42,43,44,45,46,47,50,51,52,53,54,55,56,57,58,59,60,61,62,63,64,65,66,67,68,69,70,71,72,73,76,77,78,79,80,81,82,83,84,85,86,87,88,89,90,91,92,93,94,95,96,97,98,99,100,101,102,103,104,106,107,108,109,110,111,112,113,114,115,116,1,3,4,5,7,8,9,10,13,16,19,26,30,33,34,35,38,39,46,47,50,51,52,53,55,56,58,60,61,64,65,69,73,77,79,80,81,85,86,88,93,94,100,101,102,104,107,109,110,111,112,113,114,0,1,2,3,4,5,6,7,8,9,10,11,12,13,14,15,16,17,18,19,20,21,22,23,24,25,26,27,28,30,31,32,33,34,35,36,37,38,39,40,42,43,45,46,47,48,49,50,51,52,53,55,56,57,58,59,60,61,62,63,64,65,66,67,68,69,70,71,73,74,75,76,77,78,79,80,81,82,85,86,87,88,89,90,91,92,93,94,95,97,98,100,101,102,103,104,105,106,107,108,109,110,111,112,113,114,115,116,117,4,5,8,9,13,19,35,39,46,47,51,52,53,55,58,64,65,69,73,77,79,80,85,86,93,94,100,101,110,111,112,0,1,2,3,4,5,6,7,8,9,10,11,12,13,14,15,16,17,18,19,20,21,22,23,24,25,26,27,28,29,30,31,32,33,34,35,36,37,38,39,40,41,42,43,44,45,46,47,48,49,50,51,52,53,54,55,56,57,58,59,60,61,62,63,64,65,66,67,68,69,71,72,73,74,75,76,77,78,79,80,81,82,83,84,85,86,88,89,90,91,92,93,94,95,96,97,98,99,100,101,102,103,104,105,106,107,108,109,110,111,112,113,114,115,116,117],"categories_nodes":[0,1,2,6,13,14,27],"categories_segments":[0,93,198,309,362,471,502],"categories_sizes":[93,105,111,53,109,31,116],"default_left":[0,0,0,0,0,0,1,0,0,0,0,0,0,0,1,0,0,0,0,0,0,0,0,0,0,0,1,0,1,0,0,0,0,0,0,0,0,0,0,0,0,0,0,0,0,0,0],"id":9,"left_children":[1,3,5,7,9,11,13,-1,-1,15,-1,-1,17,19,21,-1,-1,23,-1,25,27,29,31,-1,33,35,37,39,41,43,45,-1,-1,-1,-1,-1,-1,-1,-1,-1,-1,-1,-1,-1,-1,-1,-1],"loss_changes":[2.0312768E7,1.65706E6,1.2321369E6,1.84478E5,5.305975E4,1.0695731E5,5.0774612E5,0E0,0E0,4.758E3,0E0,0E0,3.9340312E3,1.1290746E5,7.0748125E4,0E0,0E0,2.1746875E2,0E0,3.038218E4,1.5649992E4,1.3577531E4,2.26125E2,0E0,1.8757812E1,1.9904754E4,2.1547047E4,1.801222E4,9.286152E3,8.203285E3,4.9439375E3,0E0,0E0,0E0,0E0,0E0,0E0,0E0,0E0,0E0,0E0,0E0,0E0,0E0,0E0,0E0,0E0],"parents":[2147483647,0,0,1,1,2,2,3,3,4,4,5,5,6,6,9,9,12,12,13,13,14,14,17,17,19,19,20,20,21,21,22,22,24,24,25,25,26,26,27,27,28,28,29,29,30,30],"right_children":[2,4,6,8,10,12,14,-1,-1,16,-1,-1,18,20,22,-1,-1,24,-1,26,28,30,32,-1,34,36,38,40,42,44,46,-1,-1,-1,-1,-1,-1,-1,-1,-1,-1,-1,-1,-1,-1,-1,-1],"split_conditions":[1E-45,1E-45,1E-45,1.94E1,7.2098E1,2.006E3,1E-45,1.0488791E0,2.1859593E0,1.993E3,4.533686E-1,7.1924496E-1,4.25E1,1E-45,1E-45,3.1306794E-1,1.1146712E0,4.5248E1,1.7351341E-1,1.0165E1,1.99E3,7.5218E1,8.402E1,4.3589073E-1,2.015E3,2.51E1,4.9722E1,1E-45,1.36E1,1.999E3,1.991E3,-1.2871931E-1,-1.4973865E-1,2.72605E-1,7.771472E-2,3.1398952E-3,2.4733922E-1,2.8745422E-2,1.2023069E-1,1.3520056E-1,-2.1012653E-2,-5.0639622E-2,3.6032364E-2,-3.671774E-2,-9.513417E-2,-7.106159E-2,-1.0929957E-1],"split_indices":[1,1,1,8,3,0,1,0,0,0,0,0,7,1,1,0,0,5,0,5,0,3,3,0,0,7,5,1,8,0,0,0,0,0,0,0,0,0,0,0,0,0,0,0,0,0,0],"split_type":[1,1,1,0,0,0,1,0,0,0,0,0,0,1,1,0,0,0,0,0,0,0,0,0,0,0,0,1,0,0,0,0,0,0,0,0,0,0,0,0,0,0,0,0,0,0,0],"sum_hessian":[1.127E3,5E1,1.077E3,2.6E1,2.4E1,2.6E1,1.051E3,4E0,2.2E1,2.1E1,3E0,8E0,1.8E1,3.15E2,7.36E2,1E0,2E1,1.4E1,4E0,1.16E2,1.99E2,3.12E2,4.24E2,6E0,8E0,1.1E1,1.05E2,2.2E1,1.77E2,6.9E1,2.43E2,6E1,3.64E2,7E0,1E0,3E0,8E0,8.4E1,2.1E1,6E0,1.6E1,1.69E2,8E0,4.1E1,2.8E1,3.4E1,2.09E2],"tree_param":{"num_deleted":"0","num_feature":"13","num_nodes":"47","size_leaf_vector":"1"}},{"base_weights":[1.8055215E0,6.219301E2,-3.0599012E1,8.676443E2,4.0949078E2,5.0938316E1,-4.261269E1,1.5776278E0,2.5601122E0,4.3017184E2,3.929551E-1,1.6370123E2,2.6820576E1,-2.623744E1,-5.352193E1,3.1266332E-1,1.1288021E0,2.1973589E2,2.6879072E-1,2.6325446E-1,2.263708E1,-1.5245249E1,-3.1445692E1,-4.194146E1,-5.6547E1,6.2088966E-1,2.0248841E-1,8.395081E0,3.8306057E1,2.6932892E1,-1.648289E1,1.648768E-1,-3.205259E1,-4.5394142E1,-3.1044836E1,-1.463674E-1,-2.9748864E-2,-1.3042225E-2,4.3074258E-2,6.823792E-2,2.010861E-1,-2.0455763E-2,1.06467985E-1,-3.1394057E-2,-7.258461E-2,-5.3236444E-2,-9.139271E-2,-1.2107293E-1,-4.375589E-2,-5.0094705E-2,-8.644548E-2],"categories":[1,2,3,4,5,6,7,8,9,10,12,13,16,19,21,22,23,24,26,28,29,30,31,33,34,35,38,39,41,44,46,47,49,50,51,52,53,54,55,56,58,59,60,61,64,65,67,69,70,71,72,73,74,75,77,78,79,80,81,82,83,84,85,86,87,88,89,91,93,94,95,96,97,98,99,100,101,102,104,105,107,109,110,111,112,113,114,115,116,117,1,2,3,4,5,6,7,8,9,10,11,12,13,14,15,16,17,19,21,22,23,24,25,26,27,28,29,30,31,33,34,35,36,37,38,39,40,41,44,45,46,47,48,49,50,51,52,53,54,55,56,58,59,60,61,64,65,66,67,69,70,71,72,73,74,75,76,77,78,79,80,81,82,83,84,85,86,87,88,89,90,91,93,94,95,96,97,98,99,100,101,102,104,105,106,107,108,109,110,111,112,113,114,115,116,117,0,1,3,4,5,7,8,9,10,11,13,14,15,16,17,18,19,20,21,22,23,24,25,26,27,28,30,31,32,33,34,35,36,37,38,39,40,42,43,45,46,47,48,50,51,52,53,55,56,57,58,59,60,61,62,63,64,65,66,67,68,69,70,71,73,76,77,78,79,80,81,82,85,86,87,88,89,90,91,92,93,94,97,98,100,101,102,103,104,106,107,108,109,110,111,112,113,114,115,116,0,1,3,4,5,7,8,9,10,11,13,14,15,16,17,18,19,20,21,22,23,24,25,26,27,28,29,30,31,32,33,34,35,36,37,38,39,40,41,42,43,44,45,46,47,48,50,51,52,53,54,55,56,57,58,59,60,61,62,63,64,65,66,67,68,69,70,71,72,73,76,77,78,79,80,81,82,84,85,86,87,88,89,90,91,92,93,94,95,96,97,98,99,100,101,102,103,104,106,107,108,109,110,111,112,113,114,115,116,117,1,4,5,8,9,13,19,33,35,38,39,46,47,50,51,52,53,55,58,64,65,69,73,77,79,80,81,85,86,93,94,100,101,104,107,111,112,113,3,7,10,16,26,28,34,56,60,61,87,88,97,98,102,109,110,114,116,1,4,5,8,9,19,35,39,46,47,51,52,53,55,58,64,65,69,73,77,79,80,85,86,93,94,100,101,111,112,13,33,38,113],"categories_nodes":[0,1,2,5,6,13,14,34],"categories_segments":[0,90,196,296,406,444,463,493],"categories_sizes":[90,106,100,110,38,19,30,4],"default_left":[0,0,0,0,0,0,1,0,0,0,0,0,0,1,1,0,0,0,0,0,0,0,0,0,0,0,0,0,0,0,1,0,0,0,1,0,0,0,0,0,0,0,0,0,0,0,0,0,0,0,0],"id":10,"left_children":[1,3,5,7,9,11,13,-1,-1,15,-1,17,19,21,23,-1,-1,25,-1,-1,27,29,31,33,35,-1,-1,37,39,41,43,-1,45,47,49,-1,-1,-1,-1,-1,-1,-1,-1,-1,-1,-1,-1,-1,-1,-1,-1],"loss_changes":[2.346972E7,2.672268E6,1.0894858E6,2.1666E5,1.10334E5,3.8451028E5,1.7152075E5,0E0,0E0,7.411E3,0E0,6.0815688E4,3.5040555E4,2.1790906E4,1.794675E4,0E0,0E0,1.58839375E4,0E0,0E0,2.5118379E4,7.073504E3,1.7243781E4,3.2559375E3,8.61875E2,0E0,0E0,6.862413E3,2.333682E4,2.312547E3,5.8970938E3,0E0,9.183969E3,2.9826094E3,2.7424414E2,0E0,0E0,0E0,0E0,0E0,0E0,0E0,0E0,0E0,0E0,0E0,0E0,0E0,0E0,0E0,0E0],"parents":[2147483647,0,0,1,1,2,2,3,3,4,4,5,5,6,6,9,9,11,11,12,12,13,13,14,14,17,17,20,20,21,21,22,22,23,23,24,24,27,27,28,28,29,29,30,30,32,32,33,33,34,34],"right_children":[2,4,6,8,10,12,14,-1,-1,16,-1,18,20,22,24,-1,-1,26,-1,-1,28,30,32,34,36,-1,-1,38,40,42,44,-1,46,48,50,-1,-1,-1,-1,-1,-1,-1,-1,-1,-1,-1,-1,-1,-1,-1,-1],"split_conditions":[1E-45,1E-45,1E-45,2.53E1,7.2098E1,1E-45,1E-45,1.5776278E0,2.5601122E0,1.993E3,3.929551E-1,2.86E1,6.897E0,1E-45,1E-45,3.1266332E-1,1.1288021E0,2.015E3,2.6879072E-1,2.6325446E-1,3.11E1,5.08589E1,4.8553E1,4.4044E1,3.08E1,6.2088966E-1,2.0248841E-1,3.1628E1,4.45E1,2.001E3,1.01E1,1.648768E-1,1.995E3,6.18E1,1E-45,-1.463674E-1,-2.9748864E-2,-1.3042225E-2,4.3074258E-2,6.823792E-2,2.010861E-1,-2.0455763E-2,1.06467985E-1,-3.1394057E-2,-7.258461E-2,-5.3236444E-2,-9.139271E-2,-1.2107293E-1,-4.375589E-2,-5.0094705E-2,-8.644548E-2],"split_indices":[1,1,1,8,3,1,1,0,0,0,0,7,5,1,1,0,0,0,0,0,2,11,3,5,2,0,0,5,7,0,8,0,0,2,1,0,0,0,0,0,0,0,0,0,0,0,0,0,0,0,0],"split_type":[1,1,1,0,0,1,1,0,0,0,0,0,0,1,1,0,0,0,0,0,0,0,0,0,0,0,0,0,0,0,0,0,0,0,1,0,0,0,0,0,0,0,0,0,0,0,0,0,0,0,0],"sum_hessian":[1.166E3,5.7E1,1.109E3,2.5E1,3.2E1,1.42E2,9.67E2,1E1,1.5E1,2.9E1,3E0,2.4E1,1.18E2,3.88E2,5.79E2,1E0,2.8E1,1.1E1,1.3E1,5E0,1.13E2,1.26E2,2.62E2,1.23E2,4.56E2,9E0,2E0,6E1,5.3E1,3E0,1.23E2,1E0,2.61E2,9.1E1,3.2E1,4.55E2,1E0,2.3E1,3.7E1,4.2E1,1.1E1,1E0,2E0,9.1E1,3.2E1,6E1,2.01E2,8.6E1,5E0,7E0,2.5E1],"tree_param":{"num_deleted":"0","num_feature":"13","num_nodes":"51","size_leaf_vector":"1"}},{"base_weights":[-2.038687E0,4.8950565E2,-3.3847816E1,1.9042767E0,3.4543918E2,2.2785957E1,-4.3164177E1,3.8687552E2,1.4929352E2,6.778086E1,9.176301E0,-2.5931166E1,-5.3626945E1,4.0709222E2,6.108499E-1,4.559105E-1,1.6698791E-1,3.812499E0,8.257973E1,5.2632184E0,4.8895863E1,-1.0589196E1,-3.1006788E1,-4.2461468E1,-5.6318638E1,3.8595095E-1,1.0829014E0,-2.987528E-2,5.705517E-2,1.10188385E2,4.3156372E1,8.450257E-1,2.179623E1,1.4572035E-1,2.6300812E-2,5.821594E1,-1.4335673E1,-2.1132885E1,-3.7039146E1,-4.4263855E1,-1.511354E1,-1.205399E-1,-1.471594E-1,5.0809674E-2,2.9629496E-1,4.667853E-2,1.2501368E-1,-3.1555586E-2,2.8096298E-2,9.074952E-3,9.56438E-2,1.7792135E-1,2.038637E-2,1.6466369E-1,-4.1222036E-2,-3.820951E-2,-6.4251274E-2,-9.698854E-2,5.6919474E-2,-1.20359264E-1,-8.872054E-2,-4.2287007E-2,-6.6642105E-3],"categories":[1,2,3,4,5,7,8,9,10,12,13,16,18,19,21,22,26,27,28,29,30,32,33,34,35,37,38,39,41,44,45,46,47,50,51,52,53,54,55,56,58,59,60,61,64,65,67,69,70,71,72,73,74,77,78,79,80,81,82,83,84,85,86,87,88,89,91,93,94,95,96,97,98,99,100,101,102,104,107,109,110,111,112,113,114,115,116,1,2,3,4,5,6,7,8,9,10,11,12,13,14,16,17,18,19,21,22,23,24,25,26,27,28,29,30,31,32,33,34,35,36,37,38,39,40,41,44,45,46,47,48,49,50,51,52,53,54,55,56,58,59,60,61,64,65,66,67,69,70,71,72,73,74,75,76,77,78,79,80,81,82,83,84,85,86,87,88,89,90,91,93,94,95,96,97,98,99,100,101,102,104,105,106,107,108,109,110,111,112,113,114,115,116,117,1,3,4,5,7,8,9,10,13,16,19,21,26,28,30,33,34,35,38,39,46,47,50,51,52,53,55,56,58,59,60,61,64,65,67,69,70,71,73,77,79,80,81,82,85,86,87,88,93,94,97,98,100,101,102,104,107,109,110,111,112,113,114,115,116,0,1,3,4,5,6,7,8,9,10,11,13,14,15,16,17,18,19,20,21,22,23,24,25,26,27,28,29,30,31,32,33,34,35,36,37,38,39,40,41,42,43,45,46,47,48,49,50,51,52,53,54,55,56,57,58,59,60,61,62,63,64,65,66,67,68,69,70,71,73,74,75,76,77,78,79,80,81,82,83,84,85,86,87,88,89,90,91,92,93,94,95,96,97,98,99,100,101,102,103,104,105,106,107,108,109,110,111,112,113,114,115,116,117,1,4,5,8,9,13,19,33,35,38,39,46,47,51,52,53,55,58,64,65,69,73,77,79,80,81,85,86,93,94,100,101,104,107,110,111,112,113,114,1,4,5,8,9,13,19,35,39,46,47,51,52,53,55,58,64,65,69,73,77,79,80,85,86,93,94,100,101,110,111,112,0,1,3,4,5,6,7,8,9,10,11,13,14,15,16,17,18,19,20,21,22,23,24,25,26,27,28,29,30,31,32,33,34,35,36,37,38,39,40,41,42,43,44,45,46,47,48,49,50,51,52,53,54,55,56,57,58,59,60,61,62,63,64,65,66,67,68,69,70,71,73,74,75,76,77,78,79,80,81,82,83,84,85,86,87,88,89,90,91,92,93,94,95,96,97,98,99,100,101,102,103,104,105,106,107,108,109,110,111,112,113,114,115,116,117,0,1,2,3,4,5,6,7,8,9,10,11,12,13,14,15,16,17,18,19,20,21,22,23,24,25,26,27,28,29,30,31,32,33,34,35,36,37,38,39,40,41,42,43,44,45,46,47,48,49,50,51,52,53,54,55,56,57,58,59,60,61,62,63,64,65,66,67,68,69,70,71,72,73,74,75,76,77,78,79,80,81,82,83,84,85,86,88,89,90,91,92,93,94,95,96,97,98,99,100,101,102,103,104,105,106,107,108,109,110,111,112,113,114,115,116,117,3,7,10,16,26,30,34,50,56,60,87,88,98,102,109,28,59,61,70,97,116],"categories_nodes":[0,1,2,5,6,12,18,21,22,37],"categories_segments":[0,87,194,259,373,412,444,559,676,691],"categories_sizes":[87,107,65,114,39,32,115,117,15,6],"default_left":[0,0,0,0,0,0,1,1,0,0,1,0,1,0,0,0,0,0,0,1,0,0,1,0,0,0,0,0,0,0,0,1,0,0,0,0,0,1,1,0,0,0,0,0,0,0,0,0,0,0,0,0,0,0,0,0,0,0,0,0,0,0,0],"id":11,"left_children":[1,3,5,-1,7,9,11,13,15,17,19,21,23,25,-1,-1,-1,27,29,31,33,35,37,39,41,-1,-1,-1,-1,43,45,47,49,-1,-1,51,53,55,57,59,61,-1,-1,-1,-1,-1,-1,-1,-1,-1,-1,-1,-1,-1,-1,-1,-1,-1,-1,-1,-1,-1,-1],"loss_changes":[1.8779284E7,2.344686E6,5.9613975E5,0E0,3.323645E5,9.735643E4,1.7332488E5,2.25255E4,1.1534797E4,3.4711562E4,1.9015469E4,2.832786E4,1.5701125E4,3.79735E4,0E0,0E0,0E0,2.5000684E3,2.7897453E4,8.30883E3,2.6100977E3,2.4807816E4,1.5656625E4,5.2952812E3,1.86375E2,0E0,0E0,0E0,0E0,4.565047E3,9.552988E2,1.2038087E4,6.5418164E3,0E0,0E0,2.1274238E3,1.2201344E4,2.1623086E3,5.642625E3,9.815469E2,9.82561E1,0E0,0E0,0E0,0E0,0E0,0E0,0E0,0E0,0E0,0E0,0E0,0E0,0E0,0E0,0E0,0E0,0E0,0E0,0E0,0E0,0E0,0E0],"parents":[2147483647,0,0,1,1,2,2,4,4,5,5,6,6,7,7,8,8,9,9,10,10,11,11,12,12,13,13,17,17,18,18,19,19,20,20,21,21,22,22,23,23,24,24,29,29,30,30,31,31,32,32,35,35,36,36,37,37,38,38,39,39,40,40],"right_children":[2,4,6,-1,8,10,12,14,16,18,20,22,24,26,-1,-1,-1,28,30,32,34,36,38,40,42,-1,-1,-1,-1,44,46,48,50,-1,-1,52,54,56,58,60,62,-1,-1,-1,-1,-1,-1,-1,-1,-1,-1,-1,-1,-1,-1,-1,-1,-1,-1,-1,-1,-1,-1],"split_conditions":[1E-45,1E-45,1E-45,1.9042767E0,7.2098E1,1E-45,1E-45,4.26191E1,7.4962E1,3.08E1,6.2295E1,1.995E3,1E-45,1.993E3,6.108499E-1,4.559105E-1,1.6698791E-1,2.09E1,1E-45,3.571E0,2.012E3,1E-45,1E-45,6.33E1,8.2338E1,3.8595095E-1,1.0829014E0,-2.987528E-2,5.705517E-2,3.31E1,1.994E3,9.3E0,3.72E1,1.4572035E-1,2.6300812E-2,1.989E3,4.8553E1,1E-45,9.687225E1,4.4721E1,7.2845E1,-1.205399E-1,-1.471594E-1,5.0809674E-2,2.9629496E-1,4.667853E-2,1.2501368E-1,-3.1555586E-2,2.8096298E-2,9.074952E-3,9.56438E-2,1.7792135E-1,2.038637E-2,1.6466369E-1,-4.1222036E-2,-3.820951E-2,-6.4251274E-2,-9.698854E-2,5.6919474E-2,-1.20359264E-1,-8.872054E-2,-4.2287007E-2,-6.6642105E-3],"split_indices":[1,1,1,0,3,1,1,11,3,2,5,0,1,0,0,0,0,2,1,9,0,1,1,2,3,0,0,0,0,2,0,8,2,0,0,0,3,1,11,5,3,0,0,0,0,0,0,0,0,0,0,0,0,0,0,0,0,0,0,0,0,0,0],"split_type":[1,1,1,0,0,1,1,0,0,0,0,0,1,0,0,0,0,0,1,0,0,1,1,0,0,0,0,0,0,0,0,0,0,0,0,0,0,1,0,0,0,0,0,0,0,0,0,0,0,0,0,0,0,0,0,0,0,0,0,0,0,0,0],"sum_hessian":[1.199E3,7.2E1,1.127E3,2.5E1,4.7E1,1.59E2,9.68E2,3.8E1,9E0,3.6E1,1.23E2,3.67E2,6.01E2,3.2E1,6E0,6E0,3E0,7E0,2.9E1,1.13E2,1E1,9.2E1,2.75E2,1.2E2,4.81E2,2E0,3E1,4E0,3E0,1.6E1,1.3E1,9E1,2.3E1,8E0,2E0,4E0,8.8E1,1.06E2,1.69E2,1.12E2,8E0,3.3E1,4.48E2,1E0,1.5E1,3E0,1E1,3.9E1,5.1E1,1.1E1,1.2E1,3E0,1E0,1E0,8.7E1,4.1E1,6.5E1,1.68E2,1E0,8.8E1,2.4E1,7E0,1E0],"tree_param":{"num_deleted":"0","num_feature":"13","num_nodes":"63","size_leaf_vector":"1"}},{"base_weights":[-4.2598483E-1,4.891801E2,-3.3924976E1,7.4618414E2,3.303342E2,1.6717253E1,-4.3500534E1,7.758326E-1,1.98561E0,3.6092682E2,1.508649E2,5.68763E1,5.367049E0,-2.8127003E1,-5.502845E1,3.965889E2,6.171118E-1,4.738825E-1,1.6666417E-1,8.554528E1,1.3056782E1,1.4212004E1,-1.1368807E1,-3.5412865E1,-1.7504194E1,-4.9030476E1,-1.500184E-1,2.1737108E-1,1.0448878E0,2.8182015E-1,3.4309437E1,-6.4637747E0,3.582538E1,2.2070251E1,3.5154822E0,-1.871419E1,-7.0177255E0,-2.4414177E1,-4.2142612E1,1.643133E1,-2.0894285E1,-1.6450245E-2,-4.9223576E1,-8.422791E-3,1.018841E-1,2.3007786E-2,-3.7017647E-2,1.0495171E-1,3.705849E-2,4.341963E-2,1.0115106E-1,8.382715E-2,-3.6212797E-3,-2.2140443E-3,-6.140863E-2,-2.3410376E-2,2.5912635E-2,-4.2813655E-2,-7.322554E-2,-1.10435314E-1,5.68459E-2,1.8917388E-1,-5.9292465E-3,1.2834327E-1,-5.7235543E-2,-1.4038357E-1,-1.1999078E-1],"categories":[1,2,3,4,5,7,8,9,10,12,13,16,19,21,22,24,26,28,29,30,33,34,35,38,39,41,43,44,46,47,50,51,52,53,54,55,56,58,59,60,61,64,65,67,69,70,71,72,73,77,78,79,80,81,82,83,84,85,86,87,88,89,91,92,93,94,95,96,97,98,99,100,101,102,104,106,107,109,110,111,112,113,114,115,116,1,2,3,4,5,6,7,8,9,10,11,12,13,14,16,17,19,21,22,23,24,26,28,29,30,31,33,34,35,36,37,38,39,40,41,43,44,45,46,47,48,49,50,51,52,53,54,55,56,57,58,59,60,61,64,65,66,67,69,70,71,72,73,74,75,76,77,78,79,80,81,82,83,84,85,86,87,88,89,90,91,92,93,94,95,96,97,98,99,100,101,102,104,105,106,107,108,109,110,111,112,113,114,115,116,117,1,3,4,5,7,8,9,10,13,16,19,26,28,30,33,34,35,38,39,46,47,50,51,52,53,55,56,58,59,60,61,64,65,67,69,70,73,77,79,80,81,82,85,86,87,88,93,94,97,98,100,101,102,104,107,109,110,111,112,113,114,116,0,1,2,3,4,5,6,7,8,9,10,11,13,14,15,16,17,18,19,20,21,22,23,24,25,26,27,28,29,30,31,32,33,34,35,36,37,38,39,40,41,42,43,45,46,47,48,49,50,51,52,53,54,55,56,57,58,59,60,61,62,63,64,65,66,67,68,69,70,71,73,74,75,76,77,78,79,80,81,82,84,85,86,87,88,89,90,91,92,93,94,95,96,97,98,99,100,101,102,103,104,105,106,107,108,109,110,111,112,113,114,115,116,117,1,4,5,8,9,19,33,35,38,39,46,47,51,52,53,55,58,64,65,69,73,77,79,80,81,85,86,93,94,100,101,111,112,113,0,1,2,3,4,5,6,7,8,9,10,12,13,15,16,18,19,20,21,22,23,24,25,26,27,28,29,30,31,32,33,34,35,38,39,40,41,42,43,44,46,47,49,50,51,52,53,54,55,56,57,58,59,60,61,62,63,64,65,67,68,69,70,71,72,73,74,75,77,78,79,80,81,82,83,84,85,86,87,88,89,91,92,93,94,95,96,97,98,99,100,101,102,103,104,106,107,109,110,111,112,113,114,115,116,0,1,2,3,4,5,7,8,9,10,11,12,13,14,15,16,17,18,19,20,21,22,23,24,25,26,27,28,29,30,31,32,33,34,35,36,37,38,39,40,41,42,43,44,45,46,47,48,50,51,52,53,54,55,56,57,58,59,60,61,62,63,64,65,66,67,68,69,70,71,72,73,75,77,78,79,80,81,82,83,84,85,86,87,88,89,91,92,93,94,95,96,97,98,99,100,101,102,103,104,105,106,107,108,109,110,111,112,113,114,115,116,117,4,5,9,19,35,39,47,51,52,53,55,65,69,77,79,80,85,86,93,94,100,101,0,1,2,3,4,5,6,7,8,9,10,11,13,14,15,16,17,18,19,20,21,22,23,24,25,26,27,28,29,30,31,32,33,34,35,36,37,38,39,40,41,42,43,44,45,46,47,48,49,50,51,52,53,54,55,56,57,58,59,60,61,62,63,64,65,66,67,68,69,70,71,73,74,75,76,77,78,79,80,81,82,84,85,86,87,88,89,90,91,92,93,94,95,96,97,98,99,100,101,102,103,104,105,106,107,108,109,110,111,112,113,114,115,116,117,0,1,2,3,4,5,6,7,8,9,10,11,12,13,14,15,16,17,18,19,20,22,23,24,25,26,27,28,30,31,32,33,34,35,36,37,38,39,40,42,43,44,45,46,47,48,49,50,51,52,53,55,56,57,58,59,60,61,62,63,64,65,66,67,68,69,70,71,72,73,74,75,76,77,79,80,81,82,83,84,85,86,87,88,89,90,91,92,93,94,95,97,98,99,100,101,102,103,104,105,106,107,108,109,110,111,112,113,114,115,116,117,3,7,13,30,50,56,60,87,88,98,102,104,107,109,110,114,3,7,10,13,26,28,56,59,60,67,70,82,88,97,98,102,104,107,109,114,116,21,22,54,71,78,10,16,26,28,34,61,70],"categories_nodes":[0,1,2,5,6,9,10,14,19,21,23,24,35,37],"categories_segments":[0,85,191,253,367,401,506,619,641,756,868,884,905,910],"categories_sizes":[85,106,62,114,34,105,113,22,115,112,16,21,5,7],"default_left":[0,0,1,0,0,0,1,0,0,0,0,0,0,0,1,0,0,0,0,0,0,0,0,1,1,0,0,0,0,0,0,0,0,0,0,1,1,1,1,0,0,0,0,0,0,0,0,0,0,0,0,0,0,0,0,0,0,0,0,0,0,0,0,0,0,0,0],"id":12,"left_children":[1,3,5,7,9,11,13,-1,-1,15,17,19,21,23,25,27,-1,-1,-1,29,31,33,35,37,39,41,-1,-1,-1,-1,43,45,47,49,51,53,55,57,59,61,63,-1,65,-1,-1,-1,-1,-1,-1,-1,-1,-1,-1,-1,-1,-1,-1,-1,-1,-1,-1,-1,-1,-1,-1,-1,-1],"loss_changes":[1.9976992E7,2.937784E6,5.5354475E5,5.3104E4,2.200705E5,8.265278E4,1.6841075E5,0E0,0E0,8.83635E4,1.3413078E4,4.9133492E4,2.132956E4,3.1344812E4,7.011875E3,3.9771E4,0E0,0E0,0E0,2.5124156E4,7.7873135E3,7.82367E3,1.466687E3,1.7031594E4,1.9900902E4,1.244E3,0E0,0E0,0E0,0E0,1.8538701E3,1.3344633E3,2.3871289E2,4.200951E3,5.8732236E3,1.6000361E3,1.2370743E3,2.449254E3,6.4998125E3,1.7169656E4,1.4729883E4,0E0,1.6078125E2,0E0,0E0,0E0,0E0,0E0,0E0,0E0,0E0,0E0,0E0,0E0,0E0,0E0,0E0,0E0,0E0,0E0,0E0,0E0,0E0,0E0,0E0,0E0,0E0],"parents":[2147483647,0,0,1,1,2,2,3,3,4,4,5,5,6,6,9,9,10,10,11,11,12,12,13,13,14,14,15,15,19,19,20,20,21,21,22,22,23,23,24,24,25,25,30,30,31,31,32,32,33,33,34,34,35,35,36,36,37,37,38,38,39,39,40,40,42,42],"right_children":[2,4,6,8,10,12,14,-1,-1,16,18,20,22,24,26,28,-1,-1,-1,30,32,34,36,38,40,42,-1,-1,-1,-1,44,46,48,50,52,54,56,58,60,62,64,-1,66,-1,-1,-1,-1,-1,-1,-1,-1,-1,-1,-1,-1,-1,-1,-1,-1,-1,-1,-1,-1,-1,-1,-1,-1],"split_conditions":[1E-45,1E-45,1E-45,1.72E1,7.2098E1,1E-45,1E-45,7.758326E-1,1.98561E0,1E-45,1E-45,4.5E1,8.0543E1,4.6E1,1E-45,1.59E1,6.171118E-1,4.738825E-1,1.6666417E-1,1E-45,2.41E1,1E-45,2.31E1,1E-45,1E-45,7.6823E1,-1.500184E-1,2.1737108E-1,1.0448878E0,2.8182015E-1,1.989E3,9.89E1,1.59E1,6.2295E1,2.21E1,1E-45,9.08E1,1E-45,9.687225E1,1.99E3,6.5146E1,-1.6450245E-2,2.45E1,-8.422791E-3,1.018841E-1,2.3007786E-2,-3.7017647E-2,1.0495171E-1,3.705849E-2,4.341963E-2,1.0115106E-1,8.382715E-2,-3.6212797E-3,-2.2140443E-3,-6.140863E-2,-2.3410376E-2,2.5912635E-2,-4.2813655E-2,-7.322554E-2,-1.10435314E-1,5.68459E-2,1.8917388E-1,-5.9292465E-3,1.2834327E-1,-5.7235543E-2,-1.4038357E-1,-1.1999078E-1],"split_indices":[1,1,1,8,3,1,1,0,0,1,1,7,3,10,1,8,0,0,0,1,2,1,10,1,1,3,0,0,0,0,0,6,8,5,2,1,4,1,11,0,3,0,10,0,0,0,0,0,0,0,0,0,0,0,0,0,0,0,0,0,0,0,0,0,0,0,0],"split_type":[1,1,1,0,0,1,1,0,0,1,1,0,0,0,1,0,0,0,0,1,0,1,0,1,1,0,0,0,0,0,0,0,0,0,0,1,0,1,0,0,0,0,0,0,0,0,0,0,0,0,0,0,0,0,0,0,0,0,0,0,0,0,0,0,0,0,0],"sum_hessian":[1.216E3,7.7E1,1.139E3,2.8E1,4.9E1,1.81E2,9.58E2,2E0,2.6E1,4.1E1,8E0,3.9E1,1.42E2,4.12E2,5.46E2,3E1,1.1E1,5E0,3E0,2.3E1,1.6E1,9.3E1,4.9E1,2.43E2,1.69E2,1.88E2,3.58E2,1E0,2.9E1,1.5E1,8E0,9E0,7E0,5.3E1,4E1,1.7E1,3.2E1,9.4E1,1.49E2,1.5E1,1.54E2,1E0,1.87E2,1E0,7E0,3E0,6E0,5E0,2E0,4.2E1,1.1E1,5E0,3.5E1,4E0,1.3E1,2.9E1,3E0,3.3E1,6.1E1,1.48E2,1E0,3E0,1.2E1,2E0,1.52E2,6E1,1.27E2],"tree_param":{"num_deleted":"0","num_feature":"13","num_nodes":"67","size_leaf_vector":"1"}},{"base_weights":[2.170818E0,5.1279565E2,-3.237764E1,7.0212604E2,3.1993542E2,4.0046883E1,-4.2515003E1,3.794422E-1,7.137992E2,1.6269937E2,3.50192E2,1.2436189E2,2.5768341E1,-2.6873938E1,-5.380511E1,1.875686E0,4.0456185E-1,4.9669358E-1,2.2030784E-1,4.7391292E-1,3.681227E2,2.6155892E-1,4.3695793E-1,7.075998E1,1.8831284E1,-1.7113628E1,-3.404485E1,-4.477107E1,-1.4742002E-1,2.6537076E-1,9.678064E-1,4.6085815E0,1.0337482E2,-6.1208344E-1,2.5579811E1,-2.4045256E1,-8.339364E0,1.6428497E-1,-3.475164E1,-4.7870037E1,-3.654524E1,1.3371333E-2,2.3120313E-3,6.840419E-2,2.8172126E-1,-1.78215E-2,2.020189E-2,8.9451395E-2,3.9751194E-2,-4.9903687E-2,-1.0561839E-1,-2.9848788E-2,1.0380302E-1,-5.705516E-2,-9.968019E-2,-1.1002604E-1,-1.3466789E-1,-9.6762694E-2,-3.0141808E-2],"categories":[1,2,3,4,5,6,7,8,9,10,12,13,16,19,21,22,23,24,26,28,29,30,33,34,35,37,38,39,41,44,46,47,50,51,52,53,54,55,56,58,59,60,61,64,65,67,69,70,71,72,73,77,78,79,80,81,82,83,84,85,86,87,88,89,91,92,93,94,95,96,97,98,99,100,101,102,104,107,109,110,111,112,113,114,115,116,117,1,2,3,4,5,6,7,8,9,10,11,12,13,14,16,17,19,21,22,23,24,25,26,28,29,30,31,33,34,35,36,37,38,39,40,41,44,46,47,48,49,50,51,52,53,54,55,56,58,59,60,61,64,65,66,67,69,70,71,72,73,74,75,77,78,79,80,81,82,83,84,85,86,87,88,89,90,91,92,93,94,95,96,97,98,99,100,101,102,104,105,106,107,108,109,110,111,112,113,114,115,116,117,0,1,3,4,5,7,8,9,10,11,13,14,15,16,17,18,19,20,21,22,23,24,25,26,27,28,30,31,32,33,34,35,36,37,38,39,40,42,43,45,46,47,48,49,50,51,52,53,55,56,57,58,59,60,61,62,63,64,65,66,67,68,69,70,71,73,74,75,76,77,78,79,80,81,82,85,86,87,88,89,90,91,92,93,94,97,98,100,101,102,103,104,105,106,107,108,109,110,111,112,113,114,115,116,0,1,3,4,5,7,8,9,10,11,13,14,15,16,17,18,19,20,21,22,23,24,25,26,27,28,29,30,31,32,33,34,35,36,37,38,39,40,41,42,43,44,45,46,47,48,49,50,51,52,53,54,55,56,57,58,59,60,61,62,63,64,65,66,67,68,69,70,71,72,73,74,75,76,77,78,79,80,81,82,84,85,86,87,88,89,90,91,92,93,94,95,96,97,98,99,100,101,102,103,104,105,106,107,108,109,110,111,112,113,114,115,116,1,4,5,8,9,13,19,33,35,38,39,46,47,51,52,53,55,58,64,65,69,73,77,79,80,81,85,86,93,94,100,101,104,111,112,113,0,1,2,3,4,5,6,7,8,9,10,11,12,13,14,15,16,17,18,19,20,21,22,23,24,25,26,27,28,29,30,32,33,34,35,36,37,38,39,40,41,42,43,44,45,46,47,48,50,51,52,53,54,55,56,57,58,59,60,61,62,63,64,65,66,67,68,69,70,71,72,73,75,76,77,78,79,80,81,82,83,84,85,86,87,88,89,90,91,92,93,94,95,96,97,98,99,100,101,102,103,104,105,106,107,108,109,110,111,112,113,114,115,116,117,3,10,26,30,34,50,56,60,67,87,88,91,97,107,109,110,114,4,5,9,19,35,39,46,47,51,52,53,55,58,65,69,73,77,79,80,85,93,94,100,101,111,112,0,1,2,3,4,5,6,7,8,9,10,11,12,13,14,15,16,17,18,19,20,21,22,23,24,25,26,27,28,30,31,32,33,34,35,36,37,38,39,40,41,42,43,45,46,47,48,49,50,51,52,53,54,55,56,57,58,59,60,61,62,63,64,65,66,67,68,69,70,71,72,73,74,75,76,77,78,79,80,81,82,83,84,85,86,87,88,89,90,91,92,93,94,96,97,98,100,101,102,103,104,105,106,107,108,109,110,111,112,113,114,115,116,117,7,98,102,1,8,33,64,86,104],"categories_nodes":[0,1,2,5,6,9,13,14,34,35,39],"categories_segments":[0,87,190,294,407,443,558,575,601,715,718],"categories_sizes":[87,103,104,113,36,115,17,26,114,3,6],"default_left":[0,0,0,0,0,0,1,0,0,0,0,0,0,1,1,0,0,0,0,0,0,0,0,0,0,0,0,0,0,0,0,1,0,1,0,1,1,0,0,1,1,0,0,0,0,0,0,0,0,0,0,0,0,0,0,0,0,0,0],"id":13,"left_children":[1,3,5,7,9,11,13,-1,15,17,19,21,23,25,27,-1,-1,-1,-1,-1,29,-1,-1,31,33,35,37,39,-1,-1,-1,41,43,45,47,49,51,-1,53,55,57,-1,-1,-1,-1,-1,-1,-1,-1,-1,-1,-1,-1,-1,-1,-1,-1,-1,-1],"loss_changes":[2.032174E7,2.44091E6,7.9389775E5,1.28598E5,1.2380575E5,1.5691348E5,1.6578412E5,0E0,1.1638E5,1.8727344E3,2.526475E4,2.5715312E3,3.45601E4,2.7343531E4,1.343E4,0E0,0E0,0E0,0E0,0E0,6.451E3,0E0,0E0,3.1886352E4,1.3268285E4,1.0199684E4,1.8005031E4,2.0488125E3,0E0,0E0,0E0,7.9417877E0,1.4278281E3,1.4831948E3,6.3725234E3,6.7826484E3,1.24399E4,0E0,1.0159875E4,1.371875E2,5.5604297E2,0E0,0E0,0E0,0E0,0E0,0E0,0E0,0E0,0E0,0E0,0E0,0E0,0E0,0E0,0E0,0E0,0E0,0E0],"parents":[2147483647,0,0,1,1,2,2,3,3,4,4,5,5,6,6,8,8,9,9,10,10,11,11,12,12,13,13,14,14,20,20,23,23,24,24,25,25,26,26,27,27,31,31,32,32,33,33,34,34,35,35,36,36,38,38,39,39,40,40],"right_children":[2,4,6,8,10,12,14,-1,16,18,20,22,24,26,28,-1,-1,-1,-1,-1,30,-1,-1,32,34,36,38,40,-1,-1,-1,42,44,46,48,50,52,-1,54,56,58,-1,-1,-1,-1,-1,-1,-1,-1,-1,-1,-1,-1,-1,-1,-1,-1,-1,-1],"split_conditions":[1E-45,1E-45,1E-45,3.53E1,1.59E1,1E-45,1E-45,3.794422E-1,6.9513E1,1E-45,2.8E0,2.23E1,1.0165E1,1E-45,1E-45,1.875686E0,4.0456185E-1,4.9669358E-1,2.2030784E-1,4.7391292E-1,1.993E3,2.6155892E-1,4.3695793E-1,2.45E1,3.4744E1,1.36E1,4.8553E1,4.465E1,-1.4742002E-1,2.6537076E-1,9.678064E-1,6.632326E1,1.995E3,5.889816E1,1E-45,1E-45,8.40442E1,1.6428497E-1,1.995E3,1E-45,7E0,1.3371333E-2,2.3120313E-3,6.840419E-2,2.8172126E-1,-1.78215E-2,2.020189E-2,8.9451395E-2,3.9751194E-2,-4.9903687E-2,-1.0561839E-1,-2.9848788E-2,1.0380302E-1,-5.705516E-2,-9.968019E-2,-1.1002604E-1,-1.3466789E-1,-9.6762694E-2,-3.0141808E-2],"split_indices":[1,1,1,2,8,1,1,0,3,1,9,8,5,1,1,0,0,0,0,0,0,0,0,7,5,8,3,5,0,0,0,11,0,11,1,1,11,0,0,1,8,0,0,0,0,0,0,0,0,0,0,0,0,0,0,0,0,0,0],"split_type":[1,1,1,0,0,1,1,0,0,1,0,0,0,1,1,0,0,0,0,0,0,0,0,0,0,0,0,0,0,0,0,0,0,0,1,1,0,0,0,1,0,0,0,0,0,0,0,0,0,0,0,0,0,0,0,0,0,0,0],"sum_hessian":[1.15E3,7.2E1,1.078E3,3.5E1,3.7E1,1.32E2,9.46E2,1E0,3.4E1,7E0,3E1,1.8E1,1.14E2,3.98E2,5.48E2,3.3E1,1E0,4E0,3E0,4E0,2.6E1,1.4E1,4E0,1.4E1,1E2,1.7E2,2.28E2,1.48E2,4E2,1E0,2.5E1,5E0,9E0,2.6E1,7.4E1,9.4E1,7.6E1,1E0,2.27E2,1.04E2,4.4E1,4E0,1E0,1E0,8E0,1.5E1,1.1E1,3.8E1,3.6E1,7.5E1,1.9E1,7.2E1,4E0,5.4E1,1.73E2,5.1E1,5.3E1,4.2E1,2E0],"tree_param":{"num_deleted":"0","num_feature":"13","num_nodes":"59","size_leaf_vector":"1"}},{"base_weights":[-1.0430895E0,5.1101578E2,-3.3016422E1,7.2130005E2,3.3615564E2,2.5938797E1,-4.246181E1,2.8560934E0,6.003969E2,2.3580623E2,4.1969727E2,8.459047E1,1.1899468E1,-2.8694555E1,-5.5455467E1,3.7895173E-1,1.5851513E0,2.5178279E2,1.5857995E-1,3.100668E-1,1.1094058E0,2.3925985E1,1.1069319E2,1.9263273E1,-5.737031E0,-1.7346003E1,-3.4386433E1,-4.7579487E1,-5.7021915E1,6.9558316E-1,1.9546288E-1,-1.4156227E0,9.044838E-2,6.831578E-2,1.1373734E2,2.7586891E1,5.476841E0,-8.043664E0,2.3086035E1,1.6631115E1,-2.031353E1,3.97918E1,-3.525795E1,-1.2546618E-1,-6.91459E-2,-1.4780945E-1,-4.5018546E-2,2.9617967E-2,-2.4624603E-2,3.5277614E-1,2.1921374E-1,3.4181308E-2,8.604894E-2,-6.469346E-2,3.699697E-2,-1.1988386E-2,-4.4897847E-2,1.2445832E-2,7.70723E-2,1.6374868E-1,-9.60934E-3,-7.1645014E-2,-3.610434E-2,1.6407263E-1,2.7770448E-2,9.4218984E-2,-9.207582E-2],"categories":[1,2,3,4,5,7,8,9,10,12,13,16,19,21,22,26,28,29,30,32,33,34,35,36,38,39,41,44,46,47,50,51,52,53,54,55,56,58,59,60,61,63,64,65,67,69,70,71,72,73,77,78,79,80,81,82,83,84,85,86,87,88,89,91,93,94,95,96,97,98,99,100,101,102,104,106,107,109,110,111,112,113,114,115,116,117,0,1,2,3,4,5,6,7,8,9,10,11,12,13,14,16,17,19,21,22,23,24,25,26,28,29,30,31,32,33,34,35,36,37,38,39,40,41,44,46,47,48,49,50,51,52,53,54,55,56,58,59,60,61,63,64,65,66,67,69,70,71,72,73,74,75,76,77,78,79,80,81,82,83,84,85,86,87,88,89,90,91,93,94,95,96,97,98,99,100,101,102,104,105,106,107,108,109,110,111,112,113,114,115,116,117,1,3,4,5,7,8,9,10,13,16,19,21,26,28,30,33,34,35,38,39,46,47,50,51,52,53,55,56,58,59,60,61,64,65,67,69,70,71,73,77,79,80,81,82,85,86,87,88,91,93,94,97,98,100,101,102,104,107,109,110,111,112,113,114,116,0,1,2,3,4,5,6,7,8,9,10,11,12,13,14,15,16,17,18,19,21,22,23,24,25,26,27,28,29,30,31,32,33,34,35,36,37,38,39,40,41,42,43,44,45,46,47,48,49,50,51,52,53,54,55,56,57,58,59,60,61,62,63,64,65,66,67,68,69,70,71,72,73,74,75,76,77,78,79,80,81,82,83,84,85,86,87,88,89,90,91,93,94,95,96,97,98,99,100,101,102,103,104,105,106,107,108,109,110,111,112,113,114,115,116,117,0,1,3,4,5,6,7,8,9,10,11,13,14,15,16,17,18,19,20,21,22,23,24,25,26,27,28,29,30,31,32,33,34,35,36,37,38,39,40,41,42,43,44,45,46,47,48,49,50,51,52,53,54,55,56,57,58,59,60,61,62,63,64,65,66,67,68,69,70,71,73,74,75,76,77,78,79,80,81,82,84,85,86,87,88,89,90,91,92,93,94,96,97,98,99,100,101,102,103,104,105,106,107,108,109,110,111,112,113,114,115,116,1,4,5,8,9,13,19,33,35,39,46,47,51,52,53,55,58,64,65,69,73,77,79,80,85,86,93,94,100,101,110,111,112,3,7,26,30,34,38,50,56,60,81,88,91,97,98,102,104,107,109,113,114,116,0,1,2,3,4,5,6,7,8,9,10,11,12,13,14,15,16,17,18,19,20,21,22,23,24,25,26,27,28,30,31,32,33,34,35,36,37,38,39,40,42,43,45,46,47,48,49,50,51,52,53,54,55,56,57,58,59,60,61,62,63,64,65,66,67,68,69,70,71,72,73,74,75,76,77,79,80,81,82,83,84,85,86,87,88,89,90,91,92,93,94,95,97,98,99,100,101,102,103,104,105,106,107,108,109,110,111,112,113,114,115,116,117,0,1,2,3,4,5,6,7,8,9,10,11,12,13,14,15,16,17,18,19,20,21,22,23,24,25,26,27,28,29,30,31,32,33,34,35,36,37,38,39,40,41,42,43,44,45,46,47,48,49,50,51,52,53,54,55,56,57,58,59,60,61,62,63,64,65,66,67,68,69,70,71,72,73,74,75,76,77,78,79,80,81,82,83,84,85,86,88,89,90,91,92,93,94,95,96,97,98,99,100,101,102,103,104,105,106,107,108,109,110,111,112,113,114,115,116,117],"categories_nodes":[0,1,2,3,5,6,13,23,39],"categories_segments":[0,86,192,257,373,485,518,539,652],"categories_sizes":[86,106,65,116,112,33,21,113,117],"default_left":[0,0,0,0,0,0,1,0,0,1,0,0,0,1,0,0,0,0,0,0,0,0,0,0,1,0,0,1,0,0,0,0,0,0,0,0,0,0,0,0,0,0,0,0,0,0,0,0,0,0,0,0,0,0,0,0,0,0,0,0,0,0,0,0,0,0,0],"id":14,"left_children":[1,3,5,7,9,11,13,-1,15,17,19,21,23,25,27,-1,-1,29,-1,-1,-1,31,33,35,37,39,41,43,45,-1,-1,47,-1,-1,49,51,53,55,57,59,61,63,65,-1,-1,-1,-1,-1,-1,-1,-1,-1,-1,-1,-1,-1,-1,-1,-1,-1,-1,-1,-1,-1,-1,-1,-1],"loss_changes":[1.8943168E7,2.257912E6,6.075166E5,7.27813E5,2.279835E5,1.2333137E5,1.6638362E5,0E0,5.5332E4,4.030025E4,5.258E3,4.3273297E4,1.6084738E4,2.8987844E4,3.233375E3,0E0,0E0,3.4499375E4,0E0,0E0,0E0,2.8530522E3,2.1246094E3,9.832418E3,2.6456133E3,1.59661875E4,2.1055844E4,4.1379688E2,1.4645E3,0E0,0E0,5.2674585E2,0E0,0E0,9.2459375E2,3.9812852E3,9.520897E3,1.0310647E3,2.2527625E2,1.2592448E4,6.330668E3,2.0694429E3,9.07925E3,0E0,0E0,0E0,0E0,0E0,0E0,0E0,0E0,0E0,0E0,0E0,0E0,0E0,0E0,0E0,0E0,0E0,0E0,0E0,0E0,0E0,0E0,0E0,0E0],"parents":[2147483647,0,0,1,1,2,2,3,3,4,4,5,5,6,6,8,8,9,9,10,10,11,11,12,12,13,13,14,14,17,17,21,21,22,22,23,23,24,24,25,25,26,26,27,27,28,28,31,31,34,34,35,35,36,36,37,37,38,38,39,39,40,40,41,41,42,42],"right_children":[2,4,6,8,10,12,14,-1,16,18,20,22,24,26,28,-1,-1,30,-1,-1,-1,32,34,36,38,40,42,44,46,-1,-1,48,-1,-1,50,52,54,56,58,60,62,64,66,-1,-1,-1,-1,-1,-1,-1,-1,-1,-1,-1,-1,-1,-1,-1,-1,-1,-1,-1,-1,-1,-1,-1,-1],"split_conditions":[1E-45,1E-45,1E-45,1E-45,4.253E0,1E-45,1E-45,2.8560934E0,3.53E1,6.067487E1,1.993E3,1.13E1,7.9329E1,1E-45,8.4216E1,3.7895173E-1,1.5851513E0,7.2098E1,1.5857995E-1,3.100668E-1,1.1094058E0,7E0,1.995E3,1E-45,9.9E1,1.989E3,6.5146E1,2.65E1,2.89E1,6.9558316E-1,1.9546288E-1,9.91E1,9.044838E-2,6.831578E-2,2.004E3,6.705516E1,6.4651E1,2.72E0,2.009E3,1E-45,1.71E1,1.989E3,5.46E1,-1.2546618E-1,-6.91459E-2,-1.4780945E-1,-4.5018546E-2,2.9617967E-2,-2.4624603E-2,3.5277614E-1,2.1921374E-1,3.4181308E-2,8.604894E-2,-6.469346E-2,3.699697E-2,-1.1988386E-2,-4.4897847E-2,1.2445832E-2,7.70723E-2,1.6374868E-1,-9.60934E-3,-7.1645014E-2,-3.610434E-2,1.6407263E-1,2.7770448E-2,9.4218984E-2,-9.207582E-2],"split_indices":[1,1,1,1,9,1,1,0,2,11,0,8,3,1,3,0,0,3,0,0,0,8,0,1,4,0,3,10,2,0,0,4,0,0,0,11,3,9,0,1,2,0,4,0,0,0,0,0,0,0,0,0,0,0,0,0,0,0,0,0,0,0,0,0,0,0,0],"split_type":[1,1,1,1,0,1,1,0,0,0,0,0,0,1,0,0,0,0,0,0,0,0,0,1,0,0,0,0,0,0,0,0,0,0,0,0,0,0,0,1,0,0,0,0,0,0,0,0,0,0,0,0,0,0,0,0,0,0,0,0,0,0,0,0,0,0,0],"sum_hessian":[1.155E3,6.7E1,1.088E3,2.9E1,3.8E1,1.5E2,9.38E2,5E0,2.4E1,1.9E1,1.9E1,2.8E1,1.22E2,4.57E2,4.81E2,1E0,2.3E1,1.7E1,2E0,1E0,1.8E1,9E0,1.9E1,8.6E1,3.6E1,1.54E2,3.03E2,8.5E1,3.96E2,1.5E1,2E0,3E0,6E0,1E0,1.8E1,5.3E1,3.3E1,3.4E1,2E0,1.2E1,1.42E2,3E0,3E2,8E1,5E0,3.94E2,2E0,1E0,2E0,8E0,1E1,1.6E1,3.7E1,7E0,2.6E1,2.6E1,8E0,1E0,1E0,3E0,9E0,6.4E1,7.8E1,1E0,2E0,1E0,2.99E2],"tree_param":{"num_deleted":"0","num_feature":"13","num_nodes":"67","size_leaf_vector":"1"}},{"base_weights":[5.013039E0,5.4043195E2,-3.1181955E1,7.710677E2,3.6159152E2,4.616433E1,-4.200039E1,2.6370168E0,1.6956156E0,4.3204834E2,2.0126889E2,1.6954366E2,2.537849E1,-2.516603E1,-5.2590824E1,3.09666E-1,4.3892215E2,2.4822406E2,2.3127347E-1,2.7655557E-1,5.8724606E-1,1.1251877E1,4.6323803E1,-1.2604082E1,-2.9935633E1,-4.2733776E1,-1.4562248E-1,5.736041E-1,1.1790197E0,7.231069E-1,3.3874732E-1,1.8495144E1,-7.781049E0,1.1969326E2,2.772778E1,1.6386056E-1,-1.3970545E1,-1.838752E1,-3.834445E1,-3.012362E1,-1.1632534E-1,1.3177085E-1,2.9126164E-2,4.4973668E-2,-3.424612E-2,-3.5457977E-3,3.4897733E-1,3.7738038E-3,8.68894E-2,2.5746332E-2,-4.7923084E-2,-5.444719E-2,-1.779353E-3,3.6641933E-2,-1.0025692E-1,-8.02822E-2,-6.3888654E-3],"categories":[1,2,3,4,5,7,8,9,10,12,13,16,19,20,21,22,23,26,28,29,30,31,33,34,35,38,39,40,41,44,46,47,50,51,52,53,54,55,56,58,59,60,61,64,65,67,69,70,71,72,73,74,77,78,79,80,81,82,83,84,85,86,87,88,89,91,93,94,95,96,97,98,99,100,101,102,104,106,107,109,110,111,112,113,114,115,116,117,0,1,2,3,4,5,6,7,8,9,10,11,12,13,14,16,17,19,20,21,22,23,24,26,27,28,29,30,31,33,34,35,36,37,38,39,40,41,44,45,46,47,48,49,50,51,52,53,54,55,56,58,59,60,61,64,65,66,67,69,70,71,72,73,74,75,76,77,78,79,80,81,82,83,84,85,86,87,88,89,90,91,93,94,95,96,97,98,99,100,101,102,104,105,106,107,108,109,110,111,112,113,114,115,116,117,0,1,3,4,5,6,7,8,9,10,11,13,14,15,16,17,18,19,20,21,22,24,25,26,27,28,30,32,33,34,35,36,37,38,39,42,43,45,46,47,48,49,50,51,52,53,55,56,57,58,59,60,61,62,63,64,65,66,67,68,69,70,71,73,75,76,77,78,79,80,81,82,85,86,87,88,89,90,91,92,93,94,97,98,100,101,102,103,104,105,106,107,108,109,110,111,112,113,114,115,116,0,1,2,3,4,5,6,7,8,9,10,11,12,13,14,15,16,17,18,19,20,21,22,23,24,25,26,27,28,29,30,31,33,34,35,36,37,38,39,40,41,42,43,44,45,46,47,48,49,50,51,52,53,54,55,56,57,58,59,60,61,62,64,65,66,67,68,69,70,71,72,73,74,75,76,77,78,79,80,81,82,83,84,85,86,87,88,89,90,91,93,94,95,96,97,98,99,100,101,102,103,104,105,106,107,108,109,110,111,112,113,114,115,116,117,0,1,3,4,5,6,7,8,9,10,11,13,14,15,16,17,18,19,20,21,22,24,25,26,27,28,29,30,32,33,34,35,36,37,38,39,41,42,43,44,45,46,47,48,49,50,51,52,53,54,55,56,57,58,59,60,61,62,63,64,65,66,67,68,69,70,71,72,73,75,76,77,78,79,80,81,82,83,84,85,86,87,88,89,90,91,92,93,94,95,96,97,98,99,100,101,102,103,104,105,106,107,108,109,110,111,112,113,114,115,116,1,4,5,8,9,13,19,33,35,38,39,46,47,51,52,53,55,58,60,64,65,69,73,77,79,80,81,85,86,93,94,100,101,104,109,111,112,113,114,4,5,9,19,35,39,46,47,51,52,53,55,58,64,65,69,73,77,79,80,85,86,93,94,100,101,111,112,29,72,0,1,2,3,4,5,6,7,8,9,10,11,12,13,14,15,16,17,18,19,20,21,22,23,24,25,26,27,28,29,30,31,32,33,34,35,36,37,38,39,40,41,42,43,44,45,46,47,48,49,50,51,52,53,54,55,56,57,58,59,60,61,62,63,64,65,66,67,68,69,70,71,73,74,75,76,77,78,79,80,81,82,83,84,85,86,87,88,89,90,91,92,93,94,95,96,97,98,100,101,102,103,104,105,106,107,108,109,110,111,112,113,114,115,116,117,3,7,10,16,26,30,34,50,56,61,70,87,88,102,107,110,3,7,10,22,26,28,56,59,70,82,88,91,97,98,102,107],"categories_nodes":[0,1,2,3,5,6,14,21,22,24,36],"categories_segments":[0,88,194,295,410,521,560,588,590,706,722],"categories_sizes":[88,106,101,115,111,39,28,2,116,16,16],"default_left":[0,0,0,0,0,0,1,0,0,0,0,1,0,0,1,0,0,0,0,0,0,1,0,0,1,0,0,0,0,0,0,0,0,0,0,0,1,1,0,0,0,0,0,0,0,0,0,0,0,0,0,0,0,0,0,0,0],"id":15,"left_children":[1,3,5,7,9,11,13,-1,-1,15,17,19,21,23,25,-1,27,29,-1,-1,-1,31,33,35,37,39,-1,-1,-1,-1,-1,41,43,45,47,-1,49,51,53,55,-1,-1,-1,-1,-1,-1,-1,-1,-1,-1,-1,-1,-1,-1,-1,-1,-1],"loss_changes":[2.2342018E7,2.73222E6,9.056459E5,2.19752E5,3.98762E5,3.3678144E5,1.67689E5,0E0,0E0,9.667E3,5.653875E4,4.4194562E4,3.3505703E4,2.1671594E4,1.902025E4,0E0,3.124E3,2.591875E2,0E0,0E0,0E0,9.794152E3,5.944265E4,1.1581051E4,2.5125125E4,3.3292812E3,0E0,0E0,0E0,0E0,0E0,1.1398334E4,2.983336E3,1.686079E4,5.8246074E3,0E0,1.1334449E4,5.3823594E3,4.0754531E3,6.4533594E2,0E0,0E0,0E0,0E0,0E0,0E0,0E0,0E0,0E0,0E0,0E0,0E0,0E0,0E0,0E0,0E0,0E0],"parents":[2147483647,0,0,1,1,2,2,3,3,4,4,5,5,6,6,9,9,10,10,11,11,12,12,13,13,14,14,16,16,17,17,21,21,22,22,23,23,24,24,25,25,31,31,32,32,33,33,34,34,36,36,37,37,38,38,39,39],"right_children":[2,4,6,8,10,12,14,-1,-1,16,18,20,22,24,26,-1,28,30,-1,-1,-1,32,34,36,38,40,-1,-1,-1,-1,-1,42,44,46,48,-1,50,52,54,56,-1,-1,-1,-1,-1,-1,-1,-1,-1,-1,-1,-1,-1,-1,-1,-1,-1],"split_conditions":[1E-45,1E-45,1E-45,1E-45,6.6143E1,1E-45,1E-45,2.6370168E0,1.6956156E0,1.993E3,2.013E3,3.82E1,3.37E1,1.997E3,1E-45,3.09666E-1,3.19E1,7.2098E1,2.3127347E-1,2.7655557E-1,5.8724606E-1,1E-45,1E-45,4.8553E1,1E-45,1.992E3,-1.4562248E-1,5.736041E-1,1.1790197E0,7.231069E-1,3.3874732E-1,1.28E1,7.4623E1,1.987E3,6.504342E1,1.6386056E-1,1E-45,1.27E1,2.48E1,5.87E1,-1.1632534E-1,1.3177085E-1,2.9126164E-2,4.4973668E-2,-3.424612E-2,-3.5457977E-3,3.4897733E-1,3.7738038E-3,8.68894E-2,2.5746332E-2,-4.7923084E-2,-5.444719E-2,-1.779353E-3,3.6641933E-2,-1.0025692E-1,-8.02822E-2,-6.3888654E-3],"split_indices":[1,1,1,1,3,1,1,0,0,0,0,10,2,0,1,0,10,3,0,0,0,1,1,3,1,0,0,0,0,0,0,8,3,0,11,0,1,8,7,2,0,0,0,0,0,0,0,0,0,0,0,0,0,0,0,0,0],"split_type":[1,1,1,1,0,1,1,0,0,0,0,0,0,0,1,0,0,0,0,0,0,1,1,0,1,0,0,0,0,0,0,0,0,0,0,0,1,0,0,0,0,0,0,0,0,0,0,0,0,0,0,0,0,0,0,0,0],"sum_hessian":[1.151E3,7.2E1,1.079E3,3E1,4.2E1,1.32E2,9.47E2,7E0,2.3E1,2.8E1,1.4E1,1.8E1,1.14E2,3.67E2,5.8E2,1E0,2.7E1,9E0,5E0,1E1,8E0,6.9E1,4.5E1,1.02E2,2.65E2,1.63E2,4.17E2,3E0,2.4E1,6E0,3E0,5E1,1.9E1,8E0,3.7E1,1E0,1.01E2,1.13E2,1.52E2,2.7E1,1.36E2,8E0,4.2E1,3E0,1.6E1,1E0,7E0,7E0,3E1,1.6E1,8.5E1,9.8E1,1.5E1,1E0,1.51E2,2.6E1,1E0],"tree_param":{"num_deleted":"0","num_feature":"13","num_nodes":"57","size_leaf_vector":"1"}},{"base_weights":[-2.5797877E-1,6.2249664E2,-2.8069035E1,2.836062E0,5.3483655E2,2.130515E2,-3.4320763E1,1.61468E0,3.9137585E2,1.4306316E2,3.0027972E2,3.6804864E0,-4.7083393E1,2.5054607E-1,4.187086E2,4.4625595E-1,2.438134E-1,2.097998E-1,8.086627E-1,2.6906158E1,-1.23352785E1,-3.404623E1,-5.493052E1,3.0926573E-1,1.109672E0,7.907178E1,1.9482386E1,2.4216408E1,-1.4570605E1,1.6364877E-1,-3.4556255E1,-4.9258366E1,-1.4841376E-1,1.1876968E-2,2.5583318E-1,1.9679919E-2,7.7272624E-2,-1.9254632E-2,1.0043242E-1,1.9032655E-2,-4.7962867E-2,-7.0657484E-2,-1.0000682E-1,-1.291619E-1,-4.3067235E-2],"categories":[1,2,3,4,5,6,7,8,9,10,12,13,16,19,21,22,23,24,26,27,28,29,30,31,33,34,35,36,38,39,41,43,44,45,46,47,48,49,50,51,52,53,54,55,56,58,59,60,61,64,65,67,69,70,71,72,73,74,75,77,78,79,80,81,82,83,84,85,86,87,88,89,90,91,93,94,95,96,97,98,99,100,101,102,104,105,106,107,109,110,111,112,113,114,115,116,117,0,1,2,3,4,5,6,7,8,9,10,11,12,13,14,15,16,17,18,19,21,22,23,24,25,26,27,28,29,30,31,33,34,35,36,37,38,39,40,41,42,43,44,45,46,47,48,49,50,51,52,53,54,55,56,57,58,59,60,61,62,63,64,65,66,67,68,69,70,71,72,73,74,75,76,77,78,79,80,81,82,83,84,85,86,87,88,89,90,91,93,94,95,96,97,98,99,100,101,102,103,104,105,106,107,108,109,110,111,112,113,114,115,116,117,0,1,2,3,4,5,7,8,9,10,11,13,14,15,16,17,18,19,20,21,22,25,26,27,28,29,30,32,33,34,35,36,37,38,39,40,41,42,43,44,45,46,47,50,51,52,53,54,55,56,57,58,59,60,61,62,63,64,65,66,67,68,69,70,71,72,73,76,77,78,79,80,81,82,83,84,85,86,87,88,89,90,91,92,93,94,95,96,97,98,99,100,101,102,103,104,105,107,108,109,110,111,112,113,114,115,116,0,1,2,3,4,5,6,7,8,9,10,11,12,13,14,16,17,19,20,21,22,23,24,26,27,28,29,30,31,32,33,34,35,36,37,38,39,40,41,43,44,45,46,47,48,49,50,51,52,53,54,55,56,58,59,60,61,64,65,66,67,69,70,71,72,73,74,75,76,77,78,79,80,81,82,83,84,85,86,87,88,89,90,91,92,93,94,95,96,97,98,99,100,101,102,104,105,106,107,108,109,110,111,112,113,114,115,116,117,1,3,4,5,7,8,9,10,13,16,19,26,28,30,33,34,35,38,39,46,47,50,51,52,53,55,56,58,60,64,65,69,73,77,79,80,81,85,86,88,93,94,97,100,101,102,104,107,109,110,111,112,113,114,0,1,2,3,4,5,6,7,8,9,10,11,12,13,14,15,16,17,18,19,20,21,22,23,24,25,26,27,28,29,30,31,32,33,34,35,36,37,38,39,40,41,42,43,44,45,46,47,50,51,52,53,54,55,56,57,58,59,60,61,62,63,64,65,66,67,68,69,70,71,72,73,76,77,78,79,80,81,82,83,84,85,86,87,88,89,90,91,92,93,94,95,96,97,98,99,100,101,102,103,104,105,106,107,108,109,110,111,112,113,114,115,116,117,0,1,2,3,4,5,6,7,8,9,10,11,12,13,14,15,16,17,18,19,20,21,22,23,24,25,26,27,28,30,31,32,33,34,35,36,37,38,39,40,42,43,45,46,47,48,49,50,51,52,53,55,56,57,58,59,60,61,62,63,64,65,66,67,68,69,70,71,73,74,75,76,77,78,79,80,81,82,85,86,87,88,89,90,91,92,93,94,95,97,98,99,100,101,102,103,104,106,107,108,109,110,111,112,113,114,115,116,117,1,4,5,8,9,13,19,35,39,46,47,51,52,53,55,58,64,65,69,73,77,79,80,81,85,86,93,94,100,101,107,110,111,112,4,5,9,19,35,39,47,51,52,53,55,65,69,73,77,79,80,85,93,94,100,101,110,3,26,30,33,34,38,50,60,104,109,113,114],"categories_nodes":[0,1,2,4,6,9,11,12,22,30],"categories_segments":[0,97,212,319,428,482,596,705,739,762],"categories_sizes":[97,115,107,109,54,114,109,34,23,12],"default_left":[0,0,0,0,0,0,1,0,0,0,0,0,1,0,0,0,0,0,0,0,0,0,1,0,0,0,0,1,0,0,1,0,0,0,0,0,0,0,0,0,0,0,0,0,0],"id":16,"left_children":[1,3,5,-1,7,9,11,-1,13,15,17,19,21,-1,23,-1,-1,-1,-1,25,27,29,31,-1,-1,33,35,37,39,-1,41,43,-1,-1,-1,-1,-1,-1,-1,-1,-1,-1,-1,-1,-1],"loss_changes":[2.0662272E7,1.535014E6,1.7287861E6,0E0,3.35159E5,1.34085E5,5.404586E5,0E0,1.203835E5,9.6605E3,7.590625E3,1.0485741E5,8.3451625E4,0E0,5.46625E3,0E0,0E0,0E0,0E0,4.2995055E4,1.3997572E4,1.7877562E4,4.477375E3,0E0,0E0,2.0288742E4,1.2375191E4,4.9234365E3,1.3940402E4,0E0,8.340156E3,2.9671875E3,0E0,0E0,0E0,0E0,0E0,0E0,0E0,0E0,0E0,0E0,0E0,0E0,0E0],"parents":[2147483647,0,0,1,1,2,2,4,4,5,5,6,6,8,8,9,9,10,10,11,11,12,12,14,14,19,19,20,20,21,21,22,22,25,25,26,26,27,27,28,28,30,30,31,31],"right_children":[2,4,6,-1,8,10,12,-1,14,16,18,20,22,-1,24,-1,-1,-1,-1,26,28,30,32,-1,-1,34,36,38,40,-1,42,44,-1,-1,-1,-1,-1,-1,-1,-1,-1,-1,-1,-1,-1],"split_conditions":[1E-45,1E-45,1E-45,2.836062E0,1E-45,4.75E1,1E-45,1.61468E0,2.89E1,1E-45,3.13836E1,1E-45,1E-45,2.5054607E-1,1.993E3,4.4625595E-1,2.438134E-1,2.097998E-1,8.086627E-1,1.0165E1,6.096055E1,4.8553E1,1E-45,3.0926573E-1,1.109672E0,2.45E1,3.03E1,2.9937E1,1.99E3,1.6364877E-1,1E-45,6.33E1,-1.4841376E-1,1.1876968E-2,2.5583318E-1,1.9679919E-2,7.7272624E-2,-1.9254632E-2,1.0043242E-1,1.9032655E-2,-4.7962867E-2,-7.0657484E-2,-1.0000682E-1,-1.291619E-1,-4.3067235E-2],"split_indices":[1,1,1,0,1,2,1,0,2,1,11,1,1,0,0,0,0,0,0,5,11,3,1,0,0,7,2,5,0,0,1,2,0,0,0,0,0,0,0,0,0,0,0,0,0],"split_type":[1,1,1,0,1,0,1,0,0,1,0,1,1,0,0,0,0,0,0,0,0,0,1,0,0,0,0,0,0,0,1,0,0,0,0,0,0,0,0,0,0,0,0,0,0],"sum_hessian":[1.191E3,5E1,1.141E3,6E0,4.4E1,2.8E1,1.113E3,2.5E1,1.9E1,1.7E1,1.1E1,2.8E2,8.33E2,2E0,1.7E1,9E0,8E0,1E0,1E1,1.14E2,1.66E2,3.15E2,5.18E2,1E0,1.6E1,1.3E1,1.01E2,9E0,1.57E2,1E0,3.14E2,1.64E2,3.54E2,3E0,1E1,4.8E1,5.3E1,3E0,6E0,2.4E1,1.33E2,1.17E2,1.97E2,1.6E2,4E0],"tree_param":{"num_deleted":"0","num_feature":"13","num_nodes":"45","size_leaf_vector":"1"}},{"base_weights":[3.195716E0,5.326813E2,-3.0198143E1,7.8823505E2,3.5388623E2,4.5441463E1,-4.197311E1,2.468763E0,5.800272E2,1.0423428E0,1.5076881E2,1.9077017E2,2.9078432E1,-1.974274E1,-5.054165E1,3.9204127E-1,1.550499E0,4.6294802E-1,1.6420661E-1,7.5393535E-2,2.0023018E2,8.1913345E1,2.1351164E1,-3.3757195E1,-1.4643399E1,-4.166074E1,-1.4461595E-1,5.8659273E-1,2.7611345E-1,1.9146912E0,1.06381035E2,8.9573555E0,3.633328E1,-2.1261154E1,-4.4049515E1,-2.22095E0,-2.0249025E1,-4.283685E1,-2.1914368E1,9.661695E-3,-6.9494164E-3,2.984263E-1,9.7442195E-2,1.5564446E-2,1.3881996E-1,6.445556E-2,1.8190339E-1,-3.623352E-2,-6.352952E-2,-6.0225423E-2,-1.2204701E-1,2.00396E-2,-3.665817E-2,-4.324113E-2,-7.411237E-2,-1.1632588E-1,-9.500403E-2,-2.5421299E-2,-6.754342E-2],"categories":[1,2,3,4,5,6,7,8,9,10,12,13,16,19,21,22,23,26,28,29,30,31,33,34,35,37,38,39,41,44,46,47,50,51,52,53,54,55,56,58,59,60,61,64,65,66,67,69,70,71,72,73,74,75,77,78,79,80,81,82,83,84,85,86,87,88,89,91,93,94,95,96,97,98,99,100,101,102,104,105,107,109,110,111,112,113,114,115,116,1,2,3,4,5,6,7,8,9,10,11,12,13,14,15,16,17,19,21,22,23,24,26,28,29,30,31,33,34,35,36,37,38,39,40,41,44,45,46,47,48,49,50,51,52,53,54,55,56,57,58,59,60,61,64,65,66,67,69,70,71,72,73,74,75,76,77,78,79,80,81,82,83,84,85,86,87,88,89,90,91,93,94,95,96,97,98,99,100,101,102,104,105,106,107,108,109,110,111,112,113,114,115,116,117,0,1,3,4,5,7,8,9,10,11,13,14,15,16,17,18,19,20,21,22,23,24,25,26,27,28,30,32,33,34,35,36,37,38,39,40,42,43,45,46,47,48,49,50,51,52,53,55,56,57,58,59,60,61,62,63,64,65,66,67,68,69,70,71,73,76,77,78,79,80,81,82,85,86,87,88,89,90,91,92,93,94,95,97,98,100,101,102,103,104,106,107,108,109,110,111,112,113,114,115,116,117,0,1,2,3,4,5,7,8,9,10,11,13,14,15,16,17,18,19,20,21,22,23,24,25,26,27,28,29,30,32,33,34,35,36,37,38,39,40,41,42,43,44,45,46,47,48,49,50,51,52,53,54,55,56,57,58,59,60,61,62,63,64,65,66,67,68,69,70,71,72,73,76,77,78,79,80,81,82,83,84,85,86,87,88,89,90,91,92,93,94,95,96,97,98,99,100,101,102,103,104,106,107,108,109,110,111,112,113,114,115,116,117,1,3,4,5,8,9,13,19,26,33,34,35,38,39,46,47,50,51,52,53,55,58,60,64,65,69,73,77,79,80,81,85,86,93,94,100,101,102,104,107,109,110,111,112,113,114,4,5,9,19,35,39,46,47,51,52,53,55,58,64,65,69,73,77,79,80,85,86,93,94,100,101,110,111,112,7,10,56,61,87,88,7,10,16,21,28,30,56,59,67,82,88,89,98,115,116,30,89,98,116],"categories_nodes":[0,1,2,5,6,14,23,24,36],"categories_segments":[0,89,194,296,408,454,483,489,504],"categories_sizes":[89,105,102,112,46,29,6,15,4],"default_left":[0,0,0,0,0,0,1,0,0,0,0,0,0,0,1,0,0,0,0,0,0,0,0,1,1,0,0,0,0,0,1,1,0,0,0,1,1,0,0,0,0,0,0,0,0,0,0,0,0,0,0,0,0,0,0,0,0,0,0],"id":17,"left_children":[1,3,5,7,9,11,13,-1,15,-1,17,19,21,23,25,-1,-1,-1,-1,-1,27,29,31,33,35,37,-1,-1,-1,39,41,43,45,47,49,51,53,55,57,-1,-1,-1,-1,-1,-1,-1,-1,-1,-1,-1,-1,-1,-1,-1,-1,-1,-1,-1,-1],"loss_changes":[2.0862654E7,2.919474E6,9.9053306E5,4.1835E5,3.700755E5,3.5115547E5,1.8205525E5,0E0,3.6041E4,0E0,1.3330266E4,1.7091938E4,5.3775703E4,1.8729625E4,3.091175E4,0E0,0E0,0E0,0E0,0E0,1.0665E4,3.3071805E4,2.1956809E4,8.195E3,1.3812512E4,5.2388125E3,0E0,0E0,0E0,5.1999767E1,3.7398906E3,8.47955E3,1.9195648E4,4.71958E2,1.3942891E3,7.6243135E3,3.583086E3,1.6361875E3,6.084761E2,0E0,0E0,0E0,0E0,0E0,0E0,0E0,0E0,0E0,0E0,0E0,0E0,0E0,0E0,0E0,0E0,0E0,0E0,0E0,0E0],"parents":[2147483647,0,0,1,1,2,2,3,3,4,4,5,5,6,6,8,8,10,10,11,11,12,12,13,13,14,14,20,20,21,21,22,22,23,23,24,24,25,25,29,29,30,30,31,31,32,32,33,33,34,34,35,35,36,36,37,37,38,38],"right_children":[2,4,6,8,10,12,14,-1,16,-1,18,20,22,24,26,-1,-1,-1,-1,-1,28,30,32,34,36,38,-1,-1,-1,40,42,44,46,48,50,52,54,56,58,-1,-1,-1,-1,-1,-1,-1,-1,-1,-1,-1,-1,-1,-1,-1,-1,-1,-1,-1,-1],"split_conditions":[1E-45,1E-45,1E-45,6.0713E1,7.178E1,1E-45,1E-45,2.468763E0,1.997E3,1.0423428E0,7.4755E1,1.47E1,1.0165E1,8.7E0,1E-45,3.9204127E-1,1.550499E0,4.6294802E-1,1.6420661E-1,7.5393535E-2,3.69E1,2.51E1,3.31E1,1E-45,1E-45,5.87E1,-1.4461595E-1,5.8659273E-1,2.7611345E-1,2.011E3,9.86E1,5.62E1,4.52E1,2.011E3,2.003E3,3.3524E1,1E-45,4.3808E1,1.988E3,9.661695E-3,-6.9494164E-3,2.984263E-1,9.7442195E-2,1.5564446E-2,1.3881996E-1,6.445556E-2,1.8190339E-1,-3.623352E-2,-6.352952E-2,-6.0225423E-2,-1.2204701E-1,2.00396E-2,-3.665817E-2,-4.324113E-2,-7.411237E-2,-1.1632588E-1,-9.500403E-2,-2.5421299E-2,-6.754342E-2],"split_indices":[1,1,1,5,3,1,1,0,0,0,3,8,5,8,1,0,0,0,0,0,7,7,2,1,1,2,0,0,0,0,6,7,7,0,0,5,1,5,0,0,0,0,0,0,0,0,0,0,0,0,0,0,0,0,0,0,0,0,0],"split_type":[1,1,1,0,0,1,1,0,0,0,0,0,0,0,1,0,0,0,0,0,0,0,0,1,1,0,0,0,0,0,0,0,0,0,0,0,1,0,0,0,0,0,0,0,0,0,0,0,0,0,0,0,0,0,0,0,0,0,0],"sum_hessian":[1.178E3,6.9E1,1.109E3,2.7E1,4.2E1,1.49E2,9.6E2,1.3E1,1.4E1,3.3E1,9E0,1.4E1,1.35E2,2.68E2,6.92E2,1E0,1.3E1,6E0,3E0,1E0,1.3E1,1.6E1,1.19E2,7E1,1.98E2,2.65E2,4.27E2,9E0,4E0,4E0,1.2E1,6.6E1,5.3E1,3.3E1,3.7E1,6.2E1,1.36E2,2.49E2,1.6E1,3E0,1E0,1E1,2E0,6.3E1,3E0,4.1E1,1.2E1,1.2E1,2.1E1,6E0,3.1E1,3.4E1,2.8E1,9.8E1,3.8E1,1.79E2,7E1,5E0,1.1E1],"tree_param":{"num_deleted":"0","num_feature":"13","num_nodes":"59","size_leaf_vector":"1"}},{"base_weights":[-1.8356566E0,5.985737E2,-2.7070171E1,7.902462E2,4.334417E2,2.0100807E2,-3.4250378E1,2.7195516E0,1.6613864E0,4.439293E2,1.9423765E-1,2.398458E2,2.4420288E-1,1.3144923E1,-4.2854156E1,3.0751878E-1,1.1680659E0,2.623643E2,9.729888E1,2.8742987E1,-4.5411115E0,-2.810902E1,-5.3342712E1,7.172334E-1,3.3314216E-1,2.7675614E-1,7.529609E-2,5.625264E1,2.301068E1,8.767656E0,-1.29679E1,-1.7013206E1,-3.2542046E1,-4.609517E1,-1.4539981E-1,2.7469218E-1,2.8711159E-2,4.315792E-2,1.2408772E-1,-7.134376E-2,3.8642704E-2,1.2746655E-2,-3.7823316E-2,3.2010157E-2,-5.4078E-2,-6.297891E-2,-1.0322891E-1,-1.2760933E-1,-9.767719E-2],"categories":[1,2,3,4,5,6,7,8,9,10,12,13,14,16,19,21,22,23,25,26,28,29,30,31,33,34,35,36,38,39,41,44,46,47,48,49,50,51,52,53,54,55,56,58,59,60,61,64,65,66,67,69,70,71,72,73,74,75,77,78,79,80,81,82,83,84,85,86,87,88,89,91,93,94,95,96,97,98,99,100,101,102,104,105,107,109,110,111,112,113,114,115,116,117,0,1,2,3,4,5,6,7,8,9,10,11,12,13,14,15,16,17,19,21,22,23,24,25,26,28,29,30,31,33,34,35,36,37,38,39,40,41,44,45,46,47,48,49,50,51,52,53,54,55,56,57,58,59,60,61,63,64,65,66,67,69,70,71,72,73,74,75,76,77,78,79,80,81,82,83,84,85,86,87,88,89,90,91,93,94,95,96,97,98,99,100,101,102,104,105,106,107,108,109,110,111,112,113,114,115,116,117,0,1,3,4,5,7,8,9,10,11,13,15,16,17,18,19,20,21,22,24,26,27,28,29,30,31,32,33,34,35,36,37,38,39,40,41,42,43,44,45,46,47,50,51,52,53,54,55,56,57,58,59,60,61,62,63,64,65,66,67,68,69,70,71,72,73,76,77,78,79,80,81,82,83,84,85,86,87,88,89,90,91,92,93,94,95,96,97,98,99,100,101,102,103,104,106,107,108,109,110,111,112,113,114,115,116,117,0,1,2,3,4,5,6,7,8,9,10,11,12,13,14,15,16,17,18,19,21,22,23,24,25,26,27,28,29,30,31,33,34,35,36,37,38,39,40,41,42,43,44,45,46,47,48,49,50,51,52,53,54,55,56,57,58,59,60,61,62,63,64,65,66,67,68,69,70,71,72,73,74,75,76,77,78,79,80,81,82,83,84,85,86,87,88,89,90,91,93,94,95,96,97,98,99,100,101,102,103,104,105,106,107,108,109,110,111,112,113,114,115,116,117,1,3,4,5,7,8,9,10,13,16,19,21,26,28,30,33,34,35,38,39,46,47,50,51,52,53,55,56,58,59,60,61,64,65,69,70,73,77,79,80,81,82,85,86,87,88,89,91,93,94,97,98,100,101,102,104,107,109,110,111,112,113,114,116,0,1,2,3,4,5,6,7,8,9,10,11,12,13,14,15,16,17,18,19,20,21,22,23,24,25,26,27,28,29,30,31,32,33,34,35,36,37,38,39,40,42,43,45,46,47,48,49,50,51,52,53,55,56,57,58,59,60,61,62,63,64,65,66,67,68,69,70,71,73,74,75,76,77,78,79,80,81,82,85,86,87,88,89,90,91,92,93,94,95,97,98,99,100,101,102,103,104,105,106,107,108,109,110,111,112,113,114,115,116,117,1,4,5,8,9,13,19,33,35,38,39,46,47,51,52,53,55,58,64,65,69,73,77,79,80,81,85,86,93,94,100,101,104,110,111,112,113,0,1,2,3,4,5,6,7,8,9,10,11,12,13,14,15,16,17,18,19,20,21,22,23,24,25,26,27,28,29,30,31,32,33,34,35,36,37,38,39,40,41,42,43,44,45,46,47,50,51,52,53,54,55,56,57,58,59,60,61,62,63,64,65,66,67,68,69,70,71,72,73,75,76,77,78,79,80,81,82,83,84,85,86,87,88,89,90,91,92,93,94,95,96,97,98,99,100,101,102,103,104,105,106,107,108,109,110,111,112,113,114,115,116,117,0,1,2,3,4,5,6,7,8,9,10,11,12,13,14,15,16,17,18,19,20,21,22,23,24,25,26,27,28,29,30,31,32,33,34,35,36,37,38,39,40,41,42,43,44,45,46,47,48,49,50,51,52,53,54,55,56,57,58,59,60,61,62,63,64,65,66,67,68,69,70,71,73,74,75,76,77,78,79,80,81,82,84,85,86,87,88,89,90,91,92,93,94,95,96,97,98,99,100,101,102,103,104,105,106,107,108,109,110,111,112,113,114,115,116,117,5,9,19,35,39,46,47,51,52,53,55,65,69,73,77,79,80,85,86,93,94,100,101,110,111,112,3,7,10,26,28,30,56,59,60,82,88,91,97,98,102,107,109,114,3,26,30,34,56,60,87,88,98,102,107,109,114],"categories_nodes":[0,1,2,3,6,13,14,18,19,22,31,32],"categories_segments":[0,94,202,309,424,488,599,636,751,867,893,911],"categories_sizes":[94,108,107,115,64,111,37,115,116,26,18,13],"default_left":[0,0,0,0,0,0,0,0,0,0,0,1,0,0,1,0,0,0,0,0,0,0,1,0,0,0,0,0,1,0,0,1,1,0,0,0,0,0,0,